tree
version=v4
num_class=1
num_tree_per_iteration=1
label_index=0
max_feature_idx=50
objective=lambdarank
feature_names=Column_0 Column_1 Column_2 Column_3 Column_4 Column_5 Column_6 Column_7 Column_8 Column_9 Column_10 Column_11 Column_12 Column_13 Column_14 Column_15 Column_16 Column_17 Column_18 Column_19 Column_20 Column_21 Column_22 Column_23 Column_24 Column_25 Column_26 Column_27 Column_28 Column_29 Column_30 Column_31 Column_32 Column_33 Column_34 Column_35 Column_36 Column_37 Column_38 Column_39 Column_40 Column_41 Column_42 Column_43 Column_44 Column_45 Column_46 Column_47 Column_48 Column_49 Column_50
feature_infos=[0.0035971223842352629:1] [0.0035971223842352629:1] [0.0035971223842352629:1] [0.022326022386550903:0.75] none [0.0035971223842352629:0.5] [0.073655799031257629:0.35355338454246521] [0.022326022386550903:0.75] none [0.0035971223842352629:0.5] [0.073655799031257629:0.35355338454246521] [0.022326022386550903:0.75] none [0.0035971223842352629:0.5] [0.073655799031257629:0.35355338454246521] [-0.80622577667236328:13.27354907989502] [0:1] [-0.80622577667236328:13.27354907989502] [0:1] [-0.80622577667236328:13.27354907989502] [0:1] [1:278] [1:278] [0.0035971223842352629:1] [0.0035971223842352629:1] [1:278] [1:278] [0.0035971223842352629:1] [0.0035971223842352629:1] [1:278] [1:278] [0.0035971223842352629:1] [0.0035971223842352629:1] [-0.98969072103500366:0.99230766296386719] [0.010309278033673763:129.99983215332031] [0.0036496350076049566:1] [0.0035971223842352629:1] [-244:226] [0.0042735044844448566:93] [1:278] [1:278] [-12.702733039855957:13.014169692993164] [-13415.98828125:4315.45751953125] [-0.80622577667236328:13.27354907989502] [-0.80622577667236328:13.27354907989502] [-1:1] [0:100000000] [0:1] [0:1] [0.0036454047076404095:1] [2:278]
tree_sizes=3505 3508 3489 3491 3496 3470 3457 3479 3479 3481 3476 3492 3495 3489 3499 3488 3477 3465 3464 3494 3491 3489 3491 3469 3491 3474 3464 3480 3465 3462 3507 3501 3475 3538 3501 3489 3460 3474 3472 3451 3472

Tree=0
num_leaves=31
num_cat=0
split_feature=23 32 23 44 32 24 23 36 34 2 23 32 23 46 44 23 38 40 18 42 3 29 0 27 38 28 32 40 1 25
split_gain=1387.01 296.661 120.791 97.9995 83.2625 76.5408 35.394 26.0334 23.2693 23.0529 22.2475 19.5839 18.0081 16.9249 15.0063 14.969 14.4153 12.8261 12.7407 11.5563 13.2582 11.2633 15.5847 10.5672 11.7496 10.4594 10.4314 10.1194 9.65062 9.63913
threshold=0.51972952485084545 0.25049801170825964 0.25762222707271581 -0.0022746205795556303 0.33393286168575292 0.32150723040103918 0.41163456439971929 0.022991543635725979 0.7728363871574403 0.29166667163372045 0.92774429917335521 0.82620134949684154 0.95196154713630687 0.2036198899149895 -0.38302880525588984 0.67612341046333324 0.12556306272745135 41.500000000000007 0.18160676956176761 1.0222547054290774 0.040272912010550506 51.500000000000007 0.0098524559289217013 0.23738207668066028 3.1270161867141728 0.79962825775146495 0.12826185673475268 7.5000000000000009 0.026671408675611023 11.500000000000002
decision_type=2 2 2 2 2 2 2 2 2 2 2 2 2 2 2 2 2 2 2 2 2 2 2 2 2 2 2 2 2 2
left_child=2 3 4 15 16 10 13 -7 -6 17 18 28 27 -4 29 -2 -1 -8 23 -19 -21 -10 -23 -3 -25 -13 -14 -5 -9 -11
right_child=1 5 6 12 8 7 9 11 21 14 -12 25 26 -15 -16 -17 -18 19 -20 20 -22 22 -24 24 -26 -27 -28 -29 -30 -31
leaf_value=0.06368675937422015 0.019247499950587055 -0.07756254125778661 -0.019725150816917447 -0.012499876207492398 -0.084486574324106445 -0.070756280080497377 -0.035771514857512253 0.06132170186770184 -0.13459821934954538 0.012340996438142137 0.062068502386912375 -0.082119618086512899 0.12814579970225456 -0.077241866213735827 -0.20000000000000001 0.055837001377609899 -0.036058154306210281 -0.18817271650495618 0.053313064457347709 0.036145930229815937 -0.12308786739038101 -0.14880970609638355 0.056442579584118149 0.015151430319038414 0.13544559685602928 -0.0001325634437626402 0.090849164906550262 0.088584716761906948 -0.0034916634688984087 0.11127452550007629
leaf_weight=18.856072600741754 161.08828525884019 12.029092138516715 58.025458196323598 10.177835229784248 135.54182145217783 73.067923372465884 328.77821326816047 24.136162771930685 438.92874055907305 59.306510939029977 189.99352447569254 49.160637993423734 253.64314738617395 432.44920387129241 2.9877972011163356 365.50040691198956 62.562136328138877 10.467390616133342 107.14964531108853 8.6200992460653669 13.291559684614183 7.3779172141221334 7.419522866490297 422.20828941433865 8.2788260541274195 22.766018080932554 106.46648587236996 367.2496829245938 476.8906023366726 11.808984521252567
leaf_count=515 5473 669 2088 110 7584 7179 12104 844 25263 609 4136 1554 4174 21544 168 10774 2311 1740 1774 728 1511 1372 450 16987 123 352 1707 8253 11964 123
internal_value=-0.00179771 0.0425637 -0.0754306 0.0775953 -0.107747 0.0106051 -0.0520174 -0.0145431 -0.120844 -0.0312609 0.0325697 -0.00737432 0.101122 -0.0704374 0.0195454 0.0446439 -0.0129577 -0.0416855 0.0223733 -0.101736 -0.0604449 -0.131705 -0.045895 0.0148817 0.0174648 -0.0561693 0.117119 0.0858588 -0.000369383 0.0287693
internal_weight=4246.23 2649.81 1596.42 1264.13 670.686 1385.68 925.735 646.021 589.268 435.261 739.659 572.953 737.537 490.475 74.1033 526.589 81.4182 361.157 549.666 32.379 21.9117 453.726 14.7974 442.516 430.487 71.9267 360.11 377.428 501.027 71.1155
internal_count=154183 76073 78110 30491 37495 45582 40615 21893 34669 16983 23689 14714 14244 23632 900 16247 2826 16083 19553 3979 2239 27085 1822 17779 17110 1906 5881 8363 12808 732
is_linear=0
shrinkage=0.1


Tree=1
num_leaves=31
num_cat=0
split_feature=43 20 23 24 49 47 17 32 33 15 49 17 41 2 45 37 15 15 37 27 16 44 18 17 42 25 24 33 28 32
split_gain=616.089 189.067 120.361 50.909 52.9873 43.5746 39.3614 37.7912 36.2189 35.6557 33.4649 32.1507 32.0907 34.5163 31.5528 31.1395 28.0261 32.8264 29.2831 26.6661 26.1441 25.9092 25.7126 24.7972 24.7569 24.4188 30.0889 23.618 23.6081 24.6334
threshold=-0.20353851467370984 0.24509783089160922 0.30442954599857336 0.38475373387336737 0.91666665673255932 0.0078512667678296583 -0.30422337353229517 0.54528367519378673 0.48229950666427618 2.4770098924636845 0.68469786643981945 -0.78123235702514637 4.9960036108132054e-16 0.013793759513646366 -0.97802269458770741 10.500000000000002 0.91718608140945446 -0.48661419749259943 -6.4999999999999991 0.64213106036186229 0.019846193492412571 -0.5189000368118285 0.0019931307760998611 -0.78123235702514637 2.194143652915955 104.50000000000001 0.095357742160558714 0.17338056862354281 0.74950200319290172 0.12912286818027499
decision_type=2 2 2 2 2 2 2 2 2 2 2 2 2 2 2 2 2 2 2 2 2 2 2 2 2 2 2 2 2 2
left_child=2 6 5 4 9 7 11 -1 28 23 19 -2 13 -8 -15 -13 17 18 21 -11 -14 -16 -17 -3 -7 26 -19 -22 29 -5
right_child=1 3 -4 8 -6 24 12 -9 -10 10 -12 15 20 14 16 22 -18 25 -20 -21 27 -23 -24 -25 -26 -27 -28 -29 -30 -31
leaf_value=-0.039255898522277205 0.10692812954702731 0.19454343746662234 -0.023815486403938931 0.044777618357772248 0.07167747678361934 -0.050215382129293801 -0.12158112509178487 -0.10377911450434248 -0.091133404785198685 -0.1826016734600413 0.031872766018028673 -0.040228943822219955 -0.069743047002987599 0.09016348360519362 0.048198485157958312 -0.19801054079081171 -0.02558397122617467 0.074796602311553967 -0.11177231745952672 -0.010342879403241688 0.023068579750290336 -0.19317275057745936 0.0063734253807029408 0.03837060054425652 0.084361530926029465 -0.038837207765196703 0.0055634983016356549 -8.3788607528866954e-05 0.12148845531233779 -0.0050482022520597263
leaf_weight=121.11782099609263 19.660025715827942 10.224616408348082 2002.4316310434369 133.80992421600968 400.40223895711824 566.38747514563147 23.899260150967166 362.3181405706564 36.477312743663788 9.3339903596788627 324.82288264483213 419.93846559524536 36.072276524966583 37.535313760396093 28.562319894321263 6.2882160218432537 425.06059508910403 65.058762821368873 46.311383435502648 241.47794600110501 1467.9434710636269 5.2672752523794761 291.30354658560827 1803.7817602418363 14.00763513240963 118.45508856873494 1787.3950538887875 629.57579118479043 18.943901501595974 383.88261257857084
leaf_count=5052 26 9 41118 711 764 12673 2756 24646 37 36 730 2393 2716 91 218 344 1850 403 279 749 17182 104 3603 6173 83 3736 21850 3100 26 875
internal_value=0.000328638 0.0138169 -0.0382564 0.0324347 0.0380109 -0.0654383 0.0022394 -0.0876138 0.00528854 0.0323699 0.0106856 -0.0192352 0.00562848 -0.00197175 -0.000834528 -0.022692 -0.00221397 0.00262925 -0.0601086 -0.0167535 0.0146677 0.0106169 0.00205472 0.0392509 -0.0469674 0.00518029 0.00799499 0.0161193 0.0118427 0.00783046
internal_weight=11837.7 8771.48 3066.26 3363.16 2790.04 1063.83 5408.33 483.436 573.114 2389.64 575.635 737.19 4671.14 2537.55 2513.65 717.53 2476.11 2051.05 80.141 250.812 2133.59 33.8296 297.592 1814.01 580.395 1970.91 1852.45 2097.52 536.636 517.693
internal_count=154333 70761 83572 10110 8461 42454 60651 29698 1649 7697 1515 6366 54285 31287 28531 6340 28440 26590 601 785 22998 322 3947 6182 12756 25989 22253 20282 1612 1586
is_linear=0
shrinkage=0.1


Tree=2
num_leaves=31
num_cat=0
split_feature=43 43 23 49 31 41 40 42 20 42 32 31 28 23 19 33 31 34 17 41 49 36 25 31 25 18 49 47 25 41
split_gain=447.906 125.367 100.57 73.4214 50.543 36.1351 34.7985 32.5235 32.2107 32.0978 29.1144 27.2063 27.1257 26.7937 24.9959 23.0172 21.6632 20.6073 20.0619 19.7684 19.6973 19.067 24.1232 29.8243 18.2618 20.5974 18.0536 18.9302 21.9147 18.8105
threshold=-0.17374306917190549 1.0322471261024477 0.45471633970737463 0.91666665673255932 0.45841568708419805 1.0993238091468813 1.5000000000000002 1.2488642930984499 0.068341039121150984 0.30793188512325292 0.41191250085830694 0.33393286168575292 0.60980230569839489 0.048826333135366447 -0.43206395208835596 0.0053043928928673276 0.25403331220149999 3.2499985694885258 -0.78123235702514637 1.8992273807525637 0.23161375522613528 0.29166667163372045 110.50000000000001 0.98233985900878917 96.500000000000014 0.097794234752655043 0.4624756276607514 0.24112395197153094 93.500000000000014 1.3468459844589236
decision_type=2 2 2 2 2 2 2 2 2 2 2 2 2 2 2 2 2 2 2 2 2 2 2 2 2 2 2 2 2 2
left_child=2 5 4 9 7 6 -2 15 12 13 21 -12 -4 -3 -8 20 -9 -7 -6 -13 -1 22 23 26 25 -25 27 -11 29 -29
right_child=1 3 8 -5 18 17 14 16 -10 10 11 19 -14 -15 -16 -17 -18 -19 -20 -21 -22 -23 -24 24 -26 -27 -28 28 -30 -31
leaf_value=-0.08504742872841059 0.069624787614195702 0.16447661105288947 -0.04261533469524955 0.069852015551364124 -0.18341516522462398 -0.1047431881881126 -0.023159957627515507 0.015979315103128049 0.0098977856531603028 0.048897703679428854 0.080585316233443324 -0.016609194919689884 -0.0086615156130325395 0.0067424136860000988 0.0031999584659053283 -0.043007287811590141 -0.063849738352111482 -0.013860969987770356 -0.026114212653793309 -0.13929237655992044 0.013653420034211447 0.04110441794243104 0.056488595734763364 0.085809738932435167 -0.21257688882949549 -0.051882680398071868 0.075314312810931483 -0.017402309308671374 -0.099643145343653441 0.032826765522584199
leaf_weight=621.76097831141669 74.743791864719242 10.86777315661311 430.69351429026574 341.92445452511311 8.2217429690062982 49.433771815150976 395.59919913765043 75.17734976997599 395.59091833909042 113.20043451152742 26.609993810066953 119.41976759629324 518.60985047754366 1186.5276688628364 3967.8648996130796 200.21073993295431 62.05305671133101 50.373292341828346 585.56025249196682 14.757185255177317 20.898904660716653 1069.7001745561138 144.98259867611341 12.869955368340014 5.8968160618096581 69.704036274924874 53.586518699303269 146.81369568128139 20.151060867588967 151.48844236321747
leaf_count=37279 308 14 13105 734 48 142 2894 1957 3667 586 114 629 9060 6853 45695 3838 1943 367 18130 155 84 3542 853 32 56 312 158 806 241 774
internal_value=-0.000610352 0.0115884 -0.0341565 0.0258426 -0.0513155 0.000630868 0.00196903 -0.0652638 -0.0140759 0.0210603 0.0289764 -0.0117836 -0.0240662 0.00817404 0.000810123 -0.0726142 -0.0201179 -0.0588743 -0.0282923 -0.0301023 -0.0818377 0.0326409 0.0200439 0.0108339 -0.0425631 -0.030422 0.0205695 0.0137733 0.00128767 0.0081058
internal_weight=10945.3 8026.52 2918.78 3488.5 1573.88 4538.01 4438.21 980.101 1344.89 3146.58 1949.18 160.787 949.303 1197.4 4363.46 842.871 137.23 99.8071 593.782 134.177 642.66 1788.39 718.694 573.711 88.4708 82.574 485.24 431.654 318.453 298.302
internal_count=154376 65265 89111 15859 63279 49406 48897 45101 25832 15125 8258 898 22165 6867 48589 41201 3900 509 18178 784 37363 7360 3818 2965 400 344 2565 2407 1821 1580
is_linear=0
shrinkage=0.1


Tree=3
num_leaves=31
num_cat=0
split_feature=15 19 47 36 27 17 21 34 24 19 20 40 27 48 24 44 2 29 45 38 28 28 15 0 15 24 34 34 2 40
split_gain=367.218 156.473 74.4894 57.18 30.1058 27.1541 27.3091 25.8335 24.1597 23.5975 23.0294 26.4317 23.6304 24.277 22.6875 21.4693 20.7672 28.262 29.26 20.0922 23.099 19.4741 19.042 22.0776 18.3534 17.9484 17.8171 19.9929 16.7685 19.1674
threshold=-0.17742682993412015 0.83530214428901683 0.042701087892055518 0.75000000000000011 0.18338264524936679 5.9593553543090829 67.500000000000014 1.2094119787216189 0.25762222707271581 2.0609476566314702 0.18024389445781711 44.500000000000007 0.58348822593688976 0.011167780961841347 0.2656796276569367 3.380466222763062 0.29166667163372045 7.5000000000000009 0.016017556190490726 0.88859337568283092 0.058667084202170379 0.062378404662013061 -0.3472944945096969 0.41666667163372045 -0.17182197421789167 0.24796693772077563 0.99999997019767772 2.1999996900558476 0.042572464793920524 41.500000000000007
decision_type=2 2 2 2 2 2 2 2 2 2 2 2 2 2 2 2 2 2 2 2 2 2 2 2 2 2 2 2 2 2
left_child=2 10 4 5 7 8 -7 -1 -3 22 11 28 13 -13 -10 19 17 -6 -19 20 -12 -11 23 -4 -16 -22 -21 -28 -2 -30
right_child=1 3 9 -5 16 6 -8 -9 14 21 15 12 -14 -15 24 -17 -18 18 -20 26 25 -23 -24 -25 -26 -27 27 -29 29 -31
leaf_value=-0.078420154541340312 0.015933466027736782 0.035135977430539679 -0.024753561251135727 0.068407910274904477 -0.065960810323767827 -0.15520479612723026 0.0041982764971978063 -0.026679847231842344 -0.14982611515540611 -0.15898591825302325 0.10810875608766424 -0.021349977869403475 0.013828822491910081 -0.18724238236207272 0.10002296620989821 -0.10194758194154635 -0.0019019509590676338 -0.033647891268375613 0.029672247070512598 0.048744859371016962 -0.18657900141593819 0.036227972836919808 -0.0010046270863777217 0.08662280200465991 0.00024507079483038853 -0.026356330138090148 0.0065793606978269527 0.045495658998311241 -0.0093895847121621256 -0.073133096587793184
leaf_weight=291.85699635581113 262.78643061872572 1551.4569766679779 921.36619908502325 440.28099106252193 254.09936502890196 15.320790404453872 36.006746076978743 144.16644196573179 9.4366310066543502 5.306084004463627 12.001030903309582 60.031921044923365 1249.8911335685989 10.341080410405992 20.004213252104819 15.072152253240345 205.59367633075453 911.33555629325565 79.330488958163187 208.19139192812145 7.5939991623163214 138.40403668768704 721.90884906542487 18.148337602615356 235.03981934022158 88.138503201305866 567.70151808578521 172.01077258121222 1676.5517149516381 48.538522050715983
leaf_count=19028 4023 6767 8392 1118 8651 105 242 6448 102 80 33 2065 18467 382 65 64 962 48984 1395 697 51 603 9357 64 961 311 1432 507 12166 649
internal_value=0.000939939 0.0149169 -0.0243764 0.03599 -0.0382722 0.0283462 -0.0433821 -0.0613128 0.0303736 -0.0098551 0.00381192 -0.000313845 0.0106543 -0.0457273 0.00243734 0.0165592 -0.0313455 -0.0362086 -0.0285773 0.0182512 -0.0226714 0.0290203 -0.0132178 -0.0226021 0.00807109 -0.039066 0.0229022 0.0156289 -0.00759846 -0.0111831
internal_weight=10377.9 6686.4 3691.52 2307.55 1886.38 1867.27 51.3275 436.023 1815.94 1805.13 4378.85 3308.14 1320.26 70.373 264.481 1070.71 1450.36 1244.77 990.666 1055.64 107.734 143.71 1661.42 939.515 255.044 95.7325 947.904 739.712 1987.88 1725.09
internal_count=154171 50207 103964 9360 85468 8242 347 25476 7895 18496 40847 37752 20914 2447 1128 3095 59992 59030 50379 3031 395 683 17813 8456 1026 362 2636 1939 16838 12815
is_linear=0
shrinkage=0.1


Tree=4
num_leaves=31
num_cat=0
split_feature=19 23 23 19 28 2 47 45 36 39 46 39 40 42 5 38 41 41 41 41 29 33 29 44 47 36 19 17 28 31
split_gain=344.953 119.437 107.66 44.1989 31.6764 31.2761 25.2283 22.5751 22.1137 30.7855 27.5972 21.5387 20.0483 18.75 17.3812 21.532 19.238 16.9478 34.8691 16.8392 16.6383 16.3744 16.2338 15.3292 14.7812 22.9158 21.122 16.5498 26.266 23.0971
threshold=-0.12469395250082015 0.95465964078903209 0.37882125377655035 1.015014171600342 0.11669909209012987 0.012270400300621988 0.11767769604921342 -0.1035308428108692 0.021980676800012592 59.500000000000007 0.34787636995315557 46.500000000000007 46.500000000000007 1.7323906421661379 0.010695492848753931 1.2007462978363039 -0.26547534763813013 -1.4424663186073301 -2.1721128225326534 -0.44774419069290156 5.5000000000000009 -0.4534632116556167 54.500000000000007 -0.40228876471519465 0.083301503211259856 0.11805555596947671 -0.15928907692432401 -0.78123235702514637 0.66606715321540844 0.32562595605850225
decision_type=2 2 2 2 2 2 2 2 2 2 2 2 2 2 2 2 2 2 2 2 2 2 2 2 2 2 2 2 2 2
left_child=2 4 5 -3 6 -1 19 -7 22 24 21 13 -13 -5 15 16 -12 18 20 -2 -6 -11 23 -4 -10 26 -26 -27 29 -29
right_child=1 3 8 11 17 7 -8 -9 9 10 14 12 -14 -15 -16 -17 -18 -19 -20 -21 -22 -23 -24 -25 25 27 -28 28 -30 -31
leaf_value=-0.12164389843115903 -0.12462393898927403 0.02097322982832648 0.057334218661832886 0.073720620293316247 -0.081444199336597994 0.0088501999377253535 0.025819280371268762 -0.04997736023670217 -0.023191761061721966 0.067536565848533264 -0.16286084548697344 -0.15416587325557005 0.035327226022605566 0.034935489748225711 0.042954782493299065 -0.094908101355631547 0.020204042178860803 0.002371168825025801 -0.083192676995600526 -0.009672428114451681 0.080316376867717337 -0.13146489943866421 -0.011199730462168158 -0.071081096546149539 0.012834621907515366 0.060850069473585705 -0.080836435609313168 -0.055156611867661222 -0.062149469065387208 -0.0067495427489081454
leaf_weight=57.294883982976899 16.048692295327783 855.70800596824847 9.9751805602572841 457.661736311391 8.3891496993601304 70.576579421991482 958.79801859334111 861.62034092471004 1030.9892763905227 5.3035690260585424 5.9807702661491922 5.674680918455123 346.70248711179011 171.29570863954723 199.22095068986528 21.181239099707454 142.90112571255304 2634.266701360466 64.524217765778303 61.88012819015421 26.270609758794308 18.762367494637147 107.77040414174553 136.48066602251492 530.54121929826215 26.985018707811832 25.216787655837834 112.33567948546261 121.57302100397646 804.32012779964134
leaf_count=11969 668 3767 260 1113 35 660 5916 39169 19684 61 347 54 1704 474 2967 637 3531 28118 198 1058 52 861 8141 10452 5388 62 400 823 544 4805
internal_value=0.000347266 0.0166759 -0.0209998 0.0375841 0.00648828 -0.0499312 0.021372 -0.0455235 -0.0123237 -0.00995831 0.0161484 0.0520685 0.0322756 0.0631575 0.0229102 -0.000571106 0.0128501 0.000843279 -0.0397366 -0.0333456 0.0411634 -0.0876096 -0.0406578 -0.0623347 -0.0138306 -0.00787654 0.00858442 -0.0164648 -0.0184743 -0.0126818
internal_weight=9896.25 5607.22 4289.03 1837.04 3770.18 989.492 1036.73 932.197 3299.54 3045.31 393.35 981.335 352.377 628.957 369.284 170.063 148.882 2733.45 99.184 77.9288 34.6598 24.0659 254.226 146.456 2651.96 1620.97 555.758 1065.21 1038.23 916.656
internal_count=153918 43157 110761 7112 36045 51798 7642 39829 58963 40110 8404 3345 1758 1587 7482 4515 3878 28403 285 1726 87 922 18853 10712 31706 12022 5788 6234 6172 5628
is_linear=0
shrinkage=0.1


Tree=5
num_leaves=31
num_cat=0
split_feature=23 23 19 49 34 47 16 41 42 43 29 46 46 15 46 17 42 41 41 5 43 17 17 17 31 1 29 2 15 46
split_gain=321.029 87.2158 79.2332 37.6322 32.8314 25.7466 24.8117 24.9432 23.5043 21.6865 25.8046 20.6714 25.3399 19.5138 17.9187 16.8872 16.653 16.022 25.3028 15.6341 15.6275 15.0981 14.0905 20.8076 14.09 17.568 16.9324 16.4658 16.1919 14.6477
threshold=0.76673254370689403 0.41163456439971929 1.037941634654999 0.57499998807907116 0.099999997764825835 0.010718572884798052 0.22271825373172763 -3.2413005828857417 0.037915699183940894 5.0499820709228525 120.50000000000001 0.14574968069791797 0.13430698961019519 1.6673670411109927 0.091157373040914549 -0.15101346373558042 0.02691583521664143 3.2543416023254399 2.3845686912536626 0.0049630540888756522 -0.51908332109451283 -0.78123235702514637 -0.6540144383907317 -0.5580516755580901 0.81801283359527599 0.020204081200063232 96.500000000000014 0.042572464793920524 4.6387093067169198 0.47385112941265112
decision_type=2 2 2 2 2 2 2 2 2 2 2 2 2 2 2 2 2 2 2 2 2 2 2 2 2 2 2 2 2 2
left_child=1 4 14 8 -1 -6 -5 -8 16 15 -11 12 -3 -9 -2 -10 -4 18 19 -17 -7 -16 -23 -24 26 -26 -25 -27 -28 -29
right_child=2 11 3 6 5 20 7 13 9 10 -12 -13 -14 -15 21 17 -18 -19 -20 -21 -22 22 23 24 25 27 28 29 -30 -31
leaf_value=0.083758189735229596 -0.21106174841631226 0.0040428314774305085 -0.01124527483434045 0.11528337627210046 -0.062564885731404826 -0.059063190104322864 -0.033264298417252577 0.022877667819877729 0.1280174404784036 -0.13356983914603376 0.057646247903581888 -0.01368322014281117 0.098492466534127771 0.057796179267203776 0.12523590036638824 -0.18820325469669985 -0.21434500160487696 0.10511470050333445 -0.16399659366857988 0.027982157801245411 -0.0255096801484836 -0.077083571257278674 0.074873918417915603 0.0028439345422405639 -0.11473409863273434 0.085896228534787969 -0.079844302713544743 -0.014818850883215249 0.12854411631829213 0.017047669981918461
leaf_weight=20.376268808962777 3.7345768897794178 243.86166690359823 146.80452665686607 52.229527350515127 476.14984808454756 179.60373717453331 39.560016133822501 221.68010661751032 17.279244470410049 17.687167750671509 11.743166358210145 2707.2385278549045 32.150601930916309 575.56952285394073 10.969078928232191 3.3636685102246693 4.1513042291626325 25.761067832354456 7.0309910536743692 608.62596408557147 611.09664376440924 19.478366412222385 46.190521888434887 1780.900329929078 10.483187663368879 32.220224014483392 39.539377956767567 161.44167502271011 4.1168619734235099 1354.1823380771093
leaf_count=204 88 1804 1061 135 40667 2599 237 577 72 166 73 53030 226 1704 22 71 44 58 73 3016 17631 97 157 18127 401 404 1529 1391 27 8494
internal_value=-0.000100721 -0.0204126 0.0165972 0.0340637 -0.0421685 -0.0441939 0.0484146 0.044241 0.018919 0.0267233 -0.0572716 -0.0110253 0.0150446 0.0480869 0.00786472 0.0304571 -0.0168305 0.0278426 0.0246269 0.0267939 -0.0331312 0.00810106 0.00772848 0.00821024 0.0073 0.0142833 0.00133565 0.0151571 -0.0601929 0.0136533
internal_weight=9465.22 4270.48 5194.74 1731.49 1287.23 1266.85 889.039 836.81 842.447 691.491 29.4303 2983.25 276.012 797.25 3463.26 662.061 150.956 644.782 619.021 611.99 790.7 3459.52 3448.55 3429.07 3382.88 1558.33 1824.56 1547.84 43.6562 1515.62
internal_count=154185 116161 38024 7287 61101 60897 2653 2518 4634 3529 239 55060 2030 2281 30737 3290 1105 3218 3160 3087 20230 30649 30627 30530 30373 10690 19683 10289 1556 9885
is_linear=0
shrinkage=0.1


Tree=6
num_leaves=31
num_cat=0
split_feature=24 31 35 49 23 19 47 34 1 41 24 27 23 0 25 19 42 33 42 18 49 44 49 24 49 48 28 49 46 27
split_gain=283.397 93.6926 73.7655 38.4831 36.11 28.7697 20.8939 18.7602 18.0002 17.6638 17.6149 17.0044 16.9731 19.1046 15.0172 15.0417 17.4343 14.8521 19.9359 13.3321 13.324 14.7901 14.6836 23.8116 17.8749 13.1761 12.7651 16.8594 12.5832 26.1372
threshold=0.32007193565368658 0.94103157520294201 0.027402402833104137 0.91666665673255932 0.4561807662248612 0.54388746619224559 0.32553580403327947 3.3333328962326054 0.010811126790940763 1.5029237270355227 0.057205790653824813 0.37378457188606268 0.042900964617729194 0.048809524625539787 2.5000000000000004 2.6537098884582524 -1.4658233523368833 0.48229950666427618 0.13171359896659854 0.015126638114452364 0.42236842215061193 1.9027044773101809 0.4624756276607514 0.017021585255861286 0.47348484396934515 0.014493567869067194 0.042900964617729194 0.72777777910232555 0.37950898706913 0.94599455595016491
decision_type=2 2 2 2 2 2 2 2 2 2 2 2 2 2 2 2 2 2 2 2 2 2 2 2 2 2 2 2 2 2
left_child=1 8 25 6 5 -4 7 28 -1 -9 11 -10 -7 -14 17 -16 -17 18 -6 -15 21 -13 23 -22 -24 -2 -26 -28 29 -3
right_child=2 3 4 -5 14 12 -8 9 10 -11 -12 20 13 19 15 16 -18 -19 -20 -21 22 -23 24 -25 26 -27 27 -29 -30 -31
leaf_value=-0.14857650204868192 -0.06263751921424289 -0.18245376844848205 -0.034924026386856426 0.072372230546133162 0.082489994672463485 0.1206191731612139 0.038493789801889326 -0.16226611046566125 -0.15140479905877649 0.024173671233502721 0.0038504174171654533 0.027480829714397456 -0.10594500360688822 -0.1120204691095274 -0.013244562408595287 0.12870729864603736 0.0094589973562958507 -0.075015348340450524 0.0074707678939795411 0.028669527798152079 0.039525401246069382 0.083044867496239905 0.094601670419390549 -0.17565679315440444 0.023775137374190194 0.098085551857981831 -0.020447684656573022 -0.21059497016863121 0.021962716973903073 0.0057299468719504455
leaf_weight=7.4788968116044989 399.82901873148512 9.2842068923637253 1051.5528859696351 232.66725024394691 41.232684869319201 13.703358446247874 893.45852538524196 11.415011733304711 5.5090870503336182 9.1590770063921791 3142.5056475201854 298.98560399748385 14.141194724943487 7.270198624348267 1766.2838984890841 14.450774008408187 80.881985801970586 18.21934312582016 251.43050687760115 91.585215930826962 9.5563242230564374 57.045555781107396 23.103639012202621 11.134084622375665 83.290627661626786 5.1666212960844851 47.220443293452263 5.1738629899919024 556.82030182657763 35.997640439774841
leaf_count=807 47892 208 29231 710 133 69 3469 180 96 61 34017 2671 510 115 26982 37 522 76 758 476 56 290 76 136 477 150 254 48 3446 336
internal_value=0.000851644 0.0154386 -0.0202761 0.0345048 -0.0154038 -0.0295 0.0286936 0.0146316 0.00640505 -0.0792677 0.00671972 0.023386 0.0155169 0.00277092 -0.00775869 -0.0111563 0.0275349 0.0125865 0.0180401 0.0183227 0.0251842 0.0363836 0.00296798 -0.0762701 0.0132928 -0.0605871 -0.000551956 -0.0392245 0.0178402 -0.0328537
internal_weight=9195.55 5439.81 3755.75 1748.8 3350.75 1178.25 1516.13 622.676 3691 20.5741 3683.52 541.019 126.7 112.997 2172.5 1861.62 95.3328 310.883 292.663 98.8554 535.51 356.031 179.479 20.6904 158.789 404.996 135.685 52.3943 602.102 45.2818
internal_count=154289 47338 106951 8410 58909 30401 7700 4231 38928 241 38121 4104 1170 1101 28508 27541 559 967 891 591 4008 2961 1047 192 855 48042 779 302 3990 544
is_linear=0
shrinkage=0.1


Tree=7
num_leaves=31
num_cat=0
split_feature=31 16 15 28 49 27 31 29 42 49 16 29 45 41 2 17 46 16 24 48 28 49 42 20 20 20 27 15 31 46
split_gain=282.683 81.4839 73.3731 38.3843 33.9969 31.5097 21.2623 21.0513 18.2273 17.7879 17.6556 20.0943 17.3838 17.1392 18.0832 16.2306 15.7597 15.5236 15.2419 18.2331 21.9987 25.6045 14.8328 14.7921 21.4745 16.9546 17.4839 14.4452 22.1437 14.3768
threshold=0.82058250904083263 0.029231674037873748 1.5858222842216494 0.1237604320049286 0.91666665673255932 0.83789125084877025 0.49907062947750097 74.500000000000014 -54.368934631347649 0.16812169551849368 0.1888106390833855 10.500000000000002 -0.012608495075255631 0.384160727262497 0.016001024283468727 -0.35574960708618159 1.6729487776756289 0.0034521447960287337 0.10657818242907525 0.2282563000917435 0.042900964617729194 0.28130306303501135 -0.25721326470375055 0.22168803215026858 0.10006858780980112 0.1425069943070412 0.81801283359527599 1.4150182604789736 0.93109697103500377 0.32016818225383764
decision_type=2 2 2 2 2 2 2 2 2 2 2 2 2 2 2 2 2 2 2 2 2 2 2 2 2 2 2 2 2 2
left_child=1 5 3 10 8 6 17 22 -4 -10 11 -2 -8 -3 15 -15 -16 -1 19 -12 27 -22 -7 24 -18 -26 -27 28 -21 -29
right_child=2 13 4 -5 -6 7 12 -9 9 -11 18 -13 -14 14 16 -17 23 -19 -20 20 21 -23 -24 -25 25 26 -28 29 -30 -31
leaf_value=-0.069454461615568633 -0.15188849101956267 -0.011991939288752116 -0.085986158191756049 0.0020255184997607983 0.075888565850355721 0.046343352698139113 -0.054216986991998298 -0.11952100052447674 -0.071242034379235347 0.035857726427715828 0.060613199711913014 0.018012108750131841 -0.014571654597452535 0.16822990333875629 0.054954864364065228 -0.11993368371782771 0.0057753751882624682 -0.040067256353805328 0.063019848856639957 0.037094950519876928 -0.13934941763584144 0.040941994861150632 -0.084644849327749905 0.040996712061472734 -0.073080706089308362 -0.031869367573542987 0.077880284713330528 0.093011752643212431 -0.21891361916841154 -0.16292223753199364
leaf_weight=249.31129801413044 7.0419188663363448 2315.3187637657393 12.824110573157666 1780.2116605633637 222.17472061514854 84.775691542308778 145.27057264500763 10.010856092208995 15.774125961586831 918.33060322667006 76.038800078444183 607.03976043220609 463.43762842728756 2.1881713515613255 60.953943287953734 18.311190066626295 666.70014970353805 644.27028956927825 194.79343581944704 4.8298047473654213 8.8049792461097223 74.74884395673871 9.626558674965052 89.524180430918932 67.968576340936124 58.784278160892427 19.275093311443925 6.830837673507629 11.244862182065843 3.2339957933872938
leaf_count=25444 34 28323 94 17227 704 1770 4917 849 217 3893 377 5812 20635 24 322 735 6345 33875 536 34 103 291 258 235 475 274 55 22 129 38
internal_value=-0.000262852 -0.0162879 0.0196702 0.0108167 0.0406836 -0.0347554 -0.0384474 0.018364 0.0324235 0.0340491 0.0265518 0.0160638 -0.0240332 -0.00729376 0.00376422 -0.0891741 0.00574217 -0.0482664 0.0434772 0.0229811 -0.00310535 0.0219427 0.032986 0.00241748 -0.00183212 -0.0365646 -0.00476904 -0.0831704 -0.141993 0.010776
internal_weight=8849.65 4905.73 3943.92 2774.82 1169.1 1606.7 1502.29 104.413 946.929 934.105 994.607 614.082 608.708 3299.02 983.706 20.4994 963.206 893.582 380.526 185.732 109.693 83.5538 94.4023 902.252 812.728 146.028 78.0594 26.1395 16.0747 10.0648
internal_count=154047 124536 29511 24603 4908 87748 84871 2877 4204 4110 7376 5846 25552 36788 8465 759 7706 59319 1530 994 617 394 2028 7384 7149 804 329 223 163 60
is_linear=0
shrinkage=0.1


Tree=8
num_leaves=31
num_cat=0
split_feature=24 31 2 27 15 24 43 38 48 41 43 0 41 20 21 25 41 20 34 41 34 34 38 17 38 39 40 39 19 20
split_gain=211.302 72.3467 66.4212 26.9452 24.1106 21.2052 20.9992 21.2265 18.0574 17.8221 16.4109 15.6433 15.5212 14.5552 14.1837 17.152 13.8012 14.2663 13.6877 17.2291 13.1744 17.2886 13.1085 12.963 12.8342 12.3573 27.0025 12.2362 12.1719 12.8237
threshold=0.31827457249164587 0.93512505292892467 0.060661764815449722 0.99367064237594616 -0.51908332109451283 0.32150723040103918 -0.0757438689470291 1.900617301464081 0.0090333507396280783 -1.1738952398300169 0.56204748153686535 0.29166667163372045 -1.4139664769172666 0.02895644307136536 48.500000000000007 62.500000000000007 1.0208961367607119 0.18699100613594058 0.38115406036376959 -0.99488314986228932 0.12499999627470972 0.16711709648370746 0.90889328718185436 1.2961817979812624 0.74087396264076244 120.50000000000001 112.50000000000001 29.500000000000004 -0.45574413239955897 0.015981710515916351
decision_type=2 2 2 2 2 2 2 2 2 2 2 2 2 2 2 2 2 2 2 2 2 2 2 2 2 2 2 2 2 2
left_child=1 10 8 6 11 -6 7 -3 13 12 16 -4 14 -2 -8 -16 17 -1 24 -20 -7 -22 -19 -14 -11 26 -21 -15 29 -12
right_child=2 3 4 -5 5 20 9 -9 -10 18 28 -13 23 27 15 -17 -18 22 19 25 21 -23 -24 -25 -26 -27 -28 -29 -30 -31
leaf_value=-0.004943338658993812 -0.052946377503177738 -0.16763335144442831 -0.036137514872187998 0.050304730243488562 -0.15963174587592854 0.056552696222847032 0.048196431417941527 0.095254965385674739 -0.023219059202443215 0.17933201354675843 0.024388441145689596 0.005403607754323702 0.054475463302305294 -0.085289369275414417 -0.21545443026928829 -0.01250995451028461 -0.1713987587632422 -0.20236364212285635 0.094648974616431181 0.024065981162093884 -0.07667269415082803 -0.0023335541145293975 0.027694543765910656 -0.13156691837963636 -0.19908568427845724 0.059890858092368542 -0.2303539700694878 0.034456000410771369 0.013792308074776488 -0.052951756390291517
leaf_weight=1380.4400083838264 602.74712381826248 10.967786645516751 421.34766690665856 501.70850639650598 8.6206671330146474 37.111821243073791 41.249145738780499 4.2660649288445702 480.24416754755657 1.1115956306457508 34.489067637361586 115.49979973584414 4.8290641363710192 11.286210005637257 4.5655715363100162 47.402473468566313 4.7926349230110636 2.5106776654720298 38.617772727273405 899.22464508796111 31.840160964988172 1791.5140826113056 183.13499961979687 16.687784055713564 4.6261278798338026 100.25446628313512 4.1910355100408188 34.988428065553308 1755.6817918596789 56.658943577669561
leaf_count=24030 57760 256 6421 1930 177 362 164 35 17851 2 157 346 39 809 53 469 45 35 122 4625 350 20855 784 156 211 815 80 1835 12739 242
internal_value=0.000874544 0.0139036 -0.0179121 0.0308972 -0.00852125 -0.00315621 0.0226315 -0.0940145 -0.0379194 0.0241598 0.00555173 -0.0272002 -0.0132577 -0.048797 0.0044132 -0.0303393 -0.00196175 -0.00144322 0.0282561 0.029104 -0.00243116 -0.00363169 0.0245832 -0.0898131 -0.125773 0.0265821 0.0228857 0.00525056 0.0119425 -0.0236874
internal_weight=8632.61 5097.41 3535.2 1679.7 2405.93 1869.09 1177.99 15.2339 1129.27 1162.76 3417.71 536.847 114.734 649.022 93.2172 51.968 1570.88 1566.09 1048.03 1042.29 1860.47 1823.35 185.646 21.5168 5.73772 1003.67 903.416 46.2746 1846.83 91.148
internal_count=153755 46989 106766 8957 28511 21744 7027 291 78255 6736 38032 6767 881 60404 686 522 24894 24849 5855 5642 21567 21205 819 195 213 5520 4705 2644 13138 399
is_linear=0
shrinkage=0.1


Tree=9
num_leaves=31
num_cat=0
split_feature=31 16 17 20 49 19 17 44 17 19 19 48 49 19 31 16 29 16 19 18 46 15 17 19 27 18 38 19 43 15
split_gain=192.622 79.0097 41.7083 35.194 29.5648 21.5887 18.6922 20.4447 19.0523 19.0161 18.9695 33.623 18.6808 24.9762 16.7551 16.7267 16.5502 16.0909 17.6503 19.7746 14.7914 26.3839 15.9812 17.2333 15.5413 14.7214 14.4739 14.2357 13.6335 15.233
threshold=0.8224468231201173 0.014493567869067194 1.6789888739585879 0.47295320034027105 0.1925817281007767 -0.44909752905368799 -0.034654522314667695 -0.047364110127091401 1.4866544604301455 1.1220827102661135 0.8115307390689851 0.042741566896438606 0.43677249550819403 1.9027044773101809 0.88868904113769542 0.040237350389361388 7.5000000000000009 0.3269536048173905 0.70714670419693004 0.49310311675071722 2.3333299160003667 2.9405127763748173 1.2609333395957949 3.4801909923553471 0.76098123192787182 0.4885042160749436 1.2779866456985476 -0.44236634671688074 5.5647568702697763 7.6904811859130868
decision_type=2 2 2 2 2 2 2 2 2 2 2 2 2 2 2 2 2 2 2 2 2 2 2 2 2 2 2 2 2 2
left_child=1 4 6 12 -1 15 7 9 20 10 -2 -12 13 17 -10 -3 -17 18 -4 -20 21 22 24 -24 -8 -14 -22 -7 -29 -30
right_child=2 5 3 -5 -6 27 8 -9 14 -11 11 -13 25 -15 -16 16 -18 -19 19 -21 26 -23 23 -25 -26 -27 -28 28 29 -31
leaf_value=-0.047029105082257494 -0.0054252684069233366 -0.050582631437127767 -0.015443946446184667 0.049322926350259644 0.0058720392272944774 0.057172537814062008 0.10406966538189527 -0.20620593305576343 -0.21269868995650909 0.017627239715685489 -0.0036110797803740472 -0.14065743727828192 -0.10998911562783881 -0.09448010159259046 -0.022085164420399869 -0.011068903630933258 -0.087787815968569827 0.087966602627489648 0.072334722989075645 -0.14187620935413001 0.039619841452046806 -0.11265742056926549 0.058297535756852162 -0.075969047074488913 0.0098029108548930623 0.00097039592577455075 -0.090389892461161955 -0.0052879604222189997 0.063955884945790062 -0.1722276125313153
leaf_weight=807.29199227696517 448.29107657959685 165.07118987909053 58.278705183183774 593.31631599133834 121.55054202023894 38.012431737268344 17.731132997199893 4.8991869213059536 4.9565009754151097 325.69482279242948 43.42200291226618 30.460041186772287 12.525690907612441 13.718218920752404 66.243438326288015 587.21561674680561 29.533016731031239 60.226145572494715 67.270967677235603 4.6044381558895102 329.04979386879131 16.519217930734158 120.98488036496565 10.37958639860153 1281.8417424587533 263.31936722341925 8.7919351179152709 2881.6166209466755 43.73577966587618 2.912628799211233
leaf_count=67973 7693 3953 681 2347 515 510 43 119 94 2588 635 228 104 181 419 4621 460 213 399 102 1668 80 589 73 10134 1197 35 46166 315 82
internal_value=-0.000426765 -0.0139971 0.0163525 0.0330362 -0.0401063 -0.00752683 0.00974328 -0.00251238 0.0153728 -0.00133539 -0.0131629 -0.0601125 0.0129022 0.0358381 -0.0353545 -0.0223098 -0.0147426 0.0452284 0.0254522 0.0586121 0.0173959 0.0129984 0.014449 0.0476886 0.0110891 -0.0040681 0.0362365 -0.0036305 -0.0044198 0.0492091
internal_weight=8459.47 4676.94 3782.53 1073.26 928.843 3748.1 2709.27 852.767 1856.5 847.868 522.173 73.882 479.944 204.098 71.1999 781.82 616.749 190.38 130.154 71.8754 1785.3 1447.46 1430.94 131.364 1299.57 275.845 337.842 2966.28 2928.27 46.6484
internal_count=154217 124595 29622 5224 68488 56107 24398 11263 13135 11144 8556 863 2877 1576 513 9034 5081 1395 1182 501 12622 10919 10839 662 10177 1301 1703 47073 46563 397
is_linear=0
shrinkage=0.1


Tree=10
num_leaves=31
num_cat=0
split_feature=24 20 47 24 31 20 38 49 31 24 17 25 28 44 28 2 27 22 18 27 45 34 19 20 19 45 6 2 30 19
split_gain=188.369 64.9081 45.2615 37.5026 28.8343 19.3625 18.8583 18.5784 15.2106 15.2267 14.2565 17.7416 14.8398 15.9025 18.8425 15.9175 13.5037 13.486 13.153 12.7154 12.6192 17.4704 12.3467 12.2542 15.6371 11.9846 16.5104 13.5302 14.2478 11.8171
threshold=0.3296902477741242 0.19442501664161685 0.043732922524213798 0.085801929235458388 0.20461190491914752 0.0016940948553383353 0.14213564246892932 0.91666665673255932 0.84887903928756725 0.3429402112960816 -0.34989742934703821 13.500000000000002 0.085801929235458388 0.38674226403236395 0.12248931080102922 0.020204081200063232 0.93033367395401012 35.500000000000007 0.089348740875720992 0.19963768124580386 0.30424097180366522 1.69059693813324 -0.53220224380493153 0.094048019498586669 0.010020460002124311 -0.27688954770565027 0.34143586456775671 0.087121214717626586 12.500000000000002 -0.55289265513420094
decision_type=2 2 2 2 2 2 2 2 2 2 2 2 2 2 2 2 2 2 2 2 2 2 2 2 2 2 2 2 2 2
left_child=1 3 4 5 -2 -1 -4 19 9 -8 -7 22 16 15 23 18 -13 -6 -14 -3 21 25 -12 24 -15 26 27 28 -11 -23
right_child=2 7 6 -5 17 10 8 -9 -10 20 11 12 13 14 -16 -17 -18 -19 -20 -21 -22 29 -24 -25 -26 -27 -28 -29 -30 -31
leaf_value=-0.1971119705401583 -0.058196243786503225 -0.20790280481629694 0.06615566412242499 -0.0036008418353440695 -0.015782754506608095 0.084099910976865311 -0.060483091653147907 0.056736552268967393 0.004999420758483755 0.14488245164584812 0.10058946124905498 0.09967226070549455 -0.12584160336641712 -0.031581270949351023 -0.19029510354197254 0.022910810940388087 0.03009382275575221 -0.039239580623534533 0.15947678997960804 0.024148464050920158 0.068718738829302115 -0.13346145449465002 -0.12031816363003252 0.021290913451196613 -0.22152747139431891 -0.0071731851213689803 0.087763235494474914 -0.072063202231903156 -0.054966067726769631 -0.037048516369503848
leaf_weight=4.0291388351470223 298.23852148035076 2.3642191784456363 34.574871579650789 2028.7309512135107 770.94617757084779 36.098615354858339 67.969391169957817 188.58601531758904 586.15917967190035 6.3841757811605921 3.0834640115499523 30.12080838624388 11.911302988650275 24.25076014362276 7.0015886323526493 284.06840689131059 377.23098775208928 359.34401090291794 1.8692778460681427 1948.0787971399259 19.131845209747553 17.87253268994391 14.096944872289894 36.174416558817029 5.2772095631808034 1048.2701294336002 8.7943829298019391 78.13012607768178 8.085252571385352 44.034431477077305
leaf_count=116 25720 27 319 31350 21263 211 854 740 3585 26 8 156 539 255 109 2730 2929 38674 2 9107 54 193 104 214 80 13405 47 611 203 567
internal_value=0.00129922 0.0135853 -0.0170604 0.0037415 -0.0305381 0.021576 -0.00702956 0.0267651 -0.00837205 -0.0144073 0.0226361 0.0198455 0.0220655 0.00758409 -0.0343461 0.0178191 0.0352387 -0.0232402 -0.0871394 0.0238672 -0.0118626 -0.0131351 -0.0806706 -0.0177274 -0.0655283 -0.0103486 -0.0431776 -0.0556133 0.0332107 -0.0648829
internal_weight=8350.91 5002.97 3347.94 2863.94 1428.53 835.213 1919.41 2139.03 1884.83 1298.67 831.184 795.085 777.905 370.553 72.704 297.849 407.352 1130.29 13.7806 1950.44 1230.7 1211.57 17.1804 65.7024 29.528 1149.66 101.394 92.5996 14.4694 61.907
internal_count=154198 48677 105521 38803 85657 7453 19864 9874 19545 15960 7337 7126 7014 3929 658 3271 3085 59937 541 9134 15106 15052 112 549 335 14292 887 840 229 760
is_linear=0
shrinkage=0.1


Tree=11
num_leaves=31
num_cat=0
split_feature=43 47 28 0 20 46 31 17 29 36 17 17 43 34 42 18 41 41 25 38 31 21 21 20 47 29 34 28 18 20
split_gain=150.135 50.1856 28.7151 25.401 21.2608 22.8109 17.7635 21.1292 22.277 15.4859 15.3985 15.1408 15.0979 14.4059 13.6941 14.7582 13.3744 20.1407 21.9592 17.25 18.5715 14.9092 12.9274 17.178 18.7067 13.994 12.8043 12.7042 12.4497 11.9738
threshold=0.60286951065063488 0.014901491813361646 0.091106720268726363 0.29166667163372045 0.059578543528914459 0.35897432267665869 0.89664542675018322 0.9638858735561372 33.500000000000007 0.074175827205181136 3.1676570177078252 0.54388746619224559 -0.55945071578025807 0.09090908989310266 -2.0142154693603511 0.32991443574428564 -1.2452482581138609 -1.7020366191864011 3.5000000000000004 0.61925834417343151 0.7288927733898164 65.500000000000014 27.500000000000004 0.013337438460439445 0.043147575110197074 7.5000000000000009 2.7015597820281987 0.066790584474802031 0.49567091464996343 0.0359544474631548
decision_type=2 2 2 2 2 2 2 2 2 2 2 2 2 2 2 2 2 2 2 2 2 2 2 2 2 2 2 2 2 2
left_child=1 3 6 -1 22 14 7 9 -9 29 13 12 -7 -10 -6 -16 17 -4 -19 -18 21 -21 23 24 25 -3 -26 -11 -12 -2
right_child=2 4 16 -5 5 11 -8 8 10 27 28 -13 -14 -15 15 -17 19 18 -20 20 -22 -23 -24 -25 26 -27 -28 -29 -30 -31
leaf_value=-0.045282240930906693 0.019893107611802286 -0.059146980277676731 0.011762725896447499 0.013866545422056507 -0.09661694348055927 -0.068671737673804301 0.031915367171704817 0.017216689643546428 0.10542419034425979 -0.059904778336491597 0.07333355167817715 -0.06116921318366373 0.0054720267483710132 -0.063182404074505566 -0.012578457844511129 -0.099892570734067543 0.089322489838352045 0.065226480233487011 -0.083210154846673351 -0.016871044247422591 0.014379578048920228 0.038895387912228997 -0.007012791111236487 -0.032530039436902657 0.017121109390580366 0.0034267885672154847 -0.10224844591990277 0.079675188602864266 -0.026924506720113164 -0.1673165267612266
leaf_weight=581.87073513143696 10.54248551186174 87.38350322120823 85.945261398330331 82.954443417489529 27.204355261987075 27.913067493587732 1107.6068270523101 255.80029748147354 5.3549686768092206 7.128891847562044 20.633984749903902 36.08070726133883 1708.075890306267 94.385796223767102 193.51170932874084 21.509922185912728 26.393184609245509 11.869987584650515 62.142228324897587 379.7969500394538 1168.571761961095 54.867054473143071 941.14548792107962 685.1044161755126 217.02131099067628 60.474503865349106 9.3742219251580519 76.444053664803505 30.984375976491719 5.0544248092919579
leaf_count=58590 380 3328 334 181 481 350 6342 1703 91 140 175 282 16396 1580 2759 118 178 66 427 2613 6245 927 30317 13371 2976 2858 131 509 358 167
internal_value=-0.000830605 -0.0124534 0.01515 -0.0379019 -0.00823927 -0.00098714 0.0248221 0.00930551 -0.000776157 0.0506976 -0.0311845 0.00294727 0.00427986 -0.0541301 -0.0297704 -0.021313 0.00642713 -0.0211661 -0.0594041 0.00913556 0.00781549 -0.00983172 -0.0155414 -0.0231183 -0.0058893 -0.0335541 0.0121784 0.0677688 0.0131528 -0.0407751
internal_weight=8083.15 4679.62 3403.52 664.825 4014.8 2014.3 1613.94 506.329 407.159 99.1699 151.359 1772.07 1735.99 99.7408 242.226 215.022 1789.59 159.957 74.0122 1629.63 1603.24 434.664 2000.5 1059.36 374.254 147.858 226.396 83.5729 51.6184 15.5969
internal_count=154373 132138 22235 58771 73367 20386 11445 5103 3907 1196 2204 17028 16746 1671 3358 2877 10790 827 493 9963 9785 3540 52981 22664 9293 6186 3107 649 533 547
is_linear=0
shrinkage=0.1


Tree=12
num_leaves=31
num_cat=0
split_feature=43 43 49 35 24 24 32 29 48 42 48 37 32 19 48 31 16 42 15 32 32 47 17 15 32 49 49 43 31 31
split_gain=125.439 50.2472 24.0249 21.5104 18.4574 18.6655 17.726 16.086 14.697 13.4663 12.9071 12.4543 12.6681 14.6077 26.1711 21.5144 19.9728 19.048 15.5256 15.5818 17.3023 14.84 13.1283 13.2818 12.3481 12.1844 12.4284 11.7328 17.0438 11.6891
threshold=-0.17101117223501203 1.015014171600342 0.91666665673255932 0.027402402833104137 0.31827457249164587 0.31377764046192175 0.26210243999958044 95.500000000000014 0.25462962687015539 -150.19194793701169 0.076264195144176497 -49.499999999999993 0.029895432293415073 0.65261894464492809 0.18446455895900729 0.9355449676513673 0.1838367357850075 0.54856920242309581 -0.0068839024752378455 0.047713907435536392 0.040433233603835113 0.08642528206110002 -0.25994177162647242 0.78137442469596874 0.59881979227066051 0.12381229922175409 0.16676345467567447 -0.1627489775419235 0.64213106036186229 0.18075692653656009
decision_type=2 2 2 2 2 2 2 2 2 2 2 2 2 2 2 2 2 2 2 2 2 2 2 2 2 2 2 2 2 2
left_child=3 6 4 -1 5 9 8 27 11 -3 -5 -2 22 16 15 21 -14 -16 -17 20 -20 -15 -13 -24 -12 -6 -27 28 -8 -11
right_child=1 2 -4 10 25 -7 7 -9 -10 29 24 12 13 14 17 18 -18 -19 19 -21 -22 -23 23 -25 -26 26 -28 -29 -30 -31
leaf_value=-0.044900812624185653 -0.14149575550157581 -0.14718186314864201 0.052483852661070786 -0.019113176362071181 0.095002774392764944 0.14586153878257574 -0.010954027947528214 -0.11156651253314086 0.040167106804028428 -0.10180900663822712 0.039038152193957176 -0.14510174099815529 0.0044095973771042796 -0.18712359693496627 -0.019662684706710429 0.027045169951728426 0.048656174897482425 -0.16282504735447126 -0.023346902036395223 0.0028556120154334184 -0.15854921076875664 -0.033828646759908577 0.05660431304643964 -0.17267240358414429 -0.027169496829346662 -0.18238909469597195 -0.015628412370586219 -0.007756273605749789 0.12179127203958746 0.018106532757246094
leaf_weight=321.64626083476469 5.8287953996332353 4.9668472483754149 187.74647482298315 1588.4689603233128 9.7405961679760349 11.349703200161455 21.947183492244221 14.698986699921077 124.76570433005691 8.1591265483293665 76.743976172059774 3.6118291062302879 698.98035053559579 6.7271423253696403 18.539459399878979 190.82507154135965 119.45358457788825 18.635837098583579 30.315143999177963 135.99490284174681 13.762343809008597 103.09830134455115 82.276648920727894 2.6066415794193736 44.506423331797123 4.5816075899638227 182.12136035691947 1711.0756656472804 17.293633002322167 2193.5030139342416
leaf_count=46623 499 74 766 42469 179 29 825 1726 363 143 355 65 12154 184 76 1517 663 142 300 994 222 798 727 39 318 173 1138 26849 194 13444
internal_value=0.000267042 0.00762168 0.0180264 -0.021176 0.0153469 0.017949 -0.000532301 -0.00739126 0.0072509 0.0172911 -0.0167127 0.00438032 0.00497708 0.0025506 -0.0105927 -0.0043414 0.0108676 -0.0914294 0.00717037 -0.0138912 -0.0655612 -0.0432184 0.0416185 0.0495636 0.0147358 -0.0140321 -0.0197206 -0.0065164 0.0475475 0.0176621
internal_weight=7953.97 5922.61 2602.17 2031.37 2414.42 2217.98 3320.44 1765.02 1555.42 2206.63 1709.72 1430.66 1424.83 1336.33 517.898 480.723 818.434 37.1753 370.897 180.072 44.0775 109.825 88.4951 84.8833 121.25 196.444 186.703 1750.32 39.2408 2201.66
internal_count=154048 64283 15946 89765 15180 13690 48337 29594 18743 13661 43142 18380 17881 17050 4233 4015 12817 218 3033 1516 522 982 831 766 673 1490 1311 27868 1019 13587
is_linear=0
shrinkage=0.1


Tree=13
num_leaves=31
num_cat=0
split_feature=44 49 19 38 43 49 38 49 49 46 43 46 16 46 27 25 48 28 2 25 42 49 38 25 49 42 5 42 24 25
split_gain=127.128 27.2701 26.8828 25.5196 21.0241 19.6566 18.4985 18.8597 29.8119 14.5688 13.318 14.664 18.8748 13.0959 12.2301 12.1623 16.0497 12.8461 12.0995 17.1735 12.0586 14.7752 11.837 11.6121 11.5104 11.4318 34.4425 12.8957 14.4523 11.8305
threshold=-0.23701440542936322 0.081188403069973006 0.73549610376358043 0.05734840780496598 6.623122215270997 0.91666665673255932 1.4379280805587771 0.072227437049150481 0.068699568510055556 9.8142657279968279 4.6491885185241708 29.333281517028812 0.085490852594375624 9.6284809112548846 0.16633728891611102 65.500000000000014 0.089348740875720992 0.017021585255861286 0.10555555671453477 73.500000000000014 -0.35482996702194208 0.079448144882917418 0.82158386707305919 86.500000000000014 0.0099354884587228316 -5.0124375820159903 0.051315790042281158 -2.4102318286895748 0.14257481694221499 32.500000000000007
decision_type=2 2 2 2 2 2 2 2 2 2 2 2 2 2 2 2 2 2 2 2 2 2 2 2 2 2 2 2 2 2
left_child=1 20 6 -3 5 9 7 8 22 25 11 14 -13 23 -5 17 18 -9 -17 -20 -1 24 -2 -8 -22 26 29 28 -27 -4
right_child=2 3 4 10 -6 -7 13 15 -10 -11 -12 12 -14 -15 -16 16 -18 -19 19 -21 21 -23 -24 -25 -26 27 -28 -29 -30 -31
leaf_value=0.0096156379747120851 -0.077648266249619041 0.11008115017493728 -0.21715238595816749 -0.070912546841814111 -0.025211339972366287 0.055903277544055219 0.12495509593998866 -0.22786014286191991 -0.13728258640385554 0.10991056920466187 -0.13348999328911612 -0.040746392856840841 0.053945368269609321 -0.041432077600118924 -0.008796537627783492 0.010827934033487873 0.041873721420563635 0.0047338672197657057 0.02329224386743365 -0.15737051538887223 -0.09030035874458997 -0.14002479307746613 -0.0052762825112730857 -0.13954405981662857 -0.025659556553682308 -0.08723785531830916 0.040732762799862203 0.018847671023865982 0.11219163300974418 -0.058092142772895261
leaf_weight=90.533778648125008 23.853257506038062 18.360791999381036 9.0440640505403298 32.248204011470079 93.993978123180568 167.32241727970541 26.124751528841447 2.3776516597717992 18.893203661311418 17.708992395550013 8.4687441391870362 28.878837107215077 77.652490744134411 7.4069314303342244 1855.2352560926229 136.13895297562703 216.9053125390783 1800.3425026522018 10.125366647262128 10.953825515229253 28.184154369519092 11.699451140593736 430.02886725810822 1.7724401950836171 1218.9480870859697 4.2172436676919487 27.645516276359558 1391.9810172640719 26.264116071630269 9.6818821602500957
leaf_count=2823 2005 79 100 879 671 666 186 37 648 61 144 507 473 161 18516 2357 1899 13960 144 321 7951 370 13979 277 76463 66 84 7950 88 172
internal_value=1.22603e-05 -0.0146263 0.0111419 -0.00727591 0.0207938 0.0234084 0.0048586 0.00390047 -0.014203 0.0197508 -0.00835196 -0.00782049 0.028276 0.0767673 -0.00985781 0.00783225 0.02424 0.00442709 -8.81772e-05 -0.0705894 -0.0256346 -0.0281697 -0.00907971 0.10815 -0.0271204 0.0186638 -0.0301975 0.0202566 0.0845996 -0.134913
internal_weight=7802.99 3370.21 4432.78 2020.84 1747.86 1653.87 2684.92 2649.62 472.775 1486.54 2002.48 1994.01 106.531 35.3041 1887.48 2176.84 374.123 1802.72 157.218 21.0792 1349.37 1258.83 453.882 27.8972 1247.13 1468.83 46.3715 1422.46 30.4814 18.7259
internal_count=154037 108205 45832 20598 9858 9187 35974 35350 16632 8521 20519 20375 980 624 19395 18718 4721 13997 2822 465 87607 84784 15984 463 84414 8460 356 8104 154 272
is_linear=0
shrinkage=0.1


Tree=14
num_leaves=31
num_cat=0
split_feature=32 23 44 44 42 38 27 20 45 3 49 34 15 42 34 44 38 34 21 36 21 20 42 34 45 25 25 48 32 20
split_gain=110.347 38.2981 30.1193 19.7791 15.1442 16.8544 14.4621 16.4318 13.7597 13.6117 13.3907 12.891 11.2911 15.3019 12.4417 11.1822 12.3258 20.3198 15.6384 11.4469 11.8173 11.715 10.9886 9.83272 10.444 16.1577 20.1962 13.1269 17.4601 12.6651
threshold=0.22954008728265765 0.38826659321784979 0.10878747329115869 -0.80343326926231373 -0.70039659738540638 0.06698718294501306 0.61872750520706188 0.27525252103805548 0.97205036878585827 0.046482305973768241 0.91666665673255932 8.0263092517852801 3.8159800767898564 -39.372732162475579 10.055550575256349 -0.50717163085937489 1.3973481059074404 1.6684383749961855 6.5000000000000009 0.046536797657608993 16.500000000000004 0.015317857731133701 0.9282648265361787 5.9999992847442636 0.1726467311382294 8.5000000000000018 9.5000000000000018 0.14101956784725192 0.033395292237401016 0.064333863556385054
decision_type=2 2 2 2 2 2 2 2 2 2 2 2 2 2 2 2 2 2 2 2 2 2 2 2 2 2 2 2 2 2
left_child=2 9 4 -3 12 -6 7 8 15 -2 23 -7 14 -14 -1 19 17 -17 -18 -5 21 -21 -11 24 -4 -26 -27 28 -28 -30
right_child=1 3 10 6 5 11 -8 -9 -10 22 -12 -13 13 -15 -16 16 18 -19 -20 20 -22 -23 -24 -25 25 26 27 -29 29 -31
leaf_value=0.017209932692264313 -0.082453956318861182 0.10122033523137959 0.022694487982034373 -0.16812844449406278 0.089674744999035785 -0.0036819060382376409 -0.00061180596243112935 0.036557691626988832 -0.12392294849206034 0.00082955201643891349 0.050260636005023562 -0.22498730846618772 -0.088103502233294412 0.11899291353587887 -0.16784762910206674 -0.028283426140921383 -0.13047084171462622 -0.13464616974827412 -0.0079334821519882193 0.022406586093161686 0.13366577229048715 -0.017212629297330011 -0.031894426840813485 0.06780062659546128 0.085610037134921935 -0.2127482926246986 -0.24715006706951925 0.0080642079865975557 -0.22840954129038604 -0.01273992705247836
leaf_weight=406.27334365574643 46.060883498634212 17.360315643250942 1389.6282224527095 3.9373051188886157 19.463677407475188 1052.9935918402625 2123.7801876387093 61.927935743704438 11.741491196677087 123.23686180741061 161.90506049804389 2.6386888977140179 4.2896003108471659 21.202998447231948 3.6657861000858238 424.19242798374034 10.622064139693974 18.755553910974413 533.94870183290914 135.11809854442254 6.8168144263327113 166.72222983557731 613.22063884162344 42.327192001976073 21.651007391512394 4.5603714473545542 4.1968095507472745 242.10225090850145 2.9780475348234168 31.780597482807934
leaf_count=4438 11584 51 8725 136 190 17062 30590 213 136 4061 716 32 75 82 79 15705 50 645 16452 819 29 1523 39030 194 63 29 59 1164 76 230
internal_value=0.000950671 -0.00970929 0.0143783 -0.00525506 0.00383735 -0.00253493 -0.00578356 -0.0137788 -0.016155 -0.0297169 0.0227536 -0.00423509 0.0195707 0.0841451 0.0155551 -0.0151817 -0.0203995 -0.0327871 -0.0103236 0.00130204 0.00346333 0.000522817 -0.0264185 0.0201929 0.0190054 0.0023216 -0.003992 -0.000604772 -0.0544812 -0.031218
internal_weight=7709.1 4297.44 3411.66 3514.92 1510.53 1075.1 3497.56 1373.78 1311.85 782.518 1901.13 1055.63 435.432 25.4926 409.939 1300.11 987.519 442.948 544.571 312.594 308.657 301.84 736.458 1739.22 1696.9 307.269 285.618 281.058 38.9555 34.7586
internal_count=154238 121024 33214 66349 21958 17284 66298 35708 35495 54675 11256 17094 4674 157 4517 35359 32852 16350 16502 2507 2371 2342 43091 10540 10346 1621 1558 1529 365 306
is_linear=0
shrinkage=0.1


Tree=15
num_leaves=31
num_cat=0
split_feature=15 27 23 42 19 44 43 21 44 2 49 24 19 28 31 15 23 32 19 43 23 49 32 43 42 32 25 26 18 28
split_gain=94.4611 33.7678 16.6568 15.898 23.1983 15.9306 17.3259 19.0624 16.8548 15.5623 19.6634 14.834 20.0397 13.8785 19.9804 13.6495 12.3697 14.5458 11.9368 12.0849 10.5058 12.8882 11.0629 15.1905 11.9635 11.8988 10.2627 10.1933 13.8883 21.4075
threshold=0.11232199892401697 0.61872750520706188 0.40038910508155828 8.6191344261169451 -0.39606736600399012 1.6753527522087099 6.9982445240020761 96.500000000000014 6.2648799419403085 0.29166667163372045 0.74166667461395275 0.021466974169015888 0.97855570912361156 0.022514150477945808 0.92871257662773143 -0.43206395208835596 0.85300117731094371 0.029895432293415073 0.67953413724899303 4.9143276214599618 0.85458549857139599 0.80555555224418651 0.23091492056846621 0.2338480427861214 7.7883677482604989 0.23540068417787555 9.5000000000000018 57.500000000000007 0.022559591569006446 0.52116942405700695
decision_type=2 2 2 2 2 2 2 2 2 2 2 2 2 2 2 2 2 2 2 2 2 2 2 2 2 2 2 2 2 2
left_child=1 2 -1 5 -5 20 9 8 -8 10 11 -7 13 -13 18 26 17 -3 19 -15 21 -2 24 -24 -22 -25 -4 28 -27 -30
right_child=3 16 15 4 -6 6 7 -9 -10 -11 -12 12 -14 14 -16 -17 -18 -19 -20 -21 22 -23 23 25 -26 27 -28 -29 29 -31
leaf_value=-0.031112494505648531 0.023059739315049222 0.04663790324694312 0.006394741651644319 -0.14063042096094788 0.042596021954887438 0.063615477702470349 -0.19101271722280333 0.014852317295493835 -0.023737403913308426 0.040866088181966354 -0.083912714019506049 0.079849656853669571 -0.19232411347875802 0.00019372928856071028 -0.23740354526732746 -0.01693466554552275 -0.10113514940102336 -0.0017891904398989818 0.11486818462127878 -0.15054564084184874 0.010682548742217727 -0.14129945284317225 -0.085080053731275682 -0.11664869405958281 -0.13017668329922555 0.034619728312693464 0.11575526821059706 -0.15455240755730693 0.00052851652990789527 -0.057222675251953681
leaf_weight=742.11741968535352 434.3658530425746 64.086025523021817 201.41903170850128 7.1208480754867187 233.40344424173236 51.193321722559631 10.310052989050746 47.582510801497847 14.488677388988435 409.47150887176394 21.203415914438665 22.420135007239878 5.1825216645374885 92.680722005665302 3.6228213030844918 1014.358730877866 12.223607980879022 1927.840259169694 8.5293396394699794 5.6423143148422232 1353.5134868719615 4.8239228241145602 22.650012279162183 8.9821910588070732 6.0565897417254737 101.19342637318186 8.9629239533096534 4.2997149471193543 696.30909968726337 70.704192817211151
leaf_count=54252 2813 627 1401 69 1560 249 118 319 102 1575 119 102 76 552 35 34210 483 36372 19 68 10194 16 872 136 81 1240 84 340 5938 442
internal_value=0.000680976 -0.00998187 -0.0192904 0.0123271 0.0371715 0.010567 0.0241015 -0.0221959 -0.093282 0.0295069 0.00740791 0.0176382 0.000591873 0.00811502 -0.006443 -0.0121269 -0.000846579 -0.000231151 0.0013877 -0.00845652 0.00710029 0.0212545 0.00435419 -0.00421831 0.0100551 -0.00214056 0.0110538 -0.000961729 -0.000201085 -0.00479506
internal_weight=7606.76 3971.01 1966.86 3635.75 240.524 3395.23 692.327 72.3812 24.7987 619.946 210.475 189.271 138.078 132.895 110.475 1224.74 2004.15 1991.93 106.852 98.323 2702.9 439.19 2263.71 904.139 1359.57 881.489 210.382 872.506 868.207 767.013
internal_count=154464 127429 89947 27035 1629 25406 3334 539 220 2795 1220 1101 852 776 674 35695 37482 36999 639 620 22072 2829 19243 8968 10275 8096 1485 7960 7620 6380
is_linear=0
shrinkage=0.1


Tree=16
num_leaves=31
num_cat=0
split_feature=23 43 17 33 34 2 31 43 45 33 16 40 17 34 47 34 23 24 37 17 44 27 19 36 16 16 16 27 19 20
split_gain=81.257 38.3178 23.0469 18.3632 16.2827 13.3992 13.1767 16.2947 11.9307 11.8616 11.6955 11.5145 11.0408 10.8934 12.5314 11.6086 10.6163 12.1481 16.3274 13.7704 10.6092 9.65318 9.49593 10.8746 12.6223 20.6386 10.1544 9.4946 9.4603 13.3771
threshold=0.67695713043212902 2.1431356668472294 -0.4276695698499679 -0.016346837393939492 0.87499991059303295 0.0091326101683080214 0.93762159347534191 2.0975738763809209 0.072341140359640135 -0.58333334326744068 0.16594202816486361 9.5000000000000018 -0.78123235702514637 0.12499999627470972 0.16085939109325412 0.16711709648370746 0.69897693395614635 0.27912880480289465 -3.4999999999999996 1.7830339074134829 -0.18818438053131101 0.27747178077697759 0.94287684559822094 0.11805555596947671 0.11464460939168931 0.27525252103805548 0.31146953999996191 0.16633728891611102 1.015014171600342 0.24397580325603488
decision_type=2 2 2 2 2 2 2 2 2 2 2 2 2 2 2 2 2 2 2 2 2 2 2 2 2 2 2 2 2 2
left_child=3 6 -3 4 9 -5 7 12 -7 10 11 -1 -2 14 -11 -15 20 28 19 -19 -8 27 -14 -24 -25 -26 -27 -10 -18 -30
right_child=1 2 -4 5 -6 8 16 -9 21 13 -12 -13 22 15 -16 -17 17 18 -20 -21 -22 -23 23 24 25 26 -28 -29 29 -31
leaf_value=-0.013848917678213417 0.095141011817532539 -0.11777144836163803 0.023444920872243077 -0.093708598724279238 0.088404621204253173 -0.02094174705943248 -0.014699525791733543 -0.20089541195608129 -0.061669198663519199 -0.19351926155931312 -0.16576117842125332 -0.15613865582943715 9.1990883369961508e-05 -0.097203229005916603 0.067031949680605357 -0.0027063058778843095 0.055720776579867827 -0.197755721773165 -0.0040245173462808374 0.066573465479979499 0.12608580153878512 -0.022231776134084748 -0.1869403361984118 0.10899461443691419 -0.17530601074190055 0.061638294418752765 -0.064859490911328449 0.089888701625970235 -0.024701813322139186 0.019803027875039445
leaf_weight=46.35589140560478 12.07690868526697 11.65265356749296 1406.8201442051213 24.571409296651836 19.119528569746763 1462.899694286345 8.0340698808431643 4.0539468545466653 4.9533070642501142 1.9543261136859644 7.3719692006707183 6.4824948348104945 2653.2468017626088 13.199804946314542 33.278804179979488 859.09949403489009 60.088295115623623 7.954263548832385 162.59862866764888 2.6200328562408686 16.037647360237315 22.190920609980822 4.8810657793655983 5.7022002357989541 9.7239820472896081 12.228474989533426 13.191277856007217 24.975383743178099 77.418075098656118 529.21316035743803
leaf_count=258 36 84 8003 7657 162 76401 87 73 54 150 33 112 37932 492 387 16580 653 167 603 12 71 124 81 16 85 46 69 124 1005 3013
internal_value=0.000986856 0.00837582 0.0222848 -0.0136292 -0.00298054 -0.0204548 0.00286334 -0.000559391 -0.0192667 -0.00478602 -0.0477681 -0.0313058 -0.00025982 -0.00193437 0.0525796 -0.00413625 0.0136196 0.011743 -0.011855 -0.132262 0.0790979 0.0277476 -0.000686703 -0.0458694 -0.0290115 -0.0514035 -0.00400622 0.0648053 0.0178723 0.0141233
internal_weight=7523.99 4997.54 1418.47 2526.45 986.862 1539.59 3579.07 2715.1 1515.02 967.743 60.2104 52.8384 2711.05 907.532 35.2331 872.299 863.964 839.892 173.173 10.5743 24.0717 52.1196 2698.97 45.727 40.8459 35.1437 25.4198 29.9287 666.72 606.631
internal_count=154570 52036 8087 102534 18174 84360 43949 38338 76703 18012 403 370 38265 17609 537 17072 5611 5453 782 179 158 302 38229 297 216 200 115 178 4671 4018
is_linear=0
shrinkage=0.1


Tree=17
num_leaves=31
num_cat=0
split_feature=32 23 17 49 34 41 27 3 37 32 41 32 21 49 24 47 23 25 49 27 37 1 32 42 36 0 36 47 38 0
split_gain=72.5857 33.741 15.9787 13.4965 13.1308 12.8712 12.8467 13.1981 13.446 11.2465 19.5108 15.0019 14.0149 11.6083 11.0165 10.8531 16.3941 10.6837 11.5148 12.3154 10.6781 10.27 9.62038 19.9504 12.4353 9.52862 18.9818 11.6263 9.75763 21.2528
threshold=0.18630495667457583 0.38826659321784979 -0.30197817087173456 0.91666665673255932 0.099999997764825835 0.57834690809249889 0.59077617526054393 0.061761559918522842 11.500000000000002 0.019292804412543777 3.6473091840744023 0.029895432293415073 172.50000000000003 0.80555555224418651 0.8919891119003297 0.15137486159801486 0.86847350001335155 3.5000000000000004 0.46597222983837133 0.34733690321445471 -50.499999999999993 0.042572464793920524 0.19195959717035296 2.2798818349838261 0.042572464793920524 0.22500000149011615 0.41666667163372045 0.24238558858633044 0.93654665350914013 0.069047622382640853
decision_type=2 2 2 2 2 2 2 2 2 2 2 2 2 2 2 2 2 2 2 2 2 2 2 2 2 2 2 2 2 2
left_child=2 4 6 9 14 22 7 -1 17 10 12 -11 13 15 -2 16 -4 -9 19 21 -13 -19 23 24 -3 28 27 -27 29 -17
right_child=1 5 3 -5 -6 -7 -8 8 -10 11 -12 20 -14 -15 -16 25 -18 18 -20 -21 -22 -23 -24 -25 -26 26 -28 -29 -30 -31
leaf_value=-0.1525206011439042 -0.11665329542939434 0.0038869382147777957 -0.034745931429379102 0.044037187603547641 -0.028935672912303746 0.0080184703549758072 -0.12132535197573607 0.045172847216492243 0.044957734073598904 0.040935912408384748 0.066677836196966309 -0.14923923994129704 -0.25117690223468631 -0.17574127118643423 0.1219412806325801 0.054730444016897077 -0.24625161488414404 -0.022030972162829253 -0.1284494615687066 -0.0064191317981883121 0.01236283882619264 -0.18640512581320359 -0.0062324065845302482 0.10771104498463069 -0.15706379986755564 0.081504745181241706 0.068412782875357347 -0.14521502271015033 0.053719625339298284 -0.15751838102389989
leaf_weight=6.1866576932370654 2.4058742483612141 6.9730111870449099 15.009305803570898 147.05097971763462 732.47436702158302 727.59991700120736 10.78531678393483 21.323422896908596 42.598820798564702 196.03107047476806 23.558699288405478 4.0964976716786614 2.8871484682895234 5.048064697533845 9.8913849559612554 11.080006200820209 4.8486098740249863 7.6051345237065089 11.159711863845585 84.455079766456038 2185.6680004935479 7.5990522652864456 3067.5609654156724 5.3703246153891078 15.406241985503582 2.6567465141415623 8.7257255362346786 15.216710751876233 33.319969499483705 8.215776735916732
leaf_count=643 94 257 256 707 55219 6206 63 178 572 1254 85 391 86 57 37 74 103 347 48 1053 20341 141 65273 46 285 11 35 202 181 87
internal_value=7.52252e-05 -0.00774296 0.0125829 0.01459 -0.0272152 -0.00394942 -0.0153009 -0.00898062 -0.00389863 0.0128691 -0.0157083 0.0144331 -0.0338462 -0.0278199 0.0752619 -0.0202829 -0.0863882 -0.0196485 -0.0321212 -0.0213345 0.0120605 -0.104185 -0.00676265 -0.0653781 -0.106914 -0.00371132 -0.0524906 -0.111515 0.0209484 -0.0356411
internal_weight=7422.81 4567.68 2855.13 2663.41 744.772 3822.91 191.713 180.928 174.741 2516.36 130.567 2385.8 107.008 104.121 12.2973 99.0729 19.8579 132.142 110.819 99.6593 2189.76 15.2042 3095.31 27.7496 22.3793 79.2149 26.5992 17.8735 52.6158 19.2958
internal_count=154332 127417 26915 23870 55350 72067 3045 2982 2339 23163 1177 21986 1092 1006 131 949 359 1767 1589 1541 20732 488 65861 588 542 590 248 213 342 161
is_linear=0
shrinkage=0.1


Tree=18
num_leaves=31
num_cat=0
split_feature=24 2 19 35 24 18 19 34 15 42 15 44 42 39 25 18 28 46 46 46 21 20 20 42 23 42 23 23 15 24
split_gain=52.7254 22.4092 19.0361 11.2758 12.1124 17.5227 12.0754 10.5851 10.5017 10.1264 11.173 11.0774 16.1509 9.3812 15.4635 10.1484 39.9792 10.9045 13.2251 9.9894 9.13796 9.85663 8.86519 15.8879 9.30778 15.9732 8.7232 9.15239 10.5244 10.5759
threshold=0.24362228065729144 0.22500000149011615 0.55054587125778209 0.025978407822549347 0.2528959214687348 0.077738881111145033 -0.45526427030563349 2.7158365249633794 -0.64323797821998585 4.8583812713623056 -0.56145164370536793 0.28668147325515753 0.24209156632423404 9.5000000000000018 9.5000000000000018 0.021444885991513733 0.4345188587903977 9.9999938011169451 8.7252678871154803 2.4999958276748662 6.5000000000000009 0.42261904478073126 0.15016338974237445 -1.0565370321273801 0.77411597967147838 0.25899082422256475 0.59214201569557201 0.68411269783973705 -0.11425812169909476 0.28456890583038336
decision_type=2 2 2 2 2 2 2 2 2 2 2 2 2 2 2 2 2 2 2 2 2 2 2 2 2 2 2 2 2 2
left_child=2 3 -1 -2 5 -5 7 8 -6 11 -11 -3 -13 -4 19 -16 17 18 -17 -15 21 -12 24 -24 -8 -26 -25 -28 -29 -30
right_child=1 9 13 4 6 -7 22 -9 -10 10 20 12 -14 14 15 16 -18 -19 -20 -21 -22 -23 23 26 25 -27 27 28 29 -31
leaf_value=0.0020351646969066412 -0.03253679931151434 0.0076348523052907919 0.050106028478439604 -0.11588813458925312 -0.066874842226357423 -0.0056859100479781152 -0.0052063956615019712 -0.18561036027144462 -0.0172620749388477 -0.18744832874039202 -0.053312367707480879 -0.12755996827109439 -0.011354526372494301 -0.20058306851982463 0.069532693443277227 0.015619588220471693 -0.21096346156146645 0.078762612621126979 -0.16824149941506528 -0.032312732828845052 -0.090625538109446513 0.11780395784354475 0.0688038708994584 -0.12513553228155791 0.065038300333293095 -0.14153424118017111 0.013490065404289667 -0.16374506653079784 -0.1185979044321375 0.06142229091679513
leaf_weight=1979.4190195249394 283.0251595468726 1062.7488204264082 79.546656031161547 26.732237706426531 46.257671014405787 31.348545943386853 1453.779701289488 3.9377969200722864 549.33521596656647 5.2112403279170421 6.9406053787097353 13.254352036863564 122.50601130537689 4.0151073373854151 35.076647200156003 1451.0124512903858 7.7811221163719884 27.433050649240613 3.9227543771266928 29.077996626496315 11.878089080099015 6.5364860501140356 11.06731799081899 15.858287248527629 36.022652758751065 4.1773173389956346 18.826032601296902 9.121452017221598 6.1988078188151139 6.8915927950292826
leaf_count=25579 46415 7301 299 878 1272 335 47032 64 13449 42 54 55 357 21 372 8878 98 116 46 137 144 17 124 522 222 40 270 225 105 48
internal_value=3.08625e-05 -0.0083086 0.008634 -0.0137393 -0.0113424 -0.0564075 -0.0101314 -0.0221958 -0.0211153 0.00274915 -0.0540885 0.00419872 -0.0226997 0.0166089 0.014899 0.0163664 0.0151149 0.0163016 0.0151239 -0.0527286 -0.0266791 0.0296803 -0.00550071 -0.0408228 -0.00389385 0.0435726 -0.0621471 -0.0378064 -0.0812837 -0.0238242
internal_weight=7348.94 3731.66 3617.28 2502.58 2219.55 58.0808 2161.47 599.531 595.593 1229.08 30.5664 1198.51 135.76 1637.87 1558.32 1525.23 1490.15 1482.37 1454.94 33.0931 25.3552 13.4771 1561.94 67.9635 1493.98 40.2 56.8962 41.0379 22.2119 13.0904
internal_count=154517 118971 35546 111001 64586 1213 63373 14785 14721 7970 257 7713 412 9967 9668 9510 9138 9040 8924 158 215 71 48588 1294 47294 262 1170 648 378 153
is_linear=0
shrinkage=0.1


Tree=19
num_leaves=31
num_cat=0
split_feature=19 45 1 38 15 49 27 42 21 49 31 19 27 24 21 42 32 27 49 2 34 31 45 19 49 47 42 31 17 25
split_gain=62.2851 23.8237 17.8346 17.6868 13.664 12.871 13.9145 13.7282 13.2711 12.2855 17.0019 18.5955 11.9504 11.9399 12.6785 11.4089 11.2823 11.1391 12.7525 15.822 12.5494 12.3352 11.0544 10.9031 10.6867 10.5744 10.3068 10.0806 10.0108 9.76615
threshold=0.15785033255815509 0.009172050282359125 0.13392857462167743 1.0156865119934084 1.5858222842216494 0.14447426050901416 0.90889328718185436 0.61848706007003795 82.500000000000014 0.20375282317399981 0.79174411296844494 -0.086878914386033998 0.8596806824207307 0.17782169580459598 37.500000000000007 10.69779682159424 0.15633729100227359 0.94133290648460399 0.52670940756797802 0.13392857462167743 5.3333303928375253 0.45436437427997595 0.009525276720523836 -0.39807341992855066 0.44198717176914221 0.0040069767273962506 6.8902328014373788 0.65396711230278026 -0.1154363490641117 72.500000000000014
decision_type=2 2 2 2 2 2 2 2 2 2 2 2 2 2 2 2 2 2 2 2 2 2 2 2 2 2 2 2 2 2
left_child=1 2 25 16 15 6 7 12 23 10 11 13 -4 29 -15 26 -3 18 19 22 -21 -20 27 -8 -24 -1 -2 -5 -9 -7
right_child=4 3 5 17 -6 9 8 28 -10 -11 -12 -13 -14 14 -16 -17 -18 -19 21 20 -22 -23 24 -25 -26 -27 -28 -29 -30 -31
leaf_value=-0.051050376470062164 0.0053987199123070404 -0.24308123192444225 -0.0072178823914717735 0.095500683326041197 0.020659543775326739 -0.19894903972932082 -0.19873717679273784 -0.0083291349294833811 -0.058689589547318802 -0.0049069283333869279 -0.13127865542918216 0.048908538066691647 -0.094279258538293859 -0.03546110547547824 0.13946294532154388 0.049328819160468398 0.091346262143616588 -0.072837939832338286 0.13517509831187113 -0.017234545748998263 -0.13515467174290108 0.022866961307430902 0.0024314118694616742 0.064651142879399978 -0.19084177406513692 -0.020204619079385838 -0.078243458704873814 -0.12045220865686579 0.05692517235691108 0.007862164855927117
leaf_weight=123.27550566825084 2103.7862771508517 1.0478041525930191 46.040486611425877 20.248659992124889 901.93888477049768 7.7904652496799809 1.6038310886360694 51.687207533977926 10.809138651238753 641.98900935589336 16.203354784753174 29.162882428150624 23.977133154403418 145.94162435550243 4.2646051235496989 59.180621629115194 27.08349862229079 21.34218171145767 11.492723865434526 362.78063650708646 9.2552295522764307 65.609496990218759 1269.9575569347944 78.350393617060035 2.8673575893044463 1128.8549875040771 14.836290207225828 2.4199028899893156 43.125348989851773 3.2300958544947207
leaf_count=21845 19619 23 721 480 4630 174 59 807 396 4128 306 239 596 1929 35 428 160 295 26 2850 94 219 26195 1064 48 66097 206 117 461 70
internal_value=-0.000465477 -0.00846069 -0.0150717 0.00022194 0.0103093 -0.00580721 0.0138652 -0.00344872 0.0453081 -0.0117326 -0.0329433 -0.0245743 -0.0370316 -0.037866 -0.0304947 0.00602268 0.0788899 -0.00103121 -0.000152795 -0.0019912 -0.0201681 0.0396074 0.00322877 0.0593677 0.00199602 -0.0232415 0.00481299 0.0724474 0.0213517 -0.138333
internal_weight=7230.15 4150.41 2356.31 1794.11 3079.74 1104.18 255.594 164.83 90.7634 848.582 206.593 190.39 70.0176 161.227 150.206 2177.8 28.1313 1765.97 1744.63 1667.53 372.036 77.1022 1295.49 79.9542 1272.82 1252.13 2118.62 22.6686 94.8126 11.0206
internal_count=154317 129434 98927 30507 24883 10985 4104 2585 1519 6881 2753 2447 1317 2208 1964 20253 183 30324 30029 29784 2944 245 26840 1123 26243 87942 19825 597 1268 244
is_linear=0
shrinkage=0.1


Tree=20
num_leaves=31
num_cat=0
split_feature=19 0 48 43 39 46 27 46 19 45 20 47 31 31 21 34 15 31 20 15 37 15 41 17 28 49 40 20 22 30
split_gain=53.2075 16.2486 15.0674 12.77 12.1862 12.0729 15.7691 12.7613 11.0408 12.0556 11.0845 11.8353 13.0677 10.8439 10.5743 9.95576 16.8422 13.2063 16.263 9.55629 9.43902 9.23431 18.5522 9.19973 13.3856 11.3004 9.12929 10.2105 12.4608 11.4108
threshold=-0.13985753059387204 0.025978407822549347 0.1013472266495228 3.6801964044570927 59.500000000000007 0.057043544948101051 0.97782695293426525 0.14343352615833285 -0.33133098483085627 0.15597520768642428 0.01443685917183757 0.023562786169350151 0.72097235918045055 0.10657818242907525 239.50000000000003 6.0249960422515878 3.380466222763062 0.30195011198520666 0.034923551604151733 2.2535423040390019 26.500000000000004 -0.185626246035099 3.1225022567582534e-17 -0.39732587337493891 0.49907062947750097 0.59722220897674572 61.500000000000007 0.011334973387420179 5.5000000000000009 56.500000000000007
decision_type=2 2 2 2 2 2 2 2 2 2 2 2 2 2 2 2 2 2 2 2 2 2 2 2 2 2 2 2 2 2
left_child=1 -1 3 5 15 -2 14 -8 9 13 26 -12 19 -6 -7 16 -3 -17 20 -13 -19 22 -4 -23 -25 -26 -10 28 -28 -30
right_child=2 4 21 -5 8 6 7 -9 10 -11 11 12 -14 -15 -16 17 -18 18 -20 -21 -22 23 -24 24 25 -27 27 -29 29 -31
leaf_value=-0.031418057077132959 0.032746120769841319 -0.010119326938568511 -0.036755560398368026 0.039316283265395664 -0.11545995964571937 -0.0011252289132402454 -0.042037963822102002 -0.20619133474057094 -0.060440435467373377 -0.18591502037727581 0.12112448465028627 0.0085065641917211731 -0.13676987535953145 0.076373648024380403 -0.22797227993812072 0.098233088488892395 -0.12695733912640325 -0.16636670259940203 0.051742484047460215 0.080794560511779231 0.020117046099698666 0.11280767882864909 0.15157321468903487 0.015601560018775374 -0.085965311381713136 -0.0043128791687706497 -0.14067894396174424 -0.065006227079738937 0.069228141371634647 -0.0068131812287408576
leaf_weight=308.77869960147655 101.9941510038916 2277.0225068649743 66.677150236442685 83.604588533984497 3.1537333528976879 1660.9826234806096 23.021332460921261 5.9623957294970742 35.892022382002324 2.0146797033958128 11.156172666698692 112.13098026299849 5.51508157653734 44.890126352431253 2.0574114196933797 19.649969323538244 12.404841938987373 7.5083369500935095 18.315340138040483 21.851376092992723 4.2508945651352406 9.4438475444912893 5.6759912967681876 2122.8695322072599 21.448928417637944 80.796680696308613 5.0229970624204716 21.08450218103826 31.399809284834191 53.116163894999772
leaf_count=49595 1093 48954 330 651 200 30469 222 149 1782 78 236 2629 182 838 103 97 165 118 114 154 43 28 11 11706 99 191 189 789 585 2252
internal_value=0.000482196 -0.00969311 0.00776536 0.00111404 -0.00719599 -0.000666253 -0.00268033 -0.0758068 0.0102852 0.0537318 0.00296662 0.0220128 0.0140865 0.0637812 -0.00140587 -0.00979094 -0.0107524 0.0344767 -0.00718017 0.0202961 -0.0989539 0.0131789 -0.0219815 0.0143174 0.0138994 -0.0214418 -0.0166175 -0.00239907 0.0123436 0.0214381
internal_weight=7179.69 2995.16 4184.53 1877.62 2686.38 1794.02 1692.02 28.9837 347.228 50.0585 297.169 150.654 139.497 48.0439 1663.04 2339.15 2289.43 49.7245 30.0746 133.982 11.7592 2306.91 72.3531 2234.56 2225.12 102.246 146.515 110.623 89.539 84.516
internal_count=154052 109000 45052 32687 59405 32036 30943 371 9914 1116 8798 3201 2965 1038 30572 49491 49119 372 275 2783 161 12365 341 12024 11996 290 5597 3815 3026 2837
is_linear=0
shrinkage=0.1


Tree=21
num_leaves=31
num_cat=0
split_feature=44 47 38 19 38 38 21 25 25 40 41 49 49 34 32 32 42 38 25 48 17 31 20 47 47 28 17 38 46 44
split_gain=45.1271 22.6268 18.6623 17.9978 13.7712 11.7817 11.1053 16.4431 16.3911 12.1181 11.8501 25.8192 10.8795 13.6287 10.265 9.81361 9.55827 9.45939 9.4074 9.85715 10.8055 8.83653 8.78488 11.0252 16.4126 11.5226 10.8846 8.51575 18.9762 14.1562
threshold=-0.22143666446208951 0.012319525703787805 1.4379280805587771 5.0499820709228525 0.05734840780496598 0.69212540984153759 26.500000000000004 23.500000000000004 22.500000000000004 113.50000000000001 -5.3689017295837393 0.38908314704895025 0.44773243367671972 1.399999797344208 0.041775742545723922 0.026702317409217361 0.9020332694053651 1.1628931164741518 104.50000000000001 0.012916368898004295 -0.21639487892389295 0.093813776969909682 0.037439044564962394 0.2902777642011643 0.10379502922296525 0.3429402112960816 1.6255989670753481 0.8096698820590974 0.4048441350460053 0.87297794222831737
decision_type=2 2 2 2 2 2 2 2 2 2 2 2 2 2 2 2 2 2 2 2 2 2 2 2 2 2 2 2 2 2
left_child=1 -1 3 5 -3 -2 7 21 -8 10 11 -10 13 -9 -4 16 -6 -11 19 -12 -21 -7 23 24 25 -23 -25 -22 29 -29
right_child=2 4 14 -5 15 6 8 12 9 17 18 -13 -14 -15 -16 -17 -18 -19 -20 20 27 22 -24 26 -26 -27 -28 28 -30 -31
leaf_value=-0.030290532644267912 -0.1596609226587683 0.069211073368432532 -0.30150413197237014 0.035275405622712995 -0.17298757334454959 0.14247635972351827 -0.18302410944047684 0.021280098286521623 0.070811004571567984 0.025668431988536203 -0.12130607685414917 -0.22457251144430379 0.060837850863619453 -0.20681236082374324 0.095561906478453945 -0.0062949238308437662 0.022377093506797178 -0.09073609161838106 -0.035565357543227143 0.082682157444192675 0.036235565627561028 0.10112525836359298 0.0082053819816472126 0.024094486916039666 -0.11198895308212593 -0.17724271154844429 -0.15126603363165125 -0.029509998188048305 0.00098223190188378127 -0.14784122754995027
leaf_weight=447.04546564456541 4.3701633703894904 24.125831211335026 0.66636339109391229 199.35534176090732 6.8694218499585968 4.7842968311160794 4.8943196693435302 122.37187192961574 5.0907413018867356 220.15525039169006 6.707799761556088 7.0672492468729615 98.462679838761687 2.676889168098568 28.380361679010093 2666.4314245909918 3.9410439734347165 7.2097110683098427 79.127138652722351 15.720507302554322 60.563008125172928 7.3281065188348276 1344.4315580301918 37.634397762827575 24.568155175074935 1.865554475225508 3.9070325363427392 105.21130142966285 1553.0527517583687 11.184658002108334
leaf_count=51256 271 461 15 1188 205 20 71 1136 47 4409 639 177 325 32 330 59877 90 550 2502 245 1128 60 6626 196 370 53 36 1425 20388 157
internal_value=-0.000517089 -0.0094513 0.00659185 0.00600126 -0.00600264 0.00443598 0.00462855 0.0107576 -0.000236982 0.000194973 -0.00249118 -0.100891 0.0359746 0.0163974 0.0864528 -0.00668043 -0.101766 0.0219773 -0.001838 -0.000315125 0.000149771 0.00680092 0.00634372 -0.0268937 -0.0693375 0.0446395 0.00760157 -0.000600196 -0.0019365 -0.0408806
internal_weight=7105.2 3148.41 3956.79 3927.74 2701.37 3728.39 3724.01 1648.03 2075.98 2071.09 1843.73 12.158 223.511 125.049 29.0467 2677.24 10.8105 227.365 1831.57 1752.44 1745.73 1424.52 1419.73 75.3032 33.7618 9.19366 41.5414 1730.01 1669.45 116.396
internal_count=154285 111889 42396 42051 60633 40863 40592 8854 31738 31667 26708 224 1493 1168 345 60172 295 4959 26484 23982 23343 7361 7341 715 483 113 232 23098 21970 1582
is_linear=0
shrinkage=0.1


Tree=22
num_leaves=31
num_cat=0
split_feature=28 0 46 34 17 31 31 47 3 31 46 31 44 21 43 37 31 3 2 31 27 40 28 15 44 40 29 44 45 25
split_gain=32.7333 17.3868 14.9119 16.7187 12.2576 13.3182 18.3058 11.8663 11.2958 13.8677 11.0477 17.7611 10.8238 10.4906 10.3203 10.2373 11.5694 11.1306 9.80107 20.3644 14.8501 12.2367 11.7874 11.1434 14.8235 11.0714 10.3171 9.89447 13.6898 14.4194
threshold=0.1237604320049286 0.025978407822549347 5.6667613983154306 4.3390772342681894 0.8350312113761903 0.52952802181243908 0.52505707740783703 0.11689063161611558 0.26656760275363928 0.69160935282707225 4.9854979515075692 0.55585265159606945 0.72708478569984447 2.5000000000000004 0.77188032865524303 3.5000000000000004 0.19963768124580386 0.28371557593345648 0.087121214717626586 0.93273270130157482 0.97152990102767955 26.500000000000004 0.071287408471107497 -0.0089595308527350408 0.87297794222831737 20.500000000000004 74.500000000000014 0.41671106219291693 -0.16984155774116513 25.500000000000004
decision_type=2 2 2 2 2 2 2 2 2 2 2 2 2 2 2 2 2 2 2 2 2 2 2 2 2 2 2 2 2 2
left_child=7 -2 3 4 5 6 12 -1 9 -6 -7 -12 -3 -4 -9 16 -15 -17 -16 20 22 25 23 -20 -25 -21 -22 28 29 -24
right_child=1 2 13 -5 8 10 -8 14 -10 -11 11 -13 -14 15 18 17 -18 -19 19 21 26 -23 27 24 -26 -27 -28 -29 -30 -31
leaf_value=-0.023567899892169834 -0.024012274760476883 -0.010486190865885809 -0.042844140688748207 -0.23760829615781517 -0.1640144090356212 0.0022974691617446224 -0.1214228016897721 0.041513435617699775 -0.011900579977235584 -0.040368144079146989 0.13437179983169964 -0.067471075474389616 0.11204579849550203 -0.070917109610834389 0.028028717552622397 0.012999585042873976 0.058883051765699468 -0.063461421422713257 0.021866823154573001 0.018201499078480281 0.010276360968287875 0.0091362909936085184 -0.085757049737864008 -0.18736255965758741 -0.052575626120106411 0.05888640660393081 -0.099121946232795882 0.00081535778791653113 -0.14426237546893877 0.031317825950453813
leaf_weight=90.819255977985449 385.66899866482709 1220.3692482209299 32.627586216432974 3.0642263041809192 10.609444901347159 2621.9007827693131 14.859864125726743 122.40349668613635 185.53128202818334 62.541771280113608 4.8622517422772935 42.166911197360605 7.2519136928021899 7.53084184648469 294.85691381711513 493.81016279617324 77.886297929333523 19.802142628468573 9.7819241345860046 169.52946685533971 272.16537357168272 631.27946514845826 19.944809442386031 12.357114570681004 24.019112759269774 110.47120201215148 8.9025996131822449 114.5465559316799 12.20290322229266 22.262941295281053
leaf_count=3008 56348 32848 679 80 137 36551 437 1339 792 321 41 655 20 220 3635 7739 476 146 142 762 1462 4203 220 255 224 388 149 783 176 200
internal_value=0.000539327 -0.00358377 -0.00194403 -0.00411141 -0.00393984 -0.00254557 -0.0110978 0.0117115 -0.0250219 -0.0583011 0.0014358 -0.0466029 -0.00976236 0.0123752 0.0134675 0.0153828 0.0474392 0.0100517 0.0114508 0.00797785 -0.00832345 0.0168538 -0.0280983 -0.0728838 -0.0983632 0.0342533 0.00681126 -0.0158632 -0.0509753 -0.0240046
internal_weight=7106.03 5190.48 4804.81 4173.16 4170.09 3911.41 1242.48 1915.54 258.682 73.1512 2668.93 47.0292 1227.62 631.657 1824.72 599.029 85.4171 513.612 1702.32 1407.46 496.183 911.28 215.115 46.1582 36.3762 280.001 281.068 168.957 54.4107 42.2078
internal_count=154436 137490 81142 71882 71802 70552 33305 16946 1250 458 37247 696 32868 9260 13938 8581 696 7885 12599 8964 3611 5353 2000 621 479 1150 1611 1379 596 420
is_linear=0
shrinkage=0.1


Tree=23
num_leaves=31
num_cat=0
split_feature=47 28 28 28 15 42 16 38 29 21 20 49 16 46 38 46 29 16 38 38 42 32 41 41 49 43 43 49 20 3
split_gain=38.6222 16.8068 10.9834 23.4145 20.5493 14.566 12.5179 17.1351 12.137 9.06069 9.0483 9.0537 8.79629 8.68296 8.89636 10.3722 8.08951 8.1593 11.1161 7.94127 7.71654 10.328 7.17601 7.05531 8.34577 8.19058 9.91277 9.72229 7.46029 10.5516
threshold=0.038708990439772613 0.084797125309705748 0.062663611024618163 0.060271237045526511 3.1676570177078252 -0.10440195351839064 0.08419280126690866 0.82620134949684154 44.500000000000007 7.5000000000000009 0.056391403079032905 0.11748015880584718 0.037439044564962394 3.0419493913650517 1.0411664843559267 3.0909745693206792 19.500000000000004 0.022175183519721035 0.12556306272745135 7.0238094329833993 -0.068051733076572404 0.47358453273773199 -2.9236001968383785 0.099274333566427245 0.20106890797615054 -0.02867111191153526 -0.083261262625455842 0.082791514694690718 0.13197583705186847 0.051254015415906913
decision_type=2 2 2 2 2 2 2 2 2 2 2 2 2 2 2 2 2 2 2 2 2 2 2 2 2 2 2 2 2 2
left_child=12 2 3 13 5 -5 7 8 9 -4 -9 -12 23 16 15 -15 20 18 -18 22 -2 -22 -3 24 28 26 27 -25 -1 -30
right_child=1 19 6 4 -6 -7 -8 10 -10 -11 11 -13 -14 14 -16 -17 17 -19 -20 -21 21 -23 -24 25 -26 -27 -28 -29 29 -31
leaf_value=-0.017641372767904579 0.062160151499952215 -0.10847061246283206 0.049993603704487022 0.056083902917745836 0.037037845916769355 -0.15553334460227725 0.035114444835239941 -0.19773321892789505 0.076691432454796093 -0.080544005031583682 0.032462806575586083 -0.13103434885000628 -0.089854374338533494 -0.17597575119988015 -0.25130044932594814 0.013040094389279333 0.084765855341655705 0.017019458600419916 -0.11767174038391554 -0.11780596894647173 -0.017193138145636871 -0.15402424767863851 0.001541193037151156 0.0063006162687838487 0.010922023144305147 -0.076121029199535825 0.067380226866474588 -0.13395169318437791 0.026637616995041927 -0.084083705315633417
leaf_weight=961.13211251387838 10.808651416096835 5.9372912561520925 8.7204370293766278 3.8548191662412163 12.004832709208129 20.822186601348221 345.95236426102929 5.6982995599973973 20.687805541325361 13.625316423829643 6.9207381969317776 6.6330670639872551 15.51474207616411 3.8116936385631588 2.0920502590015522 12.180370671674607 3.7578594759106627 792.06441049231216 9.75092974770814 5.5961770429275921 67.989814389497042 6.0033760839141896 4413.4582269637613 106.34285117581021 98.592057400848716 11.160846434999256 26.931888727238402 5.183430691715329 11.249068563804029 36.646971566835418
leaf_count=82688 85 51 45 59 62 309 1948 321 389 288 143 172 546 61 38 99 16 6073 439 183 378 106 51520 4469 611 667 701 181 383 1311
internal_value=0.000751809 0.00422524 0.0139771 0.00805647 -0.0702723 -0.122476 0.0276843 -0.0135847 0.0214973 -0.0296017 -0.0920022 -0.0475507 -0.0150177 0.0112192 -0.05738 -0.0320117 0.0126125 0.0157051 -0.0613579 0.00124265 -0.0167656 -0.0282948 0.0013934 -0.0140942 -0.0168475 0.00628796 0.0129308 -0.00021792 -0.0195609 -0.0580792
internal_weight=7051.12 5778.37 1353.38 945.141 36.6818 24.677 408.238 62.2857 43.0336 22.3458 19.2521 13.5538 1272.75 908.459 18.0841 15.9921 890.375 805.573 13.5088 4424.99 84.8018 73.9932 4419.4 1257.24 1107.62 149.619 138.458 111.526 1009.03 47.896
internal_count=154342 62785 11031 7725 430 368 3306 1358 722 333 636 315 91557 7295 198 160 7097 6528 455 51754 569 484 51571 91011 84993 6018 5351 4650 84382 1694
is_linear=0
shrinkage=0.1


Tree=24
num_leaves=31
num_cat=0
split_feature=49 25 46 44 17 19 19 32 24 16 48 1 48 49 42 45 45 48 46 49 17 42 46 29 20 18 46 46 32 18
split_gain=43.209 21.1507 13.5573 13.3358 11.3793 9.90154 9.60422 10.7729 9.05445 8.82603 10.8631 9.68864 8.77745 8.74051 8.70638 17.7697 17.2346 15.8497 10.0024 12.021 11.3421 10.8396 9.5425 9.43366 17.1926 9.09301 11.4204 12.4407 11.1425 10.2757
threshold=0.072227437049150481 13.500000000000002 2.9144046306610112 2.8203992843627934 9.6507720947265643 3.9785559177398686 1.7830339074134829 0.1104957163333893 0.034582419320940978 0.070717498660087599 0.0090117161162197607 0.042572464793920524 0.0083349207416176813 0.14819727092981341 -2.3453429937362666 0.43404684960842138 0.92608472704887401 0.017487207427620891 4.4210481643676767 0.086282204836606993 -0.27533583343029017 0.2364270016551018 3.4666651487350468 11.500000000000002 0.12220009788870813 0.029340180568397049 2.8175791501998906 2.3469371795654301 0.019292804412543777 0.0359544474631548
decision_type=2 2 2 2 2 2 2 2 2 2 2 2 2 2 2 2 2 2 2 2 2 2 2 2 2 2 2 2 2 2
left_child=2 3 9 6 5 14 7 13 -6 10 12 -11 -1 -2 15 17 18 -3 20 -20 21 22 -16 -17 -25 -22 27 28 -27 -28
right_child=1 4 -4 -5 8 -7 -8 -9 -10 11 -12 -13 -14 -15 16 23 -18 -19 19 -21 25 -23 -24 24 -26 26 29 -29 -30 -31
leaf_value=-0.028805997843402362 0.016905701459451954 -0.13643047021726146 0.0026627906356038959 -0.16891931431157134 -0.26801203040588767 0.025161021806687972 0.01405921655681544 -0.0049194153623695934 0.02225380500794388 0.042758578581875477 -0.011469149823117808 -0.10141574821553352 -0.10084067696272936 -0.18647150836447612 0.057176861399282589 0.12794107910615674 -0.22932919902743834 -0.015911016487193577 -0.083077726580782232 0.040888112824325779 0.06188197140145002 -0.059297805386500292 -0.065791113605313964 -0.03560565332425069 0.082736159097431539 -0.20447107454891938 -0.20632073425774189 0.048370023365875786 0.0090825330235074341 -0.016816241454633448
leaf_weight=367.76170573855052 3.296010891441254 11.517491941340266 345.75831640645629 4.846668602898716 2.6486344626173368 365.88946613948792 291.09422197844833 1897.1780516612343 1.8083966984413562 5.7786854207515743 751.10142153431661 24.100696055451408 17.731073568109423 5.8883030652068555 19.925393870566044 10.020185885019599 3.0185107598081222 207.59274831693619 8.2598076830618066 147.68405740195885 32.587541538756341 47.260538348462433 9.2358675654977542 25.448194720549509 23.717741649597883 2.4459981466643503 2.9336446402594438 82.652017651125789 2170.0585844798479 116.14626316307113
leaf_count=49879 118 385 18763 40 55 2290 1286 17405 25 108 30491 827 1817 115 232 36 43 2776 186 1051 499 1386 167 357 101 75 79 607 21944 1054
internal_value=0.000239973 0.00436066 -0.0147283 -0.00322454 0.00943683 0.00965338 -0.00285909 -0.00544245 -0.15024 -0.0198833 -0.018473 -0.0735324 -0.0321193 -0.113485 0.00771054 -0.00911309 0.00948253 -0.0222461 0.00975566 0.0343221 0.00821293 -0.0297142 0.0182308 0.039506 0.0214827 0.0094172 0.00869709 0.0102908 0.0088421 -0.0214849
internal_weight=7005.39 5493.15 1512.23 2202.3 3290.85 3286.39 2197.46 1906.36 4.45703 1166.47 1136.59 29.8794 385.493 9.18431 2920.5 278.296 2642.21 219.11 2639.19 155.944 2483.25 76.4218 29.1613 59.1861 49.1659 2406.82 2374.24 2255.16 2172.5 119.08
internal_count=154197 52312 101885 18964 33348 33268 18924 17638 80 83122 82187 935 51696 233 30978 3655 27323 3161 27280 1237 26043 1785 399 494 458 24258 23759 22626 22019 1133
is_linear=0
shrinkage=0.1


Tree=25
num_leaves=31
num_cat=0
split_feature=49 34 2 28 18 43 31 46 46 38 16 28 43 28 21 29 49 19 32 19 45 45 15 46 28 41 30 49 48 31
split_gain=30.0386 17.1746 14.4287 12.526 12.1834 12.0215 11.3291 16.0339 10.05 11.3988 10.0915 10.0022 10.0464 20.2692 18.5741 21.9531 11.1163 13.119 10.8373 9.68552 9.63697 9.7031 13.0776 12.5818 12.5943 9.6041 9.52622 9.39229 17.5058 11.8645
threshold=0.093264412134885802 4.4316742420196542 0.016001024283468727 0.084797125309705748 0.01785828918218613 0.66776832938194286 0.20461190491914752 201816.55468750003 13.333323001861574 4.6043477058410653 0.015576572623103859 0.062663611024618163 6.623122215270997 0.033395292237401016 119.50000000000001 107.50000000000001 0.55158731341362011 0.74788343906402599 0.041775742545723922 -0.39807341992855066 -0.011909381486475466 -0.019780031405389305 -0.39379508793354029 0.13766613602638247 0.35873714089393621 -2.9236001968383785 43.500000000000007 0.34442918002605444 0.3090828955173493 0.97444063425064098
decision_type=2 2 2 2 2 2 2 2 2 2 2 2 2 2 2 2 2 2 2 2 2 2 2 2 2 2 2 2 2 2
left_child=1 6 -2 5 -3 -4 20 8 9 10 -8 12 -7 14 15 16 26 -18 -19 -13 21 23 -23 24 -1 -5 -14 28 29 -21
right_child=2 4 3 25 -6 11 7 -9 -10 -11 -12 19 13 -15 -16 -17 17 18 -20 27 -22 22 -24 -25 -26 -27 -28 -29 -30 -31
leaf_value=-0.097748319558787711 -0.19540664997003535 0.061527031942126956 -0.19098945637733819 -0.12120890845591695 -0.13120673660416979 0.011814446770318164 -0.02196639811358268 0.097502335286963018 -0.09564388497705982 0.10517095426139525 -0.0041448494940297675 -0.10977366990827508 -0.17597902757897721 -0.22539030813656769 0.049842398369815889 -0.27535141252140333 0.076847005271701435 -0.018832593730245626 -0.17924223299644254 0.023699452267291126 -0.038411165355489718 -0.042423516225956477 0.12642488460097659 -0.085464830048828044 0.13073968993889409 0.0021017122026580348 0.066424229424667955 0.044060513502654469 -0.19323882693747896 -0.091240588826724422
leaf_weight=3.6163486044388282 3.5999088330427176 46.5076736707706 2.8749191947281352 6.3270211126655331 3.5287029868923119 828.17334380419925 439.00641207222361 14.217497830744831 13.326051724143325 8.7826476356713084 1150.2087585440604 5.0710589513182631 7.7851382293738407 4.6494980370625845 32.66018029814586 3.8142612036317578 13.120053618215023 33.452612749300897 4.8183890534564844 156.94744588807225 231.44704370206455 7.2362820662092444 12.529439691803416 15.619080558419226 7.2461543323006481 3691.3412311857101 2.0476394118741155 200.18570184614509 4.0522368662059298 9.5257254473399353
leaf_count=338 243 942 120 54 100 6185 46952 514 1230 653 33999 64 203 100 212 78 65 250 50 1313 25287 496 550 765 200 32436 14 843 67 112
internal_value=0.000622261 -0.00989678 0.004723 0.0048669 0.0479349 0.0132729 -0.0114172 -0.00822832 -0.00916123 -0.00844003 -0.00906789 0.0137224 0.00816169 -0.0213955 -0.0116873 -0.0425857 -0.0280843 -0.00944564 -0.0390285 0.027492 -0.0300839 0.0115905 0.064609 -0.0279822 0.0546714 0.00189072 -0.125499 0.0293697 0.0121236 0.0171225
internal_weight=6963.72 1953.27 5010.45 5006.85 50.0364 1309.18 1903.24 1625.54 1611.32 1598 1589.22 1306.3 930.521 102.348 97.6983 65.0381 61.2238 51.3911 38.271 375.782 277.694 46.2473 19.7657 26.4816 10.8625 3697.67 9.83278 370.711 170.525 166.473
internal_count=154435 112026 42409 42166 1042 9676 110984 83348 82834 81604 80951 9556 7157 972 872 660 582 365 300 2399 27636 2349 1046 1303 538 32490 217 2335 1492 1425
is_linear=0
shrinkage=0.1


Tree=26
num_leaves=31
num_cat=0
split_feature=44 44 32 30 24 20 44 20 0 41 46 46 19 23 42 20 19 24 23 19 27 19 27 48 42 20 33 32 32 47
split_gain=20.3774 11.5414 20.5395 11.0904 9.56866 11.4408 15.6025 9.87921 13.7776 16.6402 11.908 24.773 10.0452 9.3694 9.07114 9.23872 13.2537 8.67043 19.0033 21.5198 13.3123 21.2468 11.5538 10.9287 9.02019 9.54729 8.61821 8.54429 10.519 9.9135
threshold=-0.22090341895818708 -0.22558765858411786 0.050114154815673835 101.50000000000001 0.017021585255861286 0.2045036777853966 5.1744334697723398 0.082425095140934004 0.75000000000000011 0.31329575181007391 1.7094572782516482 1.9476850032806399 1.3603169918060305 0.97877970337867748 1.4079505205154421 0.15735538303852084 0.54388746619224559 0.039927536621689803 0.98784184455871593 2.6870437860488896 0.97877970337867748 2.9405127763748173 0.97375309467315685 0.13778510689735415 -83.237796783447251 0.23818824440240863 0.81666666269302379 0.015904636122286323 0.042900964617729194 0.025769045576453212
decision_type=2 2 2 2 2 2 2 2 2 2 2 2 2 2 2 2 2 2 2 2 2 2 2 2 2 2 2 2 2 2
left_child=1 3 -3 27 -2 6 7 -6 9 12 14 -12 13 -9 -11 16 -16 18 19 -7 22 -22 23 -21 25 -19 -26 -1 29 -29
right_child=4 2 -4 -5 5 17 -8 8 -10 10 11 -13 -14 -15 15 -17 -18 24 -20 20 21 -23 -24 -25 26 -27 -28 28 -30 -31
leaf_value=-0.19545113540028658 0.028921108034224104 0.13579722941769676 -0.073407555589947576 -0.067205570647097826 0.0050673498108521897 -0.17490027791987744 -0.18016732796863769 -0.016606862781262468 -0.048338567217586184 0.12296229349810642 -0.10951018250543534 0.016352268780303096 -0.14525304290515781 0.058248213166131185 0.01915832897329094 0.077216033767777609 -0.19287544770561935 0.040201502896972642 0.0083894927170952548 0.03994972461871741 0.10642933731626894 -0.17515920058419207 0.11302080642768969 -0.17592623422412132 0.012486306851404498 -0.20569825494089133 0.12062742395150579 -0.09873214521785989 -0.0050709113565790831 0.052381971537223293
leaf_weight=2.3392521673813453 161.85717198834755 5.2148544653318814 46.891681020963006 28.391622827213723 1192.6172681369353 13.068458540830759 4.8537675496190777 451.67944979667664 81.408825185149908 14.068394176661966 17.713598246686161 133.46996931917965 5.8893988351337603 17.364093353040516 28.856450334191322 26.54325563646853 3.2834387682378283 2.6774834953248492 131.81314267683774 6.0726584000512975 3.6795146008953443 9.8598985848948342 9.0308595728129131 3.820424122735858 1514.1212772384752 3.8483214033767581 7.4054967872798434 4.755329637322574 2925.1782425098354 49.857938452623785
leaf_count=130 1061 34 1143 9571 23834 178 59 5447 482 35 234 1157 190 84 190 119 50 8 687 55 16 135 14 61 8000 43 13 292 100396 448
internal_value=0.000276804 -0.0058089 -0.0524702 -0.00500128 0.0051242 0.00407843 -0.00109699 -0.000656432 -0.00940497 -0.00486972 0.017602 0.00160545 -0.0154654 -0.0138357 0.0508442 0.033555 -0.00250322 0.0100804 -0.0108495 -0.0665459 -0.0229268 -0.0986338 0.0312389 -0.0434154 0.0125095 -0.104808 0.0130126 -0.00440905 -0.00425908 0.039224
internal_weight=6907.63 3062.63 52.1065 3010.52 3845 3683.15 1977.75 1972.89 780.277 698.868 223.935 151.184 474.933 469.044 72.7515 58.6831 32.1399 1705.4 177.345 45.5318 32.4634 13.5394 18.9239 9.89308 1528.05 6.5258 1521.53 2982.13 2979.79 54.6133
internal_count=154166 112014 1177 110837 42152 41091 31881 31822 7988 7506 1785 1391 5721 5531 394 359 240 9210 1146 459 281 151 130 116 8064 51 8013 101266 101136 740
is_linear=0
shrinkage=0.1


Tree=27
num_leaves=31
num_cat=0
split_feature=28 35 31 28 49 49 37 38 2 15 49 47 44 34 46 46 31 38 19 49 44 34 28 38 44 28 46 29 15 44
split_gain=21.8402 16.5891 13.3047 11.2726 11.6222 13.0292 10.2522 9.95234 10.8477 9.13038 9.08852 13.5449 19.7856 17.8355 11.844 14.0154 11.4799 9.87167 10.0077 9.78592 9.90752 9.03513 8.99609 9.86469 8.95601 8.95351 8.67734 8.42792 11.3398 10.7079
threshold=0.44467119872570043 0.027402402833104137 0.92322430014610302 0.33123010396957403 0.35556679964065557 0.18894781917333606 36.500000000000007 1.3127385377883913 0.060661764815449722 -0.67113724350929249 0.19449152797460559 0.19301296025514605 0.68683850765228283 0.49999995529651647 0.50045418739318859 0.53335633873939525 0.98576492071151745 0.041960094124078758 8.0522651672363299 0.17857333272695544 -0.14229074865579602 0.12499999627470972 0.32150723040103918 1.1213203668594363 -0.12236949056386946 0.16330596059560779 1.7045440077781679 24.500000000000004 -0.049093628302216523 -0.17561373859643933
decision_type=2 2 2 2 2 2 2 2 2 2 2 2 2 2 2 2 2 2 2 2 2 2 2 2 2 2 2 2 2 2
left_child=2 -2 3 7 5 6 -5 9 -9 -1 16 12 13 17 25 -16 19 -12 -19 -4 21 -21 23 -11 -7 -15 -25 28 29 -17
right_child=1 -3 10 4 -6 24 -8 8 -10 22 11 -13 -14 14 15 27 -18 18 -20 20 -22 -23 -24 26 -26 -27 -28 -29 -30 -31
leaf_value=-0.18189830404492027 -0.034390219072538135 -0.0055251633019619568 0.021028972234809453 0.010840006667883768 0.043153548181207875 -0.03528098137728871 0.093987873360090859 -0.020250086087638355 -0.19845593296614802 -0.0046255009402544267 0.072170631687517861 0.011372743312528605 -0.2437270695075292 -0.089996967736630698 -0.18902710252071744 -0.084845816861258097 -0.14604014556669986 -0.17049041485962688 0.047816625396305074 0.11161179204168555 0.085077153032492941 -0.17739215538597489 -0.067410101593330815 0.10137902197509059 0.020555678870671949 0.08468180700061155 0.011810480054852435 0.0051565779057764667 -0.17514089461026069 0.067190939371716371
leaf_weight=2.850908273831009 222.93346840527374 1862.572838197113 219.05710213095881 493.37315256515285 95.160654456354678 108.09344014059752 15.288619973696767 9.3223103280179185 5.3912315275520077 2061.9052413015743 2.6578967962414053 1211.0285400622524 3.8120680656284085 3.3970726076513555 4.4391233827918759 11.007108418270949 3.7540068390080696 13.332176798488943 2.4924731724895528 1.7317539602518071 44.227084036916494 2.8820194019936025 21.376071545062587 11.27348499628715 39.123076180927455 21.542893661884591 266.66767915477976 97.788913255091757 6.3577442374080411 7.9987840279936799
leaf_count=28 43894 43903 3374 15129 376 822 318 202 98 33069 13 6609 72 36 49 70 139 245 29 6 207 67 1004 100 196 109 3416 758 45 21
internal_value=-6.98925e-05 -0.00861074 0.00365076 -0.000185641 0.0104951 0.00575667 0.0133391 -0.00355779 -0.085547 -0.0030475 0.0108949 0.00761649 -0.0184032 -0.0133805 -0.00213894 -0.0144588 0.0276201 -0.106154 -0.136106 0.0300536 0.0705301 -0.0689161 -0.00283156 -0.00224159 -0.0204423 0.0608888 0.0154434 -0.00816634 -0.0595326 -0.0208599
internal_weight=6872.84 2085.51 4787.33 3129.83 751.039 655.878 508.662 2378.79 14.7135 2364.07 1657.51 1385.85 174.826 171.014 152.532 127.592 271.652 18.4825 15.8246 267.898 48.8409 4.61377 2361.22 2339.85 147.217 24.94 277.941 123.153 25.3636 19.0059
internal_count=154404 87797 66607 54758 16841 16465 15447 37917 300 37617 11849 8056 1447 1375 1088 943 3793 287 274 3654 280 73 37589 36585 1018 145 3516 894 136 91
is_linear=0
shrinkage=0.1


Tree=28
num_leaves=31
num_cat=0
split_feature=31 28 34 2 44 23 19 24 44 38 46 23 27 28 27 28 49 19 2 30 19 19 39 49 46 33 2 16 33 2
split_gain=32.6026 12.517 12.0373 12.4227 10.6885 10.3636 10.1903 13.4159 9.526 8.63359 20.666 7.93384 7.90387 12.9386 11.1304 12.5868 12.6114 9.95239 12.3806 10.3004 8.23439 13.7636 8.19773 7.80059 7.17898 9.26159 7.96912 7.16499 6.90028 7.01681
