tree
version=v4
num_class=1
num_tree_per_iteration=1
label_index=0
max_feature_idx=50
objective=lambdarank
feature_names=Column_0 Column_1 Column_2 Column_3 Column_4 Column_5 Column_6 Column_7 Column_8 Column_9 Column_10 Column_11 Column_12 Column_13 Column_14 Column_15 Column_16 Column_17 Column_18 Column_19 Column_20 Column_21 Column_22 Column_23 Column_24 Column_25 Column_26 Column_27 Column_28 Column_29 Column_30 Column_31 Column_32 Column_33 Column_34 Column_35 Column_36 Column_37 Column_38 Column_39 Column_40 Column_41 Column_42 Column_43 Column_44 Column_45 Column_46 Column_47 Column_48 Column_49 Column_50
feature_infos=[0.0035971223842352629:1] [0.0035971223842352629:1] [0.0035971223842352629:1] [0.022326022386550903:0.75] none [0.0035971223842352629:0.5] [0.073655799031257629:0.35355338454246521] [0.022326022386550903:0.75] none [0.0035971223842352629:0.5] [0.073655799031257629:0.35355338454246521] [0.022326022386550903:0.75] none [0.0035971223842352629:0.5] [0.073655799031257629:0.35355338454246521] [-0.80622577667236328:13.27354907989502] [0:1] [-0.80622577667236328:13.27354907989502] [0:1] [-0.80622577667236328:13.27354907989502] [0:1] [1:278] [1:278] [0.0035971223842352629:1] [0.0035971223842352629:1] [1:278] [1:278] [0.0035971223842352629:1] [0.0035971223842352629:1] [1:278] [1:278] [0.0035971223842352629:1] [0.0035971223842352629:1] [-0.98969072103500366:0.99350649118423462] [0.010309278033673763:153.999755859375] [0.0036496350076049566:1] [0.0035971223842352629:1] [-244:226] [0.0042735044844448566:108] [1:278] [1:278] [-12.702733039855957:13.014169692993164] [-13415.98828125:9846.9658203125] [-0.80622577667236328:13.27354907989502] [-0.80622577667236328:13.27354907989502] [-1:1] [0:100000000] [0:1] [0:1] [0.0036454047076404095:1] [2:278]
tree_sizes=3511 3483 3488 3500 3492 3498 3488 3498

Tree=0
num_leaves=31
num_cat=0
split_feature=15 23 32 31 20 23 44 15 38 36 28 23 3 36 1 42 31 38 29 32 23 27 26 1 31 38 1 46 36 20
split_gain=1495.07 329.039 180.101 85.8277 44.2097 43.4092 41.5831 34.1505 25.5528 19.7389 18.4464 16.1733 16.0813 17.4644 16.0673 15.8328 15.5458 13.9213 14.5297 13.4793 12.9346 10.8725 10.8268 10.3666 10.062 10.0614 9.82371 9.75362 9.58958 9.33922
threshold=-0.17721047997474668 0.41505704820156103 0.22954008728265765 0.46653491258621221 0.055581087246537215 0.21987672150135043 0.10878747329115869 0.7661418914794923 0.16718427091836932 0.024695121683180336 0.43734297156333929 0.5173163414001466 0.052946504205465324 0.019803921692073349 0.028991596773266796 1.0397446155548098 0.4812265038490296 0.5588989555835725 35.500000000000007 0.74458473920822155 0.95463120937347423 0.92688494920730602 255.50000000000003 0.030776515603065494 0.68698972463607799 0.91188234090805065 0.046536797657608993 19.285677909851078 0.015038444194942715 0.057704571634531028
decision_type=2 2 2 2 2 2 2 2 2 2 2 2 2 2 2 2 2 2 2 2 2 2 2 2 2 2 2 2 2 2
left_child=1 3 6 5 9 21 28 10 24 27 19 23 15 -14 -7 22 -15 -11 -19 -4 -8 -1 -10 -6 -5 -13 -16 -3 -2 -27
right_child=2 4 7 8 11 14 20 -9 12 17 -12 25 13 16 26 -17 -18 18 -20 -21 -22 -23 -24 -25 -26 29 -28 -29 -30 -31
leaf_value=-0.13419760202472727 -0.062915388702687466 -0.064123320119541846 0.03835180166295684 -0.068928521986023089 -0.15002255760040153 -0.11740428416262723 0.094381210857954811 0.064853508152151559 -0.094027559556207008 0.072549113351407318 -0.00022851647507362755 0.037605760111320011 -0.13316843349679006 0.024679178320268086 -0.041986120478607419 0.034868634090996838 -0.067845617135969649 -0.031189538866659851 0.020308554436536286 -0.02728566303282506 0.1230294471747464 0.10628370092558084 0.19610623859483461 -0.014548352799944689 0.062217038851899123 0.10697702654827881 -0.0848821119809028 0.086705432438120927 0.069298201801840736 -0.0051265762731574306
leaf_weight=412.12617973497254 5.5686070007213848 172.50229893698997 438.56867777642037 7.6690001428942187 5.9242263383639502 110.01493765140185 301.14100410876563 253.60966185937286 20.568528286108634 15.261752975056877 243.20769058015139 172.10521422303282 38.565418681653682 19.523665248852922 77.564283376268577 31.351306034164736 259.83884895118535 419.1387825384445 63.0246787185024 33.690536380163394 330.63796134488075 1.8886579860409245 1.3719823919236649 121.29244839283638 24.66949012799887 7.8841046178131355 171.28188097455131 4.3967146008217233 369.34277964195644 129.42529174694209
leaf_count=25563 635 16008 14171 489 435 10773 6028 4711 2477 279 7450 3606 3315 441 3182 2392 7736 12994 2981 1329 5170 49 6 2517 654 112 4731 222 10634 3093
internal_value=0.000376383 -0.0546617 0.0640952 -0.0915186 -0.0156326 -0.111036 0.0937177 0.033323 -0.0541392 -0.0316847 0.0221465 0.00915803 -0.0615662 -0.0700876 -0.0855808 -0.0107292 -0.0613794 -0.0214818 -0.0244581 0.0336693 0.109374 -0.133101 -0.0758849 -0.0208571 0.0311162 0.0214988 -0.0715116 -0.0603746 0.0673344 0.00131025
internal_weight=4263.16 2287.39 1975.77 1176.43 1110.96 772.876 1006.69 969.077 403.558 674.324 715.467 436.631 371.22 317.928 358.861 53.2918 279.363 497.425 482.163 472.259 631.779 414.015 21.9405 127.217 32.3385 309.415 248.846 176.899 374.911 137.309
internal_count=154183 104055 50128 61808 42247 44298 22467 27661 17510 32484 22950 9763 16367 11492 18686 4875 8177 16254 15975 15500 11198 25612 2483 2952 1143 6811 7913 16230 11269 3205
is_linear=0
shrinkage=0.1


Tree=1
num_leaves=31
num_cat=0
split_feature=23 20 47 23 15 32 45 43 28 49 22 49 49 20 22 28 45 23 38 33 17 17 37 20 20 28 20 38 38 45
split_gain=485.549 215.217 94.9165 75.2446 69.4372 60.7671 44.9298 34.4001 36.3324 35.4387 48.1778 32.5361 31.3732 23.8251 28.2828 23.3696 26.4285 29.9979 36.9565 22.7979 28.1345 38.6735 27.4071 44.6146 33.6215 33.2088 30.2802 28.8082 35.4127 28.2396
threshold=0.49907062947750097 0.4629120826721192 0.0034541173372417693 0.76010203361511242 1.2967175841331484 0.27634884417057043 -0.839646816253662 -0.51908332109451283 0.085801929235458388 0.094617519527673735 7.5000000000000009 0.74166667461395275 0.018145289272069934 0.012331765145063402 4.5000000000000009 0.087038867175579085 -0.28852088749408716 0.69793793559074413 0.84152376651763927 0.1897435933351517 -0.78123235702514637 -0.64941266179084767 8.5000000000000018 0.18531986325979236 0.2422277703881264 0.72622370719909679 0.44722221791744238 1.0204780697822573 1.0396432280540469 0.89769753813743602
decision_type=2 2 2 2 2 2 2 2 2 2 2 2 2 2 2 2 2 2 2 2 2 2 2 2 2 2 2 2 2 2
left_child=2 3 -1 12 6 -4 -3 13 -9 -10 -11 15 -2 14 -7 -8 -17 -18 -19 -5 -21 -22 23 25 -24 27 -25 -23 -29 -30
right_child=1 4 5 19 -6 7 11 8 9 10 -12 -13 -14 -15 -16 16 17 18 -20 20 21 22 24 26 -26 -27 -28 28 29 -31
leaf_value=-0.09491235995944948 -0.09970801006006913 0.091757019836262915 0.0089575217542090593 0.013802116126939785 0.056477980176793174 0.028367895887122404 0.056073197098393951 -0.18786882944586886 -0.041106275754152273 -0.061420140165579999 0.0229290666717866 -0.015367480765644898 -0.0098109905548170919 -0.052394106548639477 -0.13443488696833159 -0.11534391264808863 0.0606096593886188 -0.16093096585616784 0.011440344747788113 0.12858723268313002 -0.10322778029532294 0.062479434313938577 0.036186021333466066 0.026415820080856241 -0.20529644426561111 0.064101760571364935 -0.070897612301900045 -0.17940385232730235 -0.032990140566470962 -0.15954821313708778
leaf_weight=286.66200537420809 39.404080126900226 82.529008232988417 289.87558433494996 3553.938931642042 1056.1710077982862 12.283579491078852 188.01655528508127 15.155903232283888 1040.865474429098 97.725567107088864 220.50513134105131 262.08414039388299 2624.232023789431 210.12042359635234 81.276305048726499 15.026224429719148 133.05447033280507 12.811418354511259 427.07842270191759 16.011738672852516 38.580671638250351 25.69862994318828 216.48145682015456 312.92020383663476 5.9233759790658942 33.316846115514636 35.614381492137909 19.158050424885005 329.7214983785525 18.627098493278027
leaf_count=19744 4783 216 6234 29520 2375 46 853 228 41623 577 1843 434 35263 2220 1507 72 682 71 1474 20 71 109 1532 801 56 84 85 173 1546 93
internal_value=0.000545425 0.0104971 -0.0411529 0.00223758 0.0380809 -0.0333214 0.0207417 -0.0406254 -0.0338946 -0.0321776 -0.00297376 0.0150958 -0.0111409 -0.0710846 -0.11306 0.0253845 0.0155711 0.0190046 0.00642018 0.00997431 -0.00295638 -0.00498935 -0.0011896 -0.0100691 0.0297545 -0.0317573 0.016472 -0.0398796 -0.0470373 -0.0397575
internal_weight=11700.9 9446.4 2254.47 7269.63 2176.77 1967.81 1120.6 1677.93 1374.25 1359.1 318.231 1038.07 2663.64 303.68 93.5599 775.987 587.971 572.944 439.89 4605.99 1052.05 1036.04 997.462 775.057 222.405 426.522 348.535 393.205 367.507 348.349
internal_count=154335 80313 74022 74136 6177 54278 3802 48044 44271 44043 2420 3586 40046 3773 1553 3152 2299 2227 1545 34090 4570 4550 4479 2891 1588 2005 886 1921 1812 1639
is_linear=0
shrinkage=0.1


Tree=2
num_leaves=31
num_cat=0
split_feature=43 19 23 49 32 49 19 46 46 33 16 46 23 32 42 17 25 46 17 32 42 20 32 17 18 32 20 28 23 41
split_gain=401.3 148.591 118.717 68.9978 55.5032 34.8372 24.7725 23.9834 42.9969 21.8637 21.2758 20.6018 26.605 20.2048 21.4165 27.8811 26.7531 19.5599 26.5681 19.2669 18.4884 17.417 17.1006 18.01 23.4366 22.0435 18.5164 16.8971 16.1001 16.293
threshold=-0.17180611938238141 0.91718608140945446 0.37882125377655035 0.91666665673255932 0.34491379559040075 0.081188403069973006 -0.4676490426063537 0.34962706267833715 0.25925920903682714 0.0032331568654626612 0.1425069943070412 0.057056957855820663 0.58269196748733532 0.0089687905274331587 -0.043460248038172715 3.2778480052948002 43.500000000000007 83.164524078369155 -0.740801841020584 0.64213106036186229 2.1872339248657231 0.18993670493364337 0.029895432293415073 -0.45461380481719965 0.03405828773975373 0.73273876309394848 0.35416667163372045 0.090744402259588255 0.89383003115654003 0.79787415266036998
decision_type=2 2 2 2 2 2 2 2 2 2 2 2 2 2 2 2 2 2 2 2 2 2 2 2 2 2 2 2 2 2
left_child=2 6 4 7 -1 -4 11 8 13 20 22 -2 -13 -3 15 -15 -16 28 -19 -14 -6 -9 -7 24 -24 -25 -26 -21 29 -8
right_child=1 3 5 -5 9 10 17 21 -10 -11 -12 12 19 14 16 -17 -18 18 -20 27 -22 -23 23 25 26 -27 -28 -29 -30 -31
leaf_value=-0.0069255431890507188 0.052777202253991344 -0.21431212108463593 -0.030375451652501353 0.071585314962199179 -0.073404358841577616 -0.20072916757769393 0.00096179124482188676 0.074192451179113786 -0.0531948315324983 -0.033525054688399072 -0.064399403828030152 -0.086901085496325137 -0.12547628776673941 0.0053711504786657796 0.080761422497955482 -0.18221853175810609 0.0019369517497086421 0.11593653229371018 -0.10157885180202847 -0.20421913806325015 0.02773491273249086 0.027645120067403148 0.0031871779649510603 0.024317658532700934 -0.036339700801819773 -0.045452154042339196 -0.17966080495015505 -0.0086558818770959729 0.011822469981266072 -0.070738166502166494
leaf_weight=200.39988764480222 36.560331695480272 3.5718323378823689 776.5783073088387 370.77965662442148 833.42247398232576 4.1569419847801319 2842.6769399514887 84.522607392398641 102.29739180859178 187.89953261427581 51.559182092547417 60.585429725702852 15.321040336042641 106.07593960477971 100.28806585446 8.5625869361683709 75.452911692671478 6.7479906603693953 33.456586142536253 4.472381902858614 18.474899772321805 1642.8440129088704 316.21157261915505 406.11555439699441 123.83321930747479 50.967248781584203 9.722106544300912 364.1002001860179 2013.744999719318 32.050359148532152
leaf_count=4829 145 46 30092 757 43233 150 39286 601 682 4907 191 489 71 721 242 52 496 14 210 28 197 6361 1456 3285 762 471 60 1761 12582 200
internal_value=-0.00019864 0.0115906 -0.0314751 0.0317824 -0.0551136 -0.0146184 0.00228023 0.0248329 0.00264446 -0.0644008 -0.00190586 -0.0193805 -0.0253158 0.022077 0.0249847 -0.00864031 0.0469188 0.00439432 -0.0650708 -0.0155965 -0.071211 0.0299227 0.00163102 0.00255862 -0.0116481 0.0165379 -0.0467727 -0.0110289 0.00496562 0.000162408
internal_weight=10883.5 7904.11 2979.34 2494.4 1240.2 1739.14 5409.72 2123.62 396.249 1039.8 962.566 481.039 444.479 293.951 290.38 114.639 175.741 4928.68 40.2046 383.894 851.897 1727.37 911.007 906.85 449.767 457.083 133.555 368.573 4888.47 2874.73
internal_count=154377 64744 89633 9958 53166 36467 54786 9201 2239 48337 6375 2494 2349 1557 1511 773 738 52292 224 1860 43430 6962 6184 6034 2278 3756 822 1789 52068 39486
is_linear=0
shrinkage=0.1


Tree=3
num_leaves=31
num_cat=0
split_feature=24 16 47 20 0 19 28 17 3 20 24 37 16 29 29 17 27 34 32 43 24 19 28 35 37 45 38 32 20 38
split_gain=370.543 107.035 94.9234 66.2418 47.5221 46.9533 36.7648 33.7191 32.957 29.3722 21.8355 29.0971 20.5786 19.247 32.8455 19.2936 19.0981 18.9083 21.3487 18.9038 19.6596 18.2129 19.0197 17.6178 17.3941 17.1208 17.9149 18.1027 27.2414 15.7958
threshold=0.3296902477741242 0.47673159837722784 0.012353973463177683 0.45993590354919439 0.29166667163372045 0.15785033255815509 0.24251390248537066 7.0436358451843271 0.35507015883922582 0.030772873200476173 0.31262859702110296 -9.4999999999999982 0.47434209287166601 30.500000000000004 7.5000000000000009 -0.4276695698499679 0.84887903928756725 0.26636077463626867 0.048826333135366447 -0.56145164370536793 0.34005075693130499 3.852802157402039 0.22201336920261386 0.016807910054922107 -8.4999999999999982 -0.53033086657524098 0.92462974786758434 0.020460491999983791 0.4803846031427384 1.0137458443641665
decision_type=2 2 2 2 2 2 2 2 2 2 2 2 2 2 2 2 2 2 2 2 2 2 2 2 2 2 2 2 2 2
left_child=1 6 4 13 9 19 8 29 10 23 11 16 -8 14 -3 -16 -1 18 -18 -4 -21 -7 -23 -2 -11 26 -13 -28 -29 -5
right_child=2 3 5 7 -6 21 12 -9 -10 24 -12 25 -14 -15 15 -17 17 -19 -20 20 -22 22 -24 -25 -26 -27 27 28 -30 -31
leaf_value=0.074665787966460923 -0.048128451179504352 0.036321584232648814 -0.063019494861603978 0.072629370009694466 0.0031912735731185384 0.0006846602456575682 -0.0042297614371103343 -0.057946099808378795 -0.10879868543165805 0.053803813012501506 0.074142403210918903 0.054898774896426007 -0.20500306311695421 0.037625574955473459 -0.18232506158054751 -0.0075177504578916813 -0.1114372236878548 -0.087316020830382202 0.03084090032000807 -0.070254539147122694 -0.019168797075017344 -0.053095045014650982 0.099969819767173701 -0.085988100238511833 -0.03897211917474392 0.013271718658322077 0.077937512233260425 0.0065910938130197758 -0.16062428709758914 0.042723098382468225
leaf_weight=14.635049149394034 181.44452619261574 250.38458234071732 110.90233042580076 481.43101844750345 124.26830655708909 845.24523297022097 1612.7108288500458 24.325277687981725 21.590640783309937 25.277499948861077 61.50095109641552 204.50790220499039 5.1213184744119635 350.76771192974411 6.4249986317008725 364.97110418230295 14.140062769874929 56.876468821894377 41.493487509898841 77.820510287769139 2355.0896515566856 10.507598723052068 35.697607423644513 381.02758028660901 100.77046006754972 2172.3107130443677 20.484844444319606 41.880750482901931 12.696110981516538 278.93897096067667
leaf_count=324 25011 571 1299 1113 173 6166 20204 139 47 664 635 594 43 1913 43 1568 204 1695 661 1271 44333 129 208 23091 3309 17574 92 258 101 738
internal_value=-0.000366223 0.0155555 -0.0229936 0.0363357 -0.0537251 -0.0157225 0.00702364 0.0579507 0.0142488 -0.0639977 0.015255 0.0138507 -0.00486532 0.0188957 0.00832957 -0.0105418 -0.0327934 -0.0467715 -0.00532112 -0.0226434 -0.0208029 0.00402657 0.0651611 -0.0737752 -0.0203669 0.0162695 0.0395626 -0.00222119 -0.0323079 0.0616584
internal_weight=10285.2 6037.19 4248.05 1757.24 812.788 3435.26 4279.95 784.695 2662.12 688.52 2640.53 2579.03 1617.83 972.548 621.781 371.396 127.145 112.51 55.6336 2543.81 2432.91 891.45 46.2052 562.472 126.048 2451.88 279.57 75.0617 54.5769 760.37
internal_count=154171 48517 105654 6085 52248 53406 42432 1990 22185 52075 22138 21503 20247 4095 2182 1611 2884 2560 865 46903 45604 6503 337 48102 3973 18619 1045 451 359 1851
is_linear=0
shrinkage=0.1


Tree=4
num_leaves=31
num_cat=0
split_feature=43 19 31 49 23 43 24 42 28 24 24 46 33 24 41 44 28 28 38 49 21 32 19 47 48 31 41 46 35 19
split_gain=321.662 102.199 91.5258 69.3137 52.7592 32.36 37.0309 24.6663 21.7229 20.6283 28.9555 20.3299 18.7235 18.5123 22.5386 17.3176 16.6151 25.1555 21.4374 17.3308 16.4874 16.7607 25.6673 15.7888 15.645 15.5643 31.7012 19.7405 15.2632 14.8876
threshold=0.028149017132818702 0.73549610376358043 0.58596238493919384 0.91666665673255932 0.25846518576145178 1.3147881627082827 0.35701009631156927 -27.629407882690426 0.89914125204086315 0.64453628659248363 0.92774429917335521 0.14424999803304675 0.95916664600372326 0.074179895222187056 2.5801770687103276 -0.80343326926231373 0.57115492224693309 0.42670913040637976 0.75063452124595653 0.38879661262035375 2.5000000000000004 0.13563580811023715 0.74788343906402599 0.33011150360107427 0.13197583705186847 0.38899697363376623 -0.07357770204544066 0.48575033247470861 0.031754031777381904 0.070682346820831313
decision_type=2 2 2 2 2 2 2 2 2 2 2 2 2 2 2 2 2 2 2 2 2 2 2 2 2 2 2 2 2 2
left_child=2 12 4 5 25 7 13 -3 23 -4 16 24 29 -7 -15 -12 17 19 -18 -11 -9 -22 -23 -6 -8 26 -1 -27 -17 -2
right_child=1 3 9 -5 8 6 11 20 -10 10 15 -13 -14 14 -16 28 18 -19 -20 -21 21 22 -24 -25 -26 27 -28 -29 -30 -31
leaf_value=-0.014455329542417844 -0.001358344028314808 -0.20785290895919439 0.00052156203407116304 0.076758176721818047 -0.031738079012515068 0.027149023959521686 -0.026644436656574441 0.11038337776571575 -0.00089781575834033123 -0.048532689649054585 -0.16384030302744981 -0.12582863784103582 -0.19121995903296785 0.055302645440444109 -0.081899304111443708 -0.076418705018090879 0.020312947394010253 -0.13046024918519261 -0.054258183368877104 0.14425611330967555 0.01413795642594393 0.06133125011241336 -0.04864225706188513 -0.1459440957102621 0.15622225349719321 -0.069676617930469364 -0.088627510537756929 0.010267044320914832 0.03193517187992629 0.011771415104255003
leaf_weight=70.790039323968813 2180.9660183804808 5.2402606289833775 1310.5746174958767 282.46020877640694 1387.4862153230933 709.62314242310822 34.654567651916295 15.977101052179931 253.07031519280281 41.966178639093414 5.3662059120833865 19.7957947794348 4.9276480386033645 503.73889490403235 12.264585649594663 14.682064155116676 62.133065651985817 46.995844346121885 101.56998523732182 5.2457455843687049 666.26818622683641 26.898271456360817 100.58538402989507 12.211725514382122 5.408680520951747 69.554006520775147 309.78830903151538 55.562873738701455 113.50098415883258 1429.7265236172825
leaf_count=2456 22298 52 24207 753 42844 2914 220 39 3266 1344 32 63 93 1776 48 604 1239 1429 3238 12 4099 64 309 49 7 3103 24174 2955 800 9431
internal_value=-0.000319112 0.0141713 -0.0228347 0.0302496 -0.0365077 0.0239953 0.0338782 0.00840655 -0.0278597 -0.00549516 -0.0256386 -0.0429221 0.00357481 0.0376291 0.0520416 0.0121565 -0.0452094 -0.0786675 -0.0259549 -0.0271118 0.0098061 0.00778162 -0.0254385 -0.0327345 -0.00195679 -0.064772 -0.074831 -0.0341746 0.0195243 0.00384065
internal_weight=9859.03 5998.54 3860.5 2382.92 2158.46 2100.45 1285.49 814.969 1652.77 1702.03 391.46 59.859 3615.62 1225.63 516.003 133.549 257.911 94.2078 163.703 47.2119 809.729 793.752 127.484 1399.7 40.0632 505.695 380.578 125.117 128.183 3610.69
internal_count=153918 42166 111752 10344 78847 9591 5028 4563 46159 32905 8698 290 31822 4738 1824 1436 7262 2785 4477 1356 4511 4472 373 42893 227 32688 26630 6058 1404 31729
is_linear=0
shrinkage=0.1


Tree=5
num_leaves=31
num_cat=0
split_feature=44 19 23 16 47 23 0 38 31 17 42 43 18 48 46 46 33 31 15 23 0 49 17 42 19 44 2 41 19 17
split_gain=276.231 107.384 68.7691 43.3441 33.4803 25.2742 23.0079 22.1208 21.4221 20.5537 19.7227 16.4107 16.2105 16.1721 16.1642 16.0207 35.1388 20.4997 16.9087 20.6525 15.7591 18.9185 18.297 14.7076 14.253 16.6663 14.2518 14.0722 15.0329 13.8012
threshold=-0.20993801206350324 0.83530214428901683 0.44836473464965826 0.42261904478073126 0.01170957973226905 0.058968415483832366 0.028174603357911113 1.4440267086029055 0.22954008728265765 -0.78123235702514637 16.872385025024418 6.7664024829864511 0.0099651562049984949 0.32756121456623083 3257275.1250000005 4.4284849166870126 0.21922348439693454 0.20697250962257388 -0.31940823793411249 0.82341885566711437 0.15476191043853763 0.4308574795722962 1.0663010478019717 -149.20515441894528 3.9845241308212285 -0.39038175344467158 0.29166667163372045 0.59956982731819164 2.0609476566314702 1.3205315470695498
decision_type=2 2 2 2 2 2 2 2 2 2 2 2 2 2 2 2 2 2 2 2 2 2 2 2 2 2 2 2 2 2
left_child=2 7 4 10 8 -6 -4 23 -1 -8 13 27 -10 29 15 16 17 18 -11 -20 21 22 -7 -2 -19 -26 -16 28 -5 -3
right_child=1 3 6 11 5 20 9 -9 12 14 -12 -13 -14 -15 26 -17 -18 24 19 -21 -22 -23 -24 -25 25 -27 -28 -29 -30 -31
leaf_value=-0.081892939277999899 -0.1341402430039545 0.0093931506127180649 -0.047057904207064898 0.038195917033446901 0.040901378004075818 -0.025105043073826102 0.07576105968213398 0.11225774537715008 -0.035081955514891919 -0.017023697625291694 0.11268073933804235 0.0068657537218294751 -0.13043369112514705 -0.05270797645989117 -0.16861396740113116 0.0058073299178692493 -0.13368481761788484 -0.0095507332379317078 -0.12012272699514115 0.10037776627605897 -0.062021830328641218 0.069076244302938253 -0.17353909986284005 0.0031806612679150924 -0.18293718551564087 0.074651286215534393 -0.033698646275301079 0.036217582622416644 0.073763361555092666 0.033744478549094237
leaf_weight=203.5058058880968 7.819340791553258 577.25897633470595 157.48126772302203 174.34561670571566 54.353316875523888 808.28371231711935 29.162462629377842 18.585546124493703 308.84997005353216 56.332707490306348 21.964770308230072 86.039756543003023 18.92182398843579 32.310735858045518 11.153528015362097 657.10958536434919 23.531414959579706 1816.3214891023235 42.573025553952903 4.7184736202470949 126.91824977332726 21.18998736422509 8.3907106304541212 3076.3149347658036 2.7225036257877937 32.455191555432975 26.274083561263978 326.85432137642056 373.21121152676642 389.96869125193916
leaf_count=20331 124 3745 13716 538 878 20691 73 168 22412 917 83 420 1472 121 115 7466 116 22643 1558 46 894 82 221 31163 25 177 74 1041 992 1886
internal_value=-0.000782284 0.0151028 -0.0190966 0.0332857 -0.036056 -0.025446 -0.00990229 0.00348797 -0.0564089 -0.00773702 0.0189461 0.0485368 -0.0405865 0.0168863 -0.00864792 -0.0077213 -0.0122141 -0.0107521 -0.0540351 -0.0981225 -0.0291839 -0.0242096 -0.0266301 0.00283251 -0.0083297 0.0547158 -0.0739038 0.0526371 0.0624385 0.0192112
internal_weight=9494.92 5084.67 4410.25 1981.95 1550.41 1019.14 2859.84 3102.72 531.278 2702.35 1021.5 960.451 327.772 999.538 2673.19 2635.76 1978.65 1955.12 103.624 47.2915 964.783 837.864 816.674 3084.13 1851.5 35.1777 37.4276 874.411 547.557 967.228
internal_count=154188 40281 113907 8826 66981 22766 46926 31455 44215 33210 5835 2991 23884 5752 33137 32948 25482 25366 2521 1604 21888 20994 20912 31287 22845 202 189 2571 1530 5631
is_linear=0
shrinkage=0.1


Tree=6
num_leaves=31
num_cat=0
split_feature=31 23 15 49 19 1 49 47 2 16 40 2 19 46 39 25 44 31 40 19 27 44 24 16 45 33 16 34 42 41
split_gain=238.435 95.0779 77.98 38.033 24.3388 36.3891 23.6744 23.5539 20.5073 20.2639 20.1389 19.7556 19.1704 17.3709 16.4677 14.8054 14.6722 13.8478 13.717 13.2696 13.603 30.6256 16.8673 15.0844 12.6092 19.8112 12.3089 11.9939 14.7372 18.1859
threshold=0.8224468231201173 0.4698390811681748 0.70714670419693004 0.91666665673255932 3.9845241308212285 0.054093567654490478 0.082791514694690718 0.0033675187733024363 0.04446640424430371 0.11767769604921342 79.500000000000014 0.016530054621398452 3.5767776966094975 9.9999985694885272 81.500000000000014 40.500000000000007 -0.67113724350929249 0.10657818242907525 17.500000000000004 0.078954726457595839 0.47833907604217535 -0.12972498685121533 0.034582419320940978 0.48629879951477056 0.14732878655195239 0.19082633405923846 0.033387888222932822 14.099988937377931 -6.0422780513763419 2.6860855817794804
decision_type=2 2 2 2 2 2 2 2 2 2 2 2 2 2 2 2 2 2 2 2 2 2 2 2 2 2 2 2 2 2
left_child=1 7 4 9 12 -6 15 -1 11 -4 14 -8 13 24 26 -3 -9 -17 -7 -11 -21 22 -22 -24 -2 -26 -10 28 -28 -30
right_child=2 6 3 -5 5 18 8 16 10 19 -12 -13 -14 -15 -16 17 -18 -19 -20 20 21 -23 23 -25 25 -27 27 -29 29 -31
leaf_value=-0.071711361199017637 0.00316551832374756 -0.030176599986185094 -0.15087354004919129 0.070165432247538392 -0.13950253686706421 0.11200243591537234 -0.10511338604837384 -0.075383301675813891 0.027645684887844114 0.085223413257124431 -0.1806866670602344 0.034451632219483053 -0.07235955778867019 -0.077005112290159411 0.1207942164291286 -0.17391919053815716 -0.029237420380434545 -0.0057899432638873682 0.038534958110987859 0.097177520115691113 -0.22369591041154535 0.028730009661391484 -0.063097210257499023 0.028906187011048412 0.085285072533483858 -0.054048827779630174 0.027028584244360623 -0.17972506323443102 -0.0061281911556152922 -0.089243693778491687
leaf_weight=171.48013732454274 1932.4937429871643 544.22012622829061 6.3453983371146014 239.23089308477938 10.49299871874973 31.416027123108506 10.64495979528874 73.418284916086122 118.383402205538 39.782004460692406 6.4116974584758273 214.78612930956297 33.923865308519453 26.48698988603428 10.659505601506678 4.9408753166208035 1119.9777011962724 575.799976683571 133.01636002236046 26.963105429429561 4.4977410193532696 1489.2416320019402 42.114438841119409 30.892388980835676 42.073508793488145 13.472231216728686 133.93947180686519 3.9416338466107836 2075.7310862373561 26.66327422298491
leaf_count=18997 19334 16732 131 750 279 95 284 832 432 246 118 2389 256 300 64 596 46801 22029 695 94 55 6641 311 94 111 57 803 53 14469 241
internal_value=-1.95889e-05 -0.0144762 0.0179206 0.0329176 0.00524596 0.0410498 -0.00620522 -0.037056 -0.000963235 0.0274836 -0.00369837 0.0278613 0.00218852 0.00344388 -0.00321942 -0.0183259 -0.0320763 -0.00722037 0.0525715 0.0281765 0.0267525 0.0255405 -0.0357456 -0.0241665 0.00451572 0.0514906 -0.00377987 -0.0054405 -0.00513332 -0.00718229
internal_weight=9193.44 5091 4102.44 1879.07 2223.38 174.925 3726.12 1364.88 2601.16 1639.84 2375.73 225.431 2048.45 2014.53 2369.32 1124.96 1193.4 580.741 164.432 1633.49 1593.71 1566.75 77.5046 73.0068 1988.04 55.5457 2358.66 2240.28 2236.33 2102.39
internal_count=154289 124840 29449 8322 21127 1069 58210 66630 18853 7572 16180 2673 20058 19802 16062 39357 47633 22625 790 7441 7195 7101 460 405 19502 168 15998 15566 15513 14710
is_linear=0
shrinkage=0.1


Tree=7
num_leaves=31
num_cat=0
split_feature=24 49 20 26 19 16 37 31 41 29 44 34 24 46 24 19 48 25 25 28 20 32 28 15 42 27 24 20 19 19
split_gain=213.246 96.1993 92.8694 38.5417 26.6566 33.2157 23.8217 22.5037 21.5497 26.1325 29.3476 21.1207 19.5884 18.6999 22.8945 18.5665 19.3113 16.2799 14.7826 21.8049 22.1897 29.1991 15.0443 14.3472 27.5213 20.6084 14.3207 12.6627 16.0358 14.8879
threshold=0.2904126793146134 0.088899634778499617 0.4629120826721192 3.5000000000000004 -0.26596310734748835 0.0057983021251857289 -15.499999999999998 0.98487707972526561 -0.48737026751041407 119.50000000000001 0.59137311577796947 0.49999986588954931 0.021466974169015888 0.72527459263801586 0.032316081225872047 0.070682346820831313 0.0093575068749487417 175.50000000000003 168.50000000000003 0.027833112515509132 0.1888106390833855 0.035785431042313583 0.024440019391477111 0.20788031071424487 -0.9998679757118224 0.78483533859252941 0.023301058448851112 0.011496685445308687 0.1044365167617798 0.1974069029092789
decision_type=2 2 2 2 2 2 2 2 2 2 2 2 2 2 2 2 2 2 2 2 2 2 2 2 2 2 2 2 2 2
left_child=2 4 7 13 5 -2 -3 12 -5 10 23 -6 27 14 -4 17 -17 26 19 20 22 -22 -18 24 -10 -26 -14 -1 -29 -30
right_child=1 6 3 8 11 -7 -8 -9 9 -11 -12 -13 15 -15 -16 16 18 -19 -20 -21 21 -23 -24 -25 25 -27 -28 28 29 -31
leaf_value=-0.20510852848836639 -0.072788423872516494 0.047905979175103475 -0.12609151379699171 -0.090115947294611476 -0.069424084102332362 -0.033667447403453302 -0.0058257207421751949 -0.22349175388710388 0.10230562470773175 0.1016862548085453 -0.083692097054238052 -0.0099629921961661965 -0.18409266728055054 0.059697039389872232 0.034131802406977226 -0.13626048034767446 0.020629696846019625 -0.13530877631737412 0.08038766158541065 0.014666584990267488 0.029005000289236832 -0.19094650737926003 -0.14390499542185015 0.029909006037880582 -0.16090305021992304 -0.013461392425221198 -0.00080421829727126684 0.0835218815194822 -0.17241205112641078 0.026757871658500409
leaf_weight=2.1120316481683394 297.99512917699758 85.555443967808969 9.1820579618215543 20.519996818620712 68.182094215299003 798.81282008183189 2318.6180795945693 4.2535574901849023 12.292945414781569 31.743687423877418 32.315124351531267 482.2839344261447 4.2726598619483402 575.36875369399786 310.39327340107411 8.6630560632329416 43.047779393848032 9.1001230163965356 32.332010635407642 1548.456088695908 9.2843963922932762 17.248002884909511 6.3809446683153501 198.02644470334053 15.129278273088856 25.387497670017183 1845.4202070246683 60.048012029379606 3.8750557499006382 119.20655814697966
leaf_count=100 32118 1250 93 231 3907 31666 17478 106 41 124 221 24774 82 1763 1174 341 304 547 386 11197 79 191 81 816 171 157 23563 376 54 657
internal_value=0.000339807 -0.0166686 0.0142775 0.0380887 -0.0352844 -0.0442963 -0.00391361 0.00638877 0.00917821 0.0156487 0.00600313 -0.017328 0.00665237 0.0489241 0.0295283 0.00498634 0.0126545 -0.00188403 0.0134331 0.0121005 -0.0402092 -0.11398 -0.000610721 0.0175585 -0.0287534 -0.0685173 -0.0012276 0.0383485 0.0411563 0.0204873
internal_weight=8995.51 4051.45 4944.06 1230.36 1647.27 1096.81 2404.17 3713.7 335.415 314.895 283.151 550.466 3709.45 894.944 319.575 3524.21 1665.41 1858.79 1656.75 1624.42 75.9611 26.5324 49.4287 250.836 52.8097 40.5168 1849.69 185.242 183.13 123.082
internal_count=154048 111193 42855 4791 92465 63784 18728 38064 1761 1530 1406 28681 37958 3030 1267 36771 12579 24192 12238 11852 655 270 385 1185 369 328 23645 1187 1087 711
is_linear=0
shrinkage=0.1


end of trees

feature_importances:
Column_19=17
Column_20=15
Column_23=15
Column_24=12
Column_28=12
Column_32=12
Column_46=11
Column_49=11
Column_17=10
Column_31=10
Column_38=10
Column_16=8
Column_42=8
Column_44=7
Column_15=6
Column_41=6
Column_43=6
Column_33=5
Column_45=5
Column_47=5
Column_1=4
Column_25=4
Column_27=4
Column_29=4
Column_37=4
Column_0=3
Column_2=3
Column_34=3
Column_36=3
Column_48=3
Column_3=2
Column_18=2
Column_22=2
Column_26=2
Column_35=2
Column_40=2
Column_21=1
Column_39=1

parameters:
[boosting: gbdt]
[objective: lambdarank]
[metric: ndcg]
[tree_learner: serial]
[device_type: cpu]
[data_sample_strategy: bagging]
[data: ]
[valid: ]
[num_iterations: 10000]
[learning_rate: 0.1]
[num_leaves: 31]
[num_threads: 0]
[seed: 42]
[deterministic: 0]
[force_col_wise: 0]
[force_row_wise: 0]
[histogram_pool_size: -1]
[max_depth: -1]
[min_data_in_leaf: 20]
[min_sum_hessian_in_leaf: 0.001]
[bagging_fraction: 0.8]
[pos_bagging_fraction: 1]
[neg_bagging_fraction: 1]
[bagging_freq: 1]
[bagging_seed: 400]
[bagging_by_query: 0]
[feature_fraction: 0.8]
[feature_fraction_bynode: 1]
[feature_fraction_seed: 30056]
[extra_trees: 0]
[extra_seed: 12879]
[early_stopping_round: 0]
[early_stopping_min_delta: 0]
[first_metric_only: 0]
[max_delta_step: 0]
[lambda_l1: 0]
[lambda_l2: 0]
[linear_lambda: 0]
[min_gain_to_split: 0]
[drop_rate: 0.1]
[max_drop: 50]
[skip_drop: 0.5]
[xgboost_dart_mode: 0]
[uniform_drop: 0]
[drop_seed: 17869]
[top_rate: 0.2]
[other_rate: 0.1]
[min_data_per_group: 100]
[max_cat_threshold: 32]
[cat_l2: 10]
[cat_smooth: 10]
[max_cat_to_onehot: 4]
[top_k: 20]
[monotone_constraints: ]
[monotone_constraints_method: basic]
[monotone_penalty: 0]
[feature_contri: ]
[forcedsplits_filename: ]
[refit_decay_rate: 0.9]
[cegb_tradeoff: 1]
[cegb_penalty_split: 0]
[cegb_penalty_feature_lazy: ]
[cegb_penalty_feature_coupled: ]
[path_smooth: 0]
[interaction_constraints: ]
[verbosity: -1]
[saved_feature_importance_type: 0]
[use_quantized_grad: 0]
[num_grad_quant_bins: 4]
[quant_train_renew_leaf: 0]
[stochastic_rounding: 1]
[linear_tree: 0]
[max_bin: 1024]
[max_bin_by_feature: ]
[min_data_in_bin: 3]
[bin_construct_sample_cnt: 200000]
[data_random_seed: 175]
[is_enable_sparse: 1]
[enable_bundle: 1]
[use_missing: 1]
[zero_as_missing: 0]
[feature_pre_filter: 1]
[pre_partition: 0]
[two_round: 0]
[header: 0]
[label_column: ]
[weight_column: ]
[group_column: ]
[ignore_column: ]
[categorical_feature: ]
[forcedbins_filename: ]
[precise_float_parser: 0]
[parser_config_file: ]
[objective_seed: 16083]
[num_class: 1]
[is_unbalance: 0]
[scale_pos_weight: 1]
[sigmoid: 1]
[boost_from_average: 1]
[reg_sqrt: 0]
[alpha: 0.9]
[fair_c: 1]
[poisson_max_delta_step: 0.7]
[tweedie_variance_power: 1.5]
[lambdarank_truncation_level: 30]
[lambdarank_norm: 1]
[label_gain: ]
[lambdarank_position_bias_regularization: 0]
[eval_at: 5,10]
[multi_error_top_k: 1]
[auc_mu_weights: ]
[num_machines: 1]
[local_listen_port: 12400]
[time_out: 120]
[machine_list_filename: ]
[machines: ]
[gpu_platform_id: -1]
[gpu_device_id: -1]
[gpu_use_dp: 0]
[num_gpu: 1]

end of parameters

pandas_categorical:null
