tree
version=v4
num_class=1
num_tree_per_iteration=1
label_index=0
max_feature_idx=50
objective=lambdarank
feature_names=Column_0 Column_1 Column_2 Column_3 Column_4 Column_5 Column_6 Column_7 Column_8 Column_9 Column_10 Column_11 Column_12 Column_13 Column_14 Column_15 Column_16 Column_17 Column_18 Column_19 Column_20 Column_21 Column_22 Column_23 Column_24 Column_25 Column_26 Column_27 Column_28 Column_29 Column_30 Column_31 Column_32 Column_33 Column_34 Column_35 Column_36 Column_37 Column_38 Column_39 Column_40 Column_41 Column_42 Column_43 Column_44 Column_45 Column_46 Column_47 Column_48 Column_49 Column_50
feature_infos=[0.0035971223842352629:1] [0.0035971223842352629:1] [0.0035971223842352629:1] [0.022326022386550903:0.75] none [0.0035971223842352629:0.5] [0.073655799031257629:0.35355338454246521] [0.022326022386550903:0.75] none [0.0035971223842352629:0.5] [0.073655799031257629:0.35355338454246521] [0.022326022386550903:0.75] none [0.0035971223842352629:0.5] [0.073655799031257629:0.35355338454246521] [-0.80622577667236328:13.27354907989502] [0:1] [-0.80622577667236328:13.27354907989502] [0:1] [-0.80622577667236328:13.27354907989502] [0:1] [1:278] [1:278] [0.0035971223842352629:1] [0.0035971223842352629:1] [1:278] [1:278] [0.0035971223842352629:1] [0.0035971223842352629:1] [1:278] [1:278] [0.0035971223842352629:1] [0.0035971223842352629:1] [-0.98969072103500366:0.99350649118423462] [0.010309278033673763:153.999755859375] [0.0036496350076049566:1] [0.0035971223842352629:1] [-244:226] [0.0048076924867928028:108] [1:278] [1:278] [-12.636250495910645:13.014169692993164] [-13415.98828125:9846.9658203125] [-0.80622577667236328:13.27354907989502] [-0.80622577667236328:13.27354907989502] [-1:1] [0:100000000] [0:1] [0:1] [0.0036454047076404095:1] [2:278]
tree_sizes=3519 3475 3503 3482 3475 3491 3478 3475 3435

Tree=0
num_leaves=31
num_cat=0
split_feature=23 44 23 32 32 24 24 20 1 23 32 49 23 31 45 32 28 20 31 36 38 41 34 31 18 25 27 42 20 31
split_gain=1441.16 284.57 120.532 85.5954 76.0216 49.9525 42.504 40.6166 28.0778 25.7116 20.7018 18.856 17.9045 14.5419 12.7545 14.5456 12.2513 11.8734 12.3531 12.0308 10.8854 10.8374 18.5261 10.5692 10.4852 10.414 11.0145 9.3826 11.4719 10.3308
threshold=0.51964643597602855 -0.099435202777385698 0.41164366900920873 0.17782169580459598 0.35009726881980902 0.32007193565368658 0.80651798844337474 0.055948218330740936 0.026671408675611023 0.14257481694221499 0.39964029192924505 0.057386711239814765 0.95213484764099132 0.94548991322517406 -0.019229633733630177 0.68895664811134349 0.43734297156333929 0.054254557937383659 0.13269820809364322 0.021054964512586597 1.4243853688240053 -0.033483089879155152 1.034556031227112 0.6700769066810609 0.0039353352040052423 42.500000000000007 0.42118620872497564 2.5580472946166997 0.0052144660148769626 0.11480947956442834
decision_type=2 2 2 2 2 2 2 2 2 2 2 2 2 2 2 2 2 2 2 2 2 2 2 2 2 2 2 2 2 2
left_child=2 5 4 12 9 13 8 17 -6 21 -5 -4 -3 16 -8 -16 20 18 -7 -20 -2 -1 -23 -11 -9 26 -21 28 29 -10
right_child=1 3 11 10 6 7 14 24 27 23 -12 -13 -14 -15 15 -17 -18 -19 19 25 -22 22 -24 -25 -26 -27 -28 -29 -30 -31
leaf_value=0.061267674863157255 0.037913352028755433 0.088961917857465295 -0.055349962730984338 0.066052232563327998 -0.11583010783419673 -0.089449432789057759 -0.085112568030454083 -0.077691667526925273 -0.074285593722116114 0.10400676025274908 0.026081182398783705 -0.012637285482994975 0.12158348583389739 0.084847425805931298 -0.097740973691298472 -0.13834542492630483 0.014634827959349181 -0.18795816298382362 -0.054353625470139333 0.011765899197465901 0.096272473030440398 -0.13505979081593042 0.12835754076039019 -0.059165260391445068 0.025081961924550568 0.024070244402284981 -0.032127647707880333 0.0076061767992795367 -0.077573089961189903 0.0062835514530825906
leaf_weight=34.477662028672057 279.87974215681606 356.22519042599015 172.20338431202981 355.02557896541839 145.04035840374127 24.489912523393286 82.708897885197075 10.194911831611533 28.710445699864067 4.0998711789725339 204.04352433193708 258.51744526586845 318.84214976045769 56.560013317677658 119.25837808471988 339.01901872325834 240.76956389212864 4.2746835084690238 69.055806013842812 84.308949438942363 36.082092662865762 8.142144153302068 3.9725314946845165 124.98439885604603 377.54490520607214 75.897583300218685 177.59642337044352 18.03358876472339 221.37771516546491 35.708440100046573
leaf_count=857 10919 8390 11759 8085 14369 1362 2357 209 1077 163 5063 5123 5207 1157 6924 20033 8358 197 6874 2158 831 446 65 5399 7522 3920 5819 691 7610 1239
internal_value=0.00025611 0.0451847 -0.0749167 0.0804031 -0.0916213 0.0149309 -0.10238 -0.00116219 -0.0796315 -0.0309986 0.051464 -0.0297139 0.104369 0.0365364 -0.121256 -0.127779 0.0316284 -0.0221164 -0.0204729 -0.016321 0.0445778 0.0326791 -0.0486824 -0.0539827 0.0223797 -0.00854614 -0.017998 -0.0623512 -0.0667655 -0.0296248
internal_weight=4267.05 2670.79 1596.25 1234.14 1165.53 1436.65 989.857 823.363 448.871 175.677 559.069 430.721 675.067 613.291 540.986 458.277 556.731 435.623 431.349 406.859 315.962 46.5923 12.1147 129.084 387.74 337.803 261.905 303.83 285.797 64.4189
internal_count=154183 76071 78112 26745 61230 49326 54300 28061 24986 6930 13148 16882 13597 21265 29314 26957 20108 20330 20133 18771 11750 1368 511 5562 7731 11897 7977 10617 9926 2316
is_linear=0
shrinkage=0.1


Tree=1
num_leaves=31
num_cat=0
split_feature=43 20 23 24 40 45 39 38 20 42 16 33 45 49 18 49 20 15 42 25 32 24 44 49 49 25 17 15 38 20
split_gain=537.141 199.969 117.87 71.2031 69.5106 48.4926 48.4049 41.7477 41.0186 44.1824 39.8832 45.1686 39.333 36.504 36.0913 32.0679 33.5782 29.9368 26.3591 25.7322 24.4495 22.8276 22.1754 21.7237 21.6522 21.5551 21.3588 21.2433 25.41 20.3848
threshold=-0.17272043228149411 0.31281565129756933 0.36703054606914526 0.23460238426923755 8.5000000000000018 -0.97950786352157582 9.5000000000000018 2.6635220050811772 0.023442887701094154 1.2406866550445559 0.080885071307420744 0.58333334326744091 0.70087718963623058 0.083725996315479292 0.31601439416408544 0.57499998807907116 0.028174908831715587 1.6673670411109927 1.2874318957328799 44.500000000000007 0.048826333135366447 0.5790420174598695 -0.63857683539390553 0.090913102030754103 0.15393176674842837 2.5000000000000004 -0.5541291832923888 2.3454245328903203 0.79820537567138683 0.42261904478073126
decision_type=2 2 2 2 2 2 2 2 2 2 2 2 2 2 2 2 2 2 2 2 2 2 2 2 2 2 2 2 2 2
left_child=2 4 8 6 5 -2 -3 15 9 -1 -5 12 26 -9 24 16 25 -15 -11 20 -16 -6 -18 -4 -8 -7 -12 28 -27 -28
right_child=1 3 23 10 21 7 14 13 -10 18 11 -13 -14 17 19 -17 22 -19 -20 -21 -22 -23 -24 -25 -26 27 29 -29 -30 -31
leaf_value=-0.081678836290724796 0.10713202045224866 0.081836749939846506 -0.03030273328253227 0.053557866000267809 0.0078937441662234632 0.092322917715040739 0.13936235245981851 -0.17998959639809811 -0.035469098003592291 0.060035079203188804 0.083946813280101062 0.14586627102323671 -0.12070783291467557 0.068685095928180492 0.084514619614086295 -0.07975242363050708 -0.19381167779834432 -0.14444330454855439 -0.044834298324553233 0.024696312953047302 0.046403050908122086 -0.046806978130271661 -0.014919267721404547 -0.0087285117828431423 0.016112348039329958 -0.041280609498939295 -0.037643670267624614 0.13218265353984276 -0.14959502201837915 0.0063991691051927414
leaf_weight=701.39849338610657 28.433081151917577 300.1383207924664 915.46306470618583 179.62239972082898 4654.0539345795987 6.8267437890171996 14.599011230282484 7.2815445228479794 488.24075591587462 32.98258001357317 30.075531169772148 20.942455649375916 27.364001393318176 86.533156302757561 255.54784762114286 122.21512763947248 7.001222187653183 7.1339061693288377 87.695527909090742 298.71969969733618 493.18899269402027 77.562497536186129 674.19463506829925 952.17313758749515 602.68703041505069 38.543502179440111 130.57945971190929 4.0467148870229712 49.440909003838897 538.32831968553364
leaf_count=39113 68 429 32412 1145 49038 15 66 214 8432 788 43 24 43 363 505 173 46 56 3264 1222 1015 3062 2527 5533 2472 541 264 8 288 1166
internal_value=-0.000274238 0.012636 -0.0354349 0.0340944 0.00186901 -0.0216506 0.0448719 -0.0253005 -0.0584275 -0.0720627 0.0112482 0.00107837 -0.00309623 0.0356864 0.0382074 -0.0321239 -0.0246617 0.0524527 -0.0161724 0.0495107 0.0594107 0.00699707 -0.0167579 -0.0193036 0.0190272 -0.0791241 0.00150806 -0.0918418 -0.102146 -0.00219856
internal_weight=11833 8655.06 3177.95 2891.79 5763.27 1031.65 1964.88 1003.22 1310.32 822.077 926.912 747.29 726.347 100.949 1664.74 902.269 780.054 93.6671 120.678 1047.46 748.737 4731.62 681.196 1867.64 617.286 98.8579 698.983 92.0311 87.9844 668.908
internal_count=154335 64793 89542 8394 56399 4299 5709 4231 51597 43165 2685 1540 1516 633 5280 3598 3425 419 4052 2742 1520 52100 2573 37945 2538 852 1473 837 829 1430
is_linear=0
shrinkage=0.1


Tree=2
num_leaves=31
num_cat=0
split_feature=23 19 32 49 3 23 20 47 38 3 18 23 42 43 3 49 45 32 45 17 41 38 43 32 42 49 27 39 16 1
split_gain=412.077 146.599 85.026 70.0659 42.6169 40.0092 32.6387 30.684 30.2657 30.137 28.1937 24.3602 23.5366 23.227 21.7613 28.3566 21.6197 24.452 30.5074 24.6912 20.0048 19.8235 20.0138 19.7672 32.0725 18.7066 18.6426 18.6374 18.4731 22.84
threshold=0.46070358157157904 -0.13381308317184445 0.41310855746269232 0.91666665673255932 0.48874999582767492 0.79417815804481517 0.09485697373747827 0.0045525422319769868 0.060915276408195503 0.10027144849300386 0.10990194976329805 0.015936508774757389 -2.8360037803649898 6.9525368213653573 0.26656760275363928 0.097079772502183928 0.54772728681564342 0.1305235102772713 0.31251443922519689 5.7126166820526132 -0.45534594357013697 2.5047169923782353 -0.51175373792648304 0.13645491003990176 0.99999997019767772 0.10532766580581666 0.28007781505584722 123.50000000000001 0.12220009788870813 0.11805555596947671
decision_type=2 2 2 2 2 2 2 2 2 2 2 2 2 2 2 2 2 2 2 2 2 2 2 2 2 2 2 2 2 2
left_child=2 5 8 10 9 27 -7 26 11 -5 12 -1 -3 16 15 21 17 -12 19 23 -14 22 -9 24 -19 -17 -4 28 -2 -30
right_child=1 3 7 4 -6 6 -8 14 -10 -11 13 -13 20 -15 -16 25 -18 18 -20 -21 -22 -23 -24 -25 -26 -27 -28 -29 29 -31
leaf_value=-0.18903536395259679 -0.011202518450845444 -0.022635737741143379 -0.093785092632036063 0.010702860227901262 0.0069884959500653814 0.012143141896463691 -0.035735516050894173 -0.10556595572403656 -0.013447536689083179 0.08904308679654338 0.027712590931696337 0.11301760627286717 -0.085736931723042961 -0.02348651690351939 -0.073341741136013036 0.059619272048149742 0.046603981995800528 0.0025582064751530726 -0.074778285122043681 -0.20847229826250852 0.011369621447479598 0.0025622102075221025 -0.047239316384711412 0.015368364448674158 -0.18967611069319737 -0.024018195584715137 0.0041837709596342356 -0.13954787610111605 0.027076806201914813 -0.046288636583360181
leaf_weight=2.9321174344513556 1634.9255806562724 259.3778443033807 243.8561664391309 59.850998364388943 127.43500054627657 1127.9959029102465 162.94793108850718 65.464389994274825 454.16380087600555 273.51302932202816 1696.8293579046149 29.869616475887597 21.522515506949276 115.56706716120243 259.51368931867182 41.251312939915806 325.89463987387717 29.1501091029495 41.19138959934935 5.0376943554729214 1483.2831156698521 70.873467061319388 580.46692063170485 1371.3143704398535 12.358630836009977 76.029389416566119 21.104636566247791 12.228192840469999 49.162280214950442 310.04801072459668
leaf_count=165 32471 2477 20311 176 193 11720 569 1753 11577 525 7171 187 577 697 2072 380 768 174 234 68 18273 2405 26777 6156 90 881 2352 1633 250 1295
internal_value=0.000494303 0.00921503 -0.042599 0.0187564 0.0561755 -0.00763285 0.00609971 -0.0554497 -0.00674764 0.0749782 0.0155403 0.0860174 0.00518534 0.0206186 -0.0480523 -0.0401839 0.0220825 0.0195503 0.0100578 0.0125224 0.00998075 -0.0476421 -0.0531507 0.0133104 -0.0546768 0.00539973 -0.0859817 -0.0164687 -0.015714 -0.0362477
internal_weight=10965.2 9119.63 1845.53 5822.33 460.799 3297.31 1290.94 1358.56 486.966 333.364 5361.53 32.8017 1764.18 3597.34 1093.6 834.085 3481.78 3155.88 1459.05 1417.86 1504.81 716.805 645.931 1412.82 41.5087 117.281 264.961 2006.36 1994.14 359.21
internal_count=154377 85517 68860 37579 894 47938 12289 56931 11929 701 36685 352 21327 15358 34268 32196 14661 13893 6722 6488 18850 30935 28530 6420 264 1261 22663 35649 34016 1545
is_linear=0
shrinkage=0.1


Tree=3
num_leaves=31
num_cat=0
split_feature=44 20 43 44 2 19 21 37 17 19 15 16 32 38 24 24 0 2 43 17 24 48 45 45 32 25 3 2 43 44
split_gain=367.364 97.2911 81.0974 62.1228 39.1791 37.0148 35.5774 28.613 26.4164 24.5684 24.0113 66.6305 23.9459 23.5117 22.5423 21.6353 21.1594 20.6345 20.0554 19.9734 19.5792 19.5469 19.3429 20.055 18.6606 18.2902 17.3932 17.352 24.1143 17.1131
threshold=-0.2208520174026489 0.47295320034027105 -0.30643081665039057 1.4285931587219241 0.054093567654490478 -0.017012213356792923 48.500000000000007 -1.4999999999999998 -0.78123235702514637 2.9405127763748173 -0.17159271985292432 0.043654963374137885 0.018223328515887264 1.4529108405113222 0.5816660225391389 0.90889328718185436 0.01197647722437978 0.026671408675611023 8.6562471389770526 -0.42836672067642206 0.92774429917335521 0.09246848896145822 -0.68718433380126942 -0.6698755919933318 0.030803117901086811 110.50000000000001 0.039103146642446525 0.29166667163372045 -0.58097344636917103 6.3766324520111093
decision_type=2 2 2 2 2 2 2 2 2 2 2 2 2 2 2 2 2 2 2 2 2 2 2 2 2 2 2 2 2 2
left_child=2 9 4 10 14 8 -5 -8 -4 13 -3 -12 -7 18 17 -14 -10 -1 29 -19 -18 -20 -13 -24 -17 -25 -27 28 -6 -2
right_child=1 3 5 6 27 12 7 -9 16 -11 11 22 15 -15 -16 24 20 19 21 -21 -22 -23 23 25 -26 26 -28 -29 -30 -31
leaf_value=-0.14173240165925879 0.0077772375187242383 0.11126087381378197 0.11003571563252038 0.079982097939692992 -0.070386138546191732 -0.20560907900342121 -0.17699329680886933 0.032754192646264911 -0.078208026857681245 -0.19042944799710373 -0.21247901597844521 0.062160871696492176 0.003103893673850085 0.099704120721574113 -0.069045031207742108 0.16782147087221927 -0.01873003906777328 -0.083874489371317487 -0.20747930597394532 0.031936927022298216 0.053557900846365018 0.11771312853591889 -0.21735082309167628 0.016699802203274078 0.035622266317096772 -0.072036338501767008 0.12171558516980896 -0.0067870255529734781 -0.027133314076871473 0.091359272526671476
leaf_weight=11.181299085263161 3971.8500156642403 30.365722046233714 15.970397047698496 416.92073327861726 154.21081975637935 5.3146385331638148 6.8122025253251186 143.67815346736461 58.730669205659069 6.1544800181873134 12.075563521124421 116.23253553546965 877.47194553690497 28.704216300044209 446.84824278368615 13.405667655169962 1826.0080087772803 19.784453460015357 1.993219631724062 60.219086114550009 38.253134346334264 25.440941285807639 3.5841266810894004 824.43748926976696 52.465943023329601 5.5100121963769189 29.118734614923596 305.17930498998612 785.27405400539283 24.648481281939894
leaf_count=705 36666 113 28 956 2289 172 71 533 11053 79 142 300 9011 241 31922 20 40920 526 61 1365 456 180 21 2529 287 57 77 1398 11863 130
internal_value=0.000270265 0.0174295 -0.0204793 0.0384083 -0.0372504 -0.0101256 0.064938 0.0232596 -0.0180449 0.00921777 0.0236693 0.0209853 0.00606072 0.00952096 -0.0597986 0.00725324 -0.0191086 -0.0144865 0.00887765 0.00329737 -0.0172467 0.0940864 0.0238653 0.0187054 0.0625264 0.0196902 0.0908864 -0.0275035 -0.034233 0.00829273
internal_weight=10317.8 5647.53 4670.32 1588.74 1782.7 2887.62 567.411 150.49 1938.96 4058.79 1021.32 990.958 948.658 4052.64 538.033 943.344 1922.99 91.1848 4023.93 80.0035 1864.26 27.4342 978.883 862.65 65.8716 859.066 34.6287 1244.66 939.485 3996.5
internal_count=154171 42156 112015 4799 50068 61947 1560 604 52457 37357 3239 3126 9490 37278 34518 9318 52429 2596 37037 1891 41376 241 2984 2684 307 2663 134 15550 14152 36796
is_linear=0
shrinkage=0.1


Tree=4
num_leaves=31
num_cat=0
split_feature=23 47 49 31 23 5 31 31 28 43 43 48 48 44 0 34 38 23 44 42 37 38 38 42 45 31 49 40 2 29
split_gain=305.747 103.864 67.3049 56.3654 35.3955 35.2814 33.6277 31.6763 23.2796 22.0297 24.6885 25.678 23.1725 20.6007 19.2301 19.0967 17.2997 16.8006 16.6579 16.4777 17.1415 16.2272 31.6741 16.7705 16.1593 21.5163 19.1403 16.0728 25.6372 24.4442
threshold=0.88577952980995189 0.014977639541029932 0.91666665673255932 0.94859403371810924 0.46070358157157904 0.22500000149011615 0.22713329643011096 0.82058250904083263 0.96231487393379223 5.6501765251159677 2.8143796920776372 0.1566862687468529 0.16733333468437198 -0.17443785071372983 0.051315790042281158 3.3015128374099736 0.034723896533250816 0.082235131412744536 -0.80343326926231373 -1.267838656902313 3.5000000000000004 0.040408162400126464 0.13367697596549991 2.6363606452941899 -0.737037032842636 0.94548991322517406 0.55158731341362011 45.500000000000007 0.016001024283468727 30.500000000000004
decision_type=2 2 2 2 2 2 2 2 2 2 2 2 2 2 2 2 2 2 2 2 2 2 2 2 2 2 2 2 2 2
left_child=1 6 7 4 21 -4 -1 18 -8 10 11 15 -13 14 -12 16 -5 -10 -2 20 -18 -3 23 -23 -6 26 -26 29 -29 -20
right_child=2 3 5 9 24 -7 8 -9 17 -11 13 12 -14 -15 -16 -17 19 -19 27 -21 -22 22 -24 -25 25 -27 -28 28 -30 -31
leaf_value=-0.075297610665087389 0.1771206525010498 -0.16569625446614938 0.082139133556299496 0.14538824561959368 0.028843286539624698 0.012556945643419071 -0.044993999619350356 0.026374166006138334 -0.13089200561500555 -0.21499496126526119 0.1165610323706528 -0.12672053914209264 -0.0097128981845171821 0.089018322247327586 -0.21131724057059312 -0.21270466728730414 0.077184813292104179 0.0059948239936592528 0.00084913243888254603 0.013968257221777958 -0.11919475721577671 0.075281140795916288 -0.032815924321386788 -0.20537664726646018 -0.0077274720173215218 -0.12914369123132347 -0.08486820724570919 -0.066251851250259564 0.034177332275282878 -0.076242797721348871
leaf_weight=258.62302685319446 5.5919864177703849 8.7263653513509762 279.30280186980963 11.287090646801515 117.1397552927956 98.593174956738949 411.59673844720237 2096.9719823314808 9.4803792552556825 4.092239628545939 2.9101237673312417 19.42197772115469 131.68510399386287 68.727478914894164 4.6422537714242935 3.4641624877694985 69.042094264179468 165.27501039509661 700.41797498427331 507.38387163169682 4.7506777457892886 36.990111442748457 825.89818781497888 2.2591147685889146 3707.7348035529722 14.816025800537316 32.446331582963467 28.208784789545462 256.97335023060441 43.695803578943014
leaf_count=23086 8 298 707 27 518 180 32894 10417 763 53 16 66 325 168 33 54 286 1913 3571 3277 51 457 17916 58 51683 194 105 789 3261 744
internal_value=0.000388055 -0.0125889 0.0241194 -0.00763575 -0.0118347 0.0639851 -0.0452595 0.0193091 -0.0320106 0.0164494 0.0175998 0.0120663 -0.024752 0.0717912 -0.0849774 0.0214022 0.0227711 -0.00143121 0.00499329 0.0203897 0.0645422 -0.0300133 -0.0286447 0.059127 -0.00773211 -0.0088731 -0.00839667 0.00405815 0.0242434 -0.00367786
internal_weight=9928.15 6418.39 3509.76 5573.42 4746.01 377.896 844.975 3131.86 586.352 827.407 823.315 747.035 151.107 76.2799 7.55238 595.928 592.464 174.755 1034.89 581.177 73.7928 873.874 865.147 39.2492 3872.14 3755 3740.18 1029.3 285.182 744.114
internal_count=153918 134241 19677 75585 71229 887 58656 18790 35570 4356 4303 4086 391 217 49 3695 3641 2676 8373 3614 337 18729 18431 515 52500 51982 51788 8365 4050 4315
is_linear=0
shrinkage=0.1


Tree=5
num_leaves=31
num_cat=0
split_feature=23 19 23 49 19 19 36 47 21 21 44 18 21 21 42 19 38 5 1 49 29 44 29 23 43 43 43 29 19 17
split_gain=300.904 88.4481 78.5346 51.2777 34.3446 24.8801 21.7179 21.3845 19.6149 21.5388 18.6944 18.5322 18.9768 18.3118 18.3935 18.2446 18.1958 16.8701 16.5971 15.5633 31.4495 22.0044 16.3258 15.1765 14.8405 18.8241 14.498 14.2731 17.7191 16.3625
threshold=0.76484143733978283 0.70714670419693004 0.46070358157157904 0.91666665673255932 2.6870437860488896 2.8203992843627934 0.016530054621398452 0.0027559782611206178 119.50000000000001 116.50000000000001 -0.6540144383907317 0.32484042644500738 9.5000000000000018 31.500000000000004 -80.703067779541001 -0.40211024880409235 0.88380804657936107 0.022991543635725979 0.010811126790940763 0.71130952239036571 11.500000000000002 2.2965373992919926 9.5000000000000018 0.20955232530832293 -0.5189000368118285 -0.42230096459388727 -0.41461922228336329 6.5000000000000009 1.6673670411109927 -0.47143967449665064
decision_type=2 2 2 2 2 2 2 2 2 2 2 2 2 2 2 2 2 2 2 2 2 2 2 2 2 2 2 2 2 2
left_child=2 18 4 8 7 6 -4 -1 9 11 -8 12 -3 14 -14 23 -15 -5 -2 21 22 -20 -21 -9 -17 -26 -27 28 -12 -29
right_child=1 3 5 17 -6 -7 10 15 -10 -11 27 -13 13 16 -16 24 -18 -19 19 20 -22 -23 -24 -25 25 26 -28 29 -30 -31
leaf_value=-0.072391038114463499 -0.15933384668311065 0.067038748850250032 -0.05941125208863042 0.01921322781219157 0.062385065290879185 0.035519250213278251 0.024395433034018029 -0.073857295339338686 0.064749817887590225 -0.18817804991930254 -0.022997684247668574 0.035671848181462587 -0.21859371026367569 -0.080753922256358565 -0.0048425528778823597 -0.067820432647208759 0.025782755316850745 0.083795704183512093 0.0072937460140467623 -0.0099371616955082984 -0.099352157731369448 0.054453771291540089 0.095379624566873031 -0.037468758585894338 0.015796758473741807 -0.14631073187611146 -0.025470008039041616 -0.051269499113480943 -0.19795959896587095 -0.0046155115171954584
leaf_weight=165.68020210938994 6.0149244063068172 65.453449673950672 86.611601606302429 48.9005196839571 34.517635912401602 124.83326944196597 161.90901337936521 163.43633619067259 128.23436008789577 4.7604502323083571 544.98288181296084 830.94441371504217 4.0767442248761645 16.539158285595477 321.87334226444364 72.1230339393951 522.20989642478526 233.97607523389161 2751.5969028640538 183.00857999175787 39.305510330013931 102.62755042314529 16.006401672959328 383.69087855727412 120.62663040030748 10.099288569064809 586.88769940892234 78.43925349554047 5.850491687655448 1806.3133787100669
leaf_count=15988 464 148 8787 180 292 705 399 6432 923 88 4377 2761 23 228 1236 847 3147 590 27181 410 183 539 36 8885 2280 417 33723 814 22 32083
internal_value=0.00141891 0.01747 -0.0180652 0.0329177 -0.0362375 -0.00812121 -0.0101509 -0.0385032 0.0269866 0.0242443 -0.0085083 0.0248185 0.0151228 0.011193 -0.007516 -0.0343034 0.0225122 0.0726314 0.0066168 0.00693957 -0.0176107 0.00898945 -0.00146673 -0.0483386 -0.0245798 -0.020234 -0.0275143 -0.0106956 -0.024856 -0.00655715
internal_weight=9621.53 5275.53 4346 2176.97 1537.06 2808.94 2684.11 1502.54 1894.09 1765.86 2597.5 1761.1 930.153 864.699 325.95 1336.86 538.749 282.877 3098.56 3092.54 238.32 2854.22 199.015 547.127 789.737 717.614 596.987 2435.59 550.833 1884.75
internal_count=154188 38137 116051 9324 68864 47187 46482 68572 8554 7631 37695 7543 4782 4634 1259 52584 3375 770 28813 28349 629 27720 446 15317 37267 36420 34140 37296 4399 32897
is_linear=0
shrinkage=0.1


Tree=6
num_leaves=31
num_cat=0
split_feature=15 28 19 16 2 7 47 46 7 19 42 1 42 25 19 19 41 43 0 16 34 18 18 41 34 28 19 46 46 19
split_gain=226.006 77.6094 58.2236 46.7954 41.5585 28.8698 22.8148 21.4351 18.1104 20.7212 28.1198 20.2838 18.1573 15.8454 15.8028 15.6662 15.3048 14.5697 31.8418 22.4851 22.4271 14.4485 14.64 14.4035 15.6482 17.0214 14.3694 14.2822 16.7975 14.279
threshold=0.10946172103285791 0.44416099786758428 1.1291924118995669 0.47673159837722784 0.080128207802772536 0.13488749414682391 0.0033682335633784537 4.6428563594818124 0.10027144849300386 0.13343267887830737 3.8080679178237919 0.042572464793920524 0.33531408011913305 3.5000000000000004 3.5767776966094975 1.0663010478019717 -3.8527251482009883 -0.5189000368118285 0.29166667163372045 9.2192141892155646e-05 0.68421038985252391 0.38750000298023229 0.20942982286214831 0.47478455305099493 1.3532372117042544 0.4909635335206986 3.6801964044570927 0.21857881546020511 0.28571425378322607 -0.032658496871590607
decision_type=2 2 2 2 2 2 2 2 2 2 2 2 2 2 2 2 2 2 2 2 2 2 2 2 2 2 2 2 2 2
left_child=1 -1 8 7 6 -5 -3 -4 12 10 11 -10 -2 -9 -15 16 -14 18 -6 -19 -21 22 -12 24 29 -26 -16 -13 -29 -8
right_child=2 4 3 5 17 -7 23 13 9 -11 21 27 15 14 26 -17 -18 19 -20 20 -22 -23 -24 -25 25 -27 -28 28 -30 -31
leaf_value=-0.002215913792345836 0.00062069211492204535 -0.081624470721360698 0.018204227717843219 0.029669255106436084 -0.054698394281394017 0.069276780117380213 -0.047226460947407484 0.11067606323795093 0.10581601770738845 0.01378858929379996 -0.047750614002356549 -0.21197519723732616 -0.21828243825498103 -0.18069722463593063 0.16807442915672441 -0.10918509601778617 0.030619681248707748 0.056905584251258738 0.0081805545798248284 -0.091868547283157811 -0.0090444398639789505 0.054276579565917187 -0.14393585789753 -0.1983923223801432 -0.096334975567429953 -0.013104537392804991 -0.15089827383795731 0.11948166322126814 -0.0054243099883214546 0.05424205071409173
leaf_weight=2478.3898420849582 368.85329674254172 125.03539272537455 767.38667838950641 350.95076205767691 227.30878513958305 386.92107183486223 622.04572663223371 3.5831625089049366 16.933606382925063 828.46942942030728 48.658034523949027 3.3108140043914309 2.4793760906904927 12.798729081172498 3.0373939760029307 8.2167182858102006 683.55252504604869 49.689290189417079 124.72566409781575 33.999392939265817 851.06683512381278 9.1635764893144351 23.450932475738227 5.455330970697104 26.470923989312723 342.41961477010045 2.6397190196439624 10.900356847792862 877.44637614861131 14.184957053046672
leaf_count=42413 5947 18442 3508 1356 3493 1037 36897 7 102 3132 378 25 33 153 4 79 6436 309 232 540 9141 19 146 92 1127 13665 42 32 4776 726
internal_value=0.00012105 -0.0146571 0.0165485 0.032333 -0.0273859 0.0504384 -0.0413285 0.0154105 0.00818188 0.00211996 -0.00764613 -0.00260526 0.0185502 -0.0817782 -0.119102 0.0280761 0.0297201 -0.0150812 -0.0324204 -0.00855122 -0.0122261 -0.0640009 -0.0790315 -0.0363428 -0.0354633 -0.019077 0.0197599 -0.0046643 -0.00389167 -0.0449642
internal_weight=9309.54 4900.79 4408.75 1527.32 2422.4 737.872 1135.61 789.446 2881.44 1818.33 989.864 908.591 1063.1 22.059 18.4758 694.249 686.032 1286.79 352.034 934.756 885.066 81.2725 72.109 1010.58 1005.12 368.891 5.67711 891.658 888.347 636.231
internal_count=154289 127077 27212 6107 84664 2393 70949 3714 21105 8610 5478 4935 12495 206 199 6548 6469 13715 3725 9990 9681 543 524 52507 52415 14792 46 4833 4808 37623
is_linear=0
shrinkage=0.1


Tree=7
num_leaves=31
num_cat=0
split_feature=15 19 31 49 42 18 15 17 16 45 19 16 25 44 20 20 15 20 27 25 21 41 42 31 25 24 20 20 42 28
split_gain=232.218 69.1642 40.54 37.274 26.7443 15.8457 15.3831 34.9212 18.1635 16.0611 14.3208 34.9796 15.0932 15.8841 13.8788 13.456 17.7427 17.4604 13.594 13.3258 16.5554 25.5457 13.3179 16.6977 13.2118 12.9585 12.9374 21.7971 21.033 14.7752
threshold=-0.17740440368652341 0.83530214428901683 0.4561807662248612 0.91666665673255932 0.91831660270690929 0.0075977807864546784 1.2952136993408205 5.4795296192169198 0.45993590354919439 -0.7727481722831725 5.9593553543090829 0.2422277703881264 61.500000000000007 3.5767776966094975 0.047605715692043311 0.027696568518877033 -0.26169642806053156 0.0042528824415057906 0.33393286168575292 8.5000000000000018 8.5000000000000018 -1.52655665885959e-16 0.83190143108367931 0.091106720268726363 12.500000000000002 0.32470878958702093 0.46966911852359777 0.23147866129875186 -12.552255153656004 0.077121332287788405
decision_type=2 2 2 2 2 2 2 2 2 2 2 2 2 2 2 2 2 2 2 2 2 2 2 2 2 2 2 2 2 2
left_child=2 -2 4 6 15 -6 7 8 9 -3 26 -12 -13 -14 -7 16 17 18 22 20 21 -11 -1 -24 -10 -4 27 -8 -29 -30
right_child=1 3 25 -5 5 14 10 -9 24 19 11 12 13 -15 -16 -17 -18 -19 -20 -21 -22 -23 23 -25 -26 -27 -28 28 29 -31
leaf_value=0.018999614685872149 0.0039118778858185672 0.068625257577856633 -0.19263519268364426 0.064200146264668287 -0.067728890223454005 -0.033446563391158826 0.063229378955440826 -0.12391862846413018 -0.18293993358041058 -0.078414918873805556 0.10741775154995721 -0.21620013722060674 -0.014017489778313304 -0.21816001801359028 -0.10487039857311445 -0.055577742353388415 -0.050819253900934919 0.019388028636507321 -0.10724149992571164 0.019592218793217792 -0.1142978390718503 0.043684975101893793 0.024158086446174919 -0.14033165951614571 -0.024911696492505044 -0.012590953611274708 0.048136817109966645 -0.21057042534520387 -0.017384538091624654 0.041335746930597883
leaf_weight=45.716215303633362 3859.6589329041308 60.916142400354147 4.0057916103396556 235.98875236883759 255.79040064744186 495.44526128889993 80.042454711627215 18.052504333667457 6.5862731933593741 27.099305180832744 16.1068673748523 5.8384423274546853 28.196382738649845 4.4072671495378009 28.786728401202708 73.487382492050529 78.63064274424687 198.21264937461819 19.632497259648517 816.62834008201025 15.703428985085337 46.601961176842451 10.625980648212137 14.720989548019132 26.889694143086672 1946.1718941419385 407.9453829806298 4.5951957991346708 107.10244166571647 71.428304155357182
leaf_count=806 40989 152 178 754 28390 18359 377 168 28 74 51 48 156 38 325 745 4147 4606 766 4988 86 104 530 1200 90 43657 1313 46 594 283
internal_value=-0.000122931 0.0117068 -0.0219074 0.0269008 -0.0361963 -0.0473246 0.021854 0.0139268 0.0164142 0.0189213 0.03298 -0.0162944 -0.0681286 -0.0416129 -0.0373686 -0.0165142 -0.00870369 0.00275868 -0.0335842 0.0155795 -0.0210733 -0.00121008 -0.0132351 -0.0713741 -0.0560032 -0.0129608 0.0369851 0.0196986 0.000671688 0.00610884
internal_weight=9011.01 5839.79 3171.23 1980.13 1221.05 780.022 1744.14 1018.48 1000.43 966.949 725.663 54.549 38.4421 32.6036 524.232 441.026 367.539 288.908 90.6957 906.033 89.4047 73.7013 71.0632 25.347 33.476 1950.18 671.114 263.168 183.126 178.531
internal_count=154048 50339 103709 9350 59874 47074 8596 5690 5522 5404 2906 293 242 194 18684 12800 12055 7908 3302 5252 264 178 2536 1730 118 43835 2613 1300 923 877
is_linear=0
shrinkage=0.1


Tree=8
num_leaves=31
num_cat=0
split_feature=31 15 16 20 15 17 42 19 36 24 24 21 43 49 49 19 15 25 2 19 24 43 34 42 49 37 41 34 42 21
split_gain=197.495 75.4862 48.666 41.348 32.6982 24.0189 23.6989 22.5061 19.668 17.8864 17.542 17.4698 21.0943 21.0376 16.8305 16.4863 16.4242 20.6925 19.9727 18.527 15.811 15.4806 14.5968 14.1746 23.5228 16.1685 22.1103 15.216 14.2219 14.0735
threshold=0.72744959592819225 1.5858222842216494 0.029336087405681614 0.47295320034027105 1.5229994058609011 0.46332859992980963 -0.36675256490707392 1.9549147486686709 0.29166667163372045 0.055658819153904922 0.030803117901086811 120.50000000000001 8.1691012382507342 0.15254988521337512 0.44198717176914221 0.24111765623092654 0.74788343906402599 68.500000000000014 0.021507862955331806 -0.39057587087154383 0.027855369262397293 9.6507720947265643 0.13655786961317065 7.357490301132203 0.23352490365505221 11.500000000000002 4.8059077262878427 5.4365055561065683 3.8709449768066411 120.50000000000001
decision_type=2 2 2 2 2 2 2 2 2 2 2 2 2 2 2 2 2 2 2 2 2 2 2 2 2 2 2 2 2 2
left_child=2 4 5 7 9 -1 -7 11 29 -2 20 12 23 -13 -9 -6 -4 19 -19 -18 -10 -15 -11 24 28 26 27 -26 -3 -5
right_child=1 3 16 8 15 6 -8 14 10 22 -12 13 -14 21 -16 -17 17 18 -20 -21 -22 -23 -24 -25 25 -27 -28 -29 -30 -31
leaf_value=-0.03290591872414414 0.047363668783899304 -0.04108521540339747 -0.0110262713430569 0.003427416591845955 0.0058847862464199464 0.085024790932087729 -0.089946940823217289 -0.21979848589626216 0.041513341812186855 0.051640918662583538 0.075885795634417802 -0.12662728655452588 -0.1645837837430415 0.092846072402888849 -0.01745659247718221 -0.19284059579287122 0.029099222093600743 -0.041207951516186114 0.09006907036829849 -0.015299626177094945 -0.10761097851717723 -0.07835148280496626 0.0058082636647511024 0.05164276745455823 0.019043161641521374 0.10242379342516213 -0.1766634992954034 -0.077398099223012412 -0.21682211999434783 0.10500340455666038
leaf_weight=1333.0745147656417 111.71312884101644 25.236883986741308 2027.7832649149932 97.877172747626901 6.3358733728528049 32.485445081721991 10.16254226840101 6.5244118911214199 125.22912441566586 70.905083816731349 341.33666390366852 5.2902120933867982 6.3703319029882541 68.954806377179921 11.112163458950816 12.23807495459914 149.26859429758042 14.878894228488205 52.419337132945657 253.76777261821553 7.537842631340026 5.7200696473009875 3475.5886394785484 105.9464732920751 443.42707275459543 21.128259642980993 6.0674556884914628 16.98638054355979 5.6328597450628868 15.848875476978717
leaf_count=80343 810 314 25420 418 60 385 412 120 498 751 1027 118 84 286 85 133 645 393 351 1957 57 55 36253 444 1905 97 88 113 78 55
internal_value=0.00150468 0.0146504 -0.0154389 0.0352008 0.00729365 -0.0305425 0.043331 0.0192786 0.0549305 0.00796562 0.0638893 0.0220475 0.0164656 0.0660804 -0.0923102 -0.125052 -0.0071212 0.00971496 0.0610452 0.00114394 0.0330468 0.0797324 0.0067246 0.0183126 0.0115019 0.0168612 0.0129858 0.0154851 -0.0731523 0.0175831
internal_weight=8866.85 4993.01 3873.84 1316.23 3676.78 1375.72 42.648 728.397 587.83 3658.21 474.104 710.761 630.796 79.9651 17.6366 18.5739 2498.12 470.335 67.2982 403.036 132.767 74.6749 3546.49 624.425 518.479 487.609 466.481 460.413 30.8697 113.726
internal_count=153755 43849 109906 5842 38007 81140 797 3787 2055 37814 1582 3582 3123 459 205 193 28766 3346 744 2602 555 341 37004 3039 2595 2203 2106 2018 392 473
is_linear=0
shrinkage=0.1


end of trees

feature_importances:
Column_19=19
Column_42=16
Column_49=16
Column_20=15
Column_23=14
Column_43=14
Column_24=11
Column_31=11
Column_15=10
Column_32=10
Column_38=10
Column_44=10
Column_25=9
Column_45=9
Column_16=8
Column_21=8
Column_17=7
Column_18=7
Column_2=6
Column_34=6
Column_41=6
Column_28=5
Column_1=4
Column_3=4
Column_29=4
Column_47=4
Column_0=3
Column_27=3
Column_36=3
Column_37=3
Column_46=3
Column_48=3
Column_5=2
Column_7=2
Column_39=2
Column_40=2
Column_33=1

parameters:
[boosting: gbdt]
[objective: lambdarank]
[metric: ndcg]
[tree_learner: serial]
[device_type: cpu]
[data_sample_strategy: bagging]
[data: ]
[valid: ]
[num_iterations: 10000]
[learning_rate: 0.1]
[num_leaves: 31]
[num_threads: 0]
[seed: 42]
[deterministic: 0]
[force_col_wise: 0]
[force_row_wise: 0]
[histogram_pool_size: -1]
[max_depth: -1]
[min_data_in_leaf: 20]
[min_sum_hessian_in_leaf: 0.001]
[bagging_fraction: 0.8]
[pos_bagging_fraction: 1]
[neg_bagging_fraction: 1]
[bagging_freq: 1]
[bagging_seed: 400]
[bagging_by_query: 0]
[feature_fraction: 0.8]
[feature_fraction_bynode: 1]
[feature_fraction_seed: 30056]
[extra_trees: 0]
[extra_seed: 12879]
[early_stopping_round: 0]
[early_stopping_min_delta: 0]
[first_metric_only: 0]
[max_delta_step: 0]
[lambda_l1: 0]
[lambda_l2: 0]
[linear_lambda: 0]
[min_gain_to_split: 0]
[drop_rate: 0.1]
[max_drop: 50]
[skip_drop: 0.5]
[xgboost_dart_mode: 0]
[uniform_drop: 0]
[drop_seed: 17869]
[top_rate: 0.2]
[other_rate: 0.1]
[min_data_per_group: 100]
[max_cat_threshold: 32]
[cat_l2: 10]
[cat_smooth: 10]
[max_cat_to_onehot: 4]
[top_k: 20]
[monotone_constraints: ]
[monotone_constraints_method: basic]
[monotone_penalty: 0]
[feature_contri: ]
[forcedsplits_filename: ]
[refit_decay_rate: 0.9]
[cegb_tradeoff: 1]
[cegb_penalty_split: 0]
[cegb_penalty_feature_lazy: ]
[cegb_penalty_feature_coupled: ]
[path_smooth: 0]
[interaction_constraints: ]
[verbosity: -1]
[saved_feature_importance_type: 0]
[use_quantized_grad: 0]
[num_grad_quant_bins: 4]
[quant_train_renew_leaf: 0]
[stochastic_rounding: 1]
[linear_tree: 0]
[max_bin: 1024]
[max_bin_by_feature: ]
[min_data_in_bin: 3]
[bin_construct_sample_cnt: 200000]
[data_random_seed: 175]
[is_enable_sparse: 1]
[enable_bundle: 1]
[use_missing: 1]
[zero_as_missing: 0]
[feature_pre_filter: 1]
[pre_partition: 0]
[two_round: 0]
[header: 0]
[label_column: ]
[weight_column: ]
[group_column: ]
[ignore_column: ]
[categorical_feature: ]
[forcedbins_filename: ]
[precise_float_parser: 0]
[parser_config_file: ]
[objective_seed: 16083]
[num_class: 1]
[is_unbalance: 0]
[scale_pos_weight: 1]
[sigmoid: 1]
[boost_from_average: 1]
[reg_sqrt: 0]
[alpha: 0.9]
[fair_c: 1]
[poisson_max_delta_step: 0.7]
[tweedie_variance_power: 1.5]
[lambdarank_truncation_level: 30]
[lambdarank_norm: 1]
[label_gain: ]
[lambdarank_position_bias_regularization: 0]
[eval_at: 5,10]
[multi_error_top_k: 1]
[auc_mu_weights: ]
[num_machines: 1]
[local_listen_port: 12400]
[time_out: 120]
[machine_list_filename: ]
[machines: ]
[gpu_platform_id: -1]
[gpu_device_id: -1]
[gpu_use_dp: 0]
[num_gpu: 1]

end of parameters

pandas_categorical:null
