tree
version=v4
num_class=1
num_tree_per_iteration=1
label_index=0
max_feature_idx=50
objective=lambdarank
feature_names=Column_0 Column_1 Column_2 Column_3 Column_4 Column_5 Column_6 Column_7 Column_8 Column_9 Column_10 Column_11 Column_12 Column_13 Column_14 Column_15 Column_16 Column_17 Column_18 Column_19 Column_20 Column_21 Column_22 Column_23 Column_24 Column_25 Column_26 Column_27 Column_28 Column_29 Column_30 Column_31 Column_32 Column_33 Column_34 Column_35 Column_36 Column_37 Column_38 Column_39 Column_40 Column_41 Column_42 Column_43 Column_44 Column_45 Column_46 Column_47 Column_48 Column_49 Column_50
feature_infos=[0.0035971223842352629:1] [0.0035971223842352629:1] [0.0035971223842352629:1] [0.022326022386550903:0.75] none [0.0035971223842352629:0.5] [0.073655799031257629:0.35355338454246521] [0.022326022386550903:0.75] none [0.0035971223842352629:0.5] [0.073655799031257629:0.35355338454246521] [0.022326022386550903:0.75] none [0.0035971223842352629:0.5] [0.073655799031257629:0.35355338454246521] [-0.80622577667236328:13.27354907989502] [0:1] [-0.80622577667236328:13.27354907989502] [0:1] [-0.80622577667236328:13.27354907989502] [0:1] [1:278] [1:278] [0.0035971223842352629:1] [0.0035971223842352629:1] [1:278] [1:278] [0.0035971223842352629:1] [0.0035971223842352629:1] [1:278] [1:278] [0.0035971223842352629:1] [0.0035971223842352629:1] [-0.98969072103500366:0.99350649118423462] [0.010309278033673763:153.999755859375] [0.0036496350076049566:1] [0.0035971223842352629:1] [-244:226] [0.0042735044844448566:108] [1:278] [1:278] [-12.702733039855957:13.014169692993164] [-13415.98828125:9846.9658203125] [-0.80622577667236328:13.27354907989502] [-0.80622577667236328:13.27354907989502] [-1:1] [0:100000000] [0:1] [0:1] [0.0036454047076404095:1] [2:278]
tree_sizes=3503 3496 3505 3505

Tree=0
num_leaves=31
num_cat=0
split_feature=23 24 23 31 32 31 44 2 38 41 23 29 1 32 36 38 27 18 31 46 24 32 45 15 3 36 15 20 37 29
split_gain=1406.79 302.024 133.192 123.457 64.6 47.5468 32.5152 29.487 23.364 20.1689 15.8195 14.6034 14.2604 13.5194 12.755 11.6194 11.4404 11.0929 10.9484 11.9302 10.7647 10.1053 9.92675 9.88528 11.8886 9.13685 9.10186 9.02975 12.669 10.0916
threshold=0.52758321166038524 0.28132851421833044 0.25696384906768804 0.8214949667453767 0.2904126793146134 0.6353554129600526 0.10906368121504785 0.29166667163372045 0.16718427091836932 -0.05329794064164161 0.91312551498413097 179.50000000000003 0.026671408675611023 0.054120624437928207 0.022474748082458976 1.2942981123924258 0.1763647943735123 0.0053430416155606517 0.20373864471912387 131941.76953125003 0.81801283359527599 0.093813776969909682 -0.94729530811309803 -0.33815571665763849 0.052512027323246009 0.015268065501004459 -0.24539836496114728 0.0037256850628182296 3.5000000000000004 2.5000000000000004
decision_type=2 2 2 2 2 2 2 2 2 2 2 2 2 2 2 2 2 2 2 2 2 2 2 2 2 2 2 2 2 2
left_child=2 3 4 10 8 14 -5 12 -1 -6 15 18 25 -8 26 -2 -9 -7 -11 -20 -14 -19 -18 24 -10 -4 -3 -16 29 -29
right_child=1 5 7 6 9 17 13 16 23 11 -12 -13 20 -15 27 -17 22 21 19 -21 -22 -23 -24 -25 -26 -27 -28 28 -30 -31
leaf_value=0.070980279910340394 0.040704730787418313 -0.13619751326351176 -0.058607587067440008 0.06744904852121518 -0.085698285871051882 -0.048243815852481359 0.13145404837723254 -0.1914927922388851 0.15649765346564645 -0.14520042851856244 0.061437776115169186 0.19810564793909696 -0.046228321695045684 0.09964258454454733 -0.055873375308774037 0.0062692804786609324 0.098262377204243911 0.061208587186555821 -0.12049392526816496 -0.032230903876560357 -0.11945888980504729 0.02063022732127116 -0.0059133383601870631 -0.20000000000000001 -0.055210892559805137 -0.099926352445836392 -0.042048623593441727 -0.088580415182903369 0.018231536547246067 -0.015041302262406226
leaf_weight=21.680346231092699 315.49635360333195 12.966424865851875 111.42839872065815 258.46529895327694 145.12714874673111 20.921933112389524 195.21216307581926 3.0882158973254255 2.854563307017087 224.47803809677862 246.39350572178955 1.3650918732164417 613.87915788246028 423.25244279426988 44.658952313679038 142.13166080246447 10.074215300730428 70.686110682843719 215.43937848114729 16.485897351201857 20.751858823467046 465.69151340104872 99.370653736026725 4.2836203644546904 37.469617180118803 102.97767182798998 49.347134769937838 20.174435166409239 122.58060130631202 248.65779420585022
leaf_count=550 11111 1195 11865 7729 6189 1133 3494 69 41 14876 6055 5 20432 7107 1583 5654 90 1876 13684 470 376 12215 1381 497 1135 7739 4791 304 3577 6960
internal_value=-0.000614665 0.04454 -0.0736216 0.0721969 -0.10788 0.00312213 0.0972354 -0.0497805 -0.0141782 -0.118182 0.0410089 -0.128481 -0.0561558 0.109684 -0.0193196 0.0300097 -0.0016801 0.0231914 -0.129457 -0.11422 -0.0486229 0.0259778 0.00367586 -0.055567 -0.040224 -0.0784527 -0.0616395 -0.0132722 -0.00841149 -0.02056
internal_weight=4267.39 2636.64 1630.75 1580.95 669.184 1055.68 876.93 961.57 66.2881 602.896 704.022 457.768 849.037 618.465 498.385 457.628 112.533 557.3 456.403 231.925 634.631 536.378 109.445 44.6078 40.3242 214.406 62.3136 436.072 391.413 268.832
internal_count=154183 74784 79399 41150 37447 33634 18330 41952 2223 35224 22820 29035 40412 10601 18410 16765 1540 15224 29030 14154 20808 14091 1471 1673 1176 19604 5986 12424 10841 7264
is_linear=0
shrinkage=0.1


Tree=1
num_leaves=31
num_cat=0
split_feature=23 20 15 44 47 32 16 38 33 35 39 41 25 44 41 39 43 3 38 17 24 28 28 24 44 23 28 3 47 24
split_gain=578.457 173.139 85.9596 72.2936 52.862 48.2727 61.0459 46.1177 41.5884 44.7783 37.0313 35.318 33.2068 31.5218 30.548 30.2645 29.9275 29.8638 29.4223 27.9556 27.859 25.7391 28.2072 27.0887 24.9999 35.3145 30.9408 28.2866 24.5542 24.3534
threshold=0.41164366900920873 0.47295320034027105 1.4150182604789736 -0.22091166675090787 0.00342479394748807 0.019292804412543777 0.49628247320652014 0.90631648898124706 0.81666666269302379 0.074175827205181136 65.500000000000014 -0.25068712234497065 7.5000000000000009 -0.80343326926231373 0.095046512782573714 26.500000000000004 2.5063918828964238 0.56597220897674572 0.92601713538169872 -0.33760698139667505 0.021466974169015888 0.18075692653656009 0.39480432868003851 0.17782169580459598 0.66210398077964794 0.92961284518241893 0.052730884402990348 0.23844005912542346 0.49300664663314825 0.42884510755538946
decision_type=2 2 2 2 2 2 2 2 2 2 2 2 2 2 2 2 2 2 2 2 2 2 2 2 2 2 2 2 2 2
left_child=4 3 7 8 17 6 -4 -3 9 14 21 -6 -10 -11 -2 -15 -7 -1 -12 -14 -5 24 -23 -24 -9 27 -27 -26 -18 -22
right_child=1 2 5 20 11 16 -8 10 12 13 18 -13 19 15 -16 -17 28 -19 -20 -21 29 22 23 -25 25 26 -28 -29 -30 -31
leaf_value=-0.097700646965069332 -0.040656894572650579 0.045929306643698535 -0.090205802326527876 0.047876375492155614 -0.0094993740548096044 0.088011158156753339 0.053930383650075332 -0.075348814073204165 -0.20604034468195467 0.10904460087728413 -0.16660915704630025 -0.051162241567005412 0.054563891160826675 -0.0068447065738275236 -0.00089529429480579559 0.023647034878530739 -0.094807104296025693 0.059916763081879432 0.066582117124606308 -0.14609051550909533 0.0096049187749498218 0.03696850912435342 -0.20416163149269312 -0.008208629609871277 0.059362272907004146 -0.19231201056128311 -0.022381886552479677 -0.096088956388995228 0.052939694417280005 -0.068454168643263785
leaf_weight=280.69655033538584 570.23671626741998 354.51195408916101 48.073655005544424 191.282719893381 241.3665270084748 335.45966183766723 75.581667547812685 88.623778698965907 18.660102197900414 25.937986694276333 5.6923267114907494 1295.880833795527 15.726294814608993 1967.3829045402817 292.24823724699672 390.04931471042801 11.504713288508354 12.558719314634798 109.35330527368933 12.432502988725899 4210.4962012804463 188.51374157145619 7.2506806785240761 261.12079026317224 69.526653595268726 15.107323754578827 36.85347518697381 14.075268834829329 504.81631442345679 40.351004330208525
leaf_count=19420 23928 1321 287 1140 3045 593 247 360 78 42 46 38719 64 12289 7673 5452 53 20 439 110 35797 556 56 709 142 83 108 34 1068 454
internal_value=-0.000416137 0.0091675 0.0344417 0.0022204 -0.0520429 0.0562804 -0.00210565 0.0159281 -0.00900875 -0.00765898 0.00256848 -0.0446207 -0.102585 -0.000593383 -0.0271839 -0.00179969 0.0647564 -0.0909506 0.0550441 -0.0340278 0.0105439 -0.00629562 0.00732201 -0.0135028 -0.0340479 -0.00704757 -0.0717882 0.0331904 0.0496476 0.00886395
internal_weight=11691.4 9860.87 2126.07 7734.8 1830.5 975.436 123.655 1150.63 3292.67 3245.86 796.117 1537.25 46.8189 2383.37 862.485 2357.43 851.781 293.255 115.046 28.1588 4442.13 681.072 456.885 268.371 224.187 135.563 51.9608 83.6019 516.321 4250.85
internal_count=154333 93129 6102 87027 61204 2248 534 3854 49636 49384 2533 41764 252 17783 31601 17741 1714 19440 485 174 37391 2048 1321 765 727 367 191 176 1121 36251
is_linear=0
shrinkage=0.1


Tree=2
num_leaves=31
num_cat=0
split_feature=31 23 23 19 18 32 17 3 1 3 31 46 42 25 20 47 16 23 42 32 28 45 43 16 23 43 38 28 38 41
split_gain=522.557 180.169 110.803 92.8581 32.6827 28.9476 28.735 29.6911 28.3247 28.2709 27.623 22.7829 24.349 21.8994 21.3657 21.2164 21.4078 20.9886 20.0854 28.4264 20.9401 27.705 22.5161 27.2186 20.6129 20.4699 23.3804 27.5036 23.1971 22.8581
threshold=0.72097235918045055 0.38826659321784979 0.89587205648422252 1.3838173151016238 0.074026834219694151 0.093813776969909682 3.2778480052948002 0.18330506235361102 0.022991543635725979 0.3893707543611527 0.20844473689794543 0.99999997019767772 -0.27295376360416407 49.500000000000007 0.22271825373172763 0.0074140327051281938 0.019533612765371803 0.25846518576145178 8.5774064064025897 0.36542323231697088 0.17867118865251544 0.2570436447858811 1.2430254220962527 0.17192118614912036 0.57115492224693309 0.10352105274796487 3.3141447305679326 0.75347289443016063 0.56536731123924266 -0.36244675517082209
decision_type=2 2 2 2 2 2 2 2 2 2 2 2 2 2 2 2 2 2 2 2 2 2 2 2 2 2 2 2 2 2
left_child=1 4 9 6 10 -5 -4 -8 -3 14 15 12 -11 18 -2 -1 17 -17 20 -20 21 22 23 -10 -24 28 27 -27 -22 -30
right_child=2 8 3 5 -6 -7 7 -9 13 11 -12 -13 -14 -15 -16 16 -18 -19 19 -21 25 -23 24 -25 -26 26 -28 -29 29 -31
leaf_value=-0.11063429517156938 -0.00020131248334326346 -0.046915181237749251 0.022867114800127934 0.046640906789738076 -0.0083573819129755082 0.086969910021655883 -0.0027366573482811999 -0.11980882736588271 -0.034025750167921795 0.012903651227597632 -0.051946251899610413 0.032302747280861292 -0.084029201242241836 0.0091904173252138465 0.016918244141886859 -0.079261775268780615 -0.14039014670418506 -0.008313440048542951 0.059041623685716318 -0.097948848523620818 0.12570130650353661 -0.16326629237186188 -0.1930797201610743 -0.14375884044051387 -0.0038557193633320837 0.0024150640566592738 0.076793333021760043 -0.10751950346133637 -0.14078581537412205 -0.016090591285113243
leaf_weight=178.09789246902801 1480.9910797837656 237.13140438857954 1576.8040078908671 1066.2851726680528 118.01581444358453 213.64396544545889 196.92314231349155 24.340717267245054 75.395401724847034 36.781126596033573 695.24520224053413 38.877814508974552 87.712927006185055 457.18615085433703 1435.7377653479343 99.472983640385792 30.552143260836601 71.787902632728219 14.422711540944873 57.584034424740821 11.439747323980553 16.552829151973128 5.941690639127045 32.283047841861844 185.06300926487893 757.88969895499758 40.769060357473791 23.461797695606947 14.829752044752238 1690.557570309611
leaf_count=15489 24410 16234 7863 3967 1356 400 962 78 964 92 29763 89 236 10997 7038 3560 460 2167 90 476 103 128 86 329 797 4287 184 105 173 21493
internal_value=7.25523e-05 -0.0246113 0.0193675 0.0327859 -0.0583117 0.0533726 0.0181316 -0.0156155 -0.013505 0.00595826 -0.063795 -0.0345223 -0.0553909 -0.0111634 0.00822566 -0.0854784 -0.0632785 -0.0495222 -0.0143435 -0.0665042 -0.0130275 -0.037336 -0.030357 -0.0669248 -0.00974202 -0.0100094 0.00296616 -0.000885963 -0.0162229 -0.0171749
internal_weight=10971.8 4813.68 6158.1 3078 1193.17 1279.93 1798.07 221.264 3620.51 3080.1 1075.16 163.372 124.494 3383.38 2916.73 379.911 201.813 171.261 2926.19 72.0067 2854.18 315.236 298.683 107.678 191.005 2538.95 822.121 781.351 1716.83 1705.39
internal_count=154376 109241 45135 13270 52795 4367 8903 1040 56446 31865 51439 417 328 40212 31448 21676 6187 5727 29215 566 28649 2304 2176 1293 883 26345 4576 4392 21769 21666
is_linear=0
shrinkage=0.1


Tree=3
num_leaves=31
num_cat=0
split_feature=24 20 27 43 47 34 48 20 2 28 24 19 32 20 34 43 16 37 20 36 38 0 15 32 32 19 21 45 17 20
split_gain=394.754 155.761 102.544 60.8658 51.8208 29.0182 25.7215 45.9597 25.4317 25.1256 24.4055 28.2208 31.0901 22.7738 22.3699 22.9406 21.4788 21.0909 19.5791 27.6802 19.3847 32.1972 25.9885 42.8395 17.6384 16.7322 16.703 16.6598 16.5928 16.517
threshold=0.3296902477741242 0.47295320034027105 0.49300664663314825 1.3129239678382876 0.0078548379242420214 1.7499998211860659 0.088574629276990904 0.49563309550285345 0.18333333730697635 0.068227455019950881 0.048846764490008361 0.53034725785255443 0.022514150477945808 0.2357129901647568 1.229806184768677 -0.27606616914272303 0.33008098602294927 -54.499999999999993 0.019890825264155868 0.15476191043853763 0.69212540984153759 0.41666667163372045 -0.30435018241405482 0.18075692653656009 0.63172352313995372 0.90955063700675975 44.500000000000007 -0.057611031457781785 2.8203992843627934 0.31867954134941107
decision_type=2 2 2 2 2 2 2 2 2 2 2 2 2 2 2 2 2 2 2 2 2 2 2 2 2 2 2 2 2 2
left_child=1 10 4 9 24 8 7 -5 14 -3 11 -1 -13 -14 15 -4 18 -17 -6 -20 21 22 23 27 -2 -24 -9 -10 -19 -12
right_child=2 3 5 6 16 -7 -8 26 20 -11 29 12 13 -15 -16 17 -18 28 19 -21 -22 -23 25 -25 -26 -27 -28 -29 -30 -31
leaf_value=0.0058692017577437524 -0.042401450074181252 -0.15361725226416692 -0.043315438822966353 -0.17259957781589705 -0.046749478153010234 -0.10369182468200336 0.061536043298508716 0.094321978665382972 0.032281445936061512 0.014373871267906067 0.0024883524745893198 -0.21797293365753023 0.072764922448350131 0.017142916787168803 -0.079251813176277122 -0.13281930956356966 0.071873957862258961 -0.0057101107077169779 -0.015656472746048995 -0.076282210016375168 0.0090523575897461239 0.091333781600244079 -0.025906340954506751 -0.055173665678262762 -0.084920105514724717 -0.17888655336259487 -0.055939150840222399 -0.086992559786437371 -0.19424760956781736 0.022989847592421203
leaf_weight=344.38496020808816 145.51259070017841 9.1408108398318273 240.93277119356208 13.169511780142782 586.47599867219105 32.512970857322216 996.84769342001528 23.555875677615404 128.52194972336292 342.45187764102593 3460.1467797860969 4.3557969294488421 188.68003081344068 120.70065587386489 58.591905181645416 13.46130109974183 19.806755930185318 884.82224457035773 674.56857483717613 84.774839910678566 907.38972326833755 24.67995722591877 12.077067518606784 151.05223024589941 296.10635512770386 17.523627226939425 10.784748684614895 12.884584905346854 4.6926952293142667 443.3188439658843
leaf_count=2820 11349 91 5253 103 18850 89 2864 53 558 1438 38005 65 835 585 1332 1967 45 23631 11369 495 3364 59 85 835 25833 257 107 264 112 1458
internal_value=0.000102605 0.016765 -0.0230021 0.0459943 -0.041133 -0.0098381 0.0581099 -0.0137761 -0.00859596 0.0100064 0.00782012 0.025634 0.0473295 0.0510648 -0.0189867 -0.0158999 -0.0315035 -0.00858483 -0.033025 -0.0224249 0.00136702 -0.0187449 -0.0271804 -0.018143 -0.0709103 -0.116471 0.0471321 0.0214135 -0.00670475 0.00481672
internal_weight=10253.9 5957.54 4296.39 1395.95 1807.25 2489.14 1044.36 47.5101 2456.63 351.593 4561.59 658.121 313.736 309.381 1202.5 1143.91 1365.63 902.976 1345.82 759.343 1254.13 346.739 322.059 292.459 441.619 29.6007 34.3406 141.407 889.515 3903.47
internal_count=154171 48424 105747 4656 67941 37806 3127 263 37717 1529 43768 4305 1485 1420 32295 30963 30759 25710 30714 11864 5422 2058 1999 1657 37182 342 160 822 23743 39463
is_linear=0
shrinkage=0.1


end of trees

feature_importances:
Column_23=9
Column_32=9
Column_20=8
Column_24=7
Column_38=7
Column_28=6
Column_3=5
Column_31=5
Column_43=5
Column_15=4
Column_16=4
Column_41=4
Column_44=4
Column_47=4
Column_17=3
Column_19=3
Column_36=3
Column_45=3
Column_1=2
Column_2=2
Column_18=2
Column_25=2
Column_27=2
Column_29=2
Column_34=2
Column_37=2
Column_39=2
Column_42=2
Column_46=2
Column_0=1
Column_21=1
Column_33=1
Column_35=1
Column_48=1

parameters:
[boosting: gbdt]
[objective: lambdarank]
[metric: ndcg]
[tree_learner: serial]
[device_type: cpu]
[data_sample_strategy: bagging]
[data: ]
[valid: ]
[num_iterations: 10000]
[learning_rate: 0.1]
[num_leaves: 31]
[num_threads: 0]
[seed: 42]
[deterministic: 0]
[force_col_wise: 0]
[force_row_wise: 0]
[histogram_pool_size: -1]
[max_depth: -1]
[min_data_in_leaf: 20]
[min_sum_hessian_in_leaf: 0.001]
[bagging_fraction: 0.8]
[pos_bagging_fraction: 1]
[neg_bagging_fraction: 1]
[bagging_freq: 1]
[bagging_seed: 400]
[bagging_by_query: 0]
[feature_fraction: 0.8]
[feature_fraction_bynode: 1]
[feature_fraction_seed: 30056]
[extra_trees: 0]
[extra_seed: 12879]
[early_stopping_round: 0]
[early_stopping_min_delta: 0]
[first_metric_only: 0]
[max_delta_step: 0]
[lambda_l1: 0]
[lambda_l2: 0]
[linear_lambda: 0]
[min_gain_to_split: 0]
[drop_rate: 0.1]
[max_drop: 50]
[skip_drop: 0.5]
[xgboost_dart_mode: 0]
[uniform_drop: 0]
[drop_seed: 17869]
[top_rate: 0.2]
[other_rate: 0.1]
[min_data_per_group: 100]
[max_cat_threshold: 32]
[cat_l2: 10]
[cat_smooth: 10]
[max_cat_to_onehot: 4]
[top_k: 20]
[monotone_constraints: ]
[monotone_constraints_method: basic]
[monotone_penalty: 0]
[feature_contri: ]
[forcedsplits_filename: ]
[refit_decay_rate: 0.9]
[cegb_tradeoff: 1]
[cegb_penalty_split: 0]
[cegb_penalty_feature_lazy: ]
[cegb_penalty_feature_coupled: ]
[path_smooth: 0]
[interaction_constraints: ]
[verbosity: -1]
[saved_feature_importance_type: 0]
[use_quantized_grad: 0]
[num_grad_quant_bins: 4]
[quant_train_renew_leaf: 0]
[stochastic_rounding: 1]
[linear_tree: 0]
[max_bin: 1024]
[max_bin_by_feature: ]
[min_data_in_bin: 3]
[bin_construct_sample_cnt: 200000]
[data_random_seed: 175]
[is_enable_sparse: 1]
[enable_bundle: 1]
[use_missing: 1]
[zero_as_missing: 0]
[feature_pre_filter: 1]
[pre_partition: 0]
[two_round: 0]
[header: 0]
[label_column: ]
[weight_column: ]
[group_column: ]
[ignore_column: ]
[categorical_feature: ]
[forcedbins_filename: ]
[precise_float_parser: 0]
[parser_config_file: ]
[objective_seed: 16083]
[num_class: 1]
[is_unbalance: 0]
[scale_pos_weight: 1]
[sigmoid: 1]
[boost_from_average: 1]
[reg_sqrt: 0]
[alpha: 0.9]
[fair_c: 1]
[poisson_max_delta_step: 0.7]
[tweedie_variance_power: 1.5]
[lambdarank_truncation_level: 30]
[lambdarank_norm: 1]
[label_gain: ]
[lambdarank_position_bias_regularization: 0]
[eval_at: 5,10]
[multi_error_top_k: 1]
[auc_mu_weights: ]
[num_machines: 1]
[local_listen_port: 12400]
[time_out: 120]
[machine_list_filename: ]
[machines: ]
[gpu_platform_id: -1]
[gpu_device_id: -1]
[gpu_use_dp: 0]
[num_gpu: 1]

end of parameters

pandas_categorical:null
