tree
version=v4
num_class=1
num_tree_per_iteration=1
label_index=0
max_feature_idx=50
objective=lambdarank
feature_names=Column_0 Column_1 Column_2 Column_3 Column_4 Column_5 Column_6 Column_7 Column_8 Column_9 Column_10 Column_11 Column_12 Column_13 Column_14 Column_15 Column_16 Column_17 Column_18 Column_19 Column_20 Column_21 Column_22 Column_23 Column_24 Column_25 Column_26 Column_27 Column_28 Column_29 Column_30 Column_31 Column_32 Column_33 Column_34 Column_35 Column_36 Column_37 Column_38 Column_39 Column_40 Column_41 Column_42 Column_43 Column_44 Column_45 Column_46 Column_47 Column_48 Column_49 Column_50
feature_infos=[0.030851000919938087:1] [0.030851000919938087:1] [0.030851000919938087:1] [0.05394899845123291:0.999991774559021] [0.053998999297618866:1] [0.030851000919938087:0.99993300437927246] [1.2651160432142206e-05:0.3396131694316864] [0.05394899845123291:0.999991774559021] [0.053998999297618866:1] [0.030851000919938087:0.99993300437927246] [1.2651160432142206e-05:0.3396131694316864] [0.05394899845123291:0.999991774559021] [0.053998999297618866:1] [0.030851000919938087:0.99993300437927246] [1.2651160432142206e-05:0.3396131694316864] [-8.2152194976806641:10.90538215637207] [0:1] [-8.2152194976806641:10.90538215637207] [0:1] [-8.2152194976806641:10.90538215637207] [0:1] [1:278] [1:278] [0.0035971223842352629:1] [0.0035971223842352629:1] [1:278] [1:278] [0.0035971223842352629:1] [0.0035971223842352629:1] [1:278] [1:278] [0.0035971223842352629:1] [0.0035971223842352629:1] none [0.99999970197677612:1] [0.030851000919938087:1] [0.030851000919938087:1] none none [1:278] [1:278] none [0.99533343315124512:1.0005882978439331] [-8.2152194976806641:10.90538215637207] [-8.2152194976806641:10.90538215637207] none [0:1] [0:1] [0:1] [0.030851000919938087:1] [2:278]
tree_sizes=3473 3469 3507 3486 3470 3459 3497 3478 3465 3453 3465 3476 3444 3460 3448 3423 3471 3469 3466 3448 3485 3423 3457 3433 3450 3419 3458 3404 3435 3464 3479 3418 3429 3483

Tree=0
num_leaves=31
num_cat=0
split_feature=24 23 0 4 0 23 4 0 0 0 24 4 3 5 22 0 17 4 21 4 3 5 48 17 6 5 22 6 3 17
split_gain=1379.26 378.749 123.06 55.1365 36.3563 30.5221 28.5256 24.0685 22.8101 14.8006 14.6257 12.9686 11.9904 13.8565 15.4393 11.6154 11.0008 10.5267 10.0092 9.81947 11.8125 9.25489 14.072 12.0915 9.57595 9.03158 9.64823 8.61132 8.5539 8.13388
threshold=0.3276349157094956 0.41164366900920873 0.97216150164604198 0.97980800271034252 0.83606100082397472 0.95463898777961742 0.99509248137474071 0.9418034851551057 0.30881799757480627 0.92169550061225902 0.14590936154127124 0.99441349506378185 0.83930248022079479 0.27213148772716528 238.50000000000003 0.37329050898551946 -0.56078428030014027 0.99569597840309154 7.7500000000000009 0.99346747994422924 0.86501625180244457 0.26709100604057318 0.26638315618038183 -1.0088490843772886 0.18026225268840793 0.37608200311660772 98.250000000000014 0.28154118359088903 0.83840090036392223 0.63939222693443309
decision_type=2 2 2 2 2 2 2 2 2 2 2 2 2 2 2 2 2 2 2 2 2 2 2 2 2 2 2 2 2 2
left_child=2 3 10 15 8 18 7 19 28 -8 -1 -7 13 14 -10 -2 -6 -11 -4 -3 -21 -17 23 -23 -24 26 -15 -9 -5 -12
right_child=1 6 5 4 16 11 9 27 12 17 29 -13 -14 25 -16 21 -18 -19 -20 20 -22 22 24 -25 -26 -27 -28 -29 -30 -31
leaf_value=0.064367360514206995 -0.013452574211331114 -0.012224889211540503 -0.010844007764084699 0.0405284526875032 -0.11344066493075688 0.10326468149631683 -0.10180729852348708 0.016877923621562044 -0.18562125205905086 -0.1037936333630169 0.019572924560058335 0.14243966996676058 -0.13711545906321307 -0.018150098689318737 0.13553499866163546 -0.1119627337088645 -0.07253945789854431 -0.011494860448822182 0.078436757514147443 -0.13742108852075957 -0.031050812119310375 -0.11748497498455097 -0.032197216715114871 0.018050207565376602 -0.17148884615625534 -0.11980424068962203 -0.20000000000000001 -0.17340456578935565 -0.073647690183643907 0.042742659623282574
leaf_weight=227.09125853393925 61.038214147032704 716.52754628204275 12.954000548459588 8.8649385834287369 83.040238446497824 333.45259513932979 45.247126642963849 360.79204349548672 19.751715916383549 15.422490713273872 226.37150531513907 113.18782858811028 337.7124349946389 31.15666774235433 1.619654542300849 32.547224210909917 315.97621734168206 62.158202211896423 409.59349983719585 13.230260751472086 49.502608259615954 45.580345194233814 132.53981906938134 7.6932926264125845 5.12640244924114 19.919070134288631 3.2190053832891854 2.3941119629889718 25.254671722563216 458.19208441265801
leaf_count=6764 2167 26614 148 251 2519 5531 3645 6353 2830 734 7862 1674 23701 1691 74 1645 15915 2560 9610 1133 2290 1202 4418 114 99 1154 587 37 1095 15461
internal_value=0.00138748 -0.0481488 0.0680438 -0.090198 -0.102998 0.0949657 -0.0105607 -0.00563739 -0.122568 -0.0563532 0.0423761 0.113192 -0.129054 -0.0930734 -0.161282 -0.0521144 -0.0810515 -0.0298432 0.0756997 -0.0155464 -0.0534841 -0.0626736 -0.0542719 -0.0979122 -0.0373841 -0.0662253 -0.0351789 0.0156236 -0.0439825 0.0350809
internal_weight=4177.16 2396.31 1780.84 1131.04 846.515 869.188 1265.27 1142.45 447.498 122.828 911.655 446.64 413.379 75.6661 21.3714 284.525 399.016 77.5807 422.548 779.26 62.7329 223.487 190.94 53.2736 137.666 54.2947 34.3757 363.186 34.1196 684.564
internal_count=149878 102828 47050 59462 49817 16963 43366 36427 31383 6939 30087 7205 30037 6336 2904 9645 18434 3294 9758 30037 3423 7478 5833 1316 4517 3432 2278 6390 1346 23323
is_linear=0
shrinkage=0.1


Tree=1
num_leaves=31
num_cat=0
split_feature=23 0 8 16 16 8 24 21 16 8 26 0 3 8 0 24 16 9 15 0 6 26 3 23 0 23 8 24 9 3
split_gain=416.639 119.935 104.769 75.5862 50.1538 49.7932 42.2016 38.4843 33.315 33.5493 32.1816 31.8302 47.8333 32.7973 30.2429 28.5726 27.9234 26.6157 26.3136 40.4553 25.7782 25.1838 25.096 25.0016 22.6781 24.7985 41.7542 26.2672 20.8618 22.601
threshold=0.46070358157157904 0.9944095015525819 0.99351751804351818 0.88939288258552562 0.13929457962512973 0.97057497501373302 0.041399713605642326 2.7500000000000004 0.18543384969234469 0.9951390027999879 3.2500000000000004 0.97443449497222911 0.85938918590545665 0.98407101631164562 0.99594900012016307 0.038585608825087554 0.83977785706520092 0.75292998552322399 -0.42059107124805445 0.28687600791454321 0.22230603545904162 7.7500000000000009 0.86033424735069286 0.98380541801452648 0.98773249983787548 0.89919224381446849 0.99589350819587719 0.15399074554443362 0.66624802350997936 0.90805649757385265
decision_type=2 2 2 2 2 2 2 2 2 2 2 2 2 2 2 2 2 2 2 2 2 2 2 2 2 2 2 2 2 2
left_child=2 3 5 4 -2 21 17 -8 -6 -10 15 -9 24 -14 -12 23 -4 -5 19 -7 -20 28 -15 -3 25 27 -27 -13 -1 -30
right_child=1 10 16 6 8 18 7 11 9 -11 14 12 13 22 -16 -17 -18 -19 20 -21 -22 -23 -24 -25 -26 26 -28 -29 29 -31
leaf_value=-0.085694443323305294 0.037611453604710042 -0.1147457874747895 -0.10181631824849535 -0.0088893727289070523 -0.16996374905224346 0.011406118911617002 -0.046973718054877572 0.0078729017655140097 -0.011577972235925396 -0.064132475472767084 -0.20202933500336342 -0.14751867193281198 0.049084922661297652 -0.20732046140098978 0.032513229834019344 0.093994666330069865 -0.020108499541246244 -0.1552568323684701 -0.025297050859541578 -0.068372422547574072 -0.13594652056458012 0.011956224457030888 0.012408678506155334 0.048118670869659042 0.091924313990740705 0.063134455474540427 -0.13350797169493397 0.016117044790246761 0.030013085373559425 -0.12409981438811712
leaf_weight=56.888402750715613 189.66460735839792 9.960864947177468 314.78113823453896 814.82208365784027 14.003281439654527 73.098383714794181 105.46051726490259 3572.4231409977074 1783.3824654194177 130.34664891078137 8.6054868446663022 12.553294776240362 270.10224670358002 5.2125355876050881 15.223122017458081 198.01856074109674 48.234531016554683 12.615974582731722 667.4902151527931 487.26443747879239 21.740688014775515 318.54246813204372 1853.2390078937169 175.45234515611082 113.47596200462431 223.81934669800103 11.345412910450248 44.885191089473665 47.394789425656199 11.906493372283874
leaf_count=260 1470 44 16459 3611 137 1089 230 38780 22499 3871 94 238 622 79 88 382 1829 51 19949 21789 168 5324 8596 519 332 882 204 207 174 61
internal_value=-0.0012907 0.00747302 -0.0422324 0.00511151 -0.0114546 -0.0317304 0.0100941 0.0129197 -0.0162821 -0.0151575 0.0605722 0.013954 0.0225249 0.0165246 -0.0521897 0.0675798 -0.0909597 -0.011121 -0.0418718 -0.0579654 -0.0287873 -0.00257994 0.0117924 0.0393692 0.0539766 0.0392599 0.0536475 -0.0196459 -0.0424319 -0.000929655
internal_weight=11612 9564.61 2047.34 9157.35 2117.4 1684.33 7039.95 6212.52 1927.73 1913.73 407.26 6107.06 2534.63 2128.55 23.8286 383.432 363.016 827.438 1249.59 560.363 689.231 434.732 1858.45 185.413 406.079 292.603 235.165 57.4385 116.19 59.3013
internal_count=150038 82936 67102 81809 27977 48814 53832 50170 26507 26370 1127 49940 11160 9297 182 945 18288 3662 42995 22878 20117 5819 8675 563 1863 1531 1086 445 495 235
is_linear=0
shrinkage=0.1


Tree=2
num_leaves=31
num_cat=0
split_feature=0 0 12 12 16 0 15 23 23 12 5 23 10 24 15 23 24 21 12 15 16 16 5 12 23 12 10 23 23 7
split_gain=302.377 143.26 141.603 53.5858 42.7693 42.6804 36.7829 27.4693 28.0287 26.5953 24.0687 24.2865 23.9861 23.2954 42.7925 28.9114 22.3992 37.3817 35.1669 31.1148 25.898 25.1664 24.343 23.443 36.1811 22.8739 22.7782 22.6077 23.542 22.3381
threshold=0.91973051428794872 0.9944095015525819 0.99369549751281749 0.97966551780700695 0.73462924361228954 0.96195450425148021 1.3722295761108401 0.86372479796409618 0.78794860839843761 0.99715900421142589 0.66708749532699596 0.95924299955368053 0.18310949206352237 0.15009881556034091 0.83417713642120372 0.9041506052017213 0.078482702374458327 119.50000000000001 0.99419349431991588 1.2956982851028445 0.98424458503723156 0.99012538790702831 0.23241849988698962 0.99335148930549633 0.89919224381446849 0.99373951554298412 0.066009305417537703 0.97623750567436229 0.98046845197677623 0.92199689149856578
decision_type=2 2 2 2 2 2 2 2 2 2 2 2 2 2 2 2 2 2 2 2 2 2 2 2 2 2 2 2 2 2
left_child=2 5 3 13 -5 7 16 8 9 12 11 -9 -2 15 -15 -1 17 18 19 22 -20 -19 -7 -18 25 -25 -24 29 -29 -28
right_child=1 -3 -4 4 -6 6 -8 10 -10 -11 -12 -13 -14 14 -16 -17 23 21 20 -21 -22 -23 26 24 -26 -27 27 28 -30 -31
leaf_value=-0.14800939917436678 0.0015618303939369284 0.070857313938234773 -0.090287974203836552 -0.056150163840314807 -0.017477958723697833 -0.17491451684105225 0.06596419865042806 -0.023745695015214525 0.02225988056271307 -0.066422121852923774 -0.057446995170453367 0.033793375154268231 -0.042977650702939199 -0.0075172934820068333 0.071681184670303752 -0.02591650174059992 0.021605462674866217 -0.0042344642403238679 -0.062667582194267213 0.055814447745252821 0.054417944246891559 0.068163197389895208 -0.064964292471039548 -0.083126763104710871 0.032180005914240729 -0.0065576471148966562 -0.028321819877555443 0.057192946355110408 -0.0032865940994441958 0.13049417766560384
leaf_weight=23.086672879289836 1782.909249946475 363.56982752610929 324.62185001256876 558.57558212918229 585.99644002458081 9.2853950746357423 125.49272848991677 311.99527277052402 531.88016944401897 65.165421516634524 146.70569617114961 95.906330523081124 129.70827220240608 1219.1897081243224 72.267372959293425 121.28707483317703 2199.5223706996185 76.126741176238284 21.734827006468549 68.21941758855246 144.39058287348598 130.0209372267127 76.945088193751872 42.092920364113525 270.57134647481143 533.57063073432073 461.4786997041665 72.758159995544702 557.69903626432642 9.0297027826309186
leaf_count=267 24798 1164 20476 24273 24221 77 369 2444 5422 1852 445 318 740 16943 426 669 10583 789 224 192 722 717 283 551 1543 4965 2327 237 2085 13
internal_value=-0.000306099 0.00948771 -0.0280413 -0.0202105 -0.0363508 0.00665018 0.0125373 -0.00256966 0.00188121 -0.00359917 -0.0227104 -0.010217 -0.00145871 -0.0073443 -0.0030855 -0.0454403 0.0111027 0.00163249 -0.00413854 -0.00986006 0.0390992 0.041428 -0.0136339 0.0161637 0.0020195 -0.0121564 -0.0123625 -0.00868626 0.00369307 -0.0252739
internal_weight=11131.8 8226.78 2905.02 2580.4 1144.57 7863.21 4798.94 3064.27 2509.66 1977.78 554.607 407.902 1912.62 1435.83 1291.46 144.374 4673.45 1627.69 1421.54 1255.42 166.125 206.148 1187.2 3045.76 846.235 575.664 1177.91 1100.97 630.457 470.508
internal_count=150135 62860 87275 66799 48494 61696 25677 36019 32812 27390 3207 2762 25538 18305 17369 936 25308 7666 6160 5214 946 1506 5022 17642 7059 5516 4945 4662 2322 2340
is_linear=0
shrinkage=0.1


Tree=3
num_leaves=31
num_cat=0
split_feature=31 31 21 4 4 22 4 3 0 6 6 24 31 9 24 4 0 6 21 0 15 24 4 16 6 22 6 31 15 31
split_gain=266.04 127.065 64.1493 63.5709 38.1192 27.5843 24.8512 22.9764 22.6 22.5852 22.5532 21.452 32.3086 25.3236 23.1957 36.0734 37.5801 34.0685 27.793 31.8654 26.5733 26.4122 22.8242 26.1348 21.5443 21.2525 21.6358 20.8959 24.6992 20.8909
threshold=0.95842933654785167 0.36381052434444433 3.7500000000000004 0.99369549751281749 0.99435549974441539 36.250000000000007 0.15619949996471408 0.88486891984939586 0.90388000011444103 0.12329774349927904 0.23737459629774096 0.075359676033258452 0.95749700069427501 0.63220950961112987 0.14314172416925433 0.9935705065727235 0.97780549526214611 0.10003687441349031 88.750000000000014 0.97017648816108715 1.0749590396881106 0.1305235102772713 0.99379101395607006 0.95908677577972423 0.096621427685022368 6.5000000000000009 0.130527138710022 0.92427262663841259 0.50289696455001842 0.93278971314430248
decision_type=2 2 2 2 2 2 2 2 2 2 2 2 2 2 2 2 2 2 2 2 2 2 2 2 2 2 2 2 2 2
left_child=1 3 -2 -1 6 11 -4 9 -5 -7 -8 13 14 -3 17 -16 25 18 19 24 22 -21 23 -19 -13 26 -17 -25 -29 -22
right_child=2 5 4 8 -6 7 10 -9 -10 -11 -12 12 -14 -15 15 16 -18 20 -20 21 29 -23 -24 27 -26 -27 -28 28 -30 -31
leaf_value=-0.027834747161504966 -0.033271404635141187 0.037721802625347217 -0.14881829843812427 -0.10211121868695078 0.063426057513918152 0.0087638239554686439 0.027656145547493335 -0.087422738784226434 -0.00090921934661975271 -0.051651937123451057 0.090101182999760318 0.019382481947564725 -0.20726977418259873 -0.13143946554892832 0.0041195235881439068 -0.049570377629388755 0.017859896321989817 0.033283925368322594 -0.12875590685792354 -0.031326899665618128 0.071272423909713375 -0.10086518549634954 0.026519332584280783 -0.043122613614802678 -0.15084663505689946 -0.021618209629892266 -0.16617776535742768 -0.13324321771466682 0.0042426767699147864 -0.046628591375460077
leaf_weight=1007.7724301224807 141.65682952105999 195.73526432586368 7.8021989762783042 175.86988877563272 412.36814454104751 135.42719648964703 1475.0888610072434 60.749054076964967 25.232279561692849 113.93044868519064 60.198206562548876 144.31489088572562 7.7159172520041457 9.2686363221146149 4494.0202891577501 96.527865693904459 220.03613077988848 91.129931965842843 28.864811490522698 307.99436287861317 76.86912453873083 66.395327662117779 156.34797200188041 285.22244387748651 7.8385230284184209 549.70860993140377 19.05246311891824 13.839175522327421 234.10101241688244 18.681030838750303
leaf_count=38965 228 2258 42 13118 1591 9294 6374 4313 481 9446 109 814 28 146 41328 561 1250 972 527 1289 556 318 1596 2214 78 10786 190 49 847 127
internal_value=-0.000204654 -0.00803935 0.0317102 -0.0380787 0.0364176 -0.00308777 0.0291999 -0.0322751 -0.0894134 -0.0188399 0.0301046 -0.0017991 -0.00275736 0.0300737 -0.00252568 0.000484875 -0.0179651 -0.0138381 -0.0332138 -0.0279763 -0.00155596 -0.043659 -0.00764871 -0.0162058 0.0106127 -0.0298137 -0.0687921 -0.0246647 -0.00343132 0.0482216
internal_weight=10639.8 8542.65 2097.11 1208.87 1955.46 7333.77 1543.09 310.107 201.102 249.358 1535.29 7023.66 6818.66 205.004 6810.94 5379.35 885.325 1431.6 555.408 526.543 876.191 374.39 780.641 624.293 152.153 665.289 115.58 533.163 247.94 95.5502
internal_count=149895 141551 8344 52564 8116 88987 6525 23053 13599 18740 6483 65934 63530 2404 63502 54115 12787 9387 3026 2499 6361 1607 5678 4082 892 11537 751 3110 896 683
is_linear=0
shrinkage=0.1


Tree=4
num_leaves=31
num_cat=0
split_feature=24 4 15 1 50 27 16 24 4 3 16 3 3 4 1 9 4 27 3 15 16 1 26 50 1 24 27 26 4 9
split_gain=232.792 87.1818 64.4551 54.1449 48.6196 39.9656 35.7144 31.0108 37.7553 65.4655 31.7146 31.5028 36.0099 31.3231 27.457 26.4889 25.958 25.8925 25.7436 25.1804 26.5404 24.6459 23.3999 22.5761 22.0106 23.4371 21.2253 21.1788 21.175 21.0091
threshold=0.28132851421833044 0.99445900321006786 1.1630051136016848 0.92091551423072826 9.5000000000000018 0.29853430390357977 0.019253500737249855 0.038585608825087554 0.99314099550247203 0.86494657397270214 0.97635117173194896 0.88251188397407543 0.90273550152778637 0.97232347726821911 0.93792200088500988 0.59449401497840892 0.98090299963951122 0.97923851013183605 0.94895750284194957 0.61697635054588329 0.99999967217445385 0.99203899502754223 14.750000000000002 9.5000000000000018 0.96243450045585643 0.31564873456954962 0.89919224381446849 2.5000000000000004 0.99448201060295116 0.24231749773025515
decision_type=2 2 2 2 2 2 2 2 2 2 2 2 2 2 2 2 2 2 2 2 2 2 2 2 2 2 2 2 2 2
left_child=2 5 4 -3 14 16 -7 8 9 17 18 13 21 -11 -1 29 22 -6 -9 23 -21 -13 -2 -8 -25 -26 -4 -19 -12 -15
right_child=1 3 26 -5 7 6 19 10 -10 11 28 12 -14 15 -16 -17 -18 27 -20 20 -22 -23 -24 24 25 -27 -28 -29 -30 -31
leaf_value=-0.082228050620814619 -0.041280330807956303 -0.092080607384984164 -0.07448443486402867 -0.027654468100031266 0.10661106782408432 0.044625056112677697 -0.032399608582873565 0.0029622267641570745 0.02058581720304271 0.13726655695831816 0.014955530967930076 -7.0841271813270183e-05 -0.12455454241507924 -0.041776800445009803 0.057298792899958928 0.099343036333060047 -0.049841451180367882 0.013581378077929024 -0.20789765919561348 0.017463352117781623 -0.043180856095463432 -0.14406552803286252 0.0111849808083418 -0.011716190809031532 -0.059968934090342922 0.045200540368143631 0.043686042899845179 -0.15137498662496129 0.04335286601112609 -0.18054880097458981
leaf_weight=14.898199081420897 154.81315288785845 224.36121016938705 15.528487297706304 311.63741785706952 29.185026378370821 128.04075152426958 506.21703797066584 2313.7340262789512 195.41829823842272 4.4970102310180655 1341.5362815461121 115.55630817310885 39.004350793082267 13.838062150403855 264.52523508295417 4.5117609053850165 405.25785766285844 91.672651592176408 5.8045652881264678 525.77168072783388 83.646161023527384 13.249282559379933 188.53856086445739 2019.8251731529599 25.427242775913328 127.14910092996433 717.90699968393892 8.5054180664010328 326.48919152538292 51.549297265708447
leaf_count=40 1422 16240 152 5745 142 254 1710 24635 1014 7 6446 376 164 93 574 7 26396 423 39 3997 145 48 6137 46792 167 622 3037 110 2309 361
internal_value=-0.000274493 -0.016661 0.013561 -0.0546223 0.00936983 -0.0117753 -0.0071895 0.00688577 -0.0149969 -0.0337109 0.00999725 -0.0643869 -0.0403738 -0.118551 0.0498596 -0.13501 -0.0327014 0.0237238 0.00243456 -0.00920723 0.00913958 -0.0148825 -0.012471 -0.0133813 -0.00894968 0.0276738 0.0411841 -0.000423911 0.0205139 -0.15118
internal_weight=10268.1 4700.69 5567.41 535.999 4833.97 4164.69 3416.08 4554.55 566.987 371.569 3987.56 242.206 167.81 74.3961 279.423 69.8991 748.61 129.363 2319.54 3288.04 609.418 128.806 343.352 2678.62 2172.4 152.576 733.435 100.178 1668.03 65.3874
internal_count=149604 109627 39977 21985 36788 87642 53687 36174 2745 1731 33429 1056 588 468 614 461 33955 675 24674 53433 4142 424 7559 49291 47581 789 3189 533 8755 454
is_linear=0
shrinkage=0.1


Tree=5
num_leaves=31
num_cat=0
split_feature=16 4 0 23 0 23 16 17 50 0 3 21 3 3 6 42 0 23 21 23 23 24 21 16 17 6 24 6 5 3
split_gain=203.035 88.5619 68.1721 37.8449 31.8006 27.6558 30.1676 27.2828 22.14 18.9799 18.3146 16.9416 18.6098 17.5821 22.8277 16.8434 16.7326 16.6456 15.6514 18.7035 15.1706 15.1078 28.2537 24.1756 18.1645 21.2739 17.0896 22.5551 25.0228 22.1762
threshold=0.8792569935321809 0.99386700987815868 0.9944095015525819 0.51147234439849865 0.86642351746559154 0.29853430390357977 0.40847347676754003 1.2088407278060915 114.50000000000001 0.97443449497222911 0.92731744050979625 42.750000000000007 0.086001381278038039 0.92231351137161266 0.039548477157950408 0.99999907612800609 0.99350500106811535 0.35009726881980902 62.750000000000007 0.95924299955368053 0.9437060058116914 0.11753565073013307 61.750000000000007 0.99999985098838817 0.99782791733741771 0.028740802779793743 0.045558324083685882 0.11129434779286386 0.53586950898170482 0.82737064361572277
decision_type=2 2 2 2 2 2 2 2 2 2 2 2 2 2 2 2 2 2 2 2 2 2 2 2 2 2 2 2 2 2
left_child=1 5 3 10 -3 8 -7 9 -1 -5 17 12 -9 -14 -15 -6 20 -2 19 -4 -13 22 26 24 -23 -26 27 28 -11 -29
right_child=2 4 18 7 15 6 -8 11 -10 21 -12 16 13 14 -16 -17 -18 -19 -20 -21 -22 23 -24 -25 25 -27 -28 29 -30 -31
leaf_value=-0.028273815855632958 0.030790064876691028 -0.10582666773908929 -0.023115494364009195 0.0021143639514522813 0.13736507568834755 0.018580796576153642 -0.014212219184253156 -0.07987001098333614 -0.1189140508063717 -0.20939742631031472 0.10596586460102014 -0.10680964942185889 0.062316496182753103 0.039881691608512043 -0.13012556462497499 -0.048851257993879016 -0.21177431036778913 -0.056329946189788288 0.022267694788815781 0.078269246352186461 0.019558347923673197 0.012119962079110801 0.024704447226660112 0.065049849567507118 -0.21619448147365194 0.06874333513970847 -0.010592207603918278 -0.21336088806117337 -0.0019469595667263172 0.056071450447538987
leaf_weight=662.2550931989681 25.635739082237706 131.40550199500285 19.977288978174329 3305.2262033524457 4.9540754766203454 335.96751279279124 1700.0550883892574 11.076103490777312 28.091608454007655 6.2329671513289204 8.5663861865177733 10.094819658435879 238.95736032072455 26.23175448179245 11.300732949748634 248.66074160614517 3.4044386018067589 151.76729458430782 103.86819168459624 204.0768537260592 161.26348471594974 707.00921651674435 594.01075086276978 123.37973103672266 2.7024351684376589 86.193056084215641 719.73116066399962 3.1338678188621989 86.589090641122311 121.13137379707769
leaf_count=25964 555 12448 142 39959 88 3329 32955 51 6260 66 48 181 662 75 45 8004 27 3925 495 499 918 3982 4754 280 16 438 2810 32 386 502
internal_value=0.000119558 -0.0210057 0.00988387 0.00760658 -0.0659006 -0.0146656 -0.00880099 0.00893611 -0.0319622 0.00705865 -0.0368446 0.0323078 0.0472309 0.0523225 -0.0113061 -0.0452137 0.00775251 -0.0437406 0.0543545 0.0692295 0.0121139 0.0137285 0.00764343 0.0238617 0.0174768 0.0600812 -0.0031745 0.0214182 -0.0158772 0.0492766
internal_weight=9842.95 3111.39 6731.56 6403.64 385.02 2726.37 2036.02 6217.67 690.347 5755.34 185.969 462.329 287.566 276.49 37.5325 253.615 174.763 177.403 327.922 224.054 171.358 2450.11 1530.83 919.284 795.905 88.8955 936.818 217.087 92.8221 124.265
internal_count=149896 89048 60848 59712 20540 68508 36284 55184 32224 53225 4528 1959 833 782 120 8092 1126 4480 1136 641 1099 13266 8550 4716 4436 454 3796 986 452 534
is_linear=0
shrinkage=0.1


Tree=6
num_leaves=31
num_cat=0
split_feature=16 1 4 15 1 15 4 5 1 5 24 16 23 23 16 5 24 50 15 24 21 6 11 4 16 15 21 16 23 24
split_gain=186.237 54.5637 46.7175 26.5754 26.2939 33.8841 32.6178 29.9703 22.1587 20.9687 17.0255 20.68 16.7951 15.9581 17.3199 15.9012 18.4514 22.5953 19.1072 16.9408 19.8226 22.1837 18.1503 15.6931 16.3982 15.4261 15.3708 15.1678 14.3285 14.2276
threshold=0.84836727380752575 0.97033450007438671 0.99480798840522777 1.1630051136016848 0.28687600791454321 -1.2823780775070188 0.97521650791168224 0.59817698597908031 0.91027149558067333 0.24892750382423404 0.039927536621689803 0.99999997019767772 0.052747508510947234 0.65010288357734691 0.84276542067527782 0.22592099756002429 0.500929355621338 93.500000000000014 0.27952416241168981 0.46990215778350836 59.750000000000007 0.14963814616203311 0.80803689360618602 0.93284699320793163 0.77285754680633556 0.66838711500167858 4.5000000000000009 0.96286371350288402 0.41831368207931524 0.10018587484955789
decision_type=2 2 2 2 2 2 2 2 2 2 2 2 2 2 2 2 2 2 2 2 2 2 2 2 2 2 2 2 2 2
left_child=2 9 4 -3 12 6 -6 15 -4 10 11 -2 -1 -9 -15 -7 17 19 23 20 21 22 -17 -18 28 -24 -23 -5 -25 -12
right_child=1 3 8 27 5 7 -8 13 -10 -11 29 -13 -14 14 -16 16 18 -19 -20 -21 -22 26 25 24 -26 -27 -28 -29 -30 -31
leaf_value=0.074865538841062604 0.12104606036821726 0.01456736454056436 -0.0923096457665179 -0.061201948956230649 -0.003041572329752767 -0.18403212578023426 -0.09331703463447942 -0.0027728487550391836 -0.025878351592490079 0.0040102550100097924 -0.087613248776577335 -0.10014110620260484 0.00031705654725816177 -0.025236190897588686 -0.13803228136202861 0.024541322597007129 0.01486815277219207 -0.15179875195980216 -0.18512992555387459 0.053112702247549139 0.11475595763673895 0.083356676538651392 -0.083821209929978976 -0.052864749839885206 -0.022207987408194556 0.099392378571061285 -0.18566816251395046 0.042463422149778544 -0.11964106944341471 -0.016194352521760914
leaf_weight=33.58408118551597 17.533224986400459 3029.2149838970508 132.03308521746658 14.536693423055111 59.588135097175837 7.0917757893912485 121.89969046821352 926.67594726604875 81.023617954691872 2967.5964915374061 29.38565394107718 5.569773042574524 301.76483207091223 206.58049589255825 14.573495246004311 57.919929215917364 45.555637110024691 10.115268399706109 9.3715948539320362 47.146149369189516 10.455314365681259 2.5464038848876944 37.500664423801936 226.54786134016467 165.7866548912134 5.2374218525364986 12.796389963710679 485.54970381129533 37.444344463059679 549.40420907642692
leaf_count=1169 64 17073 12113 149 1193 586 8845 13614 1465 36993 393 40 4344 1511 172 692 583 1308 290 672 114 6 1066 16990 9974 36 301 1943 1308 15050
internal_value=0.000945556 0.00927618 -0.0222162 0.0180931 -0.0181347 -0.0224699 -0.0636768 -0.0183684 -0.0670464 0.000558502 -0.0164602 0.0677213 0.00778284 -0.00853301 -0.0326692 -0.0350805 -0.0335002 -0.00651325 -0.043729 0.00195209 -0.0171219 -0.0290083 -0.0119351 -0.0409411 -0.0468568 -0.0613689 -0.141019 0.03945 -0.0623362 -0.0198204
internal_weight=9652.03 7098.79 2553.24 3529.3 2340.18 2004.83 181.488 1823.35 213.057 3569.49 601.893 23.103 335.349 1147.83 221.154 675.515 668.424 183.718 484.706 173.602 126.456 116.001 100.658 475.334 429.779 42.7381 15.3428 500.086 263.992 578.79
internal_count=150057 71705 78352 19165 64774 59261 10038 49223 13578 52540 15547 104 5513 15297 1683 33926 33340 4195 29145 2887 2215 2101 1794 28855 28272 1102 307 2092 18298 15443
is_linear=0
shrinkage=0.1


Tree=7
num_leaves=31
num_cat=0
split_feature=15 0 8 8 42 0 15 8 24 5 7 21 5 6 8 7 8 7 0 15 23 0 24 16 15 23 15 5 16 5
split_gain=115.62 47.4234 42.9612 24.0459 23.3933 20.5015 36.7863 19.3757 23.2853 37.2832 42.8251 22.5594 19.3157 18.8945 18.7864 17.5297 17.1938 17.0144 15.6013 15.5185 15.4692 18.9423 15.3875 15.1202 19.9112 27.3176 19.7166 22.603 17.3963 14.6017
threshold=0.29412814974784857 0.98162749409675609 0.99578499794006359 0.96998050808906566 1.0000004172325136 0.28687600791454321 -1.3770999312400816 0.98848500847816478 0.099808428436517729 0.28351049125194555 0.8829655945301057 16.750000000000004 0.24633000046014789 0.040443992242217071 0.98295348882675182 0.87962228059768688 0.99058499932289135 0.85118156671524059 0.079710502177476897 0.28137156367301946 0.88577952980995189 0.98104348778724682 0.52620139718055736 0.82019534707069408 0.73042282462120067 0.84632253646850597 0.93074476718902599 0.051941499114036567 0.76934891939163219 0.6756500005722047
decision_type=2 2 2 2 2 2 2 2 2 2 2 2 2 2 2 2 2 2 2 2 2 2 2 2 2 2 2 2 2 2
left_child=2 16 3 4 15 17 -7 8 9 12 -11 -12 14 -8 -3 -1 18 -5 -2 -15 22 -22 -18 24 28 -26 27 -27 -20 -30
right_child=1 7 -4 5 -6 6 13 -9 -10 10 11 -13 -14 19 -16 -17 20 -19 23 -21 21 -23 -24 -25 25 26 -28 -29 29 -31
leaf_value=-0.0085609378708440022 0.0972464955446109 0.17638254007896939 -0.082541964862531472 0.079254575686191528 -0.19222204271954554 -0.083604747588244072 0.012865890707776518 0.022303416833440715 0.030566155008860087 0.062633387538960125 0.027622242474478937 -0.084441038541980928 -0.12061325667725563 -0.025959464024892367 -0.051160064698875164 0.034177310611058304 -0.015480180286998499 -0.030082292854412187 0.016481995947163697 -0.10523855395507038 0.018426397944108185 -0.10131062860167131 0.035878969615774942 0.0052214921804256279 -0.17033113207312423 0.15422183550515695 -0.087994037741345704 -0.11865505388970642 -0.085714005897291473 -0.0095744621616614695
leaf_weight=458.55989830358885 17.751074254512787 4.3612680286169079 111.09257265436463 32.998534391750582 6.3753051795065394 111.27751635079039 127.74871429754421 1689.6076609932352 126.5930502153933 69.607861530734226 27.713494470342994 51.062652486842126 46.491729035042226 1004.0893631287036 21.593090234440751 121.37340592429973 1278.7494069109671 25.026910161250271 142.90109096816741 25.313063090899959 269.87981610326096 13.892334371805189 61.123702002689242 3325.3192622043425 18.921523394761607 9.7625389215536398 18.174530481686816 4.4052769020199767 38.857961120433174 71.594262447208166
leaf_count=7133 56 5 9963 370 136 8853 712 8513 329 234 58 272 292 48068 137 789 25591 936 1441 828 2669 175 685 29253 231 43 252 41 1105 614
internal_value=-0.00093473 0.00492265 -0.0220864 -0.0185751 -0.00171064 -0.0260294 -0.0286885 0.0178809 -0.00362672 -0.0232281 0.00548241 -0.0450171 -0.082033 -0.0234074 -0.0129247 0.000383689 -8.48979e-05 0.0320966 0.00372543 -0.0279089 -0.0086452 0.0125646 -0.0131372 0.0032681 -0.0180559 -0.0748926 -0.0190574 0.0693747 -0.00655548 -0.036361
internal_weight=9332.22 7308.36 2023.86 1912.76 586.309 1326.45 1268.43 2037.03 347.423 220.83 148.384 78.7761 72.4461 1157.15 25.9544 579.933 5271.33 58.0254 3647.69 1029.4 1623.65 283.772 1339.87 3629.94 304.617 51.2639 32.3423 14.1678 253.353 110.452
internal_count=149784 71996 77788 67825 8058 59767 58461 9840 1327 998 564 330 434 49608 142 7922 62156 1306 33036 48896 29120 2844 26276 32980 3727 567 336 84 3160 1719
is_linear=0
shrinkage=0.1


Tree=8
num_leaves=31
num_cat=0
split_feature=0 4 15 23 0 0 15 0 16 21 21 23 9 28 9 15 9 23 50 23 16 0 15 9 16 4 15 28 16 0
split_gain=115.229 48.4372 33.8803 28.079 23.9904 23.0076 14.9485 29.4587 16.8249 24.5823 25.864 25.5959 17.9578 15.0622 15.0472 14.5534 15.7473 13.1382 30.2859 23.0333 20.1671 14.5694 13.9616 12.9969 13.7689 12.9768 12.4031 15.7205 14.6681 18.44
threshold=0.96195450425148021 0.99456700682640087 1.2956982851028445 0.38826659321784979 0.99473848938941967 0.90244099497795116 0.68643400073051464 0.95618799328804027 0.99999991059303295 11.750000000000002 16.750000000000004 0.99024364352226268 0.67293798923492443 0.29399760067462927 0.94318249821662914 0.87988942861557018 0.53684350848197948 0.83879926800727855 7.5000000000000009 0.79962825775146495 0.9085301160812379 0.96011748909950267 0.32751347124576574 0.64341801404953014 0.88358548283576976 0.98090299963951122 1.2511627078056338 0.024440019391477111 0.94913855195045482 0.99157550930976879
decision_type=2 2 2 2 2 2 2 2 2 2 2 2 2 2 2 2 2 2 2 2 2 2 2 2 2 2 2 2 2 2
left_child=1 3 4 25 26 -3 7 14 9 -8 12 -12 13 23 -5 16 -10 19 -19 20 -9 -21 -22 24 -11 -1 27 -2 -28 -30
right_child=2 5 -4 6 -6 -7 8 17 15 10 11 -13 -14 -15 -16 -17 -18 18 -20 21 22 -23 -24 -25 -26 -27 28 -29 29 -31
leaf_value=-0.01201993922141734 0.034471879243592324 -0.081764899850765696 0.050008807700152147 -0.006978548254266104 0.038331514918987765 -0.029404816335073133 0.043428023077997882 -0.012771444221251671 0.10119343784692397 -0.19839588039580008 0.0038770795963929193 0.15924745103242849 -0.14501863739309509 -0.19996490608987014 0.12603348051405747 -0.066253217902034117 -0.036080963751734425 0.084796672022102296 -0.16806926014274282 0.067979359156694119 0.078364608863469409 -0.073790343255634785 -0.1031453652950432 0.10647068577892194 -0.0070624402021863672 -0.035974868388616493 0.13945065336522672 0.0054439393414636014 -0.10142341933394508 0.029856619876813623
leaf_weight=416.81723110366147 196.80079534696415 124.38094865565654 203.85872774291784 2239.2810604968108 248.75900570303202 257.9861956249224 164.48431079136208 58.421367593575269 13.207075670361517 4.4456300027668503 782.47328041784931 10.748777705710379 18.222358020953834 4.4396712500601998 8.5374384820461255 59.463337253779173 22.753263905644417 6.1059740334749248 21.118647132068872 28.43977760663256 4.5206227060407391 9.728614957071839 67.723447456490248 8.1506818085908872 24.426770444959402 494.33670832391363 4.0997342467308036 3587.5099023982184 32.048222538083792 16.061797142960131
leaf_count=9951 1285 13792 750 42703 958 8278 469 436 26 48 9921 32 164 51 19 255 47 11 212 165 39 91 999 28 107 34824 10 23538 243 63
internal_value=-0.00171802 -0.0122771 0.0102224 -0.00935366 0.00823699 -0.0464371 -0.00534116 -0.00971585 0.00426618 0.00803191 0.00120572 0.00598247 -0.0622778 -0.0259143 -0.00647336 -0.0358834 0.0143355 -0.0468912 -0.111356 -0.0364962 -0.0564589 0.0318442 -0.0917875 -0.00504276 -0.036523 -0.0250164 0.00628567 0.00695352 -0.042122 -0.0575948
internal_weight=9139.35 4850.21 4289.14 4467.85 4085.28 382.367 3556.69 2443.88 1112.82 1017.39 852.907 793.222 59.6851 41.4628 2247.82 95.4237 35.9603 196.058 27.2246 168.834 130.665 38.1684 72.2441 37.0231 28.8724 911.154 3836.52 3784.31 52.2098 48.11
internal_count=149515 122668 26847 100598 26097 22070 55823 44675 11148 10820 10351 9953 398 234 42722 328 73 1953 223 1730 1474 256 1038 183 155 44775 25139 24823 316 306
is_linear=0
shrinkage=0.1


Tree=9
num_leaves=31
num_cat=0
split_feature=15 15 4 0 0 0 3 0 0 4 4 32 23 32 18 5 21 6 18 15 15 18 15 50 22 6 21 32 6 6
split_gain=98.741 39.9651 30.3869 22.9556 20.2712 18.578 16.5186 26.025 17.9945 18.0247 22.8263 27.1542 16.859 18.0076 15.2291 13.9619 13.7271 15.067 13.0862 12.7413 12.9846 12.5008 14.1458 12.4568 11.9324 11.9174 11.8855 18.7081 14.2669 16.3619
threshold=0.31544767320156103 1.1630051136016848 0.97187399864196788 0.98405200242996227 0.8313255012035371 0.28687600791454321 0.89218655228614818 0.9944095015525819 0.99228000640869152 0.99316248297691356 0.99378550052642833 0.083499338477849974 0.93703538179397594 0.10283043980598451 0.88765680789947521 0.25651749968528753 9.7500000000000018 0.22063130140304568 0.9007525146007539 1.0821232199668886 1.1054285168647768 0.99803176522254955 0.87435102462768566 2.5000000000000004 2.5000000000000004 0.06748386844992639 42.750000000000007 0.013937451411038639 0.084578961133956923 0.11650193482637407
decision_type=2 2 2 2 2 2 2 2 2 2 2 2 2 2 2 2 2 2 2 2 2 2 2 2 2 2 2 2 2 2
left_child=2 3 14 23 5 -4 16 8 12 -10 -11 -12 13 -8 -1 -9 -5 -18 24 -14 -21 22 -13 25 -3 -2 -20 -28 -29 -30
right_child=1 18 4 6 -6 -7 7 15 9 10 11 21 19 -15 -16 -17 17 -19 26 20 -22 -23 -24 -25 -26 -27 27 28 29 -31
leaf_value=-0.00020415811895142376 -0.012959262298589151 -0.20619076672315392 0.0058720418297999047 0.083744582070042164 -0.020655945895321229 -0.056600722438940737 -0.14931155714569339 -0.087460865020313638 -0.11423295744434932 0.062591876123430382 -0.14871922648198502 -0.16648227607867949 0.025146393685736908 -0.015024780031898045 -0.12301960436740092 0.054786623374449117 0.023382416748306527 -0.12249249345626981 0.044442648463930201 -0.16805079319658339 -0.0097296000382362819 0.093204114092663867 0.020077360743771373 0.00047355314996652307 -0.0090719747649383366 -0.095833658687351428 0.064147265537733894 0.036673572428215583 -0.06150228629058057 0.01038224701161878
leaf_weight=641.52230238856282 54.613211661577225 4.120816700858998 55.525086062436458 37.824343584477901 967.22134142753202 333.55466089979745 10.767368645407258 7.3696237904950967 27.353213311638683 23.232852265238762 19.566170156933367 6.2780881365761223 237.60248840972781 137.60146642150357 10.257913840934632 108.30065613985062 656.90910039376467 7.1576570868492118 334.79960729600862 6.5293770590797093 25.070719446055591 10.184077531099318 11.526367390528319 4997.0573261349928 12.053541241446508 25.431886494159698 62.649349042680115 74.960528218653053 52.205604452639818 80.47187795676291
leaf_count=8913 125 44 1426 94 36569 32588 154 52 101 57 144 48 917 732 184 372 3626 16 1120 59 129 21 51 60327 216 55 256 447 490 606
internal_value=-0.000324941 0.00526019 -0.0198822 0.00291322 -0.0284098 -0.0476853 0.0145907 0.00285486 -0.00676029 -0.045291 -0.0186509 -0.0583421 0.00229548 -0.0247702 -0.00213706 0.0457237 0.0251477 0.0218101 0.029477 0.0172125 -0.0424428 0.00483864 -0.0457061 -0.000153356 -0.0592928 -0.0392901 0.0318499 0.0162515 0.00180018 -0.0179027
internal_weight=9039.72 7031.64 2008.08 6410.38 1356.3 389.08 1333.27 631.382 515.712 98.1408 70.7876 47.5547 417.571 148.369 651.78 115.67 701.891 664.067 621.261 269.203 31.6001 27.9885 17.8045 5077.1 16.1744 80.0451 605.087 270.287 207.638 132.677
internal_count=149939 70259 79680 67080 70583 34014 6573 2837 2413 422 321 264 1991 886 9097 424 3736 3642 3179 1105 188 120 99 60507 260 180 2919 1799 1543 1096
is_linear=0
shrinkage=0.1


Tree=10
num_leaves=31
num_cat=0
split_feature=23 0 8 8 15 10 24 0 8 10 23 24 50 10 5 0 0 23 10 8 24 15 10 10 8 10 0 15 50 15
split_gain=96.5066 31.3061 38.3244 24.7531 22.9146 18.6609 19.8898 19.3604 17.4698 23.7587 17.3989 15.5898 27.5031 17.1617 22.3793 15.464 18.7339 17.4257 15.4251 15.4027 15.3128 16.6927 16.5713 19.7967 14.7056 15.4105 19.6393 14.5931 15.6468 19.5944
threshold=0.87063893675804149 0.94317349791526806 0.99359747767448436 0.97580349445343029 1.1852625608444216 0.1401474475860596 0.035785431042313583 0.86777299642562877 0.9935705065727235 0.096175856888294234 0.8482952117919923 0.22201336920261386 9.5000000000000018 0.11942126601934434 0.42244450747966772 0.95522448420524608 0.95826849341392528 0.9020008146762849 0.1201228015124798 0.99769550561904918 0.020460491999983791 0.80421194434165966 0.12342672795057298 0.10173443704843523 0.98283299803733837 0.20829276740550998 0.24815149605274203 0.97012165188789379 21.500000000000004 0.434835895895958
decision_type=2 2 2 2 2 2 2 2 2 2 2 2 2 2 2 2 2 2 2 2 2 2 2 2 2 2 2 2 2 2
left_child=1 2 24 -3 8 -6 19 -8 9 -2 -5 12 -11 -14 18 -16 -17 -18 -15 -7 21 -10 23 -23 25 -1 -27 28 29 -20
right_child=4 3 -4 10 5 6 7 -9 20 11 -12 -13 13 14 15 16 17 -19 27 -21 -22 22 -24 -25 -26 26 -28 -29 -30 -31
leaf_value=-0.0031392103280192974 -0.0085669606577348997 0.031007650755847341 -0.047707192561067535 -0.00029334666036494908 0.037874955836133005 -0.20743384436726597 -0.1468162512060586 0.037319022687685138 0.12551445697018945 0.071194325081226181 -0.027065547123878365 -0.046665024115585714 0.024801502742926678 -0.13267872343670858 -0.20559871055731668 0.15511440606510282 -0.20476178904022313 -0.033672789035691805 -0.13878808039190016 0.04833846637486508 0.027476619151926604 0.0047863983835628732 0.00288959691419912 -0.1786815637804732 -0.020324050100018407 0.10627902115026343 -0.071789893651705558 0.035118251677858085 -0.011605402292378306 0.028914575217266321
leaf_weight=1428.5113327314612 858.49377552093938 225.80423985095695 336.15705564769451 1844.2507424155483 470.5672692428343 8.6873183120042068 6.7909986632876089 35.873115504160523 6.8896025978028765 79.909101415425539 279.54129057889804 43.36180168390274 528.83944998634979 7.8351752860471597 5.9531022794544688 4.699365757405757 6.6638194816187015 55.819991285447031 7.222225544974207 3.2297968063503495 635.17165460600518 10.008506920188667 37.746898210607469 14.262093139812348 1157.9082250136416 6.9305511936545363 58.255973878316581 159.40180635196157 362.50282994634472 197.24052774254233
leaf_count=24447 4355 899 25408 20925 2282 126 58 231 11 189 2760 137 3640 136 51 11 75 271 38 13 4620 52 168 114 53627 28 451 1236 2956 560
internal_value=-0.000610232 -0.00910671 -0.0158984 -0.000470414 0.0121743 0.0314549 -0.0238947 0.00800956 0.00882378 0.00463339 -0.0038172 0.0123982 0.0142068 0.0107987 0.00162634 -0.0511254 -0.0374375 -0.0519192 0.00688111 -0.138114 0.0226192 -0.0221552 -0.03856 -0.103025 -0.0118658 -0.00530898 -0.0528578 0.00838651 0.00087091 0.0229908
internal_weight=8884.53 5337.36 2987.76 2349.6 3547.17 525.148 54.5812 42.6641 3022.02 2317.94 2123.79 1459.45 1416.09 1336.18 807.339 73.1363 67.1832 62.4838 734.203 11.9171 704.079 68.9071 62.0175 24.2706 2651.61 1493.7 65.1865 726.367 566.966 204.463
internal_count=149875 128545 103961 24584 21330 2710 428 289 18620 13655 23685 9300 9163 8974 5334 408 357 346 4926 139 4965 345 334 166 78553 24926 479 4790 3554 598
is_linear=0
shrinkage=0.1


Tree=11
num_leaves=31
num_cat=0
split_feature=17 0 4 23 18 17 17 0 21 4 23 17 3 3 9 24 0 9 9 4 10 9 50 3 23 50 4 18 10 3
split_gain=71.2854 28.9597 27.7376 20.9668 18.8358 18.6364 17.4455 20.0225 19.1217 16.8716 15.7994 15.6722 13.2205 13.6607 13.3179 16.3674 12.9193 13.7529 17.2188 16.1002 21.7576 18.7394 14.2672 13.41 12.5889 11.8394 15.2095 11.6447 11.3168 14.4915
threshold=0.57092067599296581 0.9913344979286195 0.99486899375915538 0.78483533859252941 0.99803176522254955 0.51930245757102977 1.1705771088600161 0.98962751030921947 181.50000000000003 0.99550700187683117 0.38826659321784979 1.2390335798263552 0.8555244803428651 0.85629838705062877 0.037999499589204795 0.37378457188606268 0.34325399994850164 0.270956501364708 0.29559700191020971 0.95449051260948192 0.096867032349109664 0.65750348567962658 105.50000000000001 0.88454422354698192 0.57356673479080211 22.500000000000004 0.97129148244857799 0.68025735020637523 0.091563142836093916 0.87593787908554088
decision_type=2 2 2 2 2 2 2 2 2 2 2 2 2 2 2 2 2 2 2 2 2 2 2 2 2 2 2 2 2 2
left_child=2 6 4 -4 5 10 -2 9 11 -8 16 -9 14 -14 -7 -16 -1 27 25 -20 28 22 -22 -23 -15 -19 -27 -18 29 -21
right_child=1 -3 3 -5 -6 12 7 8 -10 -11 -12 -13 13 24 15 -17 17 18 19 20 21 23 -24 -25 -26 26 -28 -29 -30 -31
leaf_value=0.0089579527681626636 0.002232751722017306 0.027442499256724397 -0.051158397651883417 0.061151831358183709 0.037523451761422175 0.18193898261895985 0.031870114411562248 -0.16943539091968551 0.15231821611789037 -0.13973012079240296 -0.0028750513420277152 -0.02183548287478336 0.12740728144603553 -0.17846185340395099 -0.13868475752666512 -0.023937764227538641 -0.10536792178392143 -0.047707134963482042 0.020772241542929906 -0.1020738342852866 -0.082364174049520233 0.1023536227142238 0.065891816242083151 -0.083379883851993811 -0.024608260527902645 -0.18151241010498453 0.093636903069665225 -0.036929714403711608 0.043673024954236306 -0.013880484987431952
leaf_weight=140.08022888749838 4219.9576086127781 606.30979962041602 237.30950949247926 17.87436727527529 84.582137525081635 1.8726619048975397 399.65704255388118 11.428991155698897 4.1413944046944371 5.8128792019560924 1970.2096837388235 19.413067244924605 5.7768305772915474 5.4500316986814132 29.067008724203333 21.719150140648708 29.953618012019433 10.429553644731639 77.033817333634943 20.060480105224997 119.11328177922405 11.102549499599265 6.8651491444325066 5.9816569432150564 220.01844425383024 2.1546415952034321 29.719808115740307 146.24960924260085 30.808590645669028 261.49609538610093
leaf_count=3196 40927 2787 17580 93 233 4 2184 101 6 115 35767 112 33 85 777 321 5264 205 978 943 7306 107 1283 104 3039 162 2177 12904 1342 9933
internal_value=-0.000457458 0.006884 -0.0115525 -0.0432916 -0.00904476 -0.0102971 0.00420938 0.0231473 -0.0494394 0.02941 -0.00787236 -0.0765309 -0.0347344 -0.0244367 -0.0799552 -0.0896122 -0.018922 -0.0241225 -0.0166296 -0.0215083 -0.0286599 -0.060957 -0.074285 0.0373231 -0.0283272 0.0447762 0.0750374 -0.0485638 -0.0138679 -0.0201641
internal_weight=8751.65 5266.72 3484.93 255.184 3229.75 3145.16 4660.41 440.453 34.9835 405.47 2861.26 30.8421 283.904 231.245 52.6588 50.7862 891.049 750.969 574.766 532.462 455.428 143.063 125.978 17.0842 225.468 42.304 31.8744 176.203 312.365 281.557
internal_count=150068 46232 103836 17673 86163 85930 43445 2518 219 2299 81671 213 4259 3157 1102 1098 45904 42708 24540 21996 21018 8800 8589 211 3124 2544 2339 18168 12218 10876
is_linear=0
shrinkage=0.1


Tree=12
num_leaves=31
num_cat=0
split_feature=23 0 4 15 4 0 5 22 4 5 23 22 6 6 5 5 6 15 15 0 4 22 0 4 3 22 3 3 24 50
split_gain=62.344 35.8874 29.878 18.546 17.1854 15.6832 10.7595 10.3246 9.45718 14.9201 9.39149 11.3253 12.4595 10.8922 12.3662 10.5972 9.88048 15.9737 23.4346 12.8453 11.0202 11.6146 10.0073 9.47632 10.6328 9.18339 9.3696 21.5602 13.758 28.9052
threshold=0.41164366900920873 0.97443449497222911 0.99386700987815868 1.1568934917449953 0.99351751804351818 0.99730950593948375 0.26394550502300268 3.2500000000000004 0.9977724850177766 0.54088699817657482 0.41831368207931524 36.250000000000007 0.1864825710654259 0.070817451924085631 0.036651499569416053 0.6481589972972871 0.21196349710226062 0.53057202696800243 0.49462065100669866 0.96791550517082225 0.99211600422859203 2.5000000000000004 0.96471700072288524 0.98164451122283947 0.8659876585006715 20.250000000000004 0.85969385504722606 0.86025145649909984 0.029895432293415073 75.500000000000014
decision_type=2 2 2 2 2 2 2 2 2 2 2 2 2 2 2 2 2 2 2 2 2 2 2 2 2 2 2 2 2 2
left_child=4 2 10 5 7 25 -7 -1 -8 -10 23 16 13 14 -13 -15 -12 18 19 20 21 -18 -23 -2 -25 26 28 -28 29 -3
right_child=1 3 -4 -5 -6 6 8 -9 9 -11 11 12 -14 15 -16 -17 17 -19 -20 -21 -22 22 -24 24 -26 -27 27 -29 -30 -31
leaf_value=0.07189467113788571 0.081013128700970494 -0.14335706367532727 -0.027093807740702171 0.031187741488781857 -0.055011545842039239 0.10892338114241258 -0.098777715839466429 -0.019213904446232537 -0.11614088827940201 0.088885246717603145 0.0017086032996711726 0.14149590400293735 0.21739752753155017 -0.026671586605966566 -0.16817480869405821 0.15060355424179125 0.066494339940423877 0.021099034602753187 -0.18852981753964179 -0.1385817189137685 0.15275580497976018 -0.063470957322364005 0.082193663769759659 0.084548166686113146 -0.074568751732731572 -0.10912567968909621 -0.20811601434369986 0.0054629812374928505 0.031957734710457396 0.018191708207918166
leaf_weight=12.61693264916539 28.403637409908697 14.546221527270971 436.43145940476097 432.80574232758954 145.32839897932718 25.625454790424556 5.4697421528399017 877.41111067839665 4.4334965590387609 17.799124559387565 4075.5705941471388 1.493351126089691 2.0674524335190645 140.93486041406868 9.4489400137681496 3.4547197809442869 11.090892568230627 45.598641628399491 10.998395243659614 9.7411461025476438 3.6804818883538237 42.146065049804747 5.3106892276555291 6.8986293484922525 10.734398733591659 6.7487271637655786 4.7383319563232353 1886.7847868127283 286.80147768510506 46.421419656369835
leaf_count=31 253 116 15480 2017 16124 74 31 43253 35 65 44952 41 109 11978 670 108 30 164 63 42 12 275 21 203 375 326 70 10694 1874 325
internal_value=-0.000112013 0.00303339 -0.0021355 0.0121976 -0.0231284 0.0086231 0.0622207 -0.0179224 0.0190193 0.0480002 0.000335833 -0.000138409 -0.0264739 -0.0297198 -0.125912 -0.02243 0.00084757 -0.0264473 -0.0525785 -0.0318024 -0.0150872 -0.0256383 -0.0471702 0.0452657 -0.0123169 0.00735053 0.00770156 0.00492796 0.0227873 -0.0203521
internal_weight=8611.54 7576.18 4844 2732.17 1035.36 2299.37 53.3278 890.028 27.7024 22.2326 4407.57 4361.54 157.399 155.332 10.9423 144.39 4204.14 128.566 82.9677 71.9693 62.2281 58.5476 47.4568 46.0367 17.633 2246.04 2239.29 1891.52 347.769 60.9676
internal_count=149811 90403 74776 15627 59408 13610 205 43284 131 100 59296 58465 12906 12797 711 12086 45559 607 443 380 338 326 296 831 578 13405 13079 10764 2315 441
is_linear=0
shrinkage=0.1


Tree=13
num_leaves=31
num_cat=0
split_feature=15 0 4 4 3 0 6 28 28 5 15 18 0 0 5 0 6 5 6 15 18 28 5 23 15 0 28 6 6 25
split_gain=51.9698 21.6335 40.282 18.3286 16.4283 15.6574 18.3346 12.2619 12.1102 11.5509 13.9308 14.5835 13.6548 17.1045 11.6374 11.6216 17.1332 11.3972 13.8873 11.2127 10.8082 10.6517 10.3711 10.0694 9.9618 9.92846 9.22855 9.17093 11.9621 11.1757
threshold=0.77209749817848217 0.91583049297332775 0.99364900588989269 0.97970250248909008 0.93188199400901806 0.98877200484275829 0.0317770503461361 0.068252399563789382 0.39964029192924505 0.26114450395107275 1.2956982851028445 0.96286371350288402 0.86409449577331554 0.91663998365402233 0.30910049378871923 0.92111149430274974 0.17498169094324115 0.26325049996376043 0.13785070180892947 1.4087226986885073 0.90676680207252514 0.16633728891611102 0.037999499589204795 0.91182103753089916 0.77361467480659496 0.98667851090431224 0.075359676033258452 0.18814931809902194 0.20660700649023059 20.750000000000004
decision_type=2 2 2 2 2 2 2 2 2 2 2 2 2 2 2 2 2 2 2 2 2 2 2 2 2 2 2 2 2 2
left_child=1 2 3 4 7 8 21 -1 9 22 12 23 14 26 -11 16 -15 18 -17 -8 -5 -7 -2 -12 -19 -13 -14 29 -29 -24
right_child=5 -3 -4 20 -6 6 19 -9 -10 10 11 25 13 15 -16 17 -18 24 -20 -21 -22 -23 27 -25 -26 -27 -28 28 -30 -31
leaf_value=-0.21176179091454653 -0.20462074214236969 -0.0012464231192522821 -0.061140343777240092 -0.023047066344523207 -0.13463067546999935 -0.20450624230529804 0.021291870681988779 0.00093018158167568915 0.084000804372206597 0.058890800769710344 0.044613865413498294 0.051069976118585728 -0.20814794539636694 -0.1869034266905456 -0.18651721033165122 -0.25297993233735178 0.18568758900310364 0.083728945229473675 -0.015658416171090775 0.085799550174518791 0.13243015201036734 -0.016508185556178098 0.074927860975327873 -0.13509435900837502 -0.0013186595743651609 -0.041386720422376878 0.05535612634361306 -0.18981356825932588 0.053875750898056275 0.016486752906763862
leaf_weight=2.7183521008118978 2.090094757732003 3284.5745903756469 170.11221814982127 718.49037746188696 9.1079100426286441 5.4204225838184339 796.53889546822757 942.26826875819825 19.726010337471962 2.6658080508932454 4.9789380677975705 117.43176575377584 1.3569246875122178 6.8323946055024845 7.0227775558596477 3.9586355146020633 1.5062492452561853 13.882015982642768 6.538138923002407 27.889131033793092 4.4991536512970915 6.7878275997936726 34.841958784963936 8.3418247611261886 1746.302218476776 12.889464884996412 64.822806582320482 4.7375085791572911 3.5043679252266884 537.72441007103771
leaf_count=50 57 41020 20084 46014 62 30 3812 16424 42 24 36 500 17 140 159 134 2 76 117 91 54 28 114 120 13294 61 540 88 21 6558
internal_value=0.000258361 -0.0061155 -0.0147734 -0.0100702 -0.00096989 0.00977295 0.0216726 0.000318351 0.00594554 0.00534908 0.00173648 0.0317385 -0.000586865 3.48517e-05 -0.118993 -0.00182212 -0.119601 -0.00126747 -0.105159 0.0234741 -0.0220795 -0.0999787 0.0177352 -0.0679243 -0.000647916 0.0419255 0.0499533 0.0185354 -0.0861992 0.020043
internal_weight=8569.56 5131.77 1847.2 1677.08 954.095 3437.79 836.636 944.987 2601.15 2581.43 1998.53 143.642 1854.89 1845.2 9.68859 1779.02 8.33864 1770.68 10.4968 824.428 722.99 12.2083 582.898 13.3208 1760.18 130.321 66.1797 580.808 8.24188 572.566
internal_count=149769 123708 82688 62604 16536 26061 3961 16474 22100 22058 15220 717 14503 14320 183 13763 142 13621 251 3903 46068 58 6838 156 13370 561 557 6781 109 6672
is_linear=0
shrinkage=0.1


Tree=14
num_leaves=31
num_cat=0
split_feature=0 4 15 21 23 4 23 15 3 6 5 15 3 21 3 3 5 15 28 15 3 23 0 23 0 15 6 15 15 28
split_gain=53.6451 29.1128 15.2391 14.394 12.8868 14.8168 15.9215 12.7653 14.236 13.2673 12.6756 12.1065 11.0303 19.9998 15.3426 11.7067 10.9878 13.2437 10.6509 16.6348 11.2327 9.20821 15.7847 11.9005 15.5248 12.8692 12.5506 11.0151 14.3102 10.7229
threshold=0.97216150164604198 0.9935705065727235 0.27242508530616766 69.750000000000014 0.96852871775627147 0.9730924963951112 0.99350622296333324 1.1630051136016848 0.83253759145736705 0.13848947733640674 0.91898199915885936 1.020016133785248 0.83940723538398754 29.750000000000004 0.84561809897422802 0.83762663602828991 0.23225399851799014 0.31020164489746099 0.2859730869531632 0.38299281895160681 0.068956039845943465 0.5500929355621339 0.96757650375366222 0.61772406101226818 0.073231000453233733 0.18344809114933017 0.056314961984753616 0.019635847769677642 0.094805516302585616 0.21884245425462726
decision_type=2 2 2 2 2 2 2 2 2 2 2 2 2 2 2 2 2 2 2 2 2 2 2 2 2 2 2 2 2 2
left_child=1 2 21 -3 10 12 -7 -2 9 -9 16 -5 15 14 -14 -6 17 -4 19 -19 -21 22 -1 24 -23 -26 27 -25 -29 -28
right_child=7 3 4 11 5 6 -8 8 -10 -11 -12 -13 13 -15 -16 -17 -18 18 -20 20 -22 23 -24 26 25 -27 29 28 -30 -31
leaf_value=-0.0081403058629147436 0.0083104978089307679 -0.03323927046019972 -0.1906780170562693 0.014335883802292393 0.0014047000057348189 -0.14520119460149233 0.15575691492827318 0.090631985568370307 0.017319804117260841 0.012104137340703976 0.11372134074032453 -0.20788485853711111 -0.20747928996131507 -0.19716196767741812 -0.018310965096605705 0.15233433381888095 0.000967589000438503 -0.20353185217376879 0.087273553321825015 -0.19853678287940682 0.035365697352888033 -0.19620475550337846 -0.20290355784613867 0.10315222477148958 -0.01480416902897109 -0.10985519825222725 0.018743168233356113 -0.19032042018493869 0.025590298398909667 -0.070386078678127212
leaf_weight=1342.1051268369192 2558.4104412887245 505.15635672525968 2.5714748101308933 95.516625031130388 122.13520019617863 15.027180162258446 1.9906692504882819 58.527388950809836 325.64476268948056 34.020767045207322 10.207046380266545 2.5161845779512069 4.4244129844009867 7.010397412814199 138.53317112289369 5.3648331165313712 2982.1024287986802 3.2400985523127011 31.853515576804057 2.1174458749592295 67.580000997288153 7.9798616156913331 4.1741716563701621 14.371048616245387 40.665286189876497 21.923635181738064 20.673658516490832 3.6396832251921323 19.601856206543744 38.88997096195817
leaf_count=54232 15638 27322 105 5119 555 184 1 183 1640 240 19 114 21 60 372 6 40698 60 448 27 895 187 14 115 372 431 194 76 179 467
internal_value=0.000140502 -0.00570193 -0.00315405 -0.0264341 0.000567471 -0.0194234 -0.109997 0.0109581 0.0271558 0.0617651 0.00246672 0.0086322 -0.0138683 -0.0322524 -0.0241656 0.00775538 0.00209915 0.0335294 0.0390313 0.0179628 0.0282596 -0.011497 -0.00874417 -0.0335905 -0.0648463 -0.0480986 -0.0108926 0.034332 -0.00822186 -0.0394506
internal_weight=8487.97 5511.37 4908.18 603.189 3394.16 294.486 17.0178 2976.6 418.193 92.5482 3099.67 98.0328 277.468 149.968 142.958 127.5 3089.46 107.363 104.791 72.9375 69.6974 1514.02 1346.28 167.745 70.5688 62.5889 97.1762 37.6126 23.2415 59.5636
internal_count=149974 132273 99718 32555 43451 1199 185 17701 2063 423 42252 5233 1014 453 393 561 42233 1535 1430 982 922 56267 54246 2021 990 803 1031 370 255 661
is_linear=0
shrinkage=0.1


Tree=15
num_leaves=31
num_cat=0
split_feature=23 15 3 3 3 6 5 4 6 5 6 5 0 16 0 15 6 5 32 5 15 15 4 32 4 0 3 15 4 5
split_gain=38.4491 23.6887 21.3768 19.5956 19.3441 12.956 16.7511 12.9308 12.9212 11.2842 10.7836 13.1395 22.7511 11.3183 15.9087 11.2275 10.8233 19.6461 12.4498 10.6847 10.4835 10.4487 10.1455 12.0074 10.0277 13.5814 9.96233 9.08236 9.73546 9.79175
threshold=0.97623750567436229 -0.71086904406547535 0.92146247625350963 0.93233644962310802 0.92679405212402355 0.0317770503461361 0.89429801702499401 0.97797247767448436 0.23999219387769702 0.79171401262283336 0.15944705903530124 0.24641549587249759 0.98754149675369274 0.99838349223136913 0.9913344979286195 0.92659345269203197 0.12560276687145236 0.24200800061225894 0.015056485775858166 0.24737500399351123 1.0958756208419802 -0.70710667967796315 0.99173849821090709 0.0076046728063374766 0.99322497844696056 0.98126751184463512 0.89032816886901867 1.0174173116683962 0.99516150355339061 0.8641435205936433
decision_type=2 2 2 2 2 2 2 2 2 2 2 2 2 2 2 2 2 2 2 2 2 2 2 2 2 2 2 2 2 2
left_child=1 7 8 4 -4 24 20 -1 10 -6 11 12 26 14 15 -14 18 -18 22 -13 27 -3 -15 -24 25 -5 -2 28 29 -7
right_child=2 21 3 5 9 6 -8 -9 -10 -11 -12 19 13 16 -16 -17 17 -19 -20 -21 -22 -23 23 -25 -26 -27 -28 -29 -30 -31
leaf_value=-0.0054291119550779242 0.019073171739760045 0.071808222267714467 -0.017452677282883036 -0.0024335154628936247 -0.05233989420685782 -0.080884599904197996 0.10102689284821197 -0.04031943825789857 0.079509862594316902 -0.19527161325787046 -0.0073413752736646229 0.10673665746200772 0.023304977458780695 -0.22501644121259565 0.066652337806844084 -0.20100538508278279 -0.19273181342522855 -0.018885226126569395 0.076706879365785241 0.025333396017473121 -0.070205989697316701 -0.0011335165767869038 0.095920873812583671 -0.14197100173566241 0.076381838036878785 -0.10246868121259521 0.12596175778734767 0.092161464520429448 0.098396452202409168 0.030955252893617148
leaf_weight=188.48816249764059 60.232043323107064 19.697399206925184 36.503853457048535 32.188942193984985 9.5415256507694739 15.832184166647496 23.90958208963275 243.37726107123308 36.234602808952332 13.116537556052206 138.42305771377869 16.422951794229448 4.1018726807087678 3.5773914121091392 16.463759026955813 4.8935203277505934 14.88112199958414 11.542573241051285 8.066876055672763 886.32355662039481 14.956206932663916 6566.7686667434755 4.2007384253665787 4.287075174972415 7.8112279009073964 23.465675331652164 10.19562502671033 14.474826559424399 7.9390927404165259 15.484848655760286
leaf_count=3678 378 152 133 80 43 68 54 22797 106 54 509 51 26 32 91 74 107 54 35 3816 68 117485 14 49 23 69 23 36 25 41
internal_value=0.000646601 -0.00240303 0.0155611 -0.0134953 -0.0625027 0.00508296 0.0289368 -0.0250915 0.0206877 -0.135082 0.0188869 0.0223605 -0.00586584 -0.0453881 0.00822172 -0.0987205 -0.0747048 -0.116791 -0.0194659 0.0268143 0.00384267 -0.000915378 -0.0837676 -0.024235 -0.0297198 -0.0446114 0.0345471 0.0244544 -0.000511103 -0.0255849
internal_weight=8453.4 7018.33 1435.07 215.225 59.1619 156.063 92.5967 431.865 1219.85 22.6581 1183.61 1045.19 142.443 72.0149 25.4592 8.99539 46.5558 26.4237 20.1321 902.747 68.6872 6586.47 12.0652 8.48781 63.4658 55.6546 70.4277 53.731 39.2561 31.317
internal_count=150171 144112 6059 694 230 464 292 26475 5365 97 5259 4750 883 482 191 100 291 161 130 3867 238 117637 95 63 172 149 401 170 134 109
is_linear=0
shrinkage=0.1


Tree=16
num_leaves=31
num_cat=0
split_feature=18 23 24 5 15 21 24 22 4 21 21 4 6 4 1 7 15 15 18 21 7 18 15 23 7 23 18 23 4 1
split_gain=40.9724 19.0406 16.4917 21.3021 17.5558 16.9129 17.2058 15.717 14.348 15.033 19.7823 13.5938 13.1181 12.5047 12.1129 15.423 14.676 13.1398 17.5208 15.7174 21.2671 12.3016 11.4071 15.8188 14.6177 24.4386 14.3165 12.685 17.3207 14.8646
threshold=0.97521016001701366 0.37782019376754766 0.021466974169015888 0.052085999399423606 1.3722295761108401 44.750000000000007 0.041399713605642326 5.2500000000000009 0.99529999494552623 78.750000000000014 85.750000000000014 0.99561849236488353 0.20702205598354342 0.97970250248909008 0.98689451813697826 0.96040400862693798 0.91435348987579357 0.80263575911521923 0.97493594884872448 19.750000000000004 0.94042357802391063 0.97056037187576305 0.75920245051383983 0.6889326572418214 0.77030065655708324 0.76407375931739818 0.92829483747482311 0.79601743817329418 0.97418898344039928 0.94736850261688244
decision_type=2 2 2 2 2 2 2 2 2 2 2 2 2 2 2 2 2 2 2 2 2 2 2 2 2 2 2 2 2 2
left_child=1 13 -2 -4 7 -6 -7 8 12 -10 -11 -9 -5 -1 15 17 -16 22 19 20 21 -19 -3 -24 -25 26 -26 -27 -29 -30
right_child=2 14 3 4 5 6 -8 11 9 10 -12 -13 -14 -15 16 -17 -18 18 -20 -21 -22 -23 23 24 25 27 -28 28 29 -31
leaf_value=-0.0039832031302912338 0.033884478359542267 -0.0037329414802267629 -0.13500357950101777 -0.0022234816405697867 0.067719422626213707 -0.20939769112352191 0.050138862131977907 0.034315589519360291 0.036942259218664543 -0.20338367920328554 -0.0013735513095315516 -0.01246437930594207 0.027414135359074745 -0.028378651841490344 -0.16199360239747854 0.051108270558348302 -0.00039533577345505876 0.039890283856615721 -0.19932395185968454 0.0014020699104429369 -0.10768807336878879 -0.063726464050416737 0.13502593316651698 0.11653980376747222 -0.17054709380009578 0.021472382142656957 -0.026746961359229628 0.052646112194584517 -0.15241223408606516 -0.039004523347639174
leaf_weight=363.61588008760009 269.23181268875487 3209.2696700643282 10.392555275931953 1680.6331650828943 79.0197265278548 4.7072732024826092 5.5849016746506095 317.98115421761759 205.99278113339096 5.6742583485320202 33.276177769992501 77.199952916707844 163.90721475332975 497.7233706532279 10.42865976598114 54.967811841517687 12.188118019606916 242.15279553993605 4.1011324275750658 895.4864942379063 10.895259222015737 12.026846561580895 5.8979607834480694 6.5343299214728168 19.300060542766008 49.64264493342489 10.796268406324087 18.571652630344033 12.926378370262681 109.1470951680094
leaf_count=8722 1562 64490 65 7419 261 59 27 2983 920 79 255 1190 537 45928 89 184 66 985 89 11082 75 57 29 77 446 633 164 89 288 1408
internal_value=0.000594705 -0.00441537 0.0103313 0.00787756 0.00845445 0.0520143 -0.0685639 0.00688868 0.00342984 0.0261697 -0.0308022 0.025177 0.000410139 -0.0180801 -0.00190276 -0.00154856 -0.0749088 -0.00217686 0.00700452 0.00773364 0.0291232 0.0349875 -0.00528347 -0.0266568 -0.0308592 -0.0352296 -0.118963 -0.0219862 -0.0373255 -0.0510133
internal_weight=8399.27 5545.67 2853.6 2584.37 2573.98 89.3119 10.2922 2484.66 2089.48 244.943 38.9504 395.181 1844.54 861.339 4684.33 4661.72 22.6168 4606.75 1164.66 1160.56 265.075 254.18 3442.09 232.816 226.918 220.384 30.0963 190.288 140.645 122.073
internal_count=150258 134901 15357 13795 13730 347 86 13383 9210 1254 334 4173 7956 54650 80251 80096 155 79912 12288 12199 1117 1042 67624 3134 3105 3028 610 2418 1785 1696
is_linear=0
shrinkage=0.1


Tree=17
num_leaves=31
num_cat=0
split_feature=27 10 15 5 16 22 16 16 5 5 1 4 1 10 1 16 10 27 3 10 3 10 1 1 4 4 10 1 15 4
split_gain=43.5929 19.0206 19.3803 18.9474 22.68 16.0609 19.1104 16.4472 12.1686 11.8419 11.4582 11.7934 13.3769 10.7565 10.856 13.3072 10.7029 10.6469 15.6798 16.1743 13.8539 20.1796 13.8118 12.8435 17.2576 24.4815 12.7043 12.3483 19.1347 12.7766
threshold=0.89753684401512157 0.22799241542816165 1.1568934917449953 0.25285750627517706 0.8897073268890382 35.250000000000007 0.026976824738085273 0.99628469347953807 0.25312000513076788 0.42102798819541937 0.062244500964879997 0.99419099092483532 0.85105448961257946 0.1994494050741196 0.25044949352741247 0.047408737242221839 0.22457768768072131 0.92505508661270153 0.93659180402755748 0.21196349710226062 0.79470723867416393 0.20377273857593539 0.92449751496315014 0.91067150235176098 0.96959450840950023 0.97500848770141613 0.064532861113548293 0.98733851313591015 1.0121363997459414 0.99214601516723644
decision_type=2 2 2 2 2 2 2 2 2 2 2 2 2 2 2 2 2 2 2 2 2 2 2 2 2 2 2 2 2 2
left_child=5 2 3 -2 -5 7 9 10 -6 -7 -1 13 -13 -12 15 16 -15 18 19 23 21 -19 -22 -10 26 -26 -25 29 -29 -24
right_child=1 -3 -4 4 8 6 -8 -9 17 -11 11 12 -14 14 -16 -17 -18 20 -20 -21 22 -23 27 24 25 -27 -28 28 -30 -31
leaf_value=-0.055383167281427448 0.019616551865470587 0.070047011123824443 0.025576597712178236 -0.15062519699805596 -0.16074758584722781 0.064179514616990396 -0.027440484200396537 -0.12526241271409852 -0.20575678406370035 -0.1259293105809535 0.0006117969930108405 -0.089919352713483627 -0.01294724213571409 -0.12666883875073195 -0.027850771036055516 0.19001984619242118 0.061357655330445883 -0.16895776680282784 -0.092828490836376371 -0.17216859250330721 0.077819363144004602 0.120722748153217 -0.0076584000740831095 -0.20176743229350691 -0.15081321364186312 0.020667128997300322 0.095252084805233742 0.022031424778257411 -0.017928047272000199 -0.054556539651210247
leaf_weight=41.120071161072701 654.68746086047031 52.165961006656289 576.63387367571704 9.9878654126077873 4.6670376593247047 34.557451118715107 465.55951384879882 10.995748849585651 2.4480388653464606 3.6197670453111632 4011.4949564122362 23.616897285683081 513.30804391077254 4.4776473604142693 214.78219205024652 5.0581465959548941 9.3466087570413929 10.593240632675586 12.745249597355722 4.3220621310174456 21.259614460170269 3.1110050678253165 711.93295823107474 1.4938136935234059 8.5681738648563606 293.91940131387673 40.02310957852751 348.86773656168953 182.53434143750928 63.25131087936461
leaf_count=401 4682 153 3185 89 74 1550 57784 51 24 619 57109 1662 11674 44 1592 4 46 78 61 17 54 5 3545 15 92 2215 139 1404 1041 613
internal_value=0.000552181 0.0101902 0.00913212 0.00513853 -0.000373159 -0.00487034 -0.0218629 -0.00309967 0.000504577 0.0461544 -0.00282117 -0.0023692 -0.0163329 -0.000603081 -0.0214598 0.0512358 0.000456271 0.000945949 0.0161262 0.0200851 -0.00316746 -0.103197 -0.00213508 0.0224835 0.0241077 0.0158098 0.0845651 -0.00343603 0.00830552 -0.0114851
internal_weight=8341.15 3003.21 2951.05 2374.41 1719.72 5337.94 503.737 4834.2 1709.74 38.1772 4823.2 4782.08 536.925 4245.16 233.665 18.8824 13.8243 1705.07 363.52 350.775 1341.55 13.7042 1327.85 346.453 344.004 302.488 41.5169 1306.59 531.402 775.184
internal_count=150022 17486 17333 14148 9466 132536 59953 72583 9377 2169 72532 72131 13336 58795 1686 94 90 9303 2563 2502 6740 83 6657 2485 2461 2307 154 6603 2445 4158
is_linear=0
shrinkage=0.1


Tree=18
num_leaves=31
num_cat=0
split_feature=18 26 4 6 19 7 6 6 21 4 28 19 26 6 28 4 28 18 9 23 0 18 9 18 6 6 7 4 4 4
split_gain=39.8559 15.4358 15.3109 19.1695 14.9934 12.7927 17.0705 16.4813 11.831 11.5134 11.4943 11.4226 15.6205 11.4264 12.3408 23.3925 15.3022 14.521 21.7498 16.0576 11.9938 11.34 11.2645 9.97938 9.80606 11.8174 10.1774 11.9685 11.287 12.9053
threshold=0.79313910007476818 23.750000000000004 0.97646898031234752 0.038650248199701316 -2.8638803958892818 0.89032816886901867 0.10222892463207246 0.078283675014972701 11.750000000000002 0.98099347949028026 0.39964029192924505 1.1630051136016848 8.2500000000000018 0.138316385447979 0.034582419320940978 0.99769550561904918 0.039927536621689803 0.98686340451240551 0.35618199408054357 0.96560174226760875 0.13090750575065616 0.79531776905059826 0.22931449860334399 0.77816936373710643 0.15166748315095904 0.11487565562129022 0.86244937777519237 0.99266502261161815 0.9968715012073518 0.98448100686073314
decision_type=2 2 2 2 2 2 2 2 2 2 2 2 2 2 2 2 2 2 2 2 2 2 2 2 2 2 2 2 2 2
left_child=2 11 23 9 -5 6 -3 -7 -8 -4 -11 21 13 20 15 -15 -16 18 -18 -19 -13 -2 -10 -1 25 -24 28 -28 29 -27
right_child=1 5 3 4 -6 7 8 -9 22 10 -12 12 -14 14 16 -17 17 19 -20 -21 -22 -23 24 -25 -26 26 27 -29 -30 -31
leaf_value=-0.0021573588778586194 0.08383904215220632 0.040512497055287235 -0.06754338863308601 0.030085714856313273 -0.032444769952625151 0.041005875628756822 0.11028331329978969 -0.060128670817308494 0.061984478374730326 -0.12070788231681039 0.034010273568945669 -0.14924426403551577 -0.16713151432321624 -0.23937469349896637 0.11436409807842762 0.069824041477078061 -0.22407854626508206 0.10035002456926781 0.021449561196264691 -0.068254021365873913 0.026792073939030981 0.0032477524081237622 -0.05150430526543396 -0.093908802276313166 -0.090455635702535925 0.015194444439592414 0.041921994150338641 -0.024868801207360566 0.059470695780238753 -0.054723540854023693
leaf_weight=735.826306222938 17.514707774855196 69.651711148908362 14.958044775761662 40.540905020781793 708.1213879181887 19.478326147189364 7.5692073747050008 93.281518321251497 17.605788396438584 5.0508567057549945 97.353897991823032 3.9022655058652154 4.4833114384673527 6.3820860035484639 9.3350343862548453 3.9681727979332209 7.5757575281895679 12.014834306202829 6.8884224100038409 10.660672768950462 473.60215413663536 5552.7385603876319 72.760867211618461 12.048449394758789 18.694486417807639 37.855139854014851 70.302175972261466 43.386531254393049 14.557791102444751 87.234130986616947
leaf_count=11134 169 3261 71 2533 46989 738 235 6447 812 44 652 30 146 138 29 14 126 37 46 51 2450 49376 5570 329 1456 1962 3654 3634 1095 6993
internal_value=-1.73793e-05 0.00339854 -0.0141167 -0.023168 -0.0290587 -0.0126099 -0.00490264 -0.0426585 -0.0134527 0.0144086 0.0263792 0.00484602 0.0187492 0.0203088 -0.0220818 -0.120831 -8.95794e-05 -0.0288574 -0.107148 0.0210824 0.0253535 0.00350116 -0.0160371 -0.0036355 -0.0200211 -0.0159832 -0.00578116 0.0164329 -0.023866 -0.0335646
internal_weight=8275.34 6661.44 1613.9 866.025 748.662 552.378 439.618 112.76 369.966 117.363 102.405 6109.07 538.813 534.329 56.825 10.3503 46.4747 37.1397 14.4642 22.6755 477.504 5570.25 362.397 747.875 344.791 326.097 253.336 113.689 139.647 125.089
internal_count=150221 88469 61752 50289 49522 35857 28672 7185 25411 767 696 52612 3067 2921 441 152 289 260 172 88 2480 49545 25176 11463 24364 22908 17338 7288 10050 8955
is_linear=0
shrinkage=0.1


Tree=19
num_leaves=31
num_cat=0
split_feature=17 4 23 17 16 3 50 10 3 0 10 24 0 24 3 16 4 0 23 4 23 16 23 16 17 17 0 4 17 10
split_gain=36.7222 13.8876 13.3114 34.309 15.6882 22.7587 16.7504 14.4841 11.658 10.867 9.95982 12.3653 17.1305 11.1127 9.64073 14.8948 9.62003 9.37265 19.416 24.6856 19.263 11.4089 20.0945 13.109 12.9929 9.91376 9.50414 9.12946 9.07778 14.4063
threshold=0.6878214180469514 0.99321049451828014 0.90328574180603038 0.58908656239509594 0.98013201355934154 0.90284311771392833 11.500000000000002 0.12242743372917177 0.87423837184906017 0.85064300894737255 0.1422570198774338 0.035785431042313583 0.98754149675369274 0.1139795668423176 0.96040400862693798 0.88527709245681774 0.99311852455139171 0.9737755060195924 0.85115176439285289 0.9857274889945985 0.78483533859252941 0.97213754057884227 0.88644421100616466 0.9708312749862672 0.66418838500976574 0.38792368769645696 0.97548750042915355 0.98426648974418651 -0.56078428030014027 0.12269726768136026
decision_type=2 2 2 2 2 2 2 2 2 2 2 2 2 2 2 2 2 2 2 2 2 2 2 2 2 2 2 2 2 2
left_child=1 2 14 -4 8 6 -6 -8 -5 -3 -9 -12 13 -13 16 -16 17 21 20 -20 26 22 23 28 -23 -25 -19 -28 29 -1
right_child=-2 9 3 4 5 -7 7 10 -10 -11 11 12 -14 -15 15 -17 -18 18 19 -21 -22 24 -24 25 -26 -27 27 -29 -30 -31
leaf_value=-0.032114647023102759 0.0061513007341919331 -0.055345672033583732 0.046101710658728444 -0.077911594646989143 0.046115132505677323 -0.14492313962646583 0.11166215748118702 -0.19027549459646462 0.082569570048680596 -0.015940072008506896 0.11641376648109741 -0.010754398074646442 -0.22034581510831905 -0.16941700774084589 0.015218239223686892 0.17783847534423783 0.060225063700543063 -0.14150543621408695 -0.15748926309337316 0.044586534682035751 -0.13337044256272934 0.011344035418787739 -0.18862398309304995 0.064900769588211824 0.1213966828881637 -0.18080919943106319 0.10296079487745498 -0.02974714894084405 -0.0048561675020795956 0.005742886556913831
leaf_weight=317.48312820424326 4062.4539068834856 80.470785798446741 161.75048110890202 5.8926286967471269 25.835051430389285 17.825051091611385 4.8582154214382163 5.9795717466622582 19.526918709743768 536.98133457248332 3.9352485737763336 24.865043882280592 6.2868419010192147 5.36728118546307 36.516594760119915 6.6594208069145671 20.975743120070547 6.0222016302868715 7.1279571373015633 39.798854645341635 28.011073880828917 149.5152579722926 6.1534192829858503 2.1188743282109481 11.55688546458259 7.2973059834912419 6.3497454002499572 28.232064506970346 2398.7400213151122 147.08865364053054
leaf_count=14451 34293 13472 576 64 80 90 11 51 79 19637 13 104 40 32 133 10 624 50 40 161 150 749 111 12 58 104 16 113 57612 7099
internal_value=-0.000594855 -0.00724804 -0.00480987 0.0160184 -0.0244062 -0.0430852 -0.0195492 -0.0526233 0.0453677 -0.0210757 -0.0698119 -0.0520062 -0.0701548 -0.0389225 -0.00663495 0.0403006 -0.00727292 -0.00772161 -0.0356767 0.0138922 -0.0695776 -0.0066591 -0.00810815 -0.00772149 0.0192403 -0.125518 -0.0255695 -0.00537996 -0.0073341 -0.0201285
internal_weight=8181.68 4119.22 3501.77 282.122 120.372 94.9523 77.1273 51.2922 25.4195 617.452 46.434 40.4544 36.5192 30.2323 3219.65 43.176 3176.47 3155.5 115.542 46.9268 68.6151 3039.95 2878.88 2872.73 161.072 9.41618 40.604 34.5818 2863.31 464.572
internal_count=150035 115742 82633 1140 564 421 331 251 143 33109 240 189 176 136 81493 143 81350 80726 530 201 329 80196 79389 79278 807 116 179 129 79162 21550
is_linear=0
shrinkage=0.1


Tree=20
num_leaves=31
num_cat=0
split_feature=1 4 4 16 6 16 6 23 15 23 1 6 5 50 22 23 1 1 24 16 3 23 15 22 25 22 3 16 1 16
split_gain=37.8181 20.1155 12.7768 12.7131 15.2562 14.9977 14.1045 12.1035 11.3011 11.8521 11.0999 14.1345 15.5466 14.7339 12.4725 15.0125 11.59 9.99185 17.2503 9.63615 9.88391 9.27131 17.2259 8.75123 9.22532 8.53399 8.34834 8.31757 11.5884 14.8689
threshold=0.95663151144981395 0.97589051723480236 0.96407902240753185 0.95531448721885692 0.13810575753450396 0.79313910007476818 0.21018354594707492 0.70600241422653209 0.91618329286575328 0.94103157520294201 0.28687600791454321 0.062783185392618193 0.74039149284362804 2.5000000000000004 18.750000000000004 0.018223328515887264 0.90362951159477245 0.92345550656318676 0.15269055962562564 0.80131110548973095 0.86446580290794384 0.89460459351539623 0.87435102462768566 7.7500000000000009 7.7500000000000009 80.250000000000014 0.79202914237976085 0.95297241210937511 0.9495389759540559 0.95079851150512706
decision_type=2 2 2 2 2 2 2 2 2 2 2 2 2 2 2 2 2 2 2 2 2 2 2 2 2 2 2 2 2 2
left_child=1 25 -2 5 7 10 8 -5 9 19 14 12 -12 -13 26 -16 -14 18 -10 20 -7 27 -23 -18 -25 -1 -3 28 29 -21
right_child=2 3 -4 4 -6 6 -8 -9 17 -11 11 13 16 -15 15 -17 23 -19 -20 21 -22 22 -24 24 -26 -27 -28 -29 -30 -31
leaf_value=0.0027261148189744846 0.050926081826926407 0.1655970009787022 0.0056952861511402322 0.081793039487323388 -0.01960663504354258 -0.059736735126522202 -0.086991451958210814 -0.16311778126448928 0.11889093626120349 0.16061668620668373 0.087671473252388055 0.11532730721631741 -0.062980102592716011 -0.037300165140128842 -0.083012007972862803 0.092318801714890902 -0.021185137462706415 -0.064870196661421312 -0.19753263415556527 -0.00069089587603084158 0.064192390927638371 -0.20670113898177714 0.035564838644201978 0.06435053729478607 -0.0077649685143487551 -0.075956329685371332 -0.076227263480707588 0.05261570037511696 -0.025168003264362096 -0.1993156292681478
leaf_weight=1442.1653319541365 63.393332242034376 1.5952824428677548 4211.0722220045282 2.2957098055630949 30.983033192809671 7.8245923722861326 21.328690802678466 16.673454348929226 7.4587871762923879 4.3938543740659943 16.687136741471477 6.4052219390869132 37.469306061509997 504.13443194149295 6.0166792001109597 25.931102889939211 96.02223259722814 51.337185706943274 2.2404000125825405 1147.1874547785847 36.250220738817006 6.2859570118598622 5.5054357396438718 32.522023262223229 39.024052174063399 13.917698122560976 13.579896429786457 25.007201674859971 248.18505042581819 3.7813131250441065
leaf_count=15766 187 5 31892 20 276 720 241 445 41 10 772 10 1495 44817 628 500 685 851 67 41604 1129 92 36 457 759 1357 207 278 4368 84
internal_value=-0.000109922 -0.0072958 0.00636609 -0.0129289 -0.0628488 -0.0118661 -0.00622706 -0.133478 -0.00511244 -0.00337844 -0.0232021 -0.0262294 -0.00514733 -0.0353853 0.0238416 0.059299 -0.0127015 -0.0472837 0.0458008 -0.0038653 0.0421913 -0.00527895 -0.0935864 -0.00145884 0.0250159 0.00197404 -0.0508056 -0.00454781 -0.0055695 -0.00134344
internal_weight=8126.67 3852.21 4274.47 2396.13 49.9522 2346.17 1566.79 18.9692 1545.46 1484.42 779.387 732.264 221.725 510.54 47.123 31.9478 205.038 61.0364 9.69919 1480.03 44.0748 1435.95 11.7914 167.568 71.5461 1456.08 15.1752 1424.16 1399.15 1150.97
internal_count=149799 117720 32079 100597 741 99856 49521 465 49280 48321 50335 48995 4168 44827 1340 1128 3396 959 108 48311 1849 46462 128 1901 1216 17123 212 46334 46056 41688
is_linear=0
shrinkage=0.1


Tree=21
num_leaves=31
num_cat=0
split_feature=22 15 0 15 23 0 8 24 20 20 6 5 3 8 24 8 5 15 5 5 20 15 21 20 50 3 3 24 3 6
split_gain=30.2509 21.468 10.4732 10.0038 17.143 15.0287 10.8671 10.0345 10.4551 16.6192 16.423 27.5977 21.9759 15.9576 15.7806 12.8309 10.8715 10.4573 10.141 17.4084 9.91175 9.87799 14.296 13.0308 9.86641 9.62681 10.3406 17.1586 12.0242 11.5796
threshold=11.250000000000002 1.1630051136016848 0.06623800098896028 1.1159826517105105 0.98185113072395336 0.99730950593948375 0.99593400955200206 0.035785431042313583 0.99257084727287304 0.99566915631294262 0.1307821720838547 0.2461579963564873 0.85688951611518871 0.97784999012947094 0.030803117901086811 0.99063551425933849 0.23787750303745273 0.73628416657447826 0.25096450746059423 0.26212050020694738 0.71149519085884105 1.1266170740127566 114.50000000000001 0.99099478125572216 149.50000000000003 0.86636298894882213 0.88507786393165599 0.011527473106980326 0.89464855194091808 0.096977051347494139
decision_type=2 2 2 2 2 2 2 2 2 2 2 2 2 2 2 2 2 2 2 2 2 2 2 2 2 2 2 2 2 2
left_child=1 2 -1 5 21 7 -6 8 -4 14 12 17 -11 -13 -10 -15 -16 -12 -17 -20 -3 22 -5 -23 -9 -14 27 -27 -28 -30
right_child=-2 20 3 4 6 -7 -8 24 9 10 11 13 25 15 16 18 -18 -19 19 -21 -22 23 -24 -25 -26 26 28 -29 29 -31
leaf_value=-0.074305788008386928 -0.0094512998498120452 -0.12748438949814953 0.056593854523663362 -0.12581071963193419 -0.053116838419255047 0.058784317466202565 -0.19796535321004194 0.0017371729942148211 -0.14184716508630299 -0.22434221306555108 -0.021030030918896919 -0.21680142209789988 0.087973323849249996 0.063956667229132361 0.12439603287874866 0.052397547425795679 -0.088587337949550454 -0.20869751542168538 -0.22938128330711069 -0.015056849431262689 0.024229375943189455 -0.0079331972966366696 0.08626834476921387 0.089420772571017784 -0.089213751799426533 -0.23953420326600716 0.085420159262580814 0.0060401061290764613 0.04149417815653339 -0.075955636250434125
leaf_weight=17.812754603102803 2250.4320235560881 4.3406297939363858 61.782864960841835 11.414369518402962 46.224041694775224 48.186940760817379 5.8330967286601654 4779.7777312344406 13.169099835678937 3.1791157992556682 4.3693828471004954 3.0145771559327832 34.641718895174563 31.256766530685127 5.2135804034769517 10.589542657136919 4.43563221860677 9.2657457240857166 5.0432558585889664 15.248100135941057 543.828622752917 45.785009849816561 4.4051598580554119 19.649144900031388 11.957213433925061 3.0623624520376316 43.908167465589941 40.127741523552686 32.893348335521296 11.270664744079111
leaf_count=126 110118 100 385 165 291 164 44 32984 188 46 21 31 119 126 18 44 57 145 61 84 3053 492 28 91 230 73 164 276 174 104
internal_value=0.000406572 0.00418478 0.00224447 0.00250147 -0.0245459 0.00319858 -0.0693474 0.00267586 0.0194757 0.0110037 0.0185216 -0.0191866 0.0360925 0.00788865 -0.0706622 0.0187894 0.02649 -0.148559 -0.0269277 -0.0683255 0.023028 0.0041573 -0.0667545 0.0213011 0.00151022 0.041083 0.0287081 -0.0113722 0.0483632 0.011521
internal_weight=8122.12 5871.69 5323.52 5305.7 133.311 5172.39 52.0571 5124.21 332.472 270.689 247.87 78.7874 169.083 65.1522 22.8183 62.1377 9.64921 13.6351 30.8809 20.2914 548.169 81.2537 15.8195 65.4342 4791.73 165.904 131.262 43.1901 88.0722 44.164
internal_count=150002 39884 36731 36605 1111 35494 335 35330 2116 1731 1468 512 956 346 263 315 75 166 189 145 3153 776 193 583 33214 910 791 349 442 278
is_linear=0
shrinkage=0.1


Tree=22
num_leaves=31
num_cat=0
split_feature=0 8 28 5 5 15 5 28 16 28 6 23 23 8 3 3 3 15 28 25 16 8 8 15 5 3 0 22 0 0
split_gain=36.0515 16.7193 13.1656 14.235 22.796 13.1082 12.7889 11.1636 11.1603 10.8886 12.404 10.855 12.2195 11.0414 14.6311 10.0818 10.0225 9.1952 9.36845 23.6291 17.4991 32.0617 13.8871 10.6737 15.3136 14.4745 8.7504 12.9564 8.44579 9.89757
threshold=0.97100451588630687 0.99486899375915538 0.035785431042313583 0.23702099919319156 0.23927350342273715 0.37668740749359136 0.23386050015687945 0.077121332287788405 0.42719441652297979 0.047713907435536392 0.13823817670345309 0.25846518576145178 0.22739297896623614 0.99305650591850292 0.90816324949264537 0.96040400862693798 0.96288052201271068 1.3722295761108401 0.042125429958105094 53.750000000000007 0.99729087948799144 0.99140250682830822 0.98055750131607067 1.1777297258377077 0.24748399853706363 0.88382709026336681 0.98329749703407299 7.7500000000000009 0.90434598922729503 0.37329050898551946
decision_type=2 2 2 2 2 2 2 2 2 2 2 2 2 2 2 2 2 2 2 2 2 2 2 2 2 2 2 2 2 2
left_child=1 11 3 -2 -5 -4 7 9 -3 10 -7 12 28 -14 -15 17 -17 18 19 20 -8 22 -22 24 25 -21 27 -9 29 -1
right_child=2 8 5 4 -6 6 15 26 -10 -11 -12 -13 13 14 -16 16 -18 -19 -20 23 21 -23 -24 -25 -26 -27 -28 -29 -30 -31
leaf_value=0.0082551399871199863 0.071324000626184311 -0.10439585639366358 0.091196712113937789 -0.23529777787912498 0.017930051655751719 -0.22197319697567683 0.076721082132162888 -0.20639198963444338 -0.024640465908770476 -0.22089555152758178 0.061823462139342658 -0.0037194355805487225 -0.07856001363467463 -0.095855695986035439 0.17607888618163675 -0.13946596673132713 -0.019919994547669129 0.053286496854877845 0.0059962504171964595 -0.18518571884996987 -0.022467112415669462 0.033531058326003386 -0.20922233668095763 0.0031649819078570771 -0.20877834005372639 0.057485255549826676 0.040304134590150552 -0.011978450156881464 0.073809928533067962 -0.026917031415771415
leaf_weight=115.73289919120725 51.56059883791022 18.718207994010299 17.141888393554837 3.5813443697988978 482.75879704300314 2.3826553188264352 23.571716285776347 4.7293650093488457 279.94652124738786 6.3692636447958648 4.3551735104992986 4328.6161386390449 52.460203845403157 3.7409412142587817 4.1998029388487339 8.3015218246728164 45.184892483055592 39.48205572552979 2157.8939581797458 4.1927308989688807 6.3940496426075724 29.777202157303691 10.553629427216945 7.5811581052839747 12.354262165259568 5.9403816405683756 14.349050090648232 12.457031263504176 10.757195350248365 259.18468268011929
leaf_count=2618 303 2121 70 73 2859 42 86 40 19166 141 22 79967 3260 537 74 27 158 162 13690 77 28 99 88 65 224 27 113 282 172 23526
internal_value=-0.00157384 -0.00668583 0.00721493 0.0213621 0.0160653 0.00406128 0.00343785 -0.0495843 -0.029639 -0.127151 -0.0385337 -0.00525007 -0.020103 -0.0619257 0.0479686 0.00444458 -0.0384745 0.00544364 0.00460718 -0.0252584 0.00647539 -0.0289621 -0.138763 -0.0994481 -0.134042 -0.0429236 -0.0173453 -0.0654773 -0.0135531 -0.0160598
internal_weight=8024.27 5073.36 2950.91 537.901 486.34 2413.01 2395.87 44.6425 298.665 13.1071 6.73783 4774.69 446.076 60.4009 7.94074 2351.23 53.4864 2297.74 2258.26 100.365 70.2966 46.7249 16.9477 30.0685 22.4874 10.1331 31.5354 17.1864 385.675 374.918
internal_count=150117 131441 18676 3235 2932 15441 15371 640 21287 205 64 110154 30187 3871 611 14731 185 14546 14384 694 301 215 116 393 328 104 435 322 26316 26144
is_linear=0
shrinkage=0.1


Tree=23
num_leaves=31
num_cat=0
split_feature=24 0 3 21 21 19 6 3 22 8 3 16 23 16 6 23 0 16 0 3 22 19 8 3 22 6 50 6 16 23
split_gain=27.506 15.8825 14.4054 13.9558 14.0795 15.5234 12.7342 13.4788 12.68 12.6747 14.8958 15.0994 12.3923 13.2546 12.2286 12.0007 21.9967 12.1013 17.9718 11.6954 10.3248 20.3222 10.0488 11.4082 10.2334 9.84373 9.63105 10.4521 9.38094 9.35786
threshold=0.048826333135366447 0.99506399035453807 0.82069063186645519 119.50000000000001 110.25000000000001 1.015034079551697 0.14433789998292926 0.82934623956680309 37.250000000000007 0.99246701598167431 0.89464855194091808 0.99194639921188366 0.96743547916412365 0.99408400058746349 0.066660206764936461 0.97733694314956676 0.9760514795780183 0.99316993355751049 0.99003449082374584 0.87481382489204418 2.5000000000000004 0.9603518843650819 0.99176150560379039 0.86114266514778148 104.25000000000001 0.074847981333732619 156.50000000000003 0.10906974226236345 0.99803176522254955 0.97964364290237438
decision_type=2 2 2 2 2 2 2 2 2 2 2 2 2 2 2 2 2 2 2 2 2 2 2 2 2 2 2 2 2 2
left_child=2 8 -1 4 9 19 -5 -8 -2 10 14 -12 -11 25 -4 16 -16 -18 -19 -6 -15 28 23 24 -10 -14 -25 -28 -22 -13
right_child=1 -3 3 6 5 -7 7 -9 22 12 11 29 13 20 15 -17 17 18 -20 -21 21 -23 -24 26 -26 -27 27 -29 -30 -31
leaf_value=0.050416160489043182 -0.0018512013448851409 0.045754954734173389 -0.26961641190725466 0.047171206423341841 0.050545548017657996 -0.18475003995868697 0.085998146035564021 -0.24735803408395857 -0.017515638342748 -0.12270787265766092 0.050318079464438427 -0.22457418110967625 -0.24271981954785457 0.021537055516441649 -0.20640963744783114 0.016018009691049249 0.030082916413908308 -0.23109304150345153 0.10452714814616038 -0.17871405938274088 -0.078543395071316344 -0.21325215586665683 -0.03962255476316312 0.0083817004310411253 -0.10845443065006094 0.075572269485423837 -0.10884055902737194 0.18430905983130694 0.12836673748296692 -0.05743845629820115
leaf_weight=108.63515851623379 6604.8345368718146 67.60765147022903 1.6011700518429268 127.41626614658162 9.1257062363438326 8.0350785285700095 2.0159230530261985 3.045023160520941 152.72710122505669 5.6412035282701245 13.325951763894407 3.5704184519127002 0.98891006037592788 196.93232073588297 6.9246046165935686 227.41118057491258 21.344125301577154 4.8132305387407532 2.3866018317639828 2.9426617440767577 4.2005285755731148 5.6872245529666534 157.52804933197331 108.30120497068856 13.465284421108661 55.657901284866966 1.5235961595317338 6.0293947922764346 4.5807512076571584 54.250720334937796
leaf_count=703 87100 318 21 895 56 136 11 67 12985 80 73 48 17 884 122 1291 166 87 9 51 46 69 27217 12311 3281 238 240 1108 12 380
internal_value=-0.000429053 -0.00248276 0.0163492 0.0114918 0.00528266 -0.077057 0.0409922 -0.114573 -0.00294572 0.00799933 -0.00502474 -0.045643 0.0239709 0.0270578 0.00590183 0.00757998 -0.0465215 -0.00773354 -0.119842 -0.00535542 0.0155469 -0.0659861 -0.0193914 -0.00809189 -0.0248837 0.0700157 0.0159959 0.125175 0.0293912 -0.067759
internal_weight=7982.55 7112.02 870.533 761.898 629.42 20.1034 132.477 5.06095 7044.41 609.317 335.628 71.1471 273.689 268.048 264.481 262.88 35.4686 28.544 7.19983 12.0684 211.401 14.4685 439.575 282.047 166.192 56.6468 115.854 7.55299 8.78128 57.8211
internal_count=150022 144560 5462 4759 3786 243 973 78 144242 3543 2197 501 1346 1266 1696 1675 384 262 96 107 1011 127 57142 29925 16266 255 13659 1348 58 428
is_linear=0
shrinkage=0.1


Tree=24
num_leaves=31
num_cat=0
split_feature=1 4 24 15 27 4 50 7 7 16 21 21 50 15 16 24 27 7 27 15 15 15 7 5 1 5 5 24 24 4
split_gain=25.0005 14.38 12.0434 10.8662 9.11906 8.24773 9.68132 16.0226 10.8569 9.02795 8.99942 13.316 8.62909 8.62091 11.2214 8.26685 8.10673 7.94899 16.331 9.65854 13.4539 7.29758 7.2277 10.5663 9.17237 8.52402 8.30463 7.88397 7.16893 6.92115
threshold=0.94405749440193187 0.99703601002693187 0.0076046728063374766 1.5271976590156557 0.382411539554596 0.98601150512695324 8.5000000000000018 0.90693151950836193 0.90116891264915477 0.9378575086593629 148.50000000000003 126.25000000000001 24.500000000000004 0.79282918572425853 0.9944189488887788 0.97785946726799022 0.16633728891611102 0.80184090137481701 0.83366271853446972 0.71801221370697033 -0.034528303891420357 0.78800153732299816 0.94042357802391063 0.77575948834419262 0.93868848681449901 0.6366109848022462 0.54988700151443493 0.44414736330509191 0.46814660727977758 0.99053049087524425
decision_type=2 2 2 2 2 2 2 2 2 2 2 2 2 2 2 2 2 2 2 2 2 2 2 2 2 2 2 2 2 2
left_child=1 5 -2 4 -4 10 16 8 9 17 11 -1 -10 -12 -15 22 -7 19 -19 20 -8 -3 23 24 27 26 -26 -9 -29 -14
right_child=2 21 3 -5 -6 6 7 15 12 -11 13 -13 29 14 -16 -17 -18 18 -20 -21 -22 -23 -24 -25 25 -27 -28 28 -30 -31
leaf_value=-0.0033050815107695738 0.074274963654253554 -0.067905643233142521 -0.11608472179030092 0.063878544045844282 0.0028737802999860415 0.042829939615714845 0.04993310252691105 -0.13825006779702706 -0.15029274018935693 -0.17242965170283608 0.16702816393385334 -0.19689152992464243 0.0061663325257276524 -0.19229136414103046 0.13278574102723456 -0.096436532401879854 -0.08228372451795242 -0.015483433548032874 -0.19073477458555579 0.074575211953075163 -0.13861817332580009 0.062715662468842179 0.08136282135829373 -0.036601257273963593 -0.168566045683951 -0.11626577413973366 0.11185773450933773 0.1417897983802377 0.036179136813228062 -0.082767052113516038
leaf_weight=1817.4364017292392 23.871720016701147 53.45346572145354 6.4524397316854438 29.221242788247764 4958.9262616563356 6.1309140264056614 9.0288227314595115 2.4304412505589417 9.5170875778421742 3.63700948935002 6.0306795770302397 3.5602062472607932 15.81745242141187 1.988618232309818 2.2785955760627985 6.2591520923306225 33.351188637316227 754.64618397742743 5.3550257130991659 21.302739709150046 6.5150010683573774 4.6491183494217685 17.487362330313772 32.68304655351676 1.393253933172671 7.8377702324651182 4.3636327090207487 6.9587288920301935 84.187757106497884 19.5872352339793
leaf_count=34915 119 7495 137 117 43055 117 701 92 328 138 116 260 702 105 3 541 380 52214 163 246 528 76 239 823 73 212 67 83 4137 1712
internal_value=-0.000873242 -0.00819955 0.00341568 0.00307701 0.0027192 -0.00720579 -0.0142785 -0.0123777 -0.0179211 -0.0152366 -0.00315639 -0.00368356 -0.0657586 0.0900635 -0.0187075 0.016268 -0.0628557 -0.0145191 -0.0167183 0.0308413 -0.0290958 -0.0574539 0.0207515 0.0131726 0.0283517 -0.0484024 0.0439909 0.0395023 0.0442422 -0.043035
internal_weight=7956.36 2937.89 5018.47 4994.6 4965.38 2879.78 1048.49 1009.01 845.407 800.485 1831.29 1821 44.9218 10.2979 4.26721 163.601 39.4821 796.848 760.001 36.8466 15.5438 58.1026 157.342 139.855 107.172 13.5947 5.75689 93.5769 91.1465 35.4047
internal_count=149894 106466 43428 43309 43192 98895 63496 62999 56732 53990 35399 35175 2742 224 108 6267 497 53852 52377 1475 1229 7571 5726 5487 4664 352 140 4312 4220 2414
is_linear=0
shrinkage=0.1


Tree=25
num_leaves=31
num_cat=0
split_feature=22 21 4 0 4 4 18 15 7 4 15 24 18 4 21 7 50 24 15 7 5 15 4 5 5 6 15 5 5 21
split_gain=20.7076 12.4218 15.8002 14.2795 11.5855 11.9386 9.53404 14.8744 16.5769 10.7699 9.2796 9.76279 21.6514 15.2566 16.9445 18.4521 13.8547 13.7659 13.1129 12.3092 11.393 10.3968 12.7614 15.6305 23.8123 12.0209 10.1119 15.1958 13.3319 15.8029
threshold=11.250000000000002 120.25000000000001 0.97493749856948864 0.99506399035453807 0.99754649400711071 0.9985640048980714 0.99999997019767772 0.81358522176742565 0.81185996532440197 0.99824401736259472 1.2956982851028445 0.030803117901086811 0.98831611871719371 0.99502947926521312 57.750000000000007 0.89115542173385631 105.50000000000001 0.0371058788150549 0.76236790418624889 0.88635754585266124 0.24963100254535678 0.92659345269203197 0.98876050114631664 0.59449401497840892 0.25894050300121313 0.073536500334739699 0.85789063572883617 0.41325199604034429 0.42026850581169134 37.750000000000007
decision_type=2 2 2 2 2 2 2 2 2 2 2 2 2 2 2 2 2 2 2 2 2 2 2 2 2 2 2 2 2 2
left_child=1 3 -3 10 -4 -6 -5 -8 -9 -10 11 12 -1 14 20 16 19 18 -13 -16 -14 -20 25 24 -24 -23 -22 -28 -29 -30
right_child=-2 2 4 6 5 -7 7 8 9 -11 -12 17 13 -15 15 -17 -18 -19 21 -21 26 22 23 -25 -26 -27 27 28 29 -31
leaf_value=-0.2433478971509252 -0.007880041826067382 -0.22594790969738507 0.039790223848636945 0.050165855215863767 -0.19270003464405161 0.026616589304722243 0.087388847126265268 0.11709665613972316 -0.028330060889127193 -0.16747153194313757 0.022549830678620736 -0.11024978180457692 -0.16013716614312223 -0.17583511292703755 0.0066059678221201514 0.064510229752875542 -0.13922159229679473 0.0010712530369918233 0.086212114360914416 -0.15866377557997746 0.053976755890039543 -0.23372385141268537 0.025340879479110741 0.038918877262994707 -0.23197719006776821 0.07914535595803214 -0.19279464183957257 0.16281455891721056 -0.14531742714959575 -0.0031973419595233824
leaf_weight=4.2669739387929431 2209.4503745721595 2.3829376455396405 162.02920730458573 103.64421969559044 4.4671856854110938 5.585391812492162 15.004392638802527 6.8372189477086058 33.735974299255759 6.6612902614288023 207.29727117693983 5.7115696677938095 8.5815322273410839 5.7775485790334633 74.861071245511994 41.871869132854044 8.2845067353919131 4887.9519507104997 38.794585204683244 4.7952201478183261 10.137408364564179 1.280904780607673 7.3158302833326143 17.848214555066079 7.0735919452272356 29.754794711014256 6.9313895744271568 3.2198007106780997 11.62746218498796 23.91823605960235
leaf_count=92 110141 107 1400 433 105 51 42 12 178 39 1181 65 76 77 513 200 152 34300 153 41 49 23 56 80 112 139 93 2 84 137
internal_value=0.000347889 0.00351078 0.0297859 0.00268826 0.0333273 -0.0708438 0.031588 0.000650933 -0.026902 -0.0512737 0.00180168 0.000974561 -0.0204533 -0.015698 -0.0109346 0.00987179 -0.0161436 0.00185074 0.0372014 -0.00334309 -0.0528642 0.0454526 0.0204618 -0.0236025 -0.101152 0.0662326 -0.0363767 -0.0564207 -0.0320367 -0.0496867
internal_weight=7957.1 5747.65 174.465 5573.18 172.082 10.0526 165.883 62.2389 47.2345 40.3973 5407.3 5200 204.273 200.006 194.228 129.813 87.9408 4995.73 107.779 79.6563 64.4158 102.068 63.2733 32.2376 14.3894 31.0357 55.8343 45.6969 38.7655 35.5457
internal_count=150133 39992 1663 38329 1556 156 704 271 229 217 37625 36444 1516 1424 1347 906 706 34928 628 554 441 563 410 248 168 162 365 316 223 221
is_linear=0
shrinkage=0.1


Tree=26
num_leaves=31
num_cat=0
split_feature=15 22 24 3 21 3 5 3 18 31 18 5 6 3 31 31 3 18 0 0 4 24 15 15 24 15 15 0 5 18
split_gain=29.1459 14.7269 14.2134 12.1958 13.0531 11.6516 12.8857 11.4619 12.8133 9.35351 12.8215 12.8338 21.5209 11.7282 14.4632 9.95061 9.62164 9.61486 9.22899 9.13253 9.01224 8.96312 18.2753 9.93321 11.2971 14.8267 21.7506 19.2642 19.2061 16.6684
threshold=0.77209749817848217 37.250000000000007 0.39964029192924505 0.92549598217010509 3.7500000000000004 0.8862612545490266 0.59153050184249889 0.86333575844764721 0.026976824738085273 0.86308577656745922 0.98156312108039867 0.84653401374816906 0.065591562539339079 0.93437001109123241 0.94103157520294201 0.85011014342308056 0.94736957550048839 0.99874427914619457 0.95722851157188427 0.9776194989681245 0.98025748133659374 0.054120624437928207 0.81715422868728649 1.1568934917449953 0.064967531710863127 0.96562787890434276 0.92868894338607799 0.99024000763893139 0.24044349789619449 0.97955936193466198
decision_type=2 2 2 2 2 2 2 2 2 2 2 2 2 2 2 2 2 2 2 2 2 2 2 2 2 2 2 2 2 2
left_child=1 -1 3 4 -2 7 -7 8 -3 15 16 12 13 14 -12 -5 19 -14 -4 -11 -8 22 -6 24 25 26 28 -27 -23 -30
right_child=2 5 18 9 21 6 20 -9 -10 10 11 -13 17 -15 -16 -17 -18 -19 -20 -21 -22 23 -24 -25 -26 27 -28 -29 29 -31
leaf_value=-0.0024910564739297402 -0.16543057361918947 0.030845039812025389 0.17813232026262205 -0.023722542588316183 0.07451278042823313 -0.080022039786854807 0.27437074032357694 0.010858200568017683 -0.037252391814830733 -0.044173489502359019 -0.0069614895559625732 0.0074280005137621679 -0.072516802824384843 -0.04446052271051848 -0.20097406591374811 -0.12225783555419273 -0.099270919674604427 0.091738963975799337 0.03386481964996467 0.068218317815738949 -0.006282042266762042 0.08468685029511043 0.014384616099813225 0.027222905147896645 0.0059826143717233923 -0.092994108618068325 0.086022073698156204 0.021836480265962604 0.06261267284467624 -0.09482924764057804
leaf_weight=4305.5776160733658 4.2655090093612662 32.325447434559464 7.8493936061859158 34.170538534875959 53.828811363782734 59.831216168473475 1.2093814313411737 121.16424070118228 190.27412007749081 8.7301757112145406 5.2223763689398774 70.974855666048825 5.1672622766345748 22.804423723369837 14.541458921507001 14.639373870566486 4.7962163798511019 11.483590945601463 10.19156416505575 42.065185747109354 21.222494323854335 11.528838074998928 829.46086020616349 199.03418910363689 1704.3288010366959 46.748580703046173 23.952752470504493 21.250628509558737 8.5206445106305164 31.897250111214817
leaf_count=67028 12 1122 9 195 191 8756 32 16706 26990 50 20 266 31 100 91 64 42 32 31 145 3047 63 5540 1412 16873 481 111 92 51 249
internal_value=0.000733356 -0.00424596 0.00812489 0.00762108 0.0093749 -0.0219817 -0.0557883 -0.0138917 -0.0273634 -0.0143194 -0.0040847 -0.0212508 -0.0556227 -0.0933256 -0.149708 -0.0532759 0.0361179 0.0407654 0.0966338 0.0489016 0.00884894 0.00962933 0.0180489 0.00599671 0.00371088 -0.0231954 0.00718733 -0.0571081 -0.0291635 -0.0616383
internal_weight=7919.06 4731.6 3187.45 3169.41 2934.82 426.027 82.2631 343.764 222.6 234.595 185.786 130.194 59.2191 42.5683 19.7638 48.8099 55.5916 16.6509 18.041 50.7954 22.4319 2930.55 883.29 2047.26 1848.23 143.899 75.8995 67.9992 51.9467 40.4179
internal_count=149832 123681 26151 26111 25075 56653 11835 44818 28112 1036 777 540 274 211 111 259 237 63 40 195 3079 25063 5731 19332 17920 1047 474 573 363 300
is_linear=0
shrinkage=0.1


Tree=27
num_leaves=31
num_cat=0
split_feature=27 27 0 8 6 22 19 19 3 25 50 6 24 16 16 3 3 19 22 3 8 5 5 8 5 3 3 3 8 6
split_gain=25.1854 10.419 12.5069 10.2815 10.9928 9.28211 9.95245 21.5151 15.4346 9.60435 9.20218 9.16743 9.0181 8.95916 12.3193 17.4285 12.0951 9.47506 8.79735 8.49503 8.47412 9.19211 17.114 10.3975 11.3971 14.3751 9.54645 25.0375 17.5106 9.3585
threshold=0.95463898777961742 0.96560174226760875 0.99547949433326732 0.99321049451828014 0.15518380701541903 4.7500000000000009 1.0821232199668886 1.1437768936157229 0.87262448668479931 32.500000000000007 48.500000000000007 0.16080524772405627 0.013937451411038639 0.99983695149421703 0.99803176522254955 0.89454999566078197 0.90906691551208507 0.70148843526840221 129.25000000000003 0.88239926099777233 0.99627149105072033 0.26817299425601965 0.28462350368499761 0.98448100686073314 0.41731350123882299 0.6181645691394807 0.88131114840507518 0.86171516776084911 0.9873584806919099 0.11876326426863672
decision_type=2 2 2 2 2 2 2 2 2 2 2 2 2 2 2 2 2 2 2 2 2 2 2 2 2 2 2 2 2 2
left_child=13 2 20 -3 5 6 -5 8 -8 -10 -11 -6 -12 14 18 17 -17 -16 -1 -19 21 -2 -23 24 25 -24 27 29 -28 -25
right_child=1 3 -4 4 11 -7 7 -9 9 10 12 -13 -14 -15 15 16 -18 19 -20 -21 -22 22 23 26 -26 -27 28 -29 -30 -31
leaf_value=-0.0032749343652022458 0.050201935164262329 0.0023528216196810493 0.1109672307036202 0.04087635912753642 -0.17650883149874214 -0.10665592360218237 -0.25365093717277104 0.026407534346305651 -0.14727507507217899 0.086853884751225074 0.032349762630440246 -0.014695413213506897 -0.23737948609323634 -0.15131524910410554 0.12600885991733912 -0.18128845574224148 0.025562984020478581 -0.082112517502197335 -0.09194087635940329 0.10386691477608859 -0.044123507349252224 -0.16627523473889019 0.15540000956116282 -0.23377503139053146 0.080229500315150276 -0.2228821594853817 -0.22330647072488527 -0.2213650668345496 0.029473302274149404 0.043182427514914745
leaf_weight=6078.4900464891689 103.70601556636393 1082.7797988925595 17.34769190615043 223.83533128001727 4.0934440186247256 5.1327618723735204 4.3372767092660096 85.883365248795599 5.8604522924870279 6.6365638561546785 2.6681360322982073 24.200103524606675 2.3150271205231547 4.0787886418402186 21.664996813051406 4.5371020399034006 7.4988768100738525 5.0881366138346475 11.210852334508671 4.7477925233542919 17.417528631165624 5.2828564173541954 1.5450281985104073 1.3552197488024855 33.879433223046362 2.8717897869646549 2.8793008998036376 6.6398926386609665 56.810771913733333 12.233030750416217
leaf_count=136353 614 5429 39 1062 57 107 70 415 33 18 13 126 36 17 42 28 27 28 4676 13 143 68 3 30 123 56 36 84 257 70
internal_value=-0.000167592 0.0105661 0.0289177 0.00724539 0.0217608 0.026792 0.028858 0.00388019 -0.0847976 -0.0429008 0.00974076 -0.0381062 -0.0929583 -0.00315775 -0.00305922 0.0499459 -0.0524121 0.0890552 -0.00343816 0.00765956 0.023099 0.0282523 0.00982028 0.0176898 0.0605322 -0.0905569 -0.00284003 -0.0622106 0.0172798 0.0155602
internal_weight=7847.03 1709.71 261.969 1447.74 364.962 336.669 331.536 107.701 21.8175 17.4802 11.6197 28.2935 4.98316 6137.32 6133.24 43.5369 12.036 31.5009 6089.7 9.83593 244.621 227.203 123.497 118.214 38.2963 4.41682 79.9182 20.2281 59.6901 13.5883
internal_count=150073 8889 1523 7366 1937 1754 1647 585 170 100 67 183 49 141184 141167 138 55 83 141029 41 1484 1341 727 659 182 59 477 184 293 100
is_linear=0
shrinkage=0.1


Tree=28
num_leaves=31
num_cat=0
split_feature=28 16 22 16 4 3 3 3 21 50 16 4 21 4 50 21 16 6 1 21 1 15 16 15 15 21 3 3 3 5
split_gain=30.856 12.7707 12.103 11.5002 10.432 9.86031 11.75 8.26327 8.62438 7.67367 7.56554 7.41703 13.0554 10.8864 9.81539 9.24168 13.9267 13.8651 14.7616 8.70427 11.981 15.7251 14.2868 8.18937 25.2982 7.38739 7.28676 16.5277 7.44603 13.127
threshold=0.089462526142597212 0.13929457962512973 36.750000000000007 0.71149519085884105 0.99849998950958263 0.7939470410346986 0.78681132197380077 0.93437001109123241 15.750000000000002 23.500000000000004 0.97577556967735302 0.99435549974441539 20.750000000000004 0.99518248438835155 119.50000000000001 95.250000000000014 0.98952054977417003 0.093480154871940627 0.97955551743507396 109.25000000000001 0.98448050022125255 1.0174173116683962 0.84796792268753063 1.0749590396881106 1.2000450491905215 126.25000000000001 0.86114266514778148 0.86164560914039623 0.88289400935173046 0.59349200129508983
decision_type=2 2 2 2 2 2 2 2 2 2 2 2 2 2 2 2 2 2 2 2 2 2 2 2 2 2 2 2 2 2
left_child=1 -1 4 -3 -2 6 -4 11 -9 10 -6 14 13 -13 19 -14 17 -17 -19 -5 22 -22 -21 -18 -25 -16 -7 -28 -29 -30
