tree
version=v4
num_class=1
num_tree_per_iteration=1
label_index=0
max_feature_idx=50
objective=lambdarank
feature_names=Column_0 Column_1 Column_2 Column_3 Column_4 Column_5 Column_6 Column_7 Column_8 Column_9 Column_10 Column_11 Column_12 Column_13 Column_14 Column_15 Column_16 Column_17 Column_18 Column_19 Column_20 Column_21 Column_22 Column_23 Column_24 Column_25 Column_26 Column_27 Column_28 Column_29 Column_30 Column_31 Column_32 Column_33 Column_34 Column_35 Column_36 Column_37 Column_38 Column_39 Column_40 Column_41 Column_42 Column_43 Column_44 Column_45 Column_46 Column_47 Column_48 Column_49 Column_50
feature_infos=[0.030851000919938087:0.99990397691726685] [0.030851000919938087:0.99990397691726685] [0.030851000919938087:0.99990397691726685] [0.05394899845123291:0.9903789758682251] [0.053998999297618866:0.99990397691726685] [0.030851000919938087:0.97807997465133667] [7.0710681029595435e-05:0.34338095784187317] [0.05394899845123291:0.9903789758682251] [0.053998999297618866:0.99990397691726685] [0.030851000919938087:0.97807997465133667] [7.0710681029595435e-05:0.34338095784187317] [0.05394899845123291:0.9903789758682251] [0.053998999297618866:0.99990397691726685] [0.030851000919938087:0.97807997465133667] [7.0710681029595435e-05:0.34338095784187317] [-8.2152194976806641:13.180939674377441] [0:1] [-8.2152194976806641:13.180939674377441] [0:1] [-8.2152194976806641:13.180939674377441] [0:1] [1:278] [1:278] [0.0035971223842352629:1] [0.0035971223842352629:1] [1:278] [1:278] [0.0035971223842352629:1] [0.0035971223842352629:1] [1:278] [1:278] [0.0035971223842352629:1] [0.0035971223842352629:1] none [0.99999970197677612:1] [0.030851000919938087:0.99990397691726685] [0.030851000919938087:0.99990397691726685] none none [1:278] [1:278] none [0.99533343315124512:1.0052183866500854] [-8.2152194976806641:13.180939674377441] [-8.2152194976806641:13.180939674377441] none [0:1] [0:1] [0:1] [0.030851000919938087:0.99990397691726685] [2:278]
tree_sizes=3491 3473 3500 3456 3482 3474 3463 3470 3462 3449 3457 3424 3452 3436 3485 3458 3424 3471 3467 3431 3471 3443 3444 3460 3442 3472 3467 3436 3437 3448 3436 3446 3456 3436 3461 3407 3413 3436 3436 3405 3428 3436 3469 3443 3442 3429 3464 3461 3472 3427 3387 3483 3411 3418 3428 3405 3423 3461 3425 3451 3437 3488 3443 3458 3422 3432 3425 3428 3447 3416 3434 3452 3441 3463 3442 3412 3463 3429 3428 3444 3408 3447 3442 3430 3409 3432 3417 3469 3440 3442 3394 3424

Tree=0
num_leaves=31
num_cat=0
split_feature=23 24 23 0 0 4 17 23 24 4 48 3 21 4 48 3 23 6 4 4 0 4 0 17 0 48 17 22 0 0
split_gain=1371.66 287.291 90.4085 85.466 48.2274 27.9642 24.1539 21.5508 21.08 17.5669 16.6278 14.9674 20.7758 14.8506 16.865 14.1285 14.2716 13.0199 12.8942 11.5622 10.8885 12.9742 11.9005 10.6169 9.31145 9.08296 9.05728 8.76891 8.4559 12.8379
threshold=0.51225519180297863 0.27290982007980352 0.29551051557064062 0.9722380042076112 0.34883949160575872 0.99385598301887523 -0.56069374084472645 0.95463120937347423 0.31827457249164587 0.97792950272560131 0.018627196550369266 0.84585106372833263 47.250000000000007 0.99129748344421398 0.63114708662033092 0.85864135622978222 0.29636949300765997 0.17927072197198871 0.99435350298881542 0.99629250168800365 0.92220398783683788 0.95709300041198742 0.83626899123191845 -0.28292617201805109 0.9157100021839143 0.93036413192749035 -0.085809826850891099 238.50000000000003 0.84047749638557445 0.82642850279808056
decision_type=2 2 2 2 2 2 2 2 2 2 2 2 2 2 2 2 2 2 2 2 2 2 2 2 2 2 2 2 2 2
left_child=2 3 4 -2 -1 10 9 -5 -3 28 -4 12 -10 17 -15 16 -7 26 -9 24 21 -12 23 -23 27 -22 -8 -11 29 -6
right_child=1 8 5 7 6 15 13 18 11 19 20 -13 -14 14 -16 -17 -18 -19 -20 -21 25 22 -24 -25 -26 -27 -28 -29 -30 -31
leaf_value=-0.027552587324790902 0.046262172303758953 0.032473873130239944 0.035919590369084452 0.077027936113826134 -0.079898322729218652 0.18087193809855051 -0.061340148133204743 0.098906669131062733 -0.01145210736692398 -0.12726854671971596 -0.0084333658855096257 0.004565061802985825 -0.102701172059112 -0.018456055649546901 -0.14045680383461503 -0.077816988294576395 -0.18576400955795769 -0.15475307425873341 0.13768633382427861 -0.18155394205446365 -0.0070767887915323888 -0.16189619208270722 -0.05113288069067249 -0.071653091931836332 -0.020577862397683833 -0.082093917896422494 0.015522459142170805 0.089414895703878838 -0.1734238308314866 0.098673644431079566
leaf_weight=83.978521750832442 684.24184516731475 230.476268001672 26.554754700977355 388.06886446393037 79.158072739141062 1.1203604293987179 107.5305338264443 313.92265768838115 127.3583941773104 346.78527056170424 59.494310534035321 734.19124323407596 31.031289230100811 14.112178928102365 57.490802472602809 110.90049086450017 20.277696734236088 13.211199724464675 117.95812145323725 38.053897852485534 104.71581691942993 18.626664117036853 341.32895388727775 43.440538728318643 8.5676150394137931 19.081141250906512 17.880117253807839 1.8777567870565679 8.8874535504728538 4.2416803679661816
leaf_count=3202 22526 6909 235 9277 2841 11 5350 5425 3280 21088 1796 22296 3609 521 4471 5796 2394 321 1760 3339 2157 1059 15974 2875 107 454 395 135 205 69
internal_value=-2.76727e-05 0.0437825 -0.0753888 0.0723558 -0.0991482 -0.0504747 -0.107765 0.0941307 0.00551229 -0.119981 -0.0414792 -0.00144955 -0.0293294 -0.0794307 -0.116412 -0.0921716 -0.166568 -0.0603287 0.109498 -0.129153 -0.0449824 -0.0520277 -0.0584571 -0.0987355 -0.123571 -0.0186394 -0.0503816 -0.126102 -0.0806975 -0.0708162
internal_weight=4154.56 2627.25 1527.32 1504.19 781.775 745.541 697.797 819.95 1123.06 487.572 613.242 892.581 158.39 210.225 71.603 132.299 21.3981 138.622 431.881 395.285 586.687 462.89 403.396 62.0672 357.231 123.797 125.411 348.663 92.2872 83.3998
internal_count=149877 75082 74795 38988 42044 32751 38842 16462 36094 27784 24550 29185 6889 11058 4992 8201 2405 6066 7185 24669 24315 21704 19908 3934 21330 2611 5745 21223 3115 2910
is_linear=0
shrinkage=0.1


Tree=1
num_leaves=31
num_cat=0
split_feature=0 8 0 8 16 24 24 21 15 21 16 8 3 0 15 8 15 21 23 15 0 0 6 8 24 9 8 6 0 8
split_gain=348.572 187.086 130.234 65.1199 88.1191 48.459 42.9762 41.0079 36.8062 35.3756 48.5006 41.0341 34.3942 33.8283 31.4308 27.9237 31.4289 30.2659 28.3595 27.3321 26.4368 28.0356 25.9399 25.2749 23.847 23.2303 22.7171 23.4547 22.6763 22.4081
threshold=0.93339148163795482 0.99379101395607006 0.99539950489997875 0.97660148143768322 0.79334130883216869 0.26835687458515173 0.48578166961669927 5.7500000000000009 0.7564508616924287 8.7500000000000018 0.99999985098838817 0.96389850974082958 0.82762423157691967 0.91863951086997997 0.64987298846244823 0.96808001399040233 1.1481570005416872 28.750000000000004 0.96304830908775341 0.31911313533782965 0.9745135009288789 0.9927630126476289 0.08742686361074449 0.99740600585937511 0.1957281827926636 0.87790748476982128 0.99272099137306224 0.096453830599784865 0.91923150420188915 0.98492050170898449
decision_type=2 2 2 2 2 2 2 2 2 2 2 2 2 2 2 2 2 2 2 2 2 2 2 2 2 2 2 2 2 2
left_child=1 3 6 5 -5 12 9 28 -3 10 11 -2 13 -1 19 17 18 -11 20 -13 23 25 -6 24 29 -22 27 -12 -7 -17
right_child=2 8 -4 4 22 7 -8 -9 -10 15 26 14 -14 -15 -16 16 -18 -19 -20 -21 21 -23 -24 -25 -26 -27 -28 -29 -30 -31
leaf_value=-0.030380750654153382 0.099140626314415267 -0.091798987613627495 0.078359720255419915 -0.049163363678286866 0.0450814332000435 -0.013916910923720211 -0.012305769470394566 0.03093940510376364 0.063203772672576417 -0.037697303512342822 0.020358073987512808 0.097663091735148935 -0.11311356127317258 0.062640214820931323 0.034343127642989559 -0.023589376935754736 0.032525727688127989 0.046734313719292056 -0.0042212270164662547 -0.029918251836871641 0.027606219232311904 -0.051497852043774564 -0.011224566253621346 -0.057458226689153992 0.016195197258435847 -0.20387337424185362 0.13172825195980367 0.081577591415143813 0.049507289077992352 0.0078679138111664906
leaf_weight=344.80167934496421 49.931177735328674 412.62131852912717 292.96221971698105 978.87454065529164 91.726724358508363 549.33906100585591 750.4151063777972 512.17209007265046 15.910120846237986 216.38832243625075 115.96059459447861 18.151212483644485 44.00083950906992 44.094326762948185 185.32000734098256 354.6855790730915 651.34444138873369 52.819868339924142 1207.2359002981102 224.21978248283267 1366.251663479954 47.220038346946239 757.57034038670827 58.802367354743183 1644.1811032894766 4.3492110930383197 43.403202190995216 135.95419728010893 62.818081181496382 626.29311527661048
leaf_count=2064 83 22887 718 34341 1556 3808 3609 9579 158 642 210 42 264 203 473 2462 2451 253 4214 774 8007 263 22519 1504 19315 27 59 189 167 7197
internal_value=0.00110748 -0.023793 0.0129109 -0.0159131 -0.0287134 -0.000885676 0.0104377 0.0100604 -0.0860442 0.012875 0.0330531 0.013356 -0.0293149 -0.0198337 0.00334098 0.0103714 0.0117943 -0.0211314 0.00925078 -0.0203637 0.0132159 0.0242616 -0.00514334 0.00738087 0.00883323 0.0268717 0.0649096 0.0533972 -0.00740847 -0.00350588
internal_weight=11859.8 3813.93 8045.89 3385.4 1828.17 1557.23 7752.93 1124.33 428.531 7002.51 772.94 477.622 432.897 388.896 427.691 6229.57 5960.36 269.208 5309.02 242.371 4101.78 1417.82 849.297 2683.96 2625.16 1370.6 295.318 251.915 612.157 980.979
internal_count=150038 97546 52492 74501 58416 16085 51774 13554 23045 48165 1830 1372 2531 2267 1289 46335 45440 895 42989 816 38775 8297 24075 30478 28974 8034 458 399 3975 9659
is_linear=0
shrinkage=0.1


Tree=2
num_leaves=31
num_cat=0
split_feature=23 23 12 21 12 24 0 50 15 16 23 0 23 16 0 24 12 16 12 10 15 22 5 23 12 22 22 0 50 7
split_gain=273.314 122.52 83.0645 57.9076 45.5168 37.7536 36.0487 34.03 32.3861 35.5731 45.5104 40.2284 33.4221 32.7872 40.3324 34.8725 38.4596 40.3226 29.6085 31.4592 29.2206 28.5146 28.2348 26.1149 24.8923 27.4221 33.8834 29.4778 27.8608 24.1872
threshold=0.41164366900920873 0.95841193199157726 0.99350848793983471 3.7500000000000004 0.96200048923492443 0.73815757036209118 0.070880502462387099 8.5000000000000018 0.99975547194480907 0.12839266657829287 0.77652570605278026 0.092441998422145857 0.94234725832939159 0.84461358189582836 0.97554150223732006 0.28007781505584722 0.99379101395607006 0.9872550666332246 0.99579048156738292 0.21289091557264331 -0.30154503881931299 22.750000000000004 0.24853750318288806 0.60881710052490245 0.99502101540565502 7.7500000000000009 11.750000000000002 0.94206249713897716 12.500000000000002 0.86739721894264232
decision_type=2 2 2 2 2 2 2 2 2 2 2 2 2 2 2 2 2 2 2 2 2 2 2 2 2 2 2 2 2 2
left_child=2 6 4 -3 5 -1 23 -7 9 10 11 -8 -10 24 21 16 22 -18 19 -5 -4 -15 -16 -2 25 27 -27 28 -11 -22
right_child=1 3 20 18 -6 7 8 -9 12 13 -12 -13 -14 14 15 -17 17 -19 -20 -21 29 -23 -24 -25 -26 26 -28 -29 -30 -31
leaf_value=-0.04187196668865973 -0.099062158297667624 -0.026082290658369818 -0.11648219200162975 0.023751953274158178 -0.037743350808086523 -0.035548963579140974 -0.081061691652759491 0.061642663497051366 0.03559071039015399 -0.03238277617914339 0.13052880061742622 0.036651590800709746 -0.01734623024651849 0.010751953721307541 0.0020293943753961737 0.033181532757385647 -0.014161575106282995 0.051754239451973674 0.059643033075321976 0.084621039509174253 -0.16058939448300802 -0.013941928497654353 -0.04236947186035922 0.10610754205235746 -0.065564631188090125 0.030440223371346393 -0.015837145401145749 0.00080474889119022057 -0.10272789073466543 -0.019012104304820959
leaf_weight=99.076813177205622 54.291547314962372 190.40419828891754 160.68881583411712 1792.2434165796731 1029.0644981321529 49.676803936250508 34.847116507356986 131.09029218507931 490.72555511281826 271.92488194257021 42.503578660544008 173.98595122527331 157.55911629041657 3107.7342611505883 188.13159810239449 146.35466356459074 322.80814806977287 130.25020000338554 317.65136423963122 89.13188074529171 14.611933625186792 550.43815588514553 600.15728092193604 7.0042238822206846 94.607556227012537 249.13630136707798 433.53439098771196 207.48604139685631 71.003507044166327 69.282066881249193
leaf_count=1085 589 240 11798 7062 38813 216 690 2555 3444 1003 465 238 1058 27246 705 570 2196 722 1028 159 1795 22955 2055 22 3053 1834 11926 851 532 3229
internal_value=0.000934142 0.00715657 -0.0380145 0.0268228 -0.0280188 0.00774094 0.0007497 0.0349333 0.0013933 -0.000694125 0.0362066 0.0170093 0.0227249 -0.00214928 0.00152982 -0.012986 -0.0184292 0.00478863 0.0314036 0.0266357 -0.0915073 0.00703631 -0.0317733 -0.0756176 -0.0161316 -0.0123389 0.00105148 -0.0289468 -0.0469478 -0.0436708
internal_weight=11277.4 9723.91 1553.49 2389.43 1308.91 279.844 7334.48 180.767 7273.19 6624.9 251.337 208.833 648.285 6373.57 5045.87 1387.7 1241.35 453.058 2199.03 1881.38 244.583 3658.17 788.289 61.2958 1327.69 1233.09 682.671 550.414 342.928 83.894
internal_count=150134 90643 59491 8489 42669 3856 82154 2771 81543 77041 1393 928 4502 75648 56449 6248 5678 2918 8249 7221 16822 50201 2760 611 19199 16146 13760 2386 1535 5024
is_linear=0
shrinkage=0.1


Tree=3
num_leaves=31
num_cat=0
split_feature=31 0 15 4 4 6 31 0 15 4 21 3 3 4 22 0 0 0 0 6 4 4 21 9 21 9 15 15 15 16
split_gain=180.276 69.5276 44.0737 43.1049 36.8435 34.3139 37.3578 30.3787 26.8313 33.7169 28.3989 22.7981 25.397 22.3554 21.6488 20.8624 22.5761 20.7026 19.4319 28.705 19.4104 23.9444 18.8004 18.4582 18.2816 29.2013 32.039 23.8499 23.1934 19.2431
threshold=0.30019763112068182 0.99468901753425609 0.57001152634620678 0.99335598945617687 0.99182298779487621 0.20866369456052783 0.96007245779037487 0.95577850937843334 1.19066458940506 0.99317049980163585 9.7500000000000018 0.076185397803783431 0.6181645691394807 0.98802351951599132 6.2500000000000009 0.98609748482704174 0.98737150430679332 0.84534949064254772 0.98394349217414867 0.10591001808643342 0.99322298169136058 0.99331650137901317 84.750000000000014 0.037999499589204795 16.750000000000004 0.70945799350738536 0.98000502586364757 0.66754609346389782 0.61316031217575084 0.92148032784461986
decision_type=2 2 2 2 2 2 2 2 2 2 2 2 2 2 2 2 2 2 2 2 2 2 2 2 2 2 2 2 2 2
left_child=4 2 3 -2 14 6 7 13 9 24 -11 -10 -13 22 -1 18 -17 -5 19 -12 -18 -22 -4 -16 -8 27 -27 28 -26 -29
right_child=1 -3 5 17 -6 -7 8 -9 11 10 15 12 -14 -15 23 16 20 -19 -20 -21 21 -23 -24 -25 25 26 -28 29 -30 -31
leaf_value=-0.088549436653613534 -0.0019348855520528779 0.047821288018032204 0.012935507758720231 -0.14118060337220537 -0.075742245288174595 0.067359187125507633 -0.0031108407941297139 0.018516418589502925 -0.1771355953931508 0.13313299490955963 0.089928808409472774 0.10358621631816511 0.012363243599996562 -0.0195100646059637 -0.20300807530002796 -0.20820482274204766 0.15144017866741144 -0.030519944632196833 0.1150457168113682 -0.20914614121361949 -0.20759946899775292 0.0029185147903415185 -0.045487704935413209 -0.023522578149551096 -0.0191674079865654 -0.00043855293966391253 -0.18867083587918385 0.1610975982753885 -0.20799027922735519 -0.021568061974434991
leaf_weight=58.147811949253082 2829.4403933350695 354.4715516353026 797.1075285380939 17.563351936638355 229.36465712438803 95.189609486609697 474.80281753838062 2670.9808464716189 6.0205720341764382 20.432835698127747 8.1214330885559303 32.795381418894976 439.7229771297425 409.46451100480044 5.7779320143163195 5.1612130841240278 8.5124485641717893 451.60278092738008 32.05469380505383 5.3058075048029414 5.546671397984027 208.41720821289346 59.168850540416315 686.32480675564148 12.493613578844817 14.995917752385138 22.777149237692356 5.8180403723381451 13.571436916477976 659.28999035456218
leaf_count=406 43820 996 6194 2022 17881 227 930 21294 45 32 21 181 1418 8520 205 54 10 14536 74 41 31 952 1891 24843 33 37 122 41 68 2969
internal_value=0.000208341 0.0043532 0.00269753 -0.00658979 -0.0406676 0.00779682 0.00683789 0.0124692 -0.00438214 -0.0109701 0.0194174 0.0162309 0.0186946 -0.000291642 -0.0299447 0.01091 -0.00144387 -0.0346626 0.0727413 -0.0282514 0.00335276 -0.00253883 0.00889845 -0.025021 -0.0183805 -0.0283265 -0.113943 -0.0236475 -0.117483 -0.0199702
internal_weight=10640.4 9660.83 9306.36 3298.61 979.615 6007.75 5912.56 3936.72 1975.84 1497.3 293.552 478.539 472.518 1265.74 750.251 273.119 227.638 469.166 45.4819 13.4272 222.476 213.964 856.276 692.103 1203.75 728.946 37.7731 691.173 26.0651 665.108
internal_count=149894 106559 105563 60378 43335 45185 44958 37899 7059 5415 1215 1644 1599 16605 25454 1183 1047 16558 136 62 993 983 8085 25048 4200 3270 159 3111 101 3010
is_linear=0
shrinkage=0.1


Tree=4
num_leaves=31
num_cat=0
split_feature=16 4 1 27 1 27 15 27 4 1 3 16 1 6 4 4 27 16 6 9 4 27 16 9 1 3 3 27 6 21
split_gain=135.313 71.5613 62.3894 37.4327 24.8389 23.888 22.3096 20.986 19.9043 19.7582 23.9326 19.4964 18.3151 27.3111 20.8109 18.1128 18.4489 16.5687 16.4714 15.9939 15.653 15.1776 17.0554 15.0226 14.8553 14.5107 28.8892 15.7134 15.3827 19.5562
threshold=0.88800159096717846 0.99465599656105053 0.99301350116729747 0.2904126793146134 0.90989100933074962 0.70243015885353099 -0.29210317134857172 0.70738193392753612 0.99314099550247203 0.96446350216865551 0.96905910968780529 0.88146764039993297 0.97856450080871593 0.22004952281713488 0.99335399270057689 0.98089948296546947 0.046745780855417259 0.12839266657829287 0.23999219387769702 0.65721249580383312 0.978714019060135 0.46070358157157904 0.90925106406211864 0.64441901445388805 0.868656486272812 0.94261032342910778 0.9614987075328828 0.81801283359527599 0.09382138773798944 42.750000000000007
decision_type=2 2 2 2 2 2 2 2 2 2 2 2 2 2 2 2 2 2 2 2 2 2 2 2 2 2 2 2 2 2
left_child=1 3 12 15 -3 9 -7 -8 -4 11 -11 17 14 20 21 16 -1 -5 -19 23 -14 -2 -23 -16 -17 28 27 -27 -9 -30
right_child=2 4 8 5 -6 6 7 25 -10 10 -12 -13 13 -15 19 24 -18 18 -20 -21 -22 22 -24 -25 -26 26 -28 -29 29 -31
leaf_value=0.069243810668012454 -0.040818501708125128 -0.087939582428506441 -0.11525019888585729 0.028112719359163832 -0.030862043257995395 0.163816855260003 -0.17201008002741072 -0.0082266441824393934 0.042642352674948626 0.092602825078619166 -0.094065766268899842 -0.070228202826311592 0.15209249711413508 0.078449039184912306 -0.020691062171875059 -0.056266478278016278 -0.021521198858209523 -0.0028600715288431351 -0.15322934396669585 0.027602978753623893 0.010045451656178912 0.024062402443420713 0.0025098571366835749 -0.20081849459086093 -0.0051305043158176517 -0.1976173324607462 0.067221328271076616 -0.010156905053260307 -0.068768390348016836 0.013711281458395123
leaf_weight=24.207416588440537 73.910125783877447 171.49855694628786 8.1044744988903386 185.8462382114958 137.26924395537935 6.281833052635192 9.6333745769225043 369.30659909197129 537.39624100807123 41.928839039523154 8.213739622384308 40.490298629971221 7.7849819362163535 60.850068597123027 514.1313696061261 310.82515260379296 298.94801124604419 1418.1666708762059 7.3223124258220187 73.253982041031122 2213.7767737598624 414.12411006493494 3238.2732872255147 4.6721154237166038 69.516163812368177 16.799637869000442 8.602728419005869 6.0932812178507438 106.76078835409135 39.339538182481192
leaf_count=747 1507 14866 33 1519 2933 8 236 3018 1817 143 25 1542 9 137 11199 23766 6553 33262 48 492 10237 5587 26028 103 1947 89 21 30 833 868
internal_value=7.85977e-05 -0.0167468 0.00779416 -0.0119807 -0.0625646 -0.00572189 -0.0235813 -0.0256966 0.0402966 0.00018398 0.0620251 -0.00169326 0.0051081 0.0123536 0.00127858 -0.0321298 -0.014722 2.89151e-05 -0.00363247 -0.0161372 0.0105432 0.0040457 0.00495357 -0.0223132 -0.0469202 -0.0231193 -0.0890124 -0.147722 -0.0190927 -0.0465596
internal_weight=10423.3 3277.05 7146.28 2968.28 308.768 2264.79 562.818 556.536 545.501 1701.97 50.1426 1651.83 6600.78 2282.41 4318.36 703.497 323.155 1611.34 1425.49 592.057 2221.56 3726.31 3652.4 518.803 380.341 546.903 31.4956 22.8929 515.407 146.1
internal_count=149603 92454 57149 74655 17799 41642 5103 5095 1850 36539 168 36371 55299 10383 44916 33013 7300 34829 33310 11794 10246 33122 31615 11302 25713 4859 140 119 4719 1701
is_linear=0
shrinkage=0.1


Tree=5
num_leaves=31
num_cat=0
split_feature=23 4 17 0 24 23 17 17 24 6 50 24 3 23 24 21 4 0 4 0 22 3 16 16 42 16 42 6 3 24
split_gain=81.1044 44.8818 39.881 17.7933 24.2346 22.5444 17.7506 17.2406 18.4317 17.4304 17.427 16.9874 15.8541 20.8047 24.612 20.1185 15.5578 15.4207 23.1687 17.4717 17.4399 14.0036 19.2496 20.0359 15.3247 13.9212 13.9036 13.5016 13.3602 32.1701
threshold=0.38826659321784979 0.99321049451828014 0.78730043768882763 0.99468901753425609 0.040363309904932983 0.95443007349967968 1.2896473407745364 -0.59836941957473744 0.76108655333518993 0.19653870165348056 120.50000000000001 0.017021585255861286 0.90845516324043285 0.99024364352226268 0.027833112515509132 37.750000000000007 0.9830324947834016 0.97698500752449047 0.99493297934532177 0.92295649647712719 5.7500000000000009 0.93655395507812511 0.97264099121093761 0.97021660208702099 0.9999997913837434 0.99826815724372875 0.99999901652336132 0.2216165438294411 0.83614432811737072 0.22097236663103106
decision_type=2 2 2 2 2 2 2 2 2 2 2 2 2 2 2 2 2 2 2 2 2 2 2 2 2 2 2 2 2 2
left_child=1 7 17 28 6 -6 11 8 -1 10 16 -5 13 14 -13 -15 -9 18 20 -20 21 22 23 24 -2 -16 -3 -19 -4 -30
right_child=2 26 3 4 5 -7 -8 9 -10 -11 -12 12 -14 15 25 -17 -18 27 19 -21 -22 -23 -24 -25 -26 -27 -28 -29 29 -31
leaf_value=-0.1553025362063879 -0.17539309790151703 0.13987389581295909 0.021334689453316819 0.038149721186473175 -0.077087132827195842 0.079036722362520934 0.096066818102937851 0.024474427713077566 -0.026246854178835918 -0.082459860496596704 -0.094834350731902148 0.078431068542151913 0.050029524691063698 -0.037653785647357219 -0.16279319572883411 -0.18898179915889146 -0.014099904324020727 0.0063806714172772588 -0.078798063676935662 -0.019593059491895992 0.0016813220418427381 0.010845857136737363 0.0011104271596595072 -0.12905144635925167 -0.021643262965771147 0.014920379457699074 -0.071620529344159689 0.055243543467528237 0.00176891575834351 0.033689112891855548
leaf_weight=11.325986278243361 6.5374978967010966 3.158172173658385 663.98030539241154 63.003959178924561 10.03566625760868 118.00744866207242 20.966808708384633 223.60886755376123 483.07612769352272 25.65992616629228 17.70839095080737 19.665107090957463 19.893081702291965 19.58847957663238 9.9109450578689593 15.929587321355937 196.38144888344686 667.359697726788 62.706646616221406 243.00948744209018 2615.3771836366504 226.17656516470015 419.19742500944994 18.205303380265832 775.01288511324674 7.9387601613998404 196.98132221086416 61.784572305157781 2603.2155056445627 359.31430437136441
leaf_count=422 39 76 5409 218 104 271 46 4733 19793 392 3250 68 42 47 44 78 10024 2675 4872 5885 50088 681 1362 117 3276 28 17337 165 16612 1741
internal_value=-0.000298443 -0.0252145 0.00289762 0.0104647 0.0336648 0.0668002 0.00968038 -0.0162146 -0.0292033 -0.00235571 0.00234037 -0.0019354 -0.0291132 -0.0506705 0.00126271 -0.105523 0.00643762 -0.00294092 -0.00518903 -0.0317368 -0.00319024 -0.0120067 -0.016247 -0.0253451 -0.0229293 -0.0837541 -0.0682832 0.0105211 0.00851388 0.0056404
internal_weight=10184.7 1157.9 9026.82 3931.45 304.94 128.043 176.897 957.761 494.402 463.359 437.699 155.93 92.926 73.0329 37.5148 35.5181 419.99 5095.37 4366.22 305.716 4060.51 1445.13 1218.95 799.756 781.55 17.8497 200.139 729.144 3626.51 2962.53
internal_count=149895 56027 93868 24708 946 375 571 38614 20215 18399 18007 525 307 265 140 125 14757 69160 66320 10757 55563 5475 4794 3432 3315 72 17413 2840 23762 18353
is_linear=0
shrinkage=0.1


Tree=6
num_leaves=31
num_cat=0
split_feature=23 1 4 23 4 6 15 4 5 21 15 4 23 15 6 5 24 24 16 6 11 4 15 21 22 16 15 15 23 1
split_gain=100.165 80.1516 40.121 29.4543 28.3311 22.8421 21.064 18.1583 15.7986 15.0015 14.3458 18.1154 17.7029 16.5621 16.3247 14.0728 18.3507 17.9385 16.5005 15.5754 20.7031 18.1206 20.4591 16.6396 14.1806 13.1366 13.7835 13.0541 17.3774 15.2177
threshold=0.45954339206218725 0.99581098556518566 0.99578499794006359 0.88410216569900524 0.99321049451828014 0.20661526918411258 1.1369937062263491 0.99848198890686046 0.44455349445343023 7.7500000000000009 -0.33419102430343622 0.9842284917831422 0.052730884402990348 -1.3210409283637998 0.19336593151092532 0.78034850955009472 0.39027500152587896 0.23339818418025973 0.84003889560699474 0.059158314019441612 0.91184619069099437 0.9846944808959962 0.85555168986320507 12.750000000000002 10.750000000000002 0.87562835216522228 0.67470136284828197 0.7246588170528413 0.86581274867057811 0.9648135006427766
decision_type=2 2 2 2 2 2 2 2 2 2 2 2 2 2 2 2 2 2 2 2 2 2 2 2 2 2 2 2 2 2
left_child=2 3 10 6 5 -5 7 15 -7 -6 11 12 13 -1 -12 27 17 25 -18 20 -19 22 23 -22 -25 26 -17 28 -2 -29
right_child=1 -3 -4 4 9 8 -8 -9 -10 -11 14 -13 -14 -15 -16 16 18 19 -20 -21 21 -23 -24 24 -26 -27 -28 29 -30 -31
leaf_value=0.063932838530107797 -0.0068749980224644307 0.068533935409856181 -0.087186905718459343 0.0021303357165375616 0.096829507413827301 0.056162555095427648 -0.11751739725812471 -0.072254386162117504 -0.079265440203017123 0.022294016805846431 -0.0059144748856650997 -0.048710767341477723 -0.023706949758276006 -0.15135762940523254 -0.072628916253757336 0.098753685010707346 0.012732521534580349 -0.19589027438644613 0.05960362513160964 0.024566156832062737 0.11086003282687072 -0.057190492529095117 -0.14642210205005443 -0.20139599527111735 0.10614153329183421 0.071954936812982331 -0.20157587562785595 0.014281838051185276 -0.059986584635417839 -0.008738851092666788
leaf_weight=39.180406044819392 2766.6756885218783 185.73492346145213 96.533033592044376 2778.7051935138879 27.91624328494072 114.71205634437501 16.058424006681889 37.329176365397871 9.3132770061492902 825.26617949432693 618.0640181923518 305.22987602115609 341.4308498048922 3.9318464137613764 38.991943362168968 2.5130219757556906 294.56232893373817 8.3822857141494733 100.81369094178081 44.857433915138245 20.343718837015338 85.716919232625514 5.3987101614475241 3.6813603546470395 2.5295774713158607 34.610744412988424 3.8991902722045779 674.62569047813304 63.006663390435278 499.95560900878627
leaf_count=1133 46971 561 9071 13478 65 263 113 1159 13 5102 22962 24217 8669 166 588 7 1318 61 299 141 57 439 24 37 19 114 45 8176 525 4263
internal_value=-0.000533234 0.0035551 -0.0249115 0.0021219 0.00871306 0.00400446 -0.00318487 -0.00278993 0.045993 0.0247328 -0.020448 -0.0305209 -0.0160827 0.0442983 -0.00987354 -0.00222764 0.0119571 -0.0117855 0.0246838 -0.026039 -0.0440475 -0.033231 0.031042 0.0671215 -0.0761428 0.0475978 -0.0838732 -0.00437898 -0.0080576 0.00448318
internal_weight=10050 8606.61 1443.36 8420.87 3755.91 2902.73 4664.96 4648.9 124.025 853.182 1346.83 689.773 384.543 43.1123 657.056 4611.57 607.309 211.933 395.376 170.91 126.053 117.67 31.9534 26.5547 6.21094 41.023 6.41221 4004.26 2829.68 1174.58
internal_count=150056 83250 66806 82689 18921 13754 63768 63655 276 5167 57735 34185 9968 1299 23550 62496 2561 944 1617 778 637 576 137 113 56 166 52 59935 47496 12439
is_linear=0
shrinkage=0.1


Tree=7
num_leaves=31
num_cat=0
split_feature=0 23 8 0 15 6 24 8 15 24 7 22 15 16 23 22 15 16 15 15 6 5 21 6 7 5 16 23 15 8
split_gain=77.2849 59.9784 47.761 28.0083 21.0097 17.6256 17.0081 23.5973 15.0961 15.1572 14.3478 14.3829 14.0057 13.9699 13.8753 14.1526 13.3907 12.288 14.593 11.5796 11.0568 11.3911 10.9485 30.2995 13.1124 28.4752 16.3167 20.5231 19.9483 19.7079
threshold=0.99468901753425609 0.36383573710918432 0.99385598301887523 0.34883949160575872 -1.7654463648796079 0.17927072197198871 0.36383573710918432 0.99550700187683117 -1.254948556423187 0.92871257662773143 0.85548225045204174 66.750000000000014 -0.70710667967796315 0.92372477054595958 0.35596610605716711 100.75000000000001 -0.042185701429843896 0.99378660321235668 0.61173549294471752 -0.27056294679641718 0.20272386819124225 0.25372149050235754 10.500000000000002 0.02838094532489777 0.93492534756660473 0.82793447375297557 0.94999757409095775 0.87468594312667858 0.65269491076469432 0.99012050032615673
decision_type=2 2 2 2 2 2 2 2 2 2 2 2 2 2 2 2 2 2 2 2 2 2 2 2 2 2 2 2 2 2
left_child=1 2 3 8 -5 14 16 12 10 19 11 20 -8 -7 15 -6 -3 -2 -19 -10 -1 -22 23 -18 26 -26 27 28 -25 -29
right_child=17 6 -4 4 5 13 7 -9 9 -11 -12 -13 -14 -15 -16 -17 22 18 -20 -21 21 -23 -24 24 25 -27 -28 29 -30 -31
leaf_value=0.1206214677578382 -0.095887421784871044 0.08067956037921542 -0.081949005701153085 -0.073616215839933871 -0.0097274346850529173 -0.11585273124999268 0.0523549323423134 -0.046777685791017543 0.017639328313132415 -0.115669274613074 -0.023481257657369071 -0.13291404244072988 -0.0052833349658101859 0.096094993261763961 -0.090321512527963083 -0.11427251500740082 -0.05994581110179889 -0.14321122856378271 0.057236239022209368 -0.19556806761248524 0.091416460074525641 -0.067352857607691899 0.0013280257652301545 -0.036937935037307412 -0.16761305574865643 0.0035674630796137478 0.034149083392896358 -0.14961810500134215 0.037766444936185452 0.072014918805099956
leaf_weight=36.852019667392597 5.5440985392779103 22.273319705622271 130.36775787395891 80.189353999565355 551.56895752705168 27.895788040012125 42.972718290053308 138.03172799840104 62.257853479823098 11.494489107513798 18.671704761334695 3.0869053670903659 2224.2529866994591 3.4999971613287917 23.677292285254225 13.260046610143034 52.378408016636968 3.6821191841736427 266.74343756493181 2.6560236625373355 10.993863772600891 7.6726544764824203 5298.2180200929288 55.562584092840552 10.580568440258501 119.14330935850739 471.66568243131042 15.884224969893696 100.21782167628407 5.3679400235414496
leaf_count=242 49 222 13390 4821 24974 780 106 6534 1266 362 810 302 38135 38 941 4386 149 22 905 81 70 75 48885 291 52 321 1187 65 309 14
internal_value=-0.000684872 -0.00219393 -0.025573 -0.0169647 -0.0254508 -0.0192202 0.00049505 -0.00663482 0.0216927 -0.00982623 0.0528573 0.0771788 -0.00419087 -0.0922248 -0.0153255 -0.0121818 0.00328295 0.0514856 0.0545069 0.00891571 0.0888602 0.0261562 0.00300168 0.013675 0.0186288 -0.0103944 0.0244327 -0.00145449 0.0111214 -0.0936373
internal_weight=9816.66 9540.69 984.145 853.777 700.091 619.902 8556.55 2405.26 153.686 76.4084 77.2771 58.6054 2267.23 31.3958 588.506 564.829 6151.29 275.97 270.426 64.9139 55.5185 18.6665 6129.02 830.801 778.422 129.724 648.698 177.033 155.78 21.2522
internal_count=149784 148808 52538 39148 35940 31119 96270 44775 3208 1709 1499 689 38241 818 30301 29360 51495 976 927 1347 387 145 51273 2388 2239 373 1866 679 600 79
is_linear=0
shrinkage=0.1


Tree=8
num_leaves=31
num_cat=0
split_feature=0 28 4 3 16 3 16 15 21 3 15 0 3 15 15 4 15 15 3 21 50 3 15 9 15 15 50 15 15 9
split_gain=70.0933 40.2621 44.2849 22.1595 16.3455 14.7766 22.8075 14.3585 14.0806 19.5957 16.8218 15.8431 13.2699 16.0263 23.4885 12.8897 12.5718 12.511 23.6269 12.1805 14.0031 17.0251 15.3984 14.6736 12.0416 11.9848 11.9467 24.353 16.7108 11.6379
threshold=0.99468901753425609 0.32862138748168951 0.99419099092483532 0.92160877585411083 0.89318037033081066 0.8483373522758485 0.018627196550369266 0.76284185051918041 9.7500000000000018 0.92466354370117199 0.86095908284187328 0.98609748482704174 0.93998226523399364 1.109216094017029 1.0417666435241701 0.99357998371124279 0.87933406233787548 -1.3013253211975095 0.85175156593322765 67.250000000000014 87.500000000000014 0.8153708577156068 -0.76471492648124684 0.41837149858474737 -4.9145021438598624 0.6381787657737733 47.500000000000007 -3.0281468629837032 -2.189150214195251 0.37556749582290655
decision_type=2 2 2 2 2 2 2 2 2 2 2 2 2 2 2 2 2 2 2 2 2 2 2 2 2 2 2 2 2 2
left_child=1 8 5 -4 -5 6 26 19 9 11 15 -1 -10 14 -14 -11 -12 18 -7 20 22 -22 23 29 -20 -2 27 -3 -29 -8
right_child=25 2 3 4 -6 17 7 -9 12 10 16 -13 13 -15 -16 -17 -18 -19 24 -21 21 -23 -24 -25 -26 -27 -28 28 -30 -31
leaf_value=0.024781077229177946 -0.083370337045712312 -0.18149934837241613 -0.053828190828903479 -0.024005957456694562 0.069634819901825601 0.10522923645583758 -0.06959552256695456 -0.20152130214163413 0.0032749688824950385 -0.03050699722341918 0.13536658300538287 0.088326713721856367 -0.063648335987154234 -0.13943404828550363 0.13025791191273409 -0.1611834019125778 0.0067938367218982167 0.00043785285045761516 0.094174075676334457 -0.1182448699775845 0.066498106682914462 -0.036748575026687574 -0.021183503275608476 -0.16012958838728794 -0.049798715805112831 0.053683388688722314 0.095939003102330056 0.085685724061874774 -0.0059490231609695323 0.080833053508479136
leaf_weight=329.83275975473225 6.535537250339984 6.2718951008282593 301.95305427792482 67.044884527800605 25.819768932415172 11.756795313442124 29.693175895372406 4.5522687062621108 5262.2943624891341 59.691112416796386 8.3832677304744703 44.531816937029362 23.149262499995533 14.110018052160738 8.55587365105748 8.6409883406013233 81.919544521719217 2279.3954320945777 6.1009201894048593 13.237339462153612 37.506503363023512 27.815915611223318 520.06031350418925 15.43416795064695 121.54205151495989 268.79781521251425 18.912987998570316 28.648536094930023 65.177860081661493 6.2203846252523354
leaf_count=855 31 80 22243 1041 139 319 1380 26 44291 160 14 99 139 61 14 57 201 50008 340 2499 3116 3746 8607 739 7032 990 509 191 408 178
internal_value=0.000695592 -0.000756807 -0.00909565 -0.0406899 0.0020296 -0.00518816 -0.017219 -0.024541 0.00436425 0.0198584 -0.00959699 0.03234 0.00280844 -0.0507771 -0.0113213 -0.0470318 0.0187299 -0.00134071 -0.0304228 -0.0233015 -0.0213276 0.0225331 -0.0263417 -0.0785851 -0.0429173 0.0504302 0.0230497 0.00927769 0.0220303 -0.0435406
internal_weight=9703.59 9428.25 3587.14 394.818 92.8647 3192.33 773.531 654.52 5841.11 532.999 158.635 374.365 5308.11 45.8152 31.7051 68.3321 90.3028 2418.8 139.4 649.968 636.73 65.3224 571.408 51.3477 127.643 275.333 119.011 100.098 93.8264 35.9136
internal_count=149513 148492 102601 23423 1180 79178 21479 20291 45891 1386 432 954 44505 214 153 217 215 57699 7691 20265 17766 6862 10904 2297 7372 1021 1188 679 599 1558
is_linear=0
shrinkage=0.1


Tree=9
num_leaves=31
num_cat=0
split_feature=0 0 4 0 0 5 15 6 4 15 23 22 32 5 15 15 32 32 4 6 3 4 23 23 0 15 23 4 32 3
split_gain=59.8141 45.6053 42.2498 16.0832 14.657 19.5253 16.995 16.8321 16.4671 15.5092 14.0548 14.334 17.3002 14.7014 15.2418 15.5641 15.4419 19.9841 19.0705 19.0479 21.4583 22.8259 17.6173 14.8596 14.6828 14.2811 24.8878 20.5939 21.557 19.8843
threshold=0.99468901753425609 0.93170249462127697 0.99363997578620922 0.92178949713706981 0.2765714973211289 0.1674429997801781 1.4535139799118044 0.071548219770193114 0.965527504682541 -1.5104901194572447 0.034582419320940978 17.750000000000004 0.18737550079822543 0.26220250129699713 1.1764196157455447 0.79201802611351024 0.43734297156333929 0.47731949388980871 0.92339351773262035 0.16032145917415622 0.84900936484336864 0.96407902240753185 0.63531625270843517 0.82936280965805065 0.86134201288223278 0.9221123754978181 0.85300117731094371 0.94070300459861766 0.22201336920261386 0.79823178052902233
decision_type=2 2 2 2 2 2 2 2 2 2 2 2 2 2 2 2 2 2 2 2 2 2 2 2 2 2 2 2 2 2
left_child=1 2 4 -4 8 7 10 -6 9 -1 -7 13 -13 -12 15 16 18 19 -15 20 -18 -22 -20 24 -24 -17 -27 28 -28 -29
right_child=-2 -3 3 -5 5 6 -8 -9 -10 -11 11 12 -14 14 -16 25 17 -19 22 -21 21 -23 23 -25 -26 26 27 29 -30 -31
leaf_value=-0.14657509309263331 0.04742178993132401 0.0032412637287436287 -0.060853355594426367 0.0034947290115635299 0.047461951173897003 -0.11523845532874873 0.082112057642623054 -0.20789003253688856 0.064293899938485888 0.0054146570086058806 -0.054653303865325326 -0.20269246726664295 0.00041027367440260397 0.041579496196855727 -0.127104372715308 0.05163711843161032 0.12188036028510635 -0.01548278349913698 -0.15145849747035578 -0.19320794607720082 -0.20075904778744863 0.034371236966940791 -0.14983051087249663 -0.14368914007382935 -0.026168398681602451 -0.17899465940852921 -0.2075997674521303 0.11458061383404138 0.09299158913253118 -0.095569573478461914
leaf_weight=6.8635234134271732 259.64884312171489 6611.8600370443892 223.37193623487838 47.017720721079968 3.6116865035146466 12.945895146636756 19.632503778208047 9.0494151171296817 49.232808090164326 307.54283472476527 98.791235705139115 4.2152816937305024 827.3764868194703 25.006358914077282 11.867373719345776 66.522105306386948 26.788219359703362 695.39881904050708 16.076980555895716 3.2872804431244722 4.7282584346830836 32.558493544813246 10.24066246440634 13.326294302009044 153.81579042901285 8.2000117357820255 6.8458847594447416 18.807327143847946 3.6620441973209381 5.9196373056620351
leaf_count=57 1001 52632 22363 1853 21 1561 85 69 1031 4691 1632 207 51245 118 127 403 130 7683 363 44 45 332 167 125 1603 117 74 82 10 66
internal_value=7.99937e-05 -0.00123827 -0.0121566 -0.0496639 -0.00800409 -0.0112442 -0.0104855 -0.135049 0.0105175 0.0020967 -0.0113739 -0.0107126 -0.00061924 -0.0176965 -0.0143866 -0.0131608 -0.0171587 -0.010445 -0.0405993 0.0415613 0.0536058 0.00455484 -0.0512216 -0.0421367 -0.0338876 0.0225161 -0.0220837 0.0144332 -0.102843 0.0642706
internal_weight=9584.21 9324.56 2712.7 270.39 2442.31 2078.67 2066.01 12.6611 363.639 314.406 2046.38 2033.43 831.592 1201.84 1103.05 1091.18 981.227 762.761 218.466 67.3623 64.075 37.2868 193.46 177.383 164.056 109.957 43.4349 35.2349 10.5079 24.727
internal_count=149937 148936 96304 24216 72088 66309 66219 90 5779 4748 66134 64573 51452 13121 11489 11362 10610 8234 2376 551 507 377 2258 1895 1770 752 349 232 84 148
is_linear=0
shrinkage=0.1


Tree=10
num_leaves=31
num_cat=0
split_feature=0 16 8 8 15 8 16 16 10 5 23 0 5 23 15 15 15 8 10 30 21 21 3 8 23 15 15 8 16 15
split_gain=52.148 35.663 35.1488 34.3692 45.7651 33.8099 19.5656 18.9795 17.7764 15.989 15.8945 15.6108 14.6445 16.0554 14.63 14.6519 17.5421 14.5824 19.7423 13.2306 13.0423 18.7008 19.6591 12.5096 12.4659 15.37 12.9699 12.3832 13.3508 12.1646
threshold=0.98923751711845409 0.79334130883216869 0.98964050412178051 0.99147298932075512 1.0946087241172793 0.99363997578620922 0.80102840065956127 0.80462113022804271 0.15621510893106463 0.27234449982643133 0.91583865880966198 0.83454152941703807 0.24257600307464602 0.92010638117790233 1.0564407110214236 1.0454306006431582 0.86831542849540722 0.97845700383186351 0.03771661967039109 10.750000000000002 39.750000000000007 17.750000000000004 0.87140092253685009 0.97923150658607494 0.94234725832939159 0.76284185051918041 0.60313725471496593 0.99280700087547313 0.99319699406623851 0.64262679219245922
decision_type=2 2 2 2 2 2 2 2 2 2 2 2 2 2 2 2 2 2 2 2 2 2 2 2 2 2 2 2 2 2
left_child=1 5 -2 4 20 14 11 -8 10 12 27 -3 -10 -14 15 16 17 24 -19 -16 21 -4 -23 -20 25 26 -1 -5 -29 -25
right_child=2 6 3 8 -6 -7 7 -9 9 -11 -12 -13 13 -15 19 -17 -18 18 23 -21 -22 22 -24 29 -26 -27 -28 28 -30 -31
leaf_value=-0.0041235058755592557 0.10669190772996583 -0.17217757477223064 0.01672606352788011 0.12203115223858439 -0.12808629717055039 -0.057415889149082612 -0.091930354786300336 -0.00025566655811415346 0.00042688513190262419 0.03204821898170216 0.032468806577773471 0.06024918194140412 0.078323064275051951 -0.15658762938354798 -0.15757273029042301 0.16875724433380407 -0.18856283300398372 0.018914036242573068 -0.12514252516750998 0.12546797274350552 0.065109731665807705 0.027121397934003214 -0.14951246303912863 -0.024292327348766352 0.10229951682427957 -0.19585129732457096 0.071256208025064591 -0.016791189658343742 -0.1613489156331144 -0.17559484865206254
leaf_weight=821.54600386251695 45.151011286303401 3.0110165493097147 56.505103468894958 5.3193237837404004 35.029165253043175 176.81955946993548 22.660920014721341 6588.9975286924746 18.732479272410274 29.520795156247914 722.64414084958844 71.723925636149943 3.4492161246016648 18.593356207944453 11.27937692357227 4.5480369301512829 5.5436503153759977 106.4600282763131 12.905393545981495 1.9347986187785853 25.978733662515879 9.9834358096122759 17.083201134577394 597.08923769241665 11.400708424858747 4.1112492098473004 23.478186985012144 42.689953261986375 7.5132922939956179 5.3615177606698117
leaf_count=12580 88 149 104 11 177 15765 960 80598 76 103 3070 1774 20 118 172 7 100 563 453 30 116 28 81 31932 76 81 220 269 56 100
internal_value=-0.000752162 -0.00334528 0.0204007 0.0164773 -0.0285902 -0.0159137 5.24432e-06 -0.000569874 0.0241569 -0.0240021 0.0285073 0.0508849 -0.0645821 -0.119829 -0.0113433 -0.0104738 -0.0109872 -0.010365 -0.0208468 -0.11613 0.00322399 -0.0160135 -0.0843617 -0.0277257 -0.00157296 -0.00296758 -0.00202915 -0.0230528 -0.0384253 -0.0256388
internal_weight=9507.06 8468.87 1038.19 993.042 144.58 1782.48 6686.39 6611.66 848.463 70.2958 778.167 74.7349 40.7751 22.0426 1605.66 1592.44 1587.9 1582.35 721.816 13.2142 109.55 83.5717 27.0666 615.356 860.536 849.135 845.024 55.5226 50.2032 602.451
internal_count=149877 145560 4317 4229 506 62079 83481 81558 3723 317 3406 1923 214 138 46314 46112 46105 46005 33048 202 329 213 109 32485 12957 12881 12800 336 325 32032
is_linear=0
shrinkage=0.1


Tree=11
num_leaves=31
num_cat=0
split_feature=0 4 0 0 23 10 0 17 4 17 3 17 17 17 3 9 0 0 0 9 17 17 17 18 10 4 21 24 23 23
split_gain=44.8705 43.3423 25.4033 21.3198 19.188 12.3288 11.9754 18.5124 12.3245 17.5962 19.9376 19.3529 26.1107 18.841 18.1143 18.88 21.5404 17.9607 22.3983 20.063 21.9173 25.3347 25.7138 23.8481 17.0104 16.8232 25.4686 16.2949 20.6371 22.697
threshold=0.97489348053932201 0.99357998371124279 0.86669048666954052 0.99468901753425609 0.30174964666366583 0.23299654573202136 0.99375000596046459 0.70502841472625744 0.99335399270057689 1.1619023680686953 0.86686408519744884 1.0454306006431582 1.0389522910118105 1.0528574585914614 0.84772327542305004 0.27511699497699743 0.97963652014732372 0.97628250718116771 0.98609748482704174 0.77709850668907177 1.0564407110214236 1.0946087241172793 1.1145603060722353 0.98575726151466381 0.089835267513990416 0.98914799094200145 14.750000000000002 0.04499443247914315 0.98233985900878917 0.96948894858360302
decision_type=2 2 2 2 2 2 2 2 2 2 2 2 2 2 2 2 2 2 2 2 2 2 2 2 2 2 2 2 2 2
left_child=1 4 -3 5 -1 6 8 -8 9 11 27 12 14 -13 15 16 -2 -15 19 20 -19 -22 23 -23 -25 26 -12 28 29 -11
right_child=3 2 -4 -5 -6 -7 7 -9 -10 10 25 13 -14 17 -16 -17 -18 18 -20 -21 21 22 -24 24 -26 -27 -28 -29 -30 -31
leaf_value=-0.017421921630914425 -0.1516575491548309 -0.07272063868211763 -0.01889719958032321 0.039305261264214728 0.0014821567956532222 0.06152040893429235 -0.21450958043193982 -0.016669699065767818 0.020397453104683383 0.12754183353566526 0.041114283134813009 -0.1268189700425538 0.10139282976471078 0.074338954203421473 0.0053454822986212088 -0.16611898187063787 0.03101359429765373 0.094796454774861358 0.0082769790067569789 0.038144551898753945 -0.15701635881452528 0.10068660172650977 -0.11530597219224964 0.095860054562170088 -0.18748644087244024 0.030234692218839534 -0.063053834596756342 0.096336944417039591 0.0429381137759463 -0.2110661454430055
leaf_weight=601.28535853198264 8.9323227107524854 101.6823980412446 637.20997523434926 247.20854463707656 5016.7809691792354 43.506539426743984 4.993823477998375 89.428968387655914 711.90682748006657 2.8027994688600284 37.079538501799107 16.987577471882105 27.642943304032087 19.418876184150577 1308.4755722121336 12.107632336206732 23.277840787544847 6.9591647032648316 99.694590598577634 18.497303346171975 33.885639544576406 15.932334765791895 26.376240050885826 3.1022643689066154 6.6830214466899633 123.12844983302057 63.953631424345076 54.111319304443896 91.308461920358241 6.7399318544194102
leaf_count=31218 83 14721 20217 988 68566 137 29 413 5579 10 74 99 81 67 5306 75 105 19 480 56 256 56 219 9 49 403 265 126 299 60
internal_value=0.00127672 -0.00353562 -0.0263041 0.0111319 -0.000541092 0.00869405 0.00787715 -0.027133 0.00909295 0.0050833 0.0244858 0.000564823 0.00518184 -0.0251828 0.00321586 -0.0596607 -0.0196436 -0.017694 -0.0261588 -0.0569662 -0.0758958 -0.0897116 -0.0459317 0.0252193 -0.0976561 0.00541898 -0.0248238 0.052067 0.0283142 -0.111613
internal_weight=9461.1 6356.96 738.892 3104.14 5618.07 2856.93 2813.43 94.4228 2719 2007.1 379.124 1627.97 1380.44 247.537 1352.79 44.3178 32.2102 230.549 211.131 111.436 92.9387 85.9795 52.0939 25.7176 9.78529 224.162 101.033 154.963 100.851 9.54273
internal_count=150065 134722 34938 15343 99784 14355 14218 442 13776 8197 1237 6960 5650 1310 5569 263 188 1211 1144 664 608 589 333 114 58 742 339 495 369 70
is_linear=0
shrinkage=0.1


Tree=12
num_leaves=31
num_cat=0
split_feature=0 4 3 0 24 42 6 15 3 5 16 21 5 16 16 15 22 0 23 15 4 15 16 15 21 5 24 24 24 24
split_gain=52.7557 33.8026 21.2414 17.2793 16.9967 14.2872 13.9713 13.0432 14.6175 14.7913 13.0058 18.2129 13.0294 12.6088 12.441 12.2813 11.9025 33.9196 11.4326 11.2058 16.2382 13.3965 19.1697 12.4349 10.51 14.7432 10.3528 17.437 13.3931 17.644
threshold=0.96994850039482128 0.99457150697708141 0.84471446275711071 0.99581098556518566 0.79970061779022228 0.99999925494194042 0.14621474593877795 0.60626712441444408 0.90165656805038463 0.49359700083732611 0.98378229141235363 86.250000000000014 0.34054949879646307 0.98028126358985912 0.98575726151466381 1.014538109302521 2.5000000000000004 0.98279750347137462 0.93348082900047313 1.0389522910118105 0.15619949996471408 1.0194600820541384 0.97127220034599315 1.3376790881156924 78.750000000000014 0.4503264874219895 0.033395292237401016 0.040363309904932983 0.065816547721624388 0.085801929235458388
decision_type=2 2 2 2 2 2 2 2 2 2 2 2 2 2 2 2 2 2 2 2 2 2 2 2 2 2 2 2 2 2
left_child=1 19 6 4 -4 -3 16 -7 9 15 11 13 -12 -8 -14 -9 -2 -18 -19 21 23 26 24 -21 -23 -26 -1 -28 -29 -30
right_child=2 5 3 -5 -6 7 10 8 -10 -11 12 -13 14 -15 -16 -17 17 18 -20 20 -22 22 -24 -25 25 -27 27 28 29 -31
leaf_value=-0.20823858295587494 0.074095416123134014 0.14509629774146243 0.0056448006579727225 0.042115773177440696 -0.18091557608478101 -0.049170147616182019 0.0335492507510105 -0.00084244075117915888 0.062071097053743196 -0.083174516208277996 0.034711472577125528 -0.20309090456363307 0.11117508015645394 -0.1832497093413622 -0.10818769089707991 -0.19371708263872861 0.056316849591317102 0.065115354257637648 -0.1752070246715281 0.065949520902632147 0.018946391807576225 -0.19809840778300888 0.082550365150900654 -0.20072695320736167 -0.20859604055014802 0.11068204856002335 0.14253476573333032 -0.077960281010560961 0.047773277868283025 -0.0051631671839495784
leaf_weight=2.498141790740191 105.71060438337736 4.4450903952820218 3110.7442666414427 133.31529014836997 4.8911316134035578 257.1308569565881 15.268679934553807 104.36188265180681 22.363592938054353 33.323797339107841 130.77088340325281 6.1551774367690077 3.2737930510193101 3.2544086575508109 12.295438332483171 3.409226944204419 49.04022212466225 2.4635189948603502 10.075049708131699 2.480308758094905 288.13107094168663 10.363862325437372 5.2322027180343857 5.9264387460425496 2.5937423701398066 3.2691948972642422 8.0399857424199563 24.932908759918064 63.779498793184757 4919.9207052616403
leaf_count=33 344 147 17128 481 11 20573 125 2726 272 802 655 209 9 47 74 123 410 17 152 23 1991 132 23 64 74 18 26 272 409 102441
internal_value=-0.000176806 -0.00610372 0.00934357 0.00686047 0.00535193 -0.0332446 0.0331901 -0.0351294 -0.0130425 -0.024948 0.0130911 -0.0540628 0.0244157 -0.00454118 -0.0620616 -0.00694383 0.0537372 0.0187887 -0.12799 -0.00394231 0.0149493 -0.00505369 -0.0838971 -0.122047 -0.137567 -0.0305654 -0.0047166 -0.00461525 -0.00485146 -0.00448571
internal_weight=9349.46 5762.2 3587.26 3248.95 3115.64 425.034 338.308 420.589 163.458 141.095 171.018 24.6783 146.34 18.5231 15.5692 107.771 167.289 61.5788 12.5386 5337.17 296.538 5040.63 21.459 8.40675 16.2268 5.86294 5019.17 5016.67 5008.63 4983.7
internal_count=149811 130149 19662 17620 17139 24643 2042 24496 3923 3651 1119 381 738 172 83 2849 923 579 169 105506 2078 103428 247 87 224 92 103181 103148 103122 102850
is_linear=0
shrinkage=0.1


Tree=13
num_leaves=31
num_cat=0
split_feature=0 4 0 0 22 18 3 15 15 28 0 6 15 3 15 22 23 15 15 15 0 18 23 0 15 4 23 3 23 28
split_gain=52.6438 28.2909 19.156 18.411 15.3613 16.2676 18.5377 28.1016 20.2282 19.1778 20.972 18.2107 16.747 15.1701 15.0468 14.4865 19.7836 14.8869 19.9341 16.7648 13.6421 13.1002 13.4839 16.1384 13.0819 27.2201 12.8027 12.5591 11.5971 11.3931
threshold=0.96274149417877208 0.99321049451828014 0.85093000531196605 0.99539950489997875 3.2500000000000004 0.21680265665054324 0.87884002923965465 0.76113304495811474 0.73367622494697582 0.230626255273819 0.95375251770019542 0.1059781461954117 0.86467590928077709 0.94086816906929027 0.6279052495956422 4.2500000000000009 0.90268930792808544 0.61471116542816173 0.67939913272857677 0.5253857970237733 0.95685750246047985 0.58126795291900646 0.8320889174938203 0.95808300375938427 1.1309509277343752 0.9670194983482362 0.8320889174938203 0.82337218523025524 0.7481747865676881 0.012698540929704906
decision_type=2 2 2 2 2 2 2 2 2 2 2 2 2 2 2 2 2 2 2 2 2 2 2 2 2 2 2 2 2 2
left_child=1 4 -3 27 5 -1 7 8 21 10 -8 13 20 -11 -5 16 17 19 -19 -6 -9 -7 28 -24 25 -20 -14 29 -23 -2
right_child=3 2 -4 14 15 6 9 12 -10 11 -12 -13 26 -15 -16 -17 -18 18 24 -21 -22 22 23 -25 -26 -27 -28 -29 -30 -31
leaf_value=0.039558764785947421 -0.084234592085134313 -0.069644445322469425 -0.02003071450846965 -0.21246649886558938 -0.030930950956349124 -0.099320218038563349 -0.17596774683390842 0.052823468015913144 -0.15270880070180293 0.01899621567400642 -0.035157388836096648 -0.16643369725315749 0.16587533728156831 -0.068612163743142052 0.042810438454395291 -0.0054965369789332155 -0.13357691079289866 0.089405904069056324 -0.17033144877513978 -0.14496191860984875 0.16478396010917809 -0.01870401916427308 -0.0079086423621966776 -0.12778819909597702 0.12752145876902368 0.0036903555109752892 0.017570588146493798 0.0054303438467577132 0.062824743597531249 0.040458341837805084
leaf_weight=138.186653197743 7.7070882506668559 91.909450272622053 507.71791784430388 2.3398513589054337 122.78399318875745 14.189377065747975 15.078723976388572 34.483539050444961 10.042177245020865 107.76167621836066 35.430632280185819 6.6697650067508212 6.0294821038842192 24.204507140442729 175.06762439850718 3327.0285890734522 17.480430155992508 23.235528411343694 11.693140824325381 14.405601034872232 15.901658887043594 27.754281550645828 83.405722636729479 12.97696951497346 5.3755893521010867 38.85848237387836 168.26137175760232 3928.9064375081798 46.981419457122684 148.79113843047526
leaf_count=313 70 14126 20938 14 656 55 86 104 45 312 157 24 9 80 700 84639 231 71 100 121 26 105 250 60 16 187 795 24424 126 927
internal_value=-0.00022322 -0.00728438 -0.0276354 0.00790641 -0.00445188 0.00858216 0.00155531 0.0132616 -0.014478 -0.0244402 -0.077194 -0.00522039 0.0373804 0.00292757 0.0394436 -0.00718748 -0.0312466 -0.0229787 0.0115533 -0.0429048 0.0881584 -0.00698698 0.000669416 -0.0240492 -0.0207914 -0.0365628 0.0227011 0.00653692 0.0325478 0.0343176
internal_weight=9170.66 4907.85 599.627 4262.81 4308.22 747.358 609.171 420.026 195.35 189.145 50.5094 138.636 224.676 131.966 177.407 3560.86 233.833 216.352 79.1627 137.19 50.3852 185.308 171.118 96.3827 55.9272 50.5516 174.291 4085.4 74.7357 156.498
internal_count=149767 123632 35064 26135 88568 2547 2234 1575 641 659 243 416 934 392 714 86021 1382 1151 374 777 130 596 541 310 303 287 804 25421 231 997
is_linear=0
shrinkage=0.1


Tree=14
num_leaves=31
num_cat=0
split_feature=0 22 3 0 4 21 23 21 6 0 21 4 0 0 0 5 21 0 3 20 3 28 28 3 4 4 42 28 3 4
split_gain=63.3155 26.7198 22.5506 24.5586 21.0833 20.8842 15.9069 14.2568 13.8293 12.818 21.1406 21.8924 20.6639 13.9473 13.4747 13.3179 12.8987 12.3172 12.1274 11.4049 10.8537 10.8489 47.3576 14.1526 10.5908 10.4759 10.6447 10.4722 18.7061 17.9216
threshold=0.9745135009288789 35.250000000000007 0.84520044922828685 0.99468901753425609 0.98790252208709728 148.50000000000003 0.90328574180603038 212.50000000000003 0.15499458461999896 0.86368548870086681 109.25000000000001 0.97845700383186351 0.87283200025558483 0.86233749985694896 0.87366899847984325 0.30411399900913244 11.750000000000002 0.77979198098182689 0.84754747152328502 0.87749168276786815 0.8483373522758485 0.032316081225872047 0.019292804412543777 0.71737128496170055 0.99231550097465526 0.99380949139595043 0.99999859929084789 0.15367746353149417 0.93998226523399364 0.99070948362350475
decision_type=2 2 2 2 2 2 2 2 2 2 2 2 2 2 2 2 2 2 2 2 2 2 2 2 2 2 2 2 2 2
left_child=1 9 6 7 5 8 -2 27 19 10 11 13 -11 -1 -14 16 -13 -17 -19 -3 -5 22 -16 -23 -18 -25 -27 28 -4 -30
right_child=2 4 3 20 -6 -7 -8 -9 -10 12 -12 15 14 -15 21 17 24 18 -20 -21 -22 23 -24 25 -26 26 -28 -29 29 -31
leaf_value=-0.0014126385697636752 -0.050695021199049811 -0.0079159066579373369 0.0052365881378788016 -0.27322323370841833 -0.041801540185917946 0.13408623729606403 0.045919820689369548 -0.15989062257431658 0.086657510083890207 0.04592714718942327 -0.18394479513534523 -0.026932473241584449 -0.15586653304035372 -0.1880944822028614 0.063460396066671199 -0.094675940228511668 0.097825361036101399 -0.10547852354937591 -0.02079761069660618 -0.08667616715709392 0.044385159542312765 0.075002818315125383 -0.1848233251461551 0.00020767924953022794 -0.11606281776827809 0.17018576083357465 -0.017391913462497802 0.018686004137368359 -0.18174036135018423 -0.022616051197028583
leaf_weight=637.51227807684336 18.205833913758397 189.44893860217417 1803.2238002666272 1.0814577136188734 330.34416412044084 10.66997729311697 266.37284336844459 5.0868295861873767 14.127155430614946 93.549372166744433 7.232818992342799 57.493794132838957 5.6513659756164989 4.0273731546476474 15.377694982104005 50.784829307580367 16.480772500857714 20.518245742190629 96.224543225835077 20.361533660441637 211.43009133264422 24.396060202736408 15.351667537819592 4080.638027279987 2.6933463704772285 3.0465499074198297 433.90707725146785 642.15939420112409 10.046258784830568 23.95449635013938
leaf_count=7042 206 14499 9700 20 42621 307 1453 151 884 1623 291 2230 192 74 60 2565 355 733 3824 1643 848 109 167 43893 216 22 11052 3052 51 92
internal_value=0.00101334 -0.00480046 0.012966 0.010141 -0.0255216 -0.00259838 0.0397389 0.00735015 -0.009111 -0.00269683 -0.0136745 -0.0122841 -0.000598605 -0.00258457 -0.00154926 -0.0377664 -0.00324529 -0.0535648 -0.0356808 -0.0155594 0.0427689 -0.00135854 -0.0605763 -0.000957897 0.067781 -0.0013681 -0.0160841 0.00769327 0.00385101 -0.0696328
internal_weight=9111.4 6129.84 2981.56 2696.98 564.952 234.608 284.579 2484.47 223.938 5564.89 892.968 885.735 4671.92 641.54 4578.37 244.196 76.6679 167.528 116.743 209.81 212.512 4572.72 30.7294 4541.99 19.1741 4517.59 436.954 2479.38 1837.22 34.0008
internal_count=149975 134402 15573 13914 59954 17333 1659 13046 17026 74448 17330 17039 57118 7116 55495 9923 2801 7122 4557 16142 868 55303 227 55076 571 54967 11074 12895 9843 143
is_linear=0
shrinkage=0.1


Tree=15
num_leaves=31
num_cat=0
split_feature=0 4 0 15 3 15 6 15 16 3 15 6 15 32 3 3 32 32 32 3 32 5 0 0 5 23 4 4 15 3
split_gain=38.0055 17.6043 16.2663 14.7968 12.7489 12.6944 21.1493 17.476 15.7062 13.8394 12.03 11.5001 11.3715 10.9099 14.0439 13.8445 12.772 10.6951 11.4083 20.216 24.743 30.236 12.2825 25.4323 14.6772 12.2928 11.5139 11.1801 10.7902 10.6108
threshold=0.91484549641609203 0.99369651079177868 0.99702247977256786 0.75963500142097484 0.93229213356971752 0.46378475427627569 0.11055389791727067 0.39313998818397528 0.71806758642196666 0.82626739144325267 0.71705365180969249 0.084045112133026137 0.99975547194480907 0.11089152470231058 0.69109737873077404 0.07934902980923654 0.28790825605392462 0.0088890646584332007 0.032316081225872047 0.88033831119537365 0.015084858518093826 0.4029230028390885 0.98923751711845409 0.98904147744178783 0.23248950392007831 0.90889328718185436 0.98211348056793224 0.99502947926521312 0.98981437087059032 0.8843016028404237
decision_type=2 2 2 2 2 2 2 2 2 2 2 2 2 2 2 2 2 2 2 2 2 2 2 2 2 2 2 2 2 2
left_child=1 3 12 4 5 7 8 -1 10 -10 -7 -9 17 14 15 -5 -15 -2 19 20 -19 26 23 -20 -24 27 -22 -26 -27 -21
right_child=2 -3 -4 13 -6 6 -8 11 9 -11 -12 -13 -14 16 -16 -17 -18 18 22 29 21 -23 24 -25 25 28 -28 -29 -30 -31
leaf_value=-0.011247257866674019 0.089961985983726414 -0.044329010920473255 0.050010830012051116 -0.16999029734477966 -0.079827586332111719 -0.12659149229010017 -0.077728199783823268 0.093613383607932629 0.077944115457155475 -0.019228795548576611 0.083567427537911035 0.011878344385219675 0.010293666370349052 0.046125413730727184 -0.1912844434436643 0.030069564629349441 -0.13760892390466381 0.039739934174209061 -0.0002245161393501071 0.064160810613578589 -0.023262044161344558 0.060912590768804897 -0.17676751005889138 -0.16248828565528206 -0.13320519285351129 0.029501001503897503 -0.16965893007570881 -0.0023059618678334093 -0.08407667079482764 -0.015805639770411658
leaf_weight=1467.6191712049185 13.240408611018209 163.20923909294652 72.015996600035578 4.1006470415741267 27.686809029662982 14.148767227074133 73.101317492080852 24.40830818656832 25.204311510082334 35.021647844929248 3.3731282420922062 58.403138246852905 1397.7308399620233 94.623882216750644 4.5654116133227935 22.108136691618711 3.9409379174467167 15.293398492503909 4969.3589761146577 21.640798124484718 6.4617043370380989 8.7636126419529301 3.8083162531256667 9.6780342590063793 8.9000175385735911 317.178942208644 31.865303926868364 24.449743734672666 8.5911383014172298 71.141325898468494
leaf_count=56281 46 20872 281 142 477 226 2234 136 182 536 29 1479 8261 898 89 201 48 76 55211 83 49 27 53 65 53 1191 325 195 48 377
internal_value=-0.000766037 -0.0128402 0.00273075 -0.0100746 -0.0125152 -0.0114197 -0.039113 -0.00872533 -0.00280556 0.0214377 -0.0861339 0.0359694 0.00223787 0.0225506 -0.0294266 -0.00123196 0.0387791 0.000194476 -2.17382e-05 -0.0267514 -0.0707709 -0.106661 0.00075467 -0.000539917 0.0185152 0.0205861 -0.144977 -0.0372389 0.0265058 0.00284599
internal_weight=9001.63 2021.51 6980.12 1858.31 1728.97 1701.28 150.849 1550.43 77.7479 60.226 17.5219 82.8114 6908.1 129.339 30.7742 26.2088 98.5648 5510.37 5497.13 155.166 62.384 47.0906 5341.97 4979.04 362.928 359.12 38.327 33.3498 325.77 92.7821
internal_count=150171 83830 66341 62958 61580 61103 3207 57896 973 718 255 1615 66060 1378 432 343 946 57799 57753 937 477 401 56816 55276 1540 1487 374 248 1239 460
is_linear=0
shrinkage=0.1


Tree=16
num_leaves=31
num_cat=0
split_feature=15 24 21 24 4 15 18 5 4 21 4 6 5 5 5 6 23 18 15 1 23 15 18 1 18 15 6 15 4 23
split_gain=43.8073 17.7111 20.2573 21.2553 16.6207 14.7408 14.166 13.4449 26.9401 17.837 15.5026 14.0238 13.0436 12.977 15.2842 14.8432 20.4283 17.1774 17.0713 12.396 11.917 11.4556 13.8246 14.1178 12.3112 14.733 12.2779 15.962 14.263 13.4334
threshold=0.45796409249305731 0.056989783421158798 119.50000000000001 0.012698540929704906 0.99701648950576793 0.45030221343040472 0.96653935313224804 0.47378750145435339 0.9915435016155244 89.750000000000014 0.99243900179862987 0.10120129585266115 0.93278849124908458 0.26104399561882025 0.26075901091098791 0.055889733135700233 0.98003986477851879 0.98435610532760631 1.0356041193008425 0.98904147744178783 0.91182947158813488 0.5412392020225526 0.99198135733604442 0.99702247977256786 0.98904830217361461 0.81306475400924694 0.11339799314737321 0.8425794541835786 0.98170098662376415 0.97681137919425975
decision_type=2 2 2 2 2 2 2 2 2 2 2 2 2 2 2 2 2 2 2 2 2 2 2 2 2 2 2 2 2 2
left_child=4 2 3 7 5 12 -7 8 -2 -10 -11 -9 -1 14 21 16 -15 18 -17 -3 -21 -5 24 26 25 -23 -24 28 -28 -29
right_child=1 19 -4 13 -6 6 -8 11 9 10 -12 -13 -14 15 -16 17 -18 -19 -20 20 -22 22 23 -25 -26 -27 27 29 -30 -31
leaf_value=-0.010854600637781188 -0.18984181291709123 -0.00052137164018196209 0.047068560325550853 0.13993795381203952 -0.069544175457456975 -0.043868219365136268 -0.20179021582718448 -0.088581466919336951 0.073493197179731948 0.058115255161097036 -0.17936921999322242 0.12572414682947947 0.040988263146250759 0.10348448125559116 0.14456640159276693 -0.18855120703534545 -0.16675943067891361 0.012164153656310166 -0.024688910082713872 -0.027577616788265986 0.023987997989144059 -0.11961357289991803 0.037056439887037357 0.10560165533545243 0.093640554648850571 0.04061067612528152 -0.1397102593754615 -0.15493465113607816 0.024945918633578236 -0.033514485531655563
leaf_weight=2542.610328706709 14.624403060413895 4710.5811498530675 165.84358456172049 8.4508407120592874 49.034502323716879 32.173011410050094 6.8980370229110113 5.2470161858946067 11.317184558138253 4.122561494819819 8.2484143702313286 7.304187485948205 49.475394331850111 3.7916370593011353 11.134319382719694 7.3507501860149196 10.664977351203561 531.8802233831957 47.067380250897259 51.182133012916893 360.39536197297275 6.5242154233856118 56.36182337324135 13.259468347765504 41.617593513336033 47.682344655506313 5.7336252816021434 12.009312352631239 63.799573068507016 37.765683025121689
leaf_count=85335 156 49124 1361 17 6662 635 66 46 43 20 87 19 159 12 23 103 76 2448 376 376 1401 68 315 31 169 345 47 123 309 304
internal_value=-0.00116512 0.00342519 0.0148057 0.0092086 -0.011859 -0.010784 -0.0717495 -0.0536923 -0.0831193 -0.0172319 -0.100229 0.0361339 -0.00986507 0.0127435 0.0295667 0.0042209 -0.0958807 0.00668915 -0.0468233 0.000932755 0.0175755 0.0251996 0.0217945 0.00610242 0.0527333 0.0213263 -0.00140772 -0.0195784 0.0113686 -0.0628098
internal_weight=8924.15 6243.96 1121.8 955.958 2680.19 2631.16 39.071 50.8638 38.3126 23.6882 12.371 12.5512 2592.09 905.094 304.339 600.755 14.4566 586.298 54.4181 5122.16 411.577 293.204 284.754 188.929 95.8242 54.2066 175.67 119.308 69.5332 49.775
internal_count=150256 57399 6498 5137 92857 86195 701 371 306 150 107 65 85494 4766 1751 3015 88 2927 479 50901 1777 1728 1711 1129 582 413 1098 783 356 427
is_linear=0
shrinkage=0.1


Tree=17
num_leaves=31
num_cat=0
split_feature=24 27 4 15 10 22 24 10 1 1 1 22 10 5 5 5 24 1 5 15 27 27 5 3 4 10 10 27 27 5
split_gain=48.6774 22.0321 14.8375 12.6725 23.7512 20.1397 19.5452 13.1548 12.5189 24.8166 21.8927 17.4795 12.3066 12.2999 12.1207 22.7537 16.0701 19.6748 17.6955 12.6904 18.7061 11.6228 11.6271 18.3307 11.565 11.5218 12.8669 11.4047 13.2658 11.3359
threshold=0.056989783421158798 0.45471633970737463 0.99646547436714183 1.0703914165496828 0.098854191601276412 7.2500000000000009 0.057747887447476394 0.095407441258430495 0.34883949160575872 0.81855601072311412 0.24210099875926974 3.2500000000000004 0.17887332290410998 0.22865299880504611 0.69109499454498302 0.75525647401809703 0.18082100898027423 0.98169550299644481 0.71379548311233532 1.081492602825165 0.89483219385147106 0.32564784586429601 0.67845049500465404 0.88892892003059398 0.98785349726676952 0.04574073106050492 0.03175113536417485 0.93348082900047313 0.94234725832939159 0.2433620020747185
decision_type=2 2 2 2 2 2 2 2 2 2 2 2 2 2 2 2 2 2 2 2 2 2 2 2 2 2 2 2 2 2
left_child=29 2 8 6 5 7 -3 14 10 11 -2 -10 24 -6 19 16 17 -16 -19 -5 -21 -11 -23 -24 -13 26 -25 -22 -29 -1
right_child=1 3 -4 4 13 -7 -8 -9 9 21 -12 12 -14 -15 15 -17 -18 18 -20 20 27 22 23 25 -26 -27 -28 28 -30 -31
leaf_value=0.042739893167717563 -0.017334927779532484 -0.1404639155755539 -0.074296039911591824 0.11747825789167771 -0.15261717170327199 -0.14499369255742031 -0.0015213776360998717 -0.12464203911643595 0.11871281428817154 0.0092708729474404155 0.054504473872044636 -0.024500604138656151 -0.12730127190885773 0.046237017478887976 -0.15012148503122155 0.010293869303859234 0.11037126691385035 0.06739015172362392 -0.10591286424094529 -0.20345679019927029 0.075467356214897252 -0.030265766574629507 0.072080441947213456 0.0027794672290566893 -0.064088596099919154 0.0056492908715732072 -0.11485878721943488 -0.15629988598930378 0.016279582573829405 0.015175305418765432
leaf_weight=177.7348399712937 104.19554756372236 10.141794465947894 40.543184506415855 15.561618159525095 3.1636722313705823 9.4907801285153237 5904.1651899675489 7.9116184283047906 6.9548566192388526 291.76249181668391 71.550103321904317 227.93441804661416 15.916452079545705 185.1437313912902 22.738404045812786 169.58277395088226 4.6965713780373326 11.719685883726926 11.848395597189663 3.609487358480691 32.368714380543679 252.46349630062468 31.778661936055869 17.534601608291268 109.12185239608516 98.431461122585461 19.792782258242369 4.9335860647261134 45.825917476555333 929.08728319581132
leaf_count=1263 2367 93 6772 50 74 201 74052 59 14 13235 1451 10744 660 1258 183 519 12 48 82 44 151 12501 274 96 16177 1729 256 61 245 5349
internal_value=-1.24911e-05 -0.00282063 -0.0147605 -0.000433766 0.014401 -0.00136754 -0.00175963 0.00275319 -0.0128255 -0.0168823 0.0119125 -0.0382815 -0.0413748 0.0428962 0.00587474 -0.0073196 -0.0658836 -0.08376 -0.0197346 0.0343254 0.019407 -0.00606108 -0.0167117 0.0037129 -0.0373172 -0.0122907 -0.059598 0.0290839 -0.000494334 0.0196017
internal_weight=8837.7 7730.88 1287.98 6442.9 528.595 340.288 5914.31 330.797 1247.44 1071.69 175.746 359.928 352.973 188.307 322.885 220.586 51.0031 46.3065 23.5681 102.299 86.7377 711.763 420.001 167.538 337.056 135.759 37.3274 83.1282 50.7595 1106.82
internal_count=150020 143408 66276 77132 2987 1655 74145 1454 59504 55686 3818 27595 27581 1332 1395 844 325 313 130 551 501 28091 14856 2355 26921 2081 352 457 306 6612
is_linear=0
shrinkage=0.1


Tree=18
num_leaves=31
num_cat=0
split_feature=28 9 26 19 0 0 23 7 23 19 0 19 19 19 18 4 18 4 18 19 0 0 0 18 21 28 0 6 7 50
split_gain=51.6249 22.3505 21.5978 17.6309 16.2811 16.03 12.7129 19.654 19.0975 17.1057 15.6178 11.2386 9.73677 9.10657 8.97468 21.9107 16.193 14.0375 12.6693 12.6663 12.405 11.9298 10.2823 9.82057 9.53909 13.1534 20.8093 27.9259 16.7736 13.5697
threshold=0.056989783421158798 0.041775999590754516 38.250000000000007 0.99975547194480907 0.2765714973211289 0.26076950132846838 0.96780669689178478 0.8153708577156068 0.96975415945053112 1.1619023680686953 0.99301350116729747 -3.5011532306671138 -0.94233614206314076 0.99224644899368297 0.79334130883216869 0.96993702650070202 0.79384815692901622 0.97159001231193554 0.79122704267501842 0.42767037451267248 0.25681799650192266 0.79006099700927745 0.2484335005283356 0.78569364547729503 19.750000000000004 0.074179895222187056 0.9896644949913026 0.12858121842145923 0.84830915927886974 22.500000000000004
decision_type=2 2 2 2 2 2 2 2 2 2 2 2 2 2 2 2 2 2 2 2 2 2 2 2 2 2 2 2 2 2
left_child=1 -1 3 13 5 11 7 10 9 -8 -3 -4 -13 14 15 23 -16 19 21 20 -17 22 -19 -2 -18 26 27 28 -26 -27
right_child=2 6 4 -5 -6 -7 8 -9 -10 -11 -12 12 -14 -15 16 17 24 18 -20 -21 -22 -23 -24 -25 25 29 -28 -29 -30 -31
leaf_value=-0.20366705175971564 0.006092588761178506 -0.18787088195924917 -0.11113586287035176 0.012385985638450552 -0.030912749146799701 0.12069524986903618 -0.16786385410382729 0.052318173968246597 0.018197276478756016 0.045014762909111702 0.10907193911113187 0.1022043620855782 -0.0060105782057905842 -0.059763755425085975 0.12762419813087314 0.10252276377085129 0.0032817291383791789 0.048905282681909877 -0.15524692292563994 0.067166558479941504 -0.14606653708083511 -0.011464171207620791 -0.053330747752700074 -0.1679696640416308 0.14280254566539619 -0.069820333393376344 0.035283472220250627 -0.13818400656598995 -0.037815412465073757 -0.002900687942574677
leaf_weight=4.4457814664347088 568.68618822289864 6.1429040386574325 8.09896710840985 824.01827351981774 411.75374506600201 13.051462714793159 10.431923443917187 175.12863756692968 928.42037805030122 5.9148396376986048 2.48885612282902 10.372438849415628 41.908940718974918 28.294201162643731 9.7830884822178614 2.2279668282717529 2443.9488563339692 10.736942451680077 6.6662575991358599 4.2291092490777364 20.276704845950007 669.69650704140076 117.42325932346284 3.2599434345029286 5.5650370554067186 30.70106003805995 31.511778564192355 30.343069831375033 67.587024122592993 2327.3522572333459
leaf_count=151 5470 135 714 5106 53040 179 151 1136 4992 32 8 129 1894 309 71 10 16335 165 236 31 389 15332 5444 66 16 155 184 340 628 37372
internal_value=0.000181961 0.0201101 -0.00275502 -0.0013793 -0.0231768 0.0202007 0.0209916 0.0450576 0.0163107 -0.0908368 -0.102251 -0.00152159 0.0154589 -0.00315765 -0.00290543 -0.00996412 -0.000903162 -0.0203293 -0.0179605 -0.0916173 -0.121456 -0.0168134 -0.0447657 0.00510048 -0.00115785 -0.00550997 -0.0358664 -0.0575298 -0.0240749 -0.00377196
internal_weight=8820.47 1132.97 7687.49 7202.31 485.186 73.4318 1128.53 183.76 944.767 16.3468 8.63176 60.3803 52.2814 6378.29 6350 1403.2 4946.79 831.257 804.523 26.7338 22.5047 797.857 128.16 571.946 4937.01 2493.06 135.007 103.495 73.1521 2358.05
internal_count=150220 6605 143615 87659 55956 2916 6454 1279 5175 183 143 2737 2023 82553 82244 27143 55101 21607 21177 430 399 20941 5609 5536 55030 38695 1168 984 644 37527
is_linear=0
shrinkage=0.1


Tree=19
num_leaves=31
num_cat=0
split_feature=24 22 5 5 4 4 0 24 23 3 3 3 16 4 0 3 0 0 0 5 23 24 4 21 17 16 21 3 17 0
split_gain=75.1185 25.0398 13.7355 28.9643 17.1395 28.0494 12.2472 26.5561 21.4493 15.7958 15.1919 13.3851 15.6062 11.3107 12.9975 10.8622 17.796 14.0958 13.1503 26.2073 17.0714 18.0246 17.0158 13.0856 11.7595 11.538 11.252 16.018 13.5961 14.3391
threshold=0.071287408471107497 37.250000000000007 0.62667000293731701 0.63805299997329723 0.98228499293327343 0.9846944808959962 0.9745135009288789 0.081149674952030196 0.94953739643096935 0.850345939397812 0.87792396545410167 0.85275211930274974 0.97774618864059459 0.98730751872062694 0.85359349846839916 0.86875694990158092 0.97611549496650707 0.97628250718116771 0.97645148634910595 0.77371400594711315 0.85626870393753063 0.19238026440143588 0.99216550588607799 10.500000000000002 0.47925366461277014 0.95224088430404674 72.250000000000014 0.86220920085906994 0.54287299513816845 0.99160248041152965
decision_type=2 2 2 2 2 2 2 2 2 2 2 2 2 2 2 2 2 2 2 2 2 2 2 2 2 2 2 2 2 2
left_child=2 6 -1 -4 -5 -6 7 8 -2 -8 11 12 -10 -3 -15 16 -11 -18 19 20 21 -17 -21 -19 -22 -26 28 -28 -25 -30
right_child=1 13 3 4 5 -7 9 -9 10 15 -12 -13 -14 14 -16 18 17 23 -20 22 24 -23 -24 26 25 -27 27 -29 29 -31
leaf_value=0.026191117248156006 -0.13483940895986588 -0.0076054937109847898 -0.16298580617784023 0.056797348372347928 -0.18175488680731455 0.0020045264956967141 0.039779102776323433 -0.0041893261303989678 0.059231373861534833 -0.1176060074424977 -0.13918626647502697 0.1017337862691407 -0.2118864609828465 -0.065053287944782101 -0.021612445825953175 -0.17582868701696164 0.14173078162717134 0.044956541523033466 0.0010822599881270256 -0.10409371322588074 -0.1340852912114803 0.018162408770926432 0.054220021797614183 0.13674764695949934 -0.019804374747922526 0.08466013444158807 0.061781280032989376 -0.11016068430788468 -0.076922526144428308 0.074222941637733117
leaf_weight=1110.9212395923678 28.226632252568379 196.48987965687411 10.349569625221191 55.670092198066413 8.6738690254278463 196.19185218820348 121.34843501832802 5181.2935936280992 4.7368722618557566 17.53488380368799 6.8652099270839235 11.83323007263243 3.8478071093559265 113.58534741259064 174.97623938653851 5.4004314509220412 5.8133967323228708 26.885535955429077 1116.5445024897344 21.420188304036859 2.8113876916468135 42.348019828088582 9.9394650906324369 3.5892712548375121 11.88933164719492 95.490199015941471 22.086615522159267 7.1792004392482331 66.223030677530915 6.9339019265025845
leaf_count=7369 435 14649 87 191 57 895 798 74887 22 184 39 27 30 23981 18664 85 17 72 5754 80 15 269 39 5 75 385 237 185 476 26
internal_value=-0.000113278 -0.00415756 0.0212679 0.00107734 0.00759461 -0.00577572 -0.00259624 -0.00492641 -0.0737257 0.00511017 -0.0104984 0.0327709 -0.0622885 -0.026111 -0.0387119 0.00223276 -0.0226853 -0.010686 0.00521424 0.0295859 0.0461657 -0.00377832 -0.0539161 -0.0173533 0.0678076 0.0730936 -0.0331556 0.0196022 -0.0532738 -0.0625968
internal_weight=8687.1 7305.29 1381.81 270.885 260.536 204.866 6820.24 5236.8 55.5098 1583.44 27.2831 20.4179 8.58468 485.051 288.562 1462.09 156.246 138.711 1305.84 189.299 157.939 47.7485 31.3597 132.898 110.191 107.38 106.012 29.2658 76.7462 73.1569
internal_count=150035 141436 8599 1230 1143 952 84142 75440 553 8702 118 79 52 57294 42645 7904 1202 1018 6702 948 829 354 119 1001 475 460 929 422 507 502
is_linear=0
shrinkage=0.1


Tree=20
num_leaves=31
num_cat=0
split_feature=1 4 15 24 16 6 15 3 4 4 23 24 1 1 16 50 23 16 15 1 5 1 15 16 4 16 4 24 24 1
split_gain=60.0377 17.152 14.4345 16.334 16.1909 13.3484 15.4697 12.9285 12.9521 13.3993 11.304 11.9677 12.3162 11.0434 19.9295 18.4462 12.5219 18.0373 10.6245 14.441 15.1561 13.8559 10.6153 10.2913 13.3835 12.8658 15.334 11.5455 27.6255 16.1768
threshold=0.96994850039482128 0.99330648779869091 0.61173549294471752 0.096845246851444258 0.018627196550369266 0.12217140197753908 -1.3520431518554685 0.8467102348804475 0.97051000595092785 0.9712829887866975 0.90268930792808544 0.37378457188606268 0.9715544879436494 0.96748650074005138 0.99999985098838817 88.500000000000014 0.8727671504020692 0.94428491592407238 0.60484158992767345 0.94255998730659496 0.24218650162220004 0.96960350871086132 1.0564407110214236 0.70928090810775768 0.89491349458694469 0.69334515929222118 0.92339351773262035 0.2141467481851578 0.22419017553329471 0.10381000116467477
decision_type=2 2 2 2 2 2 2 2 2 2 2 2 2 2 2 2 2 2 2 2 2 2 2 2 2 2 2 2 2 2
left_child=1 2 3 -1 5 6 -5 10 -9 -10 11 12 -2 -4 15 16 17 -15 21 -20 -21 23 -3 25 -25 27 -27 29 -29 -6
right_child=7 22 13 4 18 -7 -8 8 9 -11 -12 -13 -14 14 -16 -17 -18 -19 19 20 -22 -23 -24 24 -26 26 -28 28 -30 -31
leaf_value=0.074801248911219517 0.068817626550810404 -0.021305444482426866 0.0047528997000871615 -0.04858956915301129 -0.13785089859003094 0.04240995424717723 0.016443187976102034 0.14095464768075894 -0.16686480576539753 0.0082362735209094134 0.034323138980198835 0.078016431295638622 -0.098302657281861189 0.0089084258480888901 -0.14662922580151241 -0.13489540435972622 0.029445847706654121 -0.12376142396185877 0.0083099982011433579 0.081764372717813616 -0.18629102296758285 0.11206348444998691 -0.19212963339258921 0.10582146354823255 -0.0081899059185170583 0.18962126199959484 -0.090602753523956359 0.13383376293317081 -0.018521310628814836 0.055666756944163134
leaf_weight=23.125175035558641 5.6878061178140369 619.96730981423752 1627.0803879143205 52.53568177332636 16.917321059852842 101.23261766508222 120.42057957215002 7.3425288423895827 4.3768816050142041 2883.0992361665703 320.74075890833046 8.2371571995317918 19.625805086921901 27.440790179185569 12.323005897924302 11.193320803344248 61.008028570562601 16.355748920701444 11.671498158248143 2.5456889350898555 12.304886231664566 9.0710449246689659 3.6592370639555147 10.355228941887615 1804.5370659690816 2.0582396090030661 38.095798383990768 12.09451267775148 745.15852454665583 5.8008878215914583
leaf_count=116 58 36281 16884 1894 300 1260 603 10 22 17401 1892 33 328 193 48 342 382 198 214 27 196 36 111 41 43229 7 1782 42 25820 52
internal_value=-0.000205996 -0.00672065 -0.00466266 -0.00891412 -0.00957153 0.0135698 -0.00331059 0.0105149 0.00830816 0.00797085 0.028546 -0.0266824 -0.0607518 0.00252545 -0.0257181 -0.0128731 0.000159121 -0.0406369 -0.0119474 -0.0749245 -0.140341 -0.0113157 -0.0223078 -0.0117404 -0.00753939 -0.0210372 -0.0762389 -0.0181953 -0.016088 -0.0884379
internal_weight=8596.06 5346.95 4723.33 2967.92 2944.8 274.189 172.956 3249.11 2894.82 2887.48 354.292 33.5508 25.3136 1755.4 128.321 115.998 104.805 43.7965 2670.61 26.5221 14.8506 2644.09 623.627 2635.02 1814.89 820.125 40.154 779.971 757.253 22.7182
internal_count=149802 130058 93666 75619 75503 3757 2497 19744 17433 17423 2311 419 386 18047 1163 1115 773 391 71746 437 223 71309 36392 71273 43270 28003 1789 26214 25862 352
is_linear=0
shrinkage=0.1


Tree=21
num_leaves=31
num_cat=0
split_feature=24 0 8 24 15 3 3 8 6 15 6 15 6 21 8 22 24 0 21 50 6 5 6 24 5 23 5 3 3 0
split_gain=54.1469 12.9505 22.9035 13.02 15.6832 11.3819 10.5662 18.2237 22.9426 10.5344 14.9721 13.4809 12.3574 19.5956 12.7978 12.1918 12.8303 11.9779 11.0989 12.7908 10.7046 13.2078 9.23478 14.2874 10.6256 15.8354 16.661 14.7762 12.1424 13.1579
threshold=0.13348694890737536 0.96274149417877208 0.98812499642372142 0.13807120919227603 1.0665799975395205 0.86501625180244457 0.89984878897666942 0.97500848770141613 0.054525529965758331 0.77588975429534923 0.13154095411300662 0.77259755134582531 0.10733138397336008 50.250000000000007 0.98702049255371105 5.7500000000000009 0.16869948804378512 0.87912002205848705 153.50000000000003 163.50000000000003 0.084156993776559844 0.84042948484420787 0.081037916243076338 0.28456890583038336 0.73789599537849437 0.8919891119003297 0.763707995414734 0.90604242682456981 0.88665261864662182 0.94572898745536815
decision_type=2 2 2 2 2 2 2 2 2 2 2 2 2 2 2 2 2 2 2 2 2 2 2 2 2 2 2 2 2 2
left_child=6 2 9 4 5 -3 -1 8 -8 11 12 18 14 15 20 -14 -17 -12 19 -2 21 22 24 -24 28 26 -26 -28 29 -11
right_child=1 3 -4 -5 -6 -7 7 -9 -10 10 17 -13 13 -15 -16 16 -18 -19 -20 -21 -22 -23 23 -25 25 -27 27 -29 -30 -31
leaf_value=0.015202532028207722 -0.0049481052224939551 0.024096898838278185 -0.018017373918017998 0.0033791096383170788 0.082094989835444165 -0.12493854457587412 0.035218957860397471 0.0031131635916693476 -0.18841562964758229 0.0043938699960641798 -0.075606322406016307 -0.19755758882200503 -0.066478324087891047 -0.13269579757873606 -0.11794965363558392 -0.20550005067793467 0.054660775945033518 0.062183965616270889 0.095005557128158794 -0.1217717007953842 0.045719567004421029 0.086620182219348585 -0.20030735142687944 0.081047782070813965 -0.13592804557590019 -0.16065822111010558 0.10519775121545263 -0.073460819865034985 0.078317178804712215 -0.20405361513470699
leaf_weight=2039.4827563752187 2347.244396383292 6.6897076675668385 1557.6965127143194 1619.5611377307214 6.4933387367054811 21.89834966044873 7.7820098428055671 549.9314210510347 11.174663307610897 36.244167940225452 6.8861546181142321 3.6393062849529079 19.195442818105221 15.914651474915443 7.1500733699649563 2.0394369661808041 26.883457941934466 75.242411412298679 11.057913633296264 9.409697260532992 83.66416926193051 15.192016506567596 5.8385012331418675 2.6124389041215181 7.5102033112198141 9.2121529802679998 12.48400172032416 7.3576660817489019 23.02915502525866 3.3043539309874168
leaf_count=15099 42547 90 73285 11002 27 295 31 2743 85 255 112 67 104 493 120 34 144 541 212 1769 499 39 70 10 56 44 39 49 91 47
internal_value=-0.000170281 -0.00544164 -0.00834104 0.00207356 -0.0581983 -0.0900637 0.0118411 -0.000209849 -0.0966101 -0.00282212 0.013123 -0.00524117 0.00202747 -0.036505 0.0135788 -0.00469082 0.0363161 0.0506308 -0.00494557 -0.00541456 0.0181341 -0.000662367 -0.0129866 -0.113332 -0.00443306 -0.0472614 -0.00906916 0.0389478 0.0205915 -0.0130223
internal_weight=8551.82 5943.45 4288.81 1654.64 35.0814 28.5881 2608.37 568.888 18.9567 2731.11 359.76 2371.35 277.632 64.033 213.599 48.1183 28.9229 82.1286 2367.71 2356.65 206.449 122.785 107.593 8.45094 99.1417 36.564 27.3519 19.8417 62.5777 39.5485
internal_count=149999 132041 120627 11414 412 385 17958 2859 116 47342 2747 44595 2094 775 1319 282 178 653 44528 44316 1199 700 661 80 581 188 144 88 393 302
is_linear=0
shrinkage=0.1


Tree=22
num_leaves=31
num_cat=0
split_feature=28 50 5 25 0 0 25 28 23 6 15 16 3 15 6 5 5 5 6 8 23 25 25 3 5 25 15 0 15 8
split_gain=46.2373 19.5704 13.8576 16.3433 13.8185 23.8701 13.1627 16.7342 16.4367 12.1079 12.087 11.8723 11.3518 15.795 10.9436 16.6629 18.0966 16.089 11.9775 11.6847 10.6756 10.8151 14.8907 10.5702 12.3994 10.5613 10.3091 10.2397 10.1893 9.90527
threshold=0.25846518576145178 116.50000000000001 0.8887230157852174 6.7500000000000009 0.9430615007877351 0.94740450382232677 10.500000000000002 0.085801929235458388 0.95443007349967968 0.028782321140170101 1.1835326552391054 0.98256728053092968 0.094286199659109129 0.37198741734027868 0.14737036079168322 0.57166251540184032 0.68107250332832348 0.69052800536155712 0.21289091557264331 0.9839875102043153 0.93348082900047313 119.50000000000001 126.25000000000001 0.089212302118539824 0.047691499814391143 61.750000000000007 0.53556427359581005 0.99468901753425609 0.58495548367500316 0.99761047959327709
decision_type=2 2 2 2 2 2 2 2 2 2 2 2 2 2 2 2 2 2 2 2 2 2 2 2 2 2 2 2 2 2
left_child=2 4 6 9 29 11 -1 20 12 -4 -5 25 23 -14 15 -10 -17 -18 -16 -19 -8 26 -23 24 -9 28 -22 -15 -6 -2
right_child=1 -3 3 10 5 -7 7 8 14 -11 -12 -13 13 27 18 16 17 19 -20 -21 21 22 -24 -25 -26 -27 -28 -29 -30 -31
leaf_value=0.024215016209870856 -0.010873874236592175 -0.043593780510777662 -0.050000618691845723 -0.19964194748553069 0.023696271234494221 -0.0044267487849313997 0.0508132240798604 0.033672117859140586 0.07839317154239317 0.081188622393002063 -0.047016674125489613 -0.14523475987869625 -0.20619981798165235 0.00053122773708439992 -0.16699969562286987 -0.1941996085792019 0.13820109184720961 -0.16022309127509896 0.018953674098002759 -0.016162019783284975 0.060811514472145424 0.076999721771454421 0.015623156077819542 0.11727810465280851 -0.18157723038034057 -0.12463971612536687 0.006727055739146834 -0.20108483410679653 0.07310814680623863 -0.072977934544795287
leaf_weight=401.23383163008839 2453.4607893593493 152.8557005901821 17.536552008241419 9.1097570713609475 124.42465516366065 1144.1855716166319 70.454933959641494 41.879200964234769 12.064087405335156 11.748131465166805 12.055353120900689 3.649258241057395 3.710760109126567 2134.9889252232388 12.701416131109001 7.6363655691966406 5.1898344755172721 7.5353522133082178 4.7626881375908843 22.268947903066874 36.149783168919384 55.524694103281945 137.20836095721461 14.853104423731564 2.8588744010776272 3.9658165032742536 1405.6355234894436 2.5220359880477181 62.795471045654267 25.953527393867262
leaf_count=1218 75366 22637 48 54 1492 9906 806 594 39 27 43 11 42 23377 59 56 11 39 14 88 109 319 1429 70 54 249 8241 48 539 3130
internal_value=-0.000672425 -0.00850763 0.00635207 -0.0457587 -0.0071031 0.00108284 0.0069524 0.00521121 -0.000406184 0.00262855 -0.112709 0.0334383 0.00113361 -6.45127e-05 -0.0473693 -0.0253635 -0.0547258 -0.02429 -0.116288 -0.0525846 0.0127 0.0110572 0.0333052 0.0441844 0.0199171 0.0368487 0.00808311 0.000293342 0.0402695 -0.011524
internal_weight=8400.92 3971.29 4429.63 50.4498 3818.44 1339.02 4379.18 3977.94 2272.97 29.2847 21.1651 194.835 2200.81 2141.22 72.1587 54.6946 42.6305 34.9941 17.4641 29.8043 1704.97 1634.52 192.733 59.5912 44.7381 191.186 1441.79 2137.51 187.22 2479.41
internal_count=150115 113330 36785 172 90693 12197 36613 35395 24491 75 97 2291 24185 23467 306 233 194 138 73 127 10904 10098 1748 718 648 2280 8350 23425 2031 78496
is_linear=0
shrinkage=0.1


Tree=23
num_leaves=31
num_cat=0
split_feature=23 23 0 16 8 19 24 19 5 5 19 16 16 0 19 8 16 3 6 0 23 8 50 24 6 8 8 24 8 6
split_gain=43.9565 19.3262 26.8813 18.036 20.0987 16.1678 13.1679 12.9093 15.0512 12.7696 20.4135 18.4157 13.2494 13.4129 11.12 17.9616 10.9114 12.9656 11.5941 11.5976 10.8791 12.9534 10.8561 14.9848 11.7564 10.943 10.8321 10.826 11.6338 10.7071
threshold=0.72622370719909679 0.71270480751991283 0.93573701381683361 0.93204328417778026 0.98790252208709728 0.77588975429534923 0.58312395215034496 1.1197634935379031 0.94225800037384044 0.24536100029945376 0.44290371239185339 0.97718569636344921 0.99999961256980907 0.9896644949913026 1.014538109302521 0.98870801925659191 0.84874019026756298 0.84957319498062145 0.088849429041147246 0.61511349678039562 0.69052112102508556 0.96177548170089733 54.500000000000007 0.84887903928756725 0.03175113536417485 0.9883989989757539 0.98599949479103099 0.2656796276569367 0.98988449573516857 0.18325543403625491
decision_type=2 2 2 2 2 2 2 2 2 2 2 2 2 2 2 2 2 2 2 2 2 2 2 2 2 2 2 2 2 2
left_child=1 2 3 4 -1 -3 -5 8 9 12 11 27 13 14 -2 -16 17 18 -12 -20 21 -4 23 24 -6 -26 -7 -11 -29 -30
right_child=7 5 20 6 22 26 -8 -9 -10 10 16 -13 -14 -15 15 -17 -18 -19 19 -21 -22 -23 -24 -25 25 -27 -28 28 29 -31
leaf_value=-0.0059296538408959813 0.018533429100154247 -0.058666309373558989 0.10483727138785084 -0.17580732385100112 0.18873325464491311 0.14089624977049675 0.0013626549177550521 0.017731093181449175 -0.06478225474075143 -0.20180496294638994 0.10433162804469909 0.016763973468852302 -0.026385290291548132 0.062511005711323134 0.01618338709276981 -0.20284700548709617 0.0035907091049028859 -0.055766748904454044 0.19529956449890534 -0.042375896629744711 0.033207533318382457 0.00042148585386010001 -0.041460478572484444 -0.054651095704524755 -0.11166084344459044 -0.0062597694696353472 -0.052507354934459197 -0.10965944352397999 -0.067986767544380086 0.13726552133960004
leaf_weight=1352.9124986398383 509.61666485748719 117.51275066751987 12.079435791820286 11.801783420378344 3.0236861155135548 7.1908794520422799 6.5085603250190607 739.27712602564134 32.083009578287601 7.6404699347913256 11.038748286664484 23.381407056003809 64.159593070391566 70.158982288558036 9.9470812240615469 6.0037992333527646 3607.1876762186876 66.08973145019263 2.2697497336193946 21.503882957622409 133.10108379437588 722.98625558486674 291.79677359346533 83.655946308630519 10.142220908775924 342.15704255481251 4.8484376184642315 22.977035917341709 6.0962243529502285 4.3587015345692635
leaf_count=34934 6705 2040 42 235 16 27 73 4269 84 92 45 85 336 411 109 164 29391 684 7 421 1901 9859 40291 5621 371 11514 67 160 57 11
internal_value=-0.000124139 -0.00955127 -0.00790218 -0.0140161 -0.0131478 -0.047359 -0.112831 0.00549127 0.00346449 0.00395847 0.00171363 -0.0540811 0.0167922 0.0214424 0.01596 -0.0662581 0.00268345 -0.0297505 0.0196403 -0.0196842 0.00690082 0.00213736 -0.026511 -0.0165738 -0.00760897 -0.00929412 0.0630093 -0.0944112 -0.0698676 0.0175838
internal_weight=8303.51 3099.72 2970.17 2102 2083.69 129.552 18.3103 5203.79 4464.51 4432.43 3772.54 64.4538 659.886 595.727 525.568 15.9509 3708.09 100.902 34.8124 23.7736 868.167 735.066 730.776 438.979 355.323 352.299 12.0393 41.0724 33.432 10.4549
internal_count=150022 106991 104857 93055 92747 2134 308 43031 38762 38678 30953 405 7725 7389 6978 273 30548 1157 473 428 11802 9901 57813 17522 11901 11885 94 320 228 68
is_linear=0
shrinkage=0.1


Tree=24
num_leaves=31
num_cat=0
split_feature=24 27 24 7 7 16 50 5 16 16 21 5 15 15 7 7 1 1 15 16 4 5 15 15 24 24 6 5 5 5
split_gain=30.1787 14.8699 15.1817 12.4867 21.8666 12.9639 25.9301 23.3774 17.0872 14.8164 12.5195 11.2149 11.0043 28.9911 16.3601 14.8007 13.7441 13.7262 13.035 10.9542 10.83 10.6758 11.7934 12.6579 10.0236 36.0669 10.2707 10.1426 12.8574 11.0599
threshold=0.17078252136707309 0.38826659321784979 0.18344259262084964 0.83311879634857189 0.83362805843353283 0.93730753660202037 19.500000000000004 0.53742349147796642 0.94402214884758007 0.94775453209877025 27.750000000000004 0.23276899755001071 1.0417666435241701 0.9242500662803651 0.93449449539184581 0.92196980118751537 0.94957798719406139 0.94865849614143383 0.85903671383857738 0.93316897749900829 0.98291349411010753 0.28135649859905248 0.85378876328468334 0.60484158992767345 0.047713907435536392 0.068227455019950881 0.1422570198774338 0.29419749975204473 0.58592301607131969 0.23685849457979205
decision_type=2 2 2 2 2 2 2 2 2 2 2 2 2 2 2 2 2 2 2 2 2 2 2 2 2 2 2 2 2 2
left_child=3 -2 11 24 -5 6 -6 -8 20 10 -10 -3 13 14 15 16 17 18 -13 -9 -7 -18 23 -23 26 27 -1 29 -29 -26
right_child=1 2 -4 4 5 8 7 19 9 -11 -12 12 -14 -15 -16 -17 21 -19 -20 -21 -22 22 -24 -25 25 -27 -28 28 -30 -31
leaf_value=0.064892527813515566 -0.016213805729516036 -0.19972295673898707 -0.0009097147427222182 -0.25522876618515777 -0.16708026642861576 -0.11180901334552945 -0.19665212165498014 0.012897996621946886 0.030422341819539057 0.006448159048437728 -0.12097974735960788 -0.052931111156010208 0.055110032145024662 -0.13823959254255089 -0.20378785187833795 0.084063550707800333 -0.0073409385564965407 0.1709552019673205 0.099913501280652572 -0.10540560162854487 0.073676140213214697 0.092744139796844927 -0.014610410990222061 -0.13856352693384938 -0.1799042069780572 0.025559730124061947 0.012240843645020538 -0.18287556637318048 0.10881047939122988 -0.0030932028739081218
leaf_weight=92.564151322003454 925.10310643323464 3.82453245576471 3997.7072544519906 3.2215036554262033 11.978563235141335 3.3541466463357201 6.3548225639387956 82.723807180766016 8.130951043218376 2521.9930277344538 16.636457604123279 15.394276661332702 15.076730228960512 23.024603365454823 4.5533361285924903 14.602308767847715 46.187708347802982 6.0459156283177427 8.7518135649152082 8.6446903673931939 51.175240464275703 2.6119797807186869 19.082256852881983 25.103574008215219 4.431449850206266 254.29983199888375 61.77447512280196 12.408008284401147 1.7207808345556248 17.543372600106522
leaf_count=558 56070 123 68326 100 82 63 187 763 42 17451 309 247 72 277 28 47 613 22 76 117 380 9 180 286 112 2583 401 176 5 190
internal_value=1.09754e-05 -0.00474115 -0.00220325 0.00769371 0.00514873 0.00545814 -0.0282155 -0.011194 0.00687823 0.00569229 -0.0712756 -0.030268 -0.0266762 -0.0341332 -0.0172924 -0.0111291 -0.0224139 0.0362072 0.00246782 0.00170488 0.0622668 -0.0414479 -0.0751102 -0.116765 0.0232255 0.012281 0.0438185 -0.0812491 -0.14735 -0.038749
internal_weight=8266.02 5107.07 4181.97 3158.96 2714.21 2710.99 109.702 97.7233 2601.29 2546.76 24.7674 184.259 180.435 165.358 142.333 137.78 123.178 30.192 24.1461 91.3685 54.5294 92.9855 46.7978 27.7156 444.742 290.403 154.339 36.1036 14.1288 21.9748
internal_count=149895 126376 70306 23519 19494 19394 1149 1067 18245 17802 351 1980 1857 1785 1508 1480 1433 345 323 880 443 1088 475 295 4025 3066 959 483 181 302
is_linear=0
shrinkage=0.1


Tree=25
num_leaves=31
num_cat=0
split_feature=23 0 23 15 24 15 18 18 5 22 24 15 15 21 7 7 6 4 6 23 24 15 4 4 6 4 18 50 0 0
split_gain=36.7035 14.6809 14.8762 12.0011 22.2672 11.8838 11.5514 11.2406 15.2967 16.6394 11.5967 11.1494 16.7746 10.8569 10.5646 22.2455 10.2611 10.221 15.2664 11.2353 10.1736 10.3055 10.8366 10.3745 12.8311 13.9577 9.70071 16.6068 14.3011 10.7045
threshold=0.72622370719909679 0.91884300112724315 0.71626412868499767 0.4230815470218659 0.49385236203670507 -0.29210317134857172 0.89637407660484325 0.85050830245018016 0.25900150835514074 107.75000000000001 0.50949406623840343 0.40597791969776159 0.34473212063312536 82.250000000000014 0.94038391113281261 0.94178661704063427 0.2675135880708695 0.98383650183677684 0.033149788156151778 0.028653530403971676 0.57111254334449779 0.66464319825172435 0.9663749933242799 0.95938748121261608 0.081890553236007704 0.95600751042366039 0.90224307775497448 78.500000000000014 0.88904550671577465 0.87818598747253429
decision_type=2 2 2 2 2 2 2 2 2 2 2 2 2 2 2 2 2 2 2 2 2 2 2 2 2 2 2 2 2 2
left_child=1 3 16 4 13 -2 7 11 9 -9 -10 12 17 -1 -7 -16 -3 19 -19 -6 21 23 -23 24 -5 -26 28 -28 29 -25
right_child=5 2 -4 20 6 14 -8 8 10 -11 -12 -13 -14 -15 15 -17 -18 18 -20 -21 -22 22 -24 26 25 -27 27 -29 -30 -31
leaf_value=0.022715032888471862 0.17064879687038637 0.0025490186334744414 -0.070884077769139159 0.12197647093293647 0.062756125144164662 0.0070669593294445587 -0.085982206806666073 -0.027787478732988979 -0.11992675339030551 0.22060119686159238 0.060582802132931594 0.12045987692493548 -0.17687259836208841 -0.11702834083488073 -0.17588588034180697 -0.0095042940713288785 -0.086919163803023433 0.14405427774131438 -0.030342036609791335 -0.012077629721690904 0.087453453792402658 -0.11456942662393065 0.088039726242254077 -0.11079256420397801 -0.10942319811290535 0.084127667924863647 -0.1502133659947156 0.1199512527977688 -0.12166077019748488 0.040529828148499029
leaf_weight=204.02459628332872 4.3963023759424678 1332.3254594489699 28.851447807741351 6.0663290917873409 20.680595790385269 4938.7267513524275 23.244493130827323 70.516779973404482 3.7939498291816554 2.8042112764669573 57.484068782767281 5.7931431625038377 6.6595601534936568 5.7153403596021226 8.3979881061241013 186.34612447093241 12.943583890795706 5.0707094599492839 497.16490335925482 671.56797639629804 5.5856210459023705 3.6438549263402811 9.5805471597705019 7.8046717477263909 11.609375108499082 5.4866918807383618 3.7213546638376993 5.855048295808956 48.394854893907905 11.656911906087769
leaf_count=5813 6 22582 1046 27 469 42442 818 4724 155 251 1171 20 152 1088 55 694 96 55 48439 15364 20 71 203 553 206 65 121 138 2897 391
internal_value=0.00113878 -0.00751589 0.000164446 -0.0137462 -0.0114283 0.00630686 -0.0160902 -0.0148792 0.0125311 -0.0182877 0.0494068 -0.0179361 -0.0186036 0.0189071 0.00616612 -0.0166792 0.0016882 -0.0177212 -0.0285813 -0.00984201 -0.0443113 -0.0507776 0.0322128 -0.0616876 -0.00297046 -0.0473063 -0.0792516 0.0149663 -0.0925484 -0.0201549
internal_weight=8205.91 3068.05 1374.12 1693.93 1574.52 5137.87 1364.78 1341.54 134.599 73.321 61.278 1206.94 1201.14 209.74 5133.47 194.744 1345.27 1194.48 502.236 692.249 119.405 113.82 13.2244 100.595 23.1624 17.0961 77.4328 9.5764 67.8564 19.4616
internal_count=150132 106935 23724 83211 78519 43197 71618 70800 6301 4975 1326 64499 64479 6901 43191 749 22678 64327 48494 15833 4692 4672 274 4398 298 271 4100 259 3841 944
is_linear=0
shrinkage=0.1


Tree=26
num_leaves=31
num_cat=0
split_feature=18 3 24 24 4 15 24 4 18 18 31 24 24 6 3 21 21 31 5 4 0 5 24 15 31 4 21 5 22 18
split_gain=45.6334 11.8227 14.2061 11.9056 12.6346 12.0911 10.525 10.6632 12.5204 12.4264 14.2008 12.3076 11.853 10.2278 11.0494 9.69307 18.6566 14.7474 11.8397 9.22602 9.20624 11.6383 10.871 10.2051 16.243 9.82738 9.44178 9.42887 9.03087 8.85328
threshold=0.79015743732452404 0.069388996809721007 0.48008809983730322 0.54528367519378673 0.99117350578308117 0.30352091789245611 0.068227455019950881 0.98271900415420543 0.77779778838157665 0.66348391771316539 0.57111254334449779 0.42831449210643774 0.47521242499351507 0.1420615613460541 0.70308023691177379 120.75000000000001 117.50000000000001 0.95749700069427501 0.33025400340557104 0.99513950943946849 0.34883949160575872 0.60654798150062572 0.66382932662963878 -0.14477065950632093 0.25846518576145178 0.61494299769401561 7.7500000000000009 0.41837149858474737 83.250000000000014 0.64235180616378795
decision_type=2 2 2 2 2 2 2 2 2 2 2 2 2 2 2 2 2 2 2 2 2 2 2 2 2 2 2 2 2 2
left_child=1 -1 6 4 13 20 -3 8 9 29 -11 -9 -10 -4 -15 16 -2 18 -17 -6 22 23 25 24 -22 -5 27 -26 -23 -8
right_child=15 2 3 5 19 -7 7 11 12 10 -12 -13 -14 14 -16 17 -18 -19 -20 -21 21 28 -24 -25 26 -27 -28 -29 -30 -31
leaf_value=-0.10730919397675831 0.0034401722943068476 -0.19744863209796837 -0.090232607036486973 -0.098754307881223885 0.027700943791765284 0.056023859204502618 0.0084974274319020125 -0.070422949528502657 -0.17587674080443286 -0.16810365721106574 0.065261955928883328 0.010981120718563433 0.17074906515247881 -0.17528499874671666 0.10302125068505096 0.00084892273484926033 -0.10615813490691782 0.041768948977426716 -0.17985736718083653 -0.13371232995985061 -0.045613780998667031 -0.014027099800049153 0.012835795633547104 -0.071456954602349604 -0.037757942428018859 0.07075405106810001 -0.016361138479928469 0.087475397361673313 0.21799598318712365 -0.18662913736216638
leaf_weight=13.814373617060481 6302.2334550957894 2.5367373580811536 60.003728488925844 16.673067954834554 23.71750462171622 22.677216701675206 135.03501757793128 33.514820438111201 5.6163951512426129 2.7097877773921928 69.135008034296334 41.659473957726732 1.1967265307903288 1.9057050184346724 5.6739752468420193 111.78124553442467 15.570272624026982 161.7070846860297 3.7472599050961426 4.162561612436547 173.59205608535558 596.47851322218776 151.31923201511381 67.48414974467596 8.3245535641908663 4.3029097872786215 58.402426512329839 21.641655930085108 1.6822489870246489 2.3660011424217364
leaf_count=128 82307 155 1487 410 590 136 2025 883 158 124 638 849 4 55 159 4444 530 1114 241 349 24151 14371 3452 4385 188 149 5736 269 286 56
internal_value=0.000367691 -0.0152182 -0.0143767 -0.0191373 -0.05304 -0.0162542 0.00536193 0.00712847 0.0184153 0.0227591 0.05646 -0.0253111 -0.114992 -0.0764062 0.0330487 0.00397316 0.00317007 0.0222744 -0.00501243 0.00360155 -0.0177444 -0.0216873 0.00348364 -0.0367805 -0.0278474 -0.0639822 0.007053 0.0526858 -0.0133746 0.00513741
internal_weight=8120.67 1525.63 1511.81 1218.04 95.4635 1122.58 293.77 291.233 216.059 209.246 71.8448 75.1743 6.81312 67.5834 7.57968 6595.04 6317.8 277.236 115.529 27.8801 1099.9 927.606 172.295 329.445 261.961 20.976 88.3686 29.9662 598.161 137.401
internal_count=149829 61193 61065 56173 2640 53533 4892 4737 3005 2843 762 1732 162 1701 214 88636 82837 5799 4685 939 53397 49386 4011 34729 30344 559 6193 457 14657 2081
is_linear=0
shrinkage=0.1


Tree=27
num_leaves=31
num_cat=0
split_feature=19 24 6 24 3 22 3 5 5 5 0 0 3 24 3 25 24 27 5 25 8 19 5 5 19 27 16 25 5 24
split_gain=13.1046 11.5739 10.3715 9.90687 9.75595 11.9419 10.8618 9.5058 9.27803 10.7034 9.02413 8.83731 14.8506 17.5014 16.6965 10.0627 26.9631 20.2285 14.8158 14.2632 13.4178 10.2867 8.45496 8.29757 8.24106 10.1112 8.17072 13.5715 14.0087 8.11537
threshold=-0.41906642913818354 0.015904636122286323 0.15792009234428409 0.72744959592819225 0.84529542922973644 12.250000000000002 0.75932756066322338 0.24540050327777865 0.26817299425601965 0.25237900018692022 0.99501600861549389 0.99206599593162548 0.88565579056739818 0.018237249925732616 0.89082732796669017 11.750000000000002 0.045569913461804397 0.94103157520294201 0.7945770025253297 14.750000000000002 0.99248650670051586 0.80824822187423717 0.24635650217533114 0.035612000152468688 0.6279052495956422 0.92599797248840343 0.99597325921058666 143.50000000000003 0.25282450020313268 0.039779055863618858
decision_type=2 2 2 2 2 2 2 2 2 2 2 2 2 2 2 2 2 2 2 2 2 2 2 2 2 2 2 2 2 2
left_child=2 26 3 23 6 -6 7 -4 9 -8 11 -3 13 -13 -14 -16 20 19 -19 -18 -17 -22 -21 -1 -12 -26 -2 -28 -29 -15
right_child=1 10 4 -5 5 -7 8 -9 -10 -11 24 12 14 29 15 16 17 18 -20 22 21 -23 -24 -25 25 -27 27 28 -30 -31
leaf_value=0.18701153716028138 0.093323847646481106 6.7409551601774773e-05 0.042606004485237083 -0.016412530621335502 -0.13172846267418642 0.015056797892204777 0.054694562704760689 -0.12120228480165976 0.089777541671188482 -0.10955688005233839 -0.1237841065727226 -0.23304798356614317 -0.15577950634395871 -0.018336759461516836 0.01438005663262115 -0.23807736268582344 -0.21350984196525313 -0.18718932413621003 -0.0017958180225745518 0.17117563277884945 -0.13221023549807093 0.026239596337550731 -0.0157293148838938 -0.085692145397446864 -0.16004652115133325 0.032812923775775091 0.028943283242273028 -0.017525347797168963 -0.24455881912508004 0.04081624992687654
leaf_weight=1.1601662449538732 16.425937291001901 6871.9063433494885 6.9914764170534891 512.19979614211479 8.6133463052101451 15.546416819677686 12.045479971915485 7.1813032352365553 33.279685076442547 5.915892594261094 3.6280903350561848 2.8709120196290305 11.44536026753485 38.305259749293327 36.995338249951601 2.2425421345978966 2.7049054764211169 23.694589591585103 5.2691758703440419 3.5037230513989908 4.5030711079016319 45.462479592300951 7.8271594089455903 29.147264988161623 2.7745911283418527 134.34320135856979 138.56545112258755 11.585424596443771 3.5507823731750241 58.786926366854459
leaf_count=2 70 110583 219 32888 172 594 254 272 727 252 19 43 91 262 138 17 12 168 21 8 38 171 86 1118 39 593 765 92 53 305
internal_value=-0.00067215 0.000504324 -0.0144947 -0.0196997 0.0170297 -0.0372745 0.0370862 -0.0403951 0.0585168 0.000595474 -0.000100154 -0.00059613 -0.0193136 0.0102839 -0.0399101 -0.0298788 -0.0470767 -0.105716 -0.153462 -0.0071879 0.00121948 0.0119595 0.0420652 -0.0752531 0.0249743 0.0289104 0.0262865 0.0191223 -0.0707848 0.0174789
internal_weight=8058.47 7426.39 632.081 542.507 89.5736 24.1598 65.4138 14.1728 51.2411 17.9614 7256.26 7115.52 243.611 99.9631 143.648 132.203 95.2076 42.9996 28.9638 14.0358 52.2081 49.9656 11.3309 30.3074 140.746 137.118 170.128 153.702 15.1362 97.0922
internal_count=150072 113574 36498 34008 2490 766 1724 491 1233 506 112594 111943 1360 610 750 659 521 295 189 106 226 209 94 1120 651 632 980 910 145 567
is_linear=0
shrinkage=0.1


Tree=28
num_leaves=31
num_cat=0
split_feature=23 21 21 21 1 15 3 3 15 15 28 6 22 5 22 28 5 6 22 3 15 5 22 15 16 3 6 50 50 6
split_gain=20.2673 11.0587 15.977 16.1147 16.4653 9.73571 11.3474 11.7502 14.1268 18.9824 10.6787 10.7681 9.72033 9.59177 14.5427 9.55688 8.8387 8.73512 8.57385 8.49581 9.17322 8.42007 8.01201 7.78026 7.54225 7.23821 7.36737 7.15027 7.7865 8.12104
