tree
version=v4
num_class=1
num_tree_per_iteration=1
label_index=0
max_feature_idx=50
objective=lambdarank
feature_names=Column_0 Column_1 Column_2 Column_3 Column_4 Column_5 Column_6 Column_7 Column_8 Column_9 Column_10 Column_11 Column_12 Column_13 Column_14 Column_15 Column_16 Column_17 Column_18 Column_19 Column_20 Column_21 Column_22 Column_23 Column_24 Column_25 Column_26 Column_27 Column_28 Column_29 Column_30 Column_31 Column_32 Column_33 Column_34 Column_35 Column_36 Column_37 Column_38 Column_39 Column_40 Column_41 Column_42 Column_43 Column_44 Column_45 Column_46 Column_47 Column_48 Column_49 Column_50
feature_infos=[0.030851000919938087:1] [0.030851000919938087:1] [0.030851000919938087:1] [0.05394899845123291:0.999991774559021] [0.053998999297618866:1] [0.030851000919938087:0.99993300437927246] [1.2651160432142206e-05:0.34338095784187317] [0.05394899845123291:0.999991774559021] [0.053998999297618866:1] [0.030851000919938087:0.99993300437927246] [1.2651160432142206e-05:0.34338095784187317] [0.05394899845123291:0.999991774559021] [0.053998999297618866:1] [0.030851000919938087:0.99993300437927246] [1.2651160432142206e-05:0.34338095784187317] [-7.791168212890625:13.180939674377441] [0:1] [-7.791168212890625:13.180939674377441] [0:1] [-7.791168212890625:13.180939674377441] [0:1] [1:276] [1:276] [0.0036231884732842445:1] [0.0036231884732842445:1] [1:276] [1:276] [0.0036231884732842445:1] [0.0036231884732842445:1] [1:276] [1:276] [0.0036231884732842445:1] [0.0036231884732842445:1] none [0.99999970197677612:1] [0.030851000919938087:1] [0.030851000919938087:1] none none [1:276] [1:276] none [0.99533343315124512:1.0052183866500854] [-7.791168212890625:13.180939674377441] [-7.791168212890625:13.180939674377441] none [0:1] [0:1] [0:1] [0.030851000919938087:1] [2:276]
tree_sizes=3482 3475 3464 3473 3458 3474 3471 3434 3503 3486 3476 3470 3477 3482

Tree=0
num_leaves=31
num_cat=0
split_feature=23 24 0 17 17 0 22 4 0 4 3 6 22 0 4 0 3 4 0 48 17 23 3 4 3 4 3 48 6 17
split_gain=1408.53 382.894 75.3805 57.4739 49.9531 44.4399 25.5545 24.7026 24.2325 24.0141 13.5836 13.2006 13.0297 13.0198 12.7984 16.5572 11.7902 11.3225 10.4634 11.521 12.2175 10.2547 9.86014 16.0632 9.85991 9.59564 9.48507 9.29503 9.35474 9.227
threshold=0.4607586562633515 0.25049801170825964 0.97446149587631237 -0.41867117583751673 0.61771410703659069 0.38050200045108801 39.250000000000007 0.99321049451828014 0.99473950266838085 0.98574498295784008 0.92679738998413097 0.16152334213256839 238.50000000000003 0.83596098423004161 0.99524497985839855 0.9236765205860139 0.80474066734313976 0.97798898816108715 0.78641149401664745 0.45369236171245581 -0.13650731742382047 0.89046096801757824 0.84723621606826793 0.98296448588371288 0.82934623956680309 0.99618050456047069 0.82438689470291149 0.35899515450000768 0.050804909318685539 0.22771994024515155
decision_type=2 2 2 2 2 2 2 2 2 2 2 2 2 2 2 2 2 2 2 2 2 2 2 2 2 2 2 2 2 2
left_child=3 2 21 5 6 -1 14 17 10 11 -4 18 -9 16 22 -16 -11 -7 26 -20 -21 -2 23 -3 -25 -8 -5 28 -19 -15
right_child=1 4 8 9 -6 7 25 12 -10 13 -12 -13 -14 29 15 -17 -18 27 19 20 -22 -23 -24 24 -26 -27 -28 -29 -30 -31
leaf_value=-0.036934492676122609 0.04171319312585986 -0.005573206529082427 0.096034166442714383 -0.0014252398937347128 0.036095497141755979 -0.076947913155406417 -0.04103447810656638 -0.15377750968659634 0.1480122811085392 -0.0027456993542526609 0.04851259796146698 -0.095749958594645371 0.12842065365895722 -0.077880319121075528 -0.13477523105926906 -0.018392663838484754 -0.1486214447317836 -0.079870819892124356 0.1436350101876947 -0.085963000382968183 -0.026491213249972147 0.067001646632849562 0.0059144839551983049 -0.14470266770008031 -0.033962349986993885 -0.12777200067807054 0.15279829889534505 -0.10121648424537276 -0.15111439158997439 -0.021573354458259957
leaf_weight=82.928700142612797 407.87046413215285 128.09465341446048 605.24097978133068 37.689504220834351 339.7488417767745 118.66113842738559 104.12722669758659 145.68916789790819 84.895118742773775 6.4175896325905333 66.787198130332399 35.283327925892081 1.6547399763949204 302.07917131240538 15.309645827423081 60.64888432493899 40.54395290123648 23.24035008464125 3.3159540814813218 49.727221773850033 113.12543960713083 264.2394499957154 721.685352438275 14.75698970799567 17.664093194412999 14.534736561094176 4.4597315815044558 227.7854535544684 89.056292760520591 32.205646507441998
leaf_count=3103 14882 3366 12707 1740 8541 3916 9651 10448 953 446 823 852 86 16462 950 2138 4103 445 22 2146 3898 6426 18849 835 777 1958 54 14332 4034 933
internal_value=-3.44334e-05 0.039507 0.0760286 -0.0856744 0.00266405 -0.105592 -0.00788393 -0.114986 0.0976709 -0.0637116 0.0913114 -0.0391866 -0.150608 -0.0793821 -0.00246269 -0.0418499 -0.128687 -0.103544 -0.0296063 -0.0408937 -0.044651 0.0516553 0.000928596 -0.0214882 -0.0843676 -0.0516588 0.0148929 -0.112824 -0.13637 -0.0724556
internal_weight=4159.47 2845.6 1429.03 1313.86 1416.57 689.016 1076.82 606.087 756.923 624.848 672.028 243.601 147.344 381.246 958.16 75.9585 46.9615 458.743 208.318 166.169 162.853 672.11 882.201 160.516 32.4211 118.662 42.1492 340.082 112.297 334.285
internal_count=149876 82856 35791 67020 47065 36364 38524 33261 14483 30656 13530 8712 10534 21944 26915 3088 4549 22727 7860 6066 6044 21308 23827 4978 1612 11609 1794 18811 4479 17395
is_linear=0
shrinkage=0.1


Tree=1
num_leaves=31
num_cat=0
split_feature=0 8 0 23 8 16 24 0 16 21 21 3 23 6 0 0 6 15 6 23 0 0 0 23 15 23 26 3 15 21
split_gain=269.405 144.075 118.426 68.9422 51.469 76.2331 60.7009 40.3993 28.6694 66.6273 49.9935 40.1673 37.8193 53.0048 32.5354 34.7074 30.9696 30.2689 33.4058 29.8332 25.4135 25.3218 53.7954 35.3162 34.4406 31.5256 26.7502 27.6213 25.1388 24.9375
threshold=0.9386115074157716 0.99464499950408947 0.99442401528358471 0.95463120937347423 0.9724174737930299 0.772587150335312 0.13569634407758716 0.90242749452590953 0.99999985098838817 8.7500000000000018 3.7500000000000004 0.92146247625350963 0.85742518305778515 0.039084851741790778 0.97002351284027111 0.9664994776248933 0.23416089266538623 1.0932746529579165 0.052366323769092567 0.99246704578399669 0.96174550056457531 0.98880049586296093 0.98797750473022472 0.89587205648422252 0.97229361534118663 0.99024364352226268 2.5000000000000004 0.86165815591812145 1.1647340655326845 19.750000000000004
decision_type=2 2 2 2 2 2 2 2 2 2 2 2 2 2 2 2 2 2 2 2 2 2 2 2 2 2 2 2 2 2
left_child=1 4 8 -4 6 -6 -1 -3 12 10 -10 14 -2 -14 15 20 19 18 -13 21 -11 22 25 -23 29 28 27 -25 -15 -24
right_child=2 7 3 -5 5 -7 -8 -9 9 11 -12 17 13 16 -16 -17 -18 -19 -20 -21 -22 23 24 26 -26 -27 -28 -29 -30 -31
leaf_value=-0.054320196008781345 0.013221261835896767 -0.11138487027745179 -0.061560877684728982 0.073772596392985376 -0.04422759100197609 -0.0073154897421143983 0.0078556475869471492 -0.040445132074811499 -0.026214588842551914 -0.061931081303157443 0.074578196578256817 0.1020128176065077 -0.06499264065333954 -0.0047568465304522424 0.022175740349929928 -0.15385656652165589 -0.15509249021864704 -0.1146698658391595 -0.047201744996618597 0.099146300266483842 0.059684567350414525 -0.11088805387740075 -0.2011652666640501 0.080211352368681946 -0.20399153362603173 -0.20786681678186725 0.050216454868184761 -0.01599320325775298 0.027412183009411419 -0.0016238636495537547
leaf_weight=179.96028927993029 3003.1207896054548 203.77150188473752 41.513833331409842 403.6147140013054 1043.1602615950396 1206.7686848070007 1231.7059251222527 132.46245659468696 58.819573484361172 38.165043268352747 301.21602201834321 20.022882275283337 129.93629620037973 2186.9887600550428 762.02371455682442 21.01585396938026 12.782730892300604 41.989503145217896 59.854164354503155 30.587855890393257 31.252991760149598 19.326860891655087 7.894477864727377 36.200829220935702 20.321113941492513 7.4021542165428391 235.81604871759191 169.94438723381609 273.27765433629975 30.307468925137073
leaf_count=984 26473 13795 180 952 36520 33639 12765 4374 74 111 422 29 220 13232 2112 70 29 112 122 97 63 133 19 112 175 79 1233 576 1157 178
internal_value=0.000381385 -0.020791 0.0110372 0.061151 -0.0150383 -0.0244295 -7.05765e-05 -0.0834375 0.00806224 0.0213521 0.0581115 0.00776864 0.00518526 -0.00244989 0.0154456 -0.0412645 0.000231393 -0.0459319 -0.00979794 0.000889252 -0.00717798 -0.000116771 -0.0040509 0.021428 -0.0988097 -0.0018036 0.0272142 0.000901124 -0.00118362 -0.0428593
internal_weight=11941.2 3997.83 7943.4 445.129 3661.6 2249.93 1411.67 336.234 7498.27 1334.36 360.036 974.324 6163.91 3160.79 852.458 90.4339 3030.85 121.867 79.877 3018.07 69.418 2987.48 2526.19 461.288 58.5231 2467.67 441.961 206.145 2460.27 38.2019
internal_count=150037 102077 47960 1132 83908 70159 13749 18169 46828 3115 496 2619 43713 17240 2356 244 17020 263 151 16991 174 16894 14840 2054 372 14468 1921 688 14389 197
is_linear=0
shrinkage=0.1


Tree=2
num_leaves=31
num_cat=0
split_feature=24 12 23 24 15 12 0 16 46 0 23 7 10 15 12 10 16 0 22 15 10 12 16 21 15 23 10 7 10 12
split_gain=390.232 121.938 88.9918 74.9068 58.0314 43.7634 38.2723 35.9309 29.9022 29.6572 26.944 29.392 26.8188 25.9274 25.8466 24.5521 28.7451 24.0576 28.9568 23.0447 39.9024 21.9983 23.708 21.9458 21.8826 21.2745 20.6204 20.9287 20.1191 19.182
threshold=0.31948553025722509 0.99476400017738353 0.95463120937347423 0.0658288709819317 -0.7113971710205077 0.99330648779869091 0.85065999627113353 0.8751189410686494 0.99999526143074047 0.38050200045108801 0.96560174226760875 0.75743678212165844 0.023014153353869918 -1.2750539779663084 0.99327498674392711 0.20501854270696643 0.81086269021034252 0.98170500993728649 2.5000000000000004 -0.26400505006313318 0.11622266843914987 0.99435248970985424 0.9777699112892152 46.750000000000007 0.61211219429969799 0.96677702665328991 0.10480188950896265 0.91794320940971386 0.23849418759346011 0.97846651077270519
decision_type=2 2 2 2 2 2 2 2 2 2 2 2 2 2 2 2 2 2 2 2 2 2 2 2 2 2 2 2 2 2
left_child=2 4 7 5 9 10 -3 14 -6 13 23 -12 -9 -2 19 -10 -17 -8 -19 -1 -21 22 26 -4 -7 -13 27 -5 -24 -11
right_child=1 6 3 21 8 24 17 12 15 29 11 25 -14 -15 -16 16 -18 18 -20 20 -22 -23 28 -25 -26 -27 -28 -29 -30 -31
leaf_value=0.20059677879539184 0.024234795744212955 -0.12336517659111819 -0.12988805042329674 -0.20681232720641385 0.026895808415846698 -0.2113218364534456 -0.062312565014054001 -0.18423850333287584 -0.011914997140314123 -0.02927440757900094 0.077109504420887681 -0.20727032868534248 0.010709245883507482 -0.093774288531010358 -0.11080032758997659 -0.16817851492254801 -0.035497201405069539 -0.17372849362157006 0.085472454210853574 -0.0037041083705964006 -0.09629485702710977 0.099941158708541006 0.04880267674406466 0.057485405239809363 0.044452282993604979 -0.0020183395407320382 0.069630474167593256 0.067404219647814498 0.11281426413207432 -0.072565899431232678
leaf_weight=4.9661781787872306 89.170429314835928 105.5090263140155 6.5638940660282961 9.6523593403399008 187.61949583794922 3.366612557321786 329.31212746805977 7.0700980434194198 3407.2722701882012 155.79516165447421 48.090455365134403 5.0801176978275171 3727.0976639568107 23.530712910462171 29.26930428459309 17.699021299369633 210.85612636432052 5.3511339575052288 22.152046779170632 346.25174815114588 53.772138274041936 105.75295097148046 565.58027051296085 131.03850865573622 519.0207173184026 849.26996706263162 8.6812328323721868 3.9110118597745887 53.768981520086527 298.35476412158459
leaf_count=4 1630 8677 59 65 296 16 10316 35 62475 3008 288 65 33258 429 504 186 809 14 79 2829 776 224 1299 685 2065 3726 26 11 98 16182
internal_value=-0.000163055 -0.0216053 0.0158987 0.0316439 -0.0164612 0.0191891 -0.0704542 0.00717403 -0.0120344 -0.0463204 0.00732796 0.0010429 0.0103401 -0.000404155 -0.0200511 -0.0140433 -0.0457719 -0.0548086 0.0350412 -0.0134925 -0.0161504 0.0576823 0.0507168 0.0485473 0.0428039 -0.0032388 -0.0507148 -0.127742 0.0543599 -0.0577148
internal_weight=11330.8 4852.62 6478.2 2309.78 4390.3 1562.43 462.324 4168.43 3823.45 566.851 1040.04 902.441 3734.17 112.701 434.259 3635.83 228.555 356.815 27.5032 404.99 400.024 747.347 641.594 137.602 522.387 854.35 22.2446 13.5634 619.349 454.15
internal_count=150134 104101 46033 8627 85015 6904 19086 37406 63766 21249 4823 4079 33293 2059 4113 63470 995 10409 93 3609 3605 1723 1499 744 2081 3791 102 76 1397 19190
is_linear=0
shrinkage=0.1


Tree=3
num_leaves=31
num_cat=0
split_feature=16 31 22 4 4 16 16 0 6 0 3 16 6 16 15 15 0 21 4 6 15 24 24 21 15 6 0 9 16 15
split_gain=310.425 80.677 80.2647 49.8041 38.8508 33.3028 33.615 30.7273 28.2299 27.1262 22.9613 24.7538 21.3271 30.5952 25.2811 27.2782 20.9691 20.901 20.1404 19.2688 18.4365 23.0374 21.3532 18.3707 17.6331 17.4384 17.0321 16.9362 16.085 15.5893
threshold=0.90069881081581127 0.25846518576145178 2.5000000000000004 0.99473750591278087 0.99371448159217846 0.1440241485834122 0.18333535641431811 0.98411300778388988 0.15502110868692401 0.99442401528358471 0.9142204523086549 0.94199031591415416 0.20782765001058581 0.99528560042381298 1.1647340655326845 1.1583043336868288 0.90433600544929515 3.7500000000000004 0.95919349789619457 0.11199254170060159 -2.2367043495178218 0.94455423951148998 0.93450284004211437 89.750000000000014 0.40464660525321966 0.080726668238639845 0.90755450725555431 0.57696500420570385 0.0076100146397948274 -0.66245192289352406
decision_type=2 2 2 2 2 2 2 2 2 2 2 2 2 2 2 2 2 2 2 2 2 2 2 2 2 2 2 2 2 2
left_child=1 4 9 5 16 19 -7 17 23 12 -9 -12 14 -14 15 -2 18 -4 20 24 -1 22 -22 29 -3 -23 -25 -11 -5 -8
right_child=2 3 7 28 -6 6 8 10 -10 27 11 -13 13 -15 -16 -17 -18 -19 -20 -21 21 25 -24 26 -26 -27 -28 -29 -30 -31
leaf_value=0.085309631266330579 0.014474617057167891 -0.0013027199557341662 -0.082615904495433434 0.14600053909460772 -0.10458240046998478 -0.16494160863251439 -0.092432258257243272 0.033161168981541859 -0.057112690464891529 0.031553653514523404 0.089113999275316505 -0.059579612513264962 -0.021743342936114775 0.084391188279814844 0.040029003761199861 -0.18124056718287485 0.041134196013586713 0.00097201829142815543 -0.054913774418989307 0.064165988157739773 -0.012818315931001086 -0.027665092149252057 0.15196256964575244 -0.16176234380333673 0.11955095208111782 -0.16547178505519489 0.017804069053730394 0.078186767909824914 -0.059362822190033943 -0.010933823940102011
leaf_weight=17.660426291637123 1541.0882513353135 230.23793005663902 30.168062692508101 3.8675409555435172 119.27853976745973 15.065534586086867 23.700651241466403 486.95536178123439 150.99311385024339 161.9944815794006 14.119036715012042 54.076562606263906 35.726348370313644 113.28374040871859 470.97711829608306 7.1544927190989247 28.645711999153718 3557.3359746939968 510.22777421661885 71.27296157926321 51.846493746619672 21.153593841474503 9.2702057068236154 15.494617718388328 12.740914774127303 16.226394207216799 8.0143809285946173 149.98800753057003 275.28604369179811 2420.371681808494
leaf_count=106 4749 2131 139 4 9607 220 463 3362 3071 497 40 363 122 241 1571 50 270 39845 24865 234 1357 325 86 1650 104 225 454 335 10779 42629
internal_value=-0.00111134 -0.0231026 0.0121752 -0.0161471 -0.0520905 -0.0123242 -0.0159957 0.00365702 -0.0151388 0.0264028 0.0255504 -0.0287945 0.0224358 0.0589446 0.0197416 0.0135702 -0.0425319 0.00026911 -0.0463581 0.0184456 -0.00877676 -0.0256464 0.0121757 -0.0125704 0.0050344 -0.087486 -0.100547 0.0539729 -0.0565176 -0.0117241
internal_weight=10624.2 4001.35 6622.87 3227.05 774.309 2947.89 2633.64 4142.65 2618.57 2480.21 555.151 68.1956 2168.23 149.01 2019.22 1548.24 655.031 3587.5 626.385 314.252 116.157 98.4967 61.1167 2467.58 242.979 37.38 23.509 311.982 279.154 2444.07
internal_count=149894 98580 51314 61739 36841 50956 48487 43749 48267 7565 3765 403 6733 363 6370 4799 27234 39984 26964 2469 2099 1993 1443 45196 2235 550 2104 832 10783 43092
is_linear=0
shrinkage=0.1


Tree=4
num_leaves=31
num_cat=0
split_feature=24 4 1 1 27 4 50 16 21 15 4 1 16 1 3 3 16 1 27 24 24 1 3 3 9 16 6 15 15 16
split_gain=234.94 75.0866 52.0514 50.952 40.6306 31.0595 27.3305 28.1908 23.5402 27.6115 21.5686 19.2988 30.3755 36.39 25.1033 20.4952 19.9621 22.1526 18.1034 21.3718 18.0009 17.0326 17.5422 18.282 17.3047 20.5131 16.7685 23.0865 21.4593 16.828
threshold=0.3296902477741242 0.99387249350547802 0.99442401528358471 0.86369147896766674 0.41163456439971929 0.98093998432159435 8.5000000000000018 0.99999985098838817 71.750000000000014 0.90014371275901806 0.98869499564170849 0.96873751282691967 0.90302646160125744 0.97017648816108715 0.8458995819091798 0.92669847607612621 0.95756718516349804 0.96793749928474437 0.95751127600669872 0.068227455019950881 0.022514150477945808 0.98052647709846508 0.7939470410346986 0.75255015492439281 0.41050601005554205 0.99312949180603038 0.1554706543684006 0.73750600218772899 0.66780492663383495 0.96172788739204418
decision_type=2 2 2 2 2 2 2 2 2 2 2 2 2 2 2 2 2 2 2 2 2 2 2 2 2 2 2 2 2 2
left_child=2 4 6 -3 5 -2 7 10 -4 -10 -1 15 13 -13 21 16 18 26 19 -8 -11 22 23 -14 25 -23 -18 28 29 -28
right_child=1 3 8 -5 -6 -7 11 -9 9 20 -12 12 14 -15 -16 -17 17 -19 -20 -21 -22 24 -24 -25 -26 -27 27 -29 -30 -31
leaf_value=0.02421104216995203 -0.0091044989843815025 -0.10688559846366755 0.066769014420859168 -0.034618746904912234 -0.0047650749562970487 -0.041814691183047779 -0.20606362247020407 0.063816880274891311 -0.20936545877927148 0.050692199796595998 -0.078302916708702791 0.070489732240782019 0.024527552521733317 -0.16559674999455978 0.012695127392062994 -0.079996098242625283 -0.016372524799801291 -0.10057150802945143 0.079364845072803003 0.0087782131958361338 -0.050069346156346034 0.081751288659817359 0.026866313987985731 -0.20989783747618068 0.10493364712484553 0.0026377949253574427 -0.17198480732906674 0.080486377544903301 -0.2039751948758633 0.017070327280804376
leaf_weight=98.025919761508703 524.09806027321611 127.7269005929702 257.37109203357249 413.11492007935885 2564.0678449135739 650.69392765662633 4.6437377154943524 193.65606915764511 5.5034729065373531 61.505008667707443 25.958701253868639 9.8259320091456193 6.6196321016177517 19.457632744684815 2688.00326462253 29.4812763473019 463.32394879078493 26.587441307492554 36.515750487800688 1592.195845694223 24.910720899701118 63.028526060516015 139.95407066727057 6.6875535286962986 61.381356013007462 68.277512401808053 5.0033951438963404 46.752031510230154 5.1678866706788531 79.804154088720679
leaf_count=241 10583 12489 673 12138 33062 34135 121 458 48 234 107 38 34 119 15700 164 4339 367 240 21475 142 435 1011 82 157 382 55 198 33 342
internal_value=0.00105325 -0.0168591 0.0137881 -0.0516855 -0.0118213 -0.027222 0.0114802 0.0399797 0.0512546 0.00781473 0.00274766 0.00978901 0.0149801 -0.0863793 0.0159584 0.00284355 0.00392418 -0.0112492 0.00974546 0.00815344 0.0216461 0.0413138 0.0164341 -0.0932834 0.0611028 0.0406133 -0.00729142 0.0234814 -0.00613885 0.00591663
internal_weight=10299.3 4279.7 6019.64 540.842 3738.86 1174.79 5670.35 317.641 349.29 91.9192 123.985 5352.71 3063.24 29.2836 3033.95 2289.48 2259.99 626.639 1633.36 1596.84 86.4157 345.949 153.261 13.3072 192.687 131.306 600.051 136.727 89.9754 84.8075
internal_count=149602 102407 47195 24627 77780 44718 46098 806 1097 424 348 45292 17958 157 17801 27334 27170 5334 21836 21596 376 2101 1127 116 974 817 4967 628 430 397
is_linear=0
shrinkage=0.1


Tree=5
num_leaves=31
num_cat=0
split_feature=24 4 21 0 17 0 16 17 23 0 24 24 21 22 0 24 3 3 24 22 22 24 6 24 3 0 5 24 24 24
split_gain=161.486 59.4814 56.4751 40.8356 40.0845 31.646 29.8321 27.1169 32.9571 25.659 25.4579 20.5632 20.0971 19.4108 18.5529 23.8041 21.5345 18.0572 24.6957 17.3114 15.9022 15.6573 24.0956 19.6464 25.1888 34.6652 15.0238 24.5788 14.9971 16.74
threshold=0.31948553025722509 0.9937570095062257 10.500000000000002 0.91225001215934765 -0.77584719657897938 0.9565354883670808 0.99999991059303295 1.3427657485008242 0.96231487393379223 0.27960300445556646 0.12476415187120439 0.90889328718185436 3.7500000000000004 3.5000000000000004 0.99442401528358471 0.011527473106980326 0.8458995819091798 0.85641586780548107 0.023301058448851112 36.750000000000007 90.250000000000014 0.030803117901086811 0.14543731510639193 0.026631206274032596 0.88655704259872448 0.9896644949913026 0.68411400914192211 0.18075692653656009 0.20595625042915347 0.230626255273819
decision_type=2 2 2 2 2 2 2 2 2 2 2 2 2 2 2 2 2 2 2 2 2 2 2 2 2 2 2 2 2 2
left_child=2 4 6 -3 9 19 10 14 -9 -2 -1 12 -6 -11 16 -16 -7 18 -17 26 -14 22 23 -18 -25 -26 -4 -28 -29 -30
right_child=1 3 5 -5 11 7 -8 8 -10 13 -12 -13 20 -15 15 17 21 -19 -20 -21 -22 -23 -24 24 25 -27 27 28 29 -31
leaf_value=-0.15232481739869377 0.012698312104411517 -0.079219909586208781 -0.0015222780023478584 -0.022818676796790907 -0.027776118464931013 0.030396453059182257 0.066679232980207823 -0.13662616345399772 0.067962947852942393 0.078572948744956128 0.025973076496351912 0.026981464076829987 -0.0041964966940003651 -0.055509862716340702 -0.075580505224852934 -0.19345117941957979 0.0010685028509137262 0.054059829966886457 0.020703706976939074 -0.077578142107293913 -0.078087342593212469 0.0076547546632115201 -0.1962467015558278 -0.1415956062121308 0.06114590584873815 -0.19072823309520656 -0.14986401882807729 0.075323020020972076 -0.18850089786732652 -0.020777858581833425
leaf_weight=8.1602267473936063 77.158400909160264 219.2521878729458 1094.4323654664331 309.68754618661478 456.93319933721796 389.28653034032322 237.30563465319574 8.387087451759724 128.65616483567283 11.160723200067876 429.56530143972486 173.22407389152795 2568.4459309275262 331.1426201822469 17.909316165838391 6.9682621080428389 213.56007374636829 215.25473186280578 23.695624008309096 33.53732671122998 29.459697057493031 2831.5375452178996 7.3300505988299838 24.400128461886197 21.332658858969811 7.3457487225532523 17.67900681681931 13.840815436094998 6.7574781514704219 49.843528059311211
leaf_count=23 1491 18992 14016 6925 1767 3044 591 66 417 30 1361 814 52197 16691 113 48 1152 674 110 1955 5091 21118 54 244 66 51 132 65 77 518
internal_value=0.000126967 -0.0148589 0.0109426 -0.0461977 -0.0103144 0.0073527 0.0381278 0.0117488 0.055442 -0.0393957 0.0226492 -0.00653547 -0.00843604 -0.0511381 0.0101557 0.0357263 0.00822531 0.0438324 -0.0279623 -0.00672988 -0.0050344 0.00544608 -0.0173812 -0.0124641 -0.0669119 -0.00336968 -0.00472061 -0.0444429 -0.0179851 -0.040802
internal_weight=9963.25 4176.46 5786.79 528.94 3647.52 5111.75 675.031 3895.66 137.043 419.462 437.726 3228.06 3054.84 342.303 3758.62 263.828 3494.79 245.919 30.6639 1216.09 2597.91 3105.51 273.969 266.639 53.0785 28.6784 1182.55 88.1208 70.4418 56.601
internal_count=149893 103998 45895 25917 78081 43920 1975 27157 483 18212 1384 59869 59055 16721 26674 945 25729 832 158 16763 57288 22685 1567 1513 361 117 14808 792 660 595
is_linear=0
shrinkage=0.1


Tree=6
num_leaves=31
num_cat=0
split_feature=1 4 1 16 4 4 4 1 6 1 50 11 16 23 4 5 24 15 1 5 4 4 11 11 4 1 15 5 50 50
split_gain=166.952 77.3188 49.5772 33.4662 32.4588 41.8723 30.3319 30.2249 19.6057 19.6992 18.3547 20.4089 39.2804 29.5427 22.3799 20.3159 19.0481 28.2641 20.4925 19.5765 17.8012 23.6256 20.5198 17.792 17.6683 16.5617 15.444 20.476 15.1918 17.5659
threshold=0.96205249428749096 0.9935705065727235 0.98921701312065136 0.79322597384452831 0.98973849415779125 0.9901770055294038 0.97660148143768322 0.90985748171806347 0.040822556242346771 0.27960300445556646 21.500000000000004 0.8458995819091798 0.99755537509918224 0.97731563448905956 0.98339250683784496 0.23447099328041079 0.071563344448804869 1.2809835076332095 0.98433649539947521 0.23636250197887423 0.98474651575088512 0.98618200421333324 0.85589438676834118 0.9379791021347047 0.97729498147964489 0.93930050730705272 1.0697735548019411 0.3440805077552796 119.50000000000001 20.500000000000004
decision_type=2 2 2 2 2 2 2 2 2 2 2 2 2 2 2 2 2 2 2 2 2 2 2 2 2 2 2 2 2 2
left_child=1 3 10 6 -4 -6 25 -3 24 -10 -2 15 13 16 -15 -12 17 18 19 -13 22 -22 -14 28 -8 -1 27 -23 29 -5
right_child=2 7 4 23 5 -7 8 -9 9 -11 11 12 20 14 -16 -17 -18 -19 -20 -21 21 26 -24 -25 -26 -27 -28 -29 -30 -31
leaf_value=-0.0083184072354801613 0.017326207565096584 -0.076608515329839838 0.11095018833081947 -0.010106032938125464 -0.11531071034363274 0.031729772715745383 -0.16559736556780769 -0.029619908447079075 0.030071520515799133 -0.041087370735450018 -0.2169196854969434 -0.21202263961488099 -0.17724993231956426 -0.14373716083563523 0.066918212772574412 0.030033207261021617 0.0053253789720481906 0.10574914214972105 0.004656637856900534 -0.04243616561438765 -0.20260332067120745 -0.088528544494340042 -0.0037409745871152342 -0.1012353486889416 0.014983986873468566 0.064329026531563027 -0.13766284080691607 0.046238768672377764 -0.032225204690253355 0.006935800916577169
leaf_weight=860.6394443664467 1303.0324602141045 211.89634869448491 50.57266678288579 924.73623183788732 19.75251317024231 991.27048211125657 5.6919613406062117 386.73954851896269 41.048666070448235 744.51059705391526 3.3712091417983165 7.0651375111192456 7.4231421779841176 5.3272797241806975 94.598711857106537 281.08782960381359 1216.2908480091719 16.459582791663706 115.13483556453139 186.26141570392065 13.662114286795257 24.622440500650555 83.333195650367998 17.702328693121672 112.62178472179221 32.568280823528767 17.381621306296438 20.795779807493091 144.71528434345964 1748.40758606093
leaf_count=11881 4387 19709 99 5048 96 4141 16 10463 957 33269 103 113 48 69 505 2190 12185 57 692 1447 102 139 328 91 716 80 130 61 8941 31991
internal_value=-0.000315212 -0.0124324 0.0139056 -0.00806216 0.0327678 0.028857 -0.0187386 -0.0462522 -0.0316534 -0.037369 0.00800895 0.00220783 -0.0017088 0.00299572 0.0556877 0.0271065 -0.000420612 -0.0219298 -0.0287428 -0.0486337 -0.0478806 -0.0834272 -0.0179326 -0.00129582 0.00629639 -0.00566953 -0.0575005 -0.0268222 -0.000667985 0.00104042
internal_weight=9688.72 5231.28 4457.44 4632.64 1061.6 1011.02 1797.08 598.636 903.873 785.559 3395.85 2092.82 1808.36 1641.14 99.926 284.459 1541.21 324.921 308.461 193.327 167.218 76.462 90.7563 2835.56 118.314 893.208 62.7998 45.4182 2817.86 2673.14
internal_count=150054 123162 26892 92990 4336 4237 46919 30172 34958 34226 22556 18169 15876 15068 574 2293 14494 2309 2252 1560 808 432 376 46071 732 11961 330 200 45980 37039
is_linear=0
shrinkage=0.1


Tree=7
num_leaves=31
num_cat=0
split_feature=0 8 0 15 24 23 0 23 7 24 21 21 5 15 5 7 21 0 0 7 15 7 8 6 15 8 8 8 8 21
split_gain=146.726 40.9109 39.2507 37.3719 24.1973 18.1217 23.9814 16.5337 13.4574 23.4574 15.4748 27.8792 18.4424 16.1423 19.041 15.3279 16.4343 23.2396 19.3501 29.3857 18.998 16.2964 15.569 15.2699 17.0557 23.3078 15.8032 19.2633 15.8454 14.7676
threshold=0.95989650487899791 0.99126300215721141 0.92061850428581249 1.1647340655326845 0.074179895222187056 0.94919556379318248 0.97033798694610607 0.86847350001335155 0.96088886260986339 0.093813776969909682 120.75000000000001 110.75000000000001 0.23702449351549151 1.0168862938880923 0.26179850101470953 0.87929558753967296 31.750000000000004 0.99206748604774486 0.99442401528358471 0.88435205817222606 0.67071208357810985 0.90236431360244762 0.98002898693084728 0.10278902202844621 1.0052269101142886 0.97495749592781078 0.9935705065727235 0.99121949076652538 0.99083697795867931 122.25000000000001
decision_type=2 2 2 2 2 2 2 2 2 2 2 2 2 2 2 2 2 2 2 2 2 2 2 2 2 2 2 2 2 2
left_child=1 4 7 5 -1 -2 -7 -3 9 10 11 12 -8 14 -13 23 17 -17 19 -19 -18 -21 -22 -14 25 -25 27 28 -27 -12
right_child=3 2 -4 -5 -6 6 8 -9 -10 -11 29 13 15 -15 -16 16 20 18 -20 21 22 -23 -24 24 -26 26 -28 -29 -30 -31
leaf_value=0.039129457638248724 0.0041534276835200239 -0.052787498446445924 -0.012681728230891288 0.037734958171994432 -0.0086740732949215152 -0.032060492045672399 0.072753616074838975 0.13490112604776514 -0.041046746052320005 0.052110531554452159 0.13706609235954342 -0.1356515941022079 -0.11033931751556814 -0.21886307997672955 0.0815556696146401 0.020761837755953787 -0.11492971112850495 0.13378573409700964 0.011627918796330071 -0.21345338114282739 -0.21814452002831938 -0.072155598643232358 0.043325351976764626 0.088650826981253164 0.026323261573070494 -0.044170975477425996 0.015185183336175526 -0.13775517561887832 0.094070717728477138 0.036501606570462725
leaf_weight=108.9793233362725 2491.4300520126708 469.0323690926889 620.19155873463023 527.37713346967939 3733.1627718063537 90.305655595147982 53.154778649564832 4.7409188644960514 34.083022765815258 225.61612873896956 16.718475158326328 9.1191246523521894 13.118953684344886 7.2399006471969178 7.2402741555124512 237.44601757265627 7.9718994349241248 5.1697615124285212 35.414439916610718 12.496359998360274 2.2941542360931626 23.535777664743364 309.77407320810016 18.165862967376597 140.03862357744947 96.009878184529953 53.726639114320278 20.708970778156072 9.0750615205615741 115.36079275049269
leaf_count=755 19631 36083 14387 2342 69625 539 228 17 80 571 45 125 116 117 37 677 63 8 129 64 23 83 1386 40 707 502 256 177 30 941
internal_value=-0.000226887 -0.012176 -0.0292373 0.0127004 -0.00731816 0.00942858 0.0179419 -0.0509094 0.0210485 0.0225396 0.0169509 0.0129351 0.0153784 -0.0945403 -0.0395209 0.012282 0.0215612 0.00530985 -0.0425783 -0.0891704 0.0375091 -0.121159 0.0414032 -0.00448893 -0.000377169 -0.0192914 -0.0302142 -0.0496043 -0.0322325 0.049231
internal_weight=9498.7 4936.11 1093.96 4562.59 3842.14 4035.21 1543.78 473.773 1453.48 1419.4 1193.78 1061.7 1038.1 23.5993 16.3594 984.946 634.102 314.062 76.6163 41.2019 320.04 36.0321 312.068 350.844 337.725 197.686 179.521 125.794 105.085 132.079
internal_count=149784 120867 50487 28917 70380 26575 6944 36100 6405 6325 5754 4768 4489 279 162 4261 2433 961 284 155 1472 147 1409 1828 1712 1005 965 709 532 986
is_linear=0
shrinkage=0.1


Tree=8
num_leaves=31
num_cat=0
split_feature=23 15 4 21 0 4 0 3 16 23 16 16 21 4 3 28 15 23 4 3 3 21 28 50 28 3 50 9 9 3
split_gain=121.758 55.8353 59.6035 26.3293 21.3194 20.8509 26.7219 22.505 19.1146 18.937 22.0647 18.5902 18.2303 27.5895 21.8089 19.1822 17.581 17.2838 14.7406 20.0018 17.8492 15.2898 14.7334 14.7157 14.9237 18.4794 14.4713 15.1693 22.5784 22.5261
threshold=0.95463120937347423 0.56405916810035717 0.99335598945617687 3.7500000000000004 0.85065999627113353 0.97980800271034252 0.86964100599288952 0.89870607852935802 0.99826964735984813 0.6210731863975526 0.930301994085312 0.99312949180603038 88.250000000000014 0.99181950092315685 0.84520044922828685 0.14487756043672564 0.23890246450901034 0.914341300725937 0.99445548653602611 0.8966679871082307 0.89775794744491588 6.7500000000000009 0.23091492056846621 99.500000000000014 0.071563344448804869 0.88432839512825023 162.50000000000003 0.30534200370311743 0.270956501364708 0.84664446115493786
decision_type=2 2 2 2 2 2 2 2 2 2 2 2 2 2 2 2 2 2 2 2 2 2 2 2 2 2 2 2 2 2
left_child=1 2 5 -2 -4 11 7 26 9 -8 16 -1 22 14 -14 17 -11 -16 19 -5 -21 -22 -3 -15 -25 -26 27 28 -7 -29
right_child=3 12 4 18 -6 6 8 -9 -10 10 -12 -13 13 23 15 -17 -18 -19 -20 20 21 -23 -24 24 25 -27 -28 29 -30 -31
leaf_value=0.00076269072943110949 -0.018862715209993691 0.00053854630667575845 -0.086856904798479531 0.028055074878855835 -0.035956249598477867 -0.026540493430484931 -0.0022832191380888693 -0.096019553023294249 0.13860542548654806 0.057874859978226459 -0.008633507853868674 -0.15114248083345502 -0.10561031474351193 -0.13483788961918172 -0.1276078226462338 0.019614919412591941 -0.059505350438665443 -0.021855699976220694 0.041907258045861005 -0.14995400717419269 0.052219954837333715 -0.0033368891574153911 0.014639435119710904 0.065210736060993688 0.010391220576878052 -0.083911992746870265 -0.14243228761515278 -0.10812683261838969 0.054284956475486784 -0.024853982127577015
leaf_weight=1377.7450993683888 144.78516866266727 2029.4654232526664 104.84867592353839 1020.4250261734705 382.3959519599448 133.84744825173402 916.37164943281095 58.868625759147108 8.6196054108440858 13.67259102873504 284.63347253855318 8.1037415117025358 47.190151807153597 7.2319608973339191 24.597516743931919 52.895085630938411 191.18877748236991 41.578992066439241 419.23700940702111 7.6024006130173793 57.944065112620592 341.40837476984598 1167.1177960019559 40.208589632296935 155.90471864747815 23.974874860607088 10.947622165200299 44.814437660621479 46.592907514073886 118.07191442965996
leaf_count=18319 241 15560 13095 5383 15020 10650 21303 3155 19 37 2724 43 2058 115 591 1329 3738 537 1690 62 154 1383 12822 423 3769 678 2625 2252 2657 7080
internal_value=0.000287329 -0.0056983 -0.0143177 0.0222018 -0.0469094 -0.00937599 -0.0163904 -0.0387641 -0.00985545 -0.0107657 -0.0266455 -0.000125574 0.00318655 -0.0171214 -0.0480797 -0.0252793 -0.0516713 -0.0611633 0.0254215 0.0205794 0.00183456 0.00472413 0.00568698 0.00552151 0.0101336 -0.00217779 -0.0292502 -0.0256411 -0.00566993 -0.0477646
internal_weight=9282.29 7290.89 3700.72 1991.4 487.245 3213.48 1827.63 413.143 1414.49 1405.87 489.495 1385.85 3590.17 393.582 166.262 119.072 204.861 66.1765 1846.62 1427.38 406.955 399.352 3196.58 227.32 220.088 179.88 354.274 343.327 180.44 162.886
internal_count=149512 140599 102717 8913 28115 74602 56240 28419 27821 27802 6499 18362 37882 9500 4515 2457 3775 1128 8672 6982 1599 1537 28382 4985 4870 4447 25264 22639 13307 9332
is_linear=0
shrinkage=0.1


Tree=9
num_leaves=31
num_cat=0
split_feature=0 0 4 32 4 0 0 23 22 21 3 18 3 23 23 21 23 3 18 3 50 15 0 0 18 22 22 23 3 15
split_gain=117.3 45.1506 41.9008 19.5174 19.2806 25.7041 18.3199 17.0869 15.6889 16.0102 21.7223 15.2505 14.8913 24.9177 15.2333 14.8754 14.2942 14.0617 13.1271 14.4145 13.8498 13.0559 12.9967 13.036 19.233 11.6125 13.0654 21.9264 14.7506 16.9118
threshold=0.94397050142288219 0.99229949712753307 0.99359747767448436 0.19676491618156436 0.95983049273490917 0.82803252339363109 0.27960300445556646 0.37378457188606268 24.250000000000004 113.50000000000001 0.79754146933555614 0.99999961256980907 0.8005352020263673 0.90701997280120861 0.68972554802894603 108.25000000000001 0.50949406623840343 0.83988872170448314 0.77142575383186351 0.80866247415542614 3.5000000000000004 -0.35306605696678156 0.95327451825141918 0.96523150801658641 0.96871906518936168 58.250000000000007 15.750000000000002 0.8088703751564027 0.88127315044403087 0.7236105501651765
decision_type=2 2 2 2 2 2 2 2 2 2 2 2 2 2 2 2 2 2 2 2 2 2 2 2 2 2 2 2 2 2
left_child=2 7 4 -4 11 6 17 -2 9 15 -11 -1 14 25 16 -9 -7 -6 20 -20 -8 -5 -12 -24 -25 26 28 -28 29 -14
right_child=1 -3 3 21 5 12 18 8 -10 10 22 -13 13 -15 -16 -17 -18 -19 19 -21 -22 -23 23 24 -26 -27 27 -29 -30 -31
leaf_value=0.0067501573682278507 -0.11760917946971919 0.037438480703690172 0.089104376672746816 -0.083743608260346089 0.074173817606135187 0.097740921433991754 0.043251913614667188 0.0070524463475840739 -0.028703963624537955 -0.22205717557938651 -0.19649498707290136 -0.037852298524019591 -0.042567890870447461 -0.20148148390738335 0.050691464588394769 -0.063163760357958385 -0.13190981033508517 -0.026896781782298807 0.14738708119307012 -0.033697794037905453 -0.053200703640241223 -0.039045371149685017 0.098744190968949985 -0.16255956181896253 0.034890069833252588 -0.05053093753782481 0.0020840962945964181 -0.11806653232506942 -0.0060477697668356416 0.0066994955273439296
leaf_weight=800.27806555177085 11.02785657905042 528.38272371422499 10.21646090550348 89.862504263350274 24.088082554284483 3.7949012657627454 15.562952563166617 4714.8406334260362 120.16228448599577 3.2825308465398839 2.359300998505204 84.780833328142762 317.51681700441986 6.8932773638516656 68.939470545388758 30.365698142442852 9.4836733975680527 32.121613547555171 7.247046887176114 11.172734953812322 342.91023896273691 239.53261248627678 31.876288411440328 5.0635498687624922 191.72940248006489 71.3126445193775 801.72948680265108 15.481778019806368 494.41887722746469 89.260840993141755
leaf_count=8560 115 2272 113 10484 214 29 29 32994 4438 86 125 276 3684 121 782 545 378 863 63 946 23218 15281 417 221 2180 8427 26637 451 5180 806
internal_value=0.000655746 0.00960976 -0.0136214 -0.0470176 -0.0100737 -0.0148787 -0.0368402 0.00673262 0.00700151 0.00786313 0.0333805 0.00247764 -0.00981617 -0.0117207 0.0318004 0.00660312 -0.0662776 0.016416 -0.0447828 0.0375479 -0.0490133 -0.0512395 0.0370098 0.039419 0.0298096 -0.0109898 -0.00934886 -0.000192115 -0.0176523 -0.031757
internal_weight=9175.7 5639.09 3536.6 339.612 3196.99 2311.93 433.103 5110.71 5099.68 4979.52 234.311 885.059 1878.83 1796.61 82.218 4745.21 13.2786 56.2097 376.893 18.4198 358.473 329.395 231.029 228.669 196.793 1789.72 1718.41 817.211 901.197 406.778
internal_count=149935 43393 106542 25878 80664 71828 25333 41121 41006 36568 3029 8836 46495 45306 1189 33539 407 1077 24256 1009 23247 25765 2943 2818 2401 45185 36758 27088 9670 4490
is_linear=0
shrinkage=0.1


Tree=10
num_leaves=31
num_cat=0
split_feature=0 8 0 30 3 8 23 24 21 16 24 42 50 50 3 30 50 24 21 5 24 23 3 0 15 0 0 15 15 15
split_gain=116.463 36.6261 29.1078 17.6266 11.5909 10.901 10.5561 15.7472 17.9637 13.1914 10.3689 10.3579 10.3191 17.4309 10.6314 10.1036 9.90878 9.87316 13.8779 11.1493 9.83282 19.4215 13.3504 18.5723 15.2551 13.774 21.5924 15.2987 15.7257 22.3725
threshold=0.93785747885704052 0.9935080111026765 0.97099649906158458 56.250000000000007 0.82107472419738781 0.99893948435783397 0.73555704951286327 0.30361817777156835 9.7500000000000018 0.82337450981140148 0.23933897167444232 0.99999937415122997 91.500000000000014 125.50000000000001 0.077831853181123747 61.250000000000007 77.500000000000014 0.017021585255861286 212.50000000000003 0.23125299811363223 0.22006288915872577 0.79273787140846264 0.82517978549003612 0.90597200393676769 0.53638285398483287 0.3258149921894074 0.76116350293159496 0.82360482215881359 0.87979996204376232 1.0450882911682131
decision_type=2 2 2 2 2 2 2 2 2 2 2 2 2 2 2 2 2 2 2 2 2 2 2 2 2 2 2 2 2 2
left_child=1 3 5 11 -4 6 -2 8 -8 -10 -3 -1 16 15 -15 -14 -5 19 -19 -6 21 -13 23 25 -24 -23 -27 -28 -29 -30
right_child=2 10 4 12 17 -7 7 -9 9 -11 -12 20 13 14 -16 -17 -18 18 -20 -21 -22 22 24 -25 -26 26 27 28 29 -31
leaf_value=-0.088510089422689231 0.0090917146239454082 0.050852672221242567 0.041801948262750271 -0.038467048256831393 -0.26128335650207174 -0.15269885343097531 0.036296528098847224 -0.039462193828696854 -0.14633125184529011 -0.0038536540517446053 -0.053730636429790812 0.15846446349127644 -0.10730905649858953 0.12566618470208313 -0.07134219893719268 0.016648906959116271 -0.13461233744929918 0.011976850355537142 -0.16928156376461781 0.038496788903236989 -0.011948034150161813 0.014575410286482959 0.156054084166525 0.04854915965177134 -0.067591687160428002 -0.1837582693121152 -0.18000232481396247 0.10987338256677542 -0.20012235410586038 0.0090092729175415311
leaf_weight=16.816831384319812 936.53210465214215 9.819167339242993 147.07127004535869 22.203734515700489 1.2496809279546131 4.6497533633373669 116.51590680517256 117.35857893619686 6.5269613089039913 1478.2735689324909 274.47341467079241 8.2996720978990179 7.28024555183947 2.8490619808435431 71.018887259881012 67.923921179026365 20.724242558353581 2949.0852207435528 4.2301054322160772 171.31243125884794 2298.1891508345725 91.352427527890541 3.3187861889600745 88.602971268235706 37.651812410913408 9.736260309815405 5.2908883653581134 9.9813604312948865 6.4546682611107853 24.652746528852731
leaf_count=489 11907 178 745 2537 23 173 393 488 94 16745 25188 59 798 131 10010 7389 2911 16843 171 905 48850 863 5 752 592 160 85 49 126 220
internal_value=-0.000135402 -0.0159237 0.00805213 -0.0124423 0.0143666 0.000282238 0.000550136 -0.0041043 -0.00151296 -0.00447996 -0.0501184 -0.0102834 -0.0416814 -0.0292408 -0.0637437 0.00464898 -0.0848829 0.0130757 0.0117172 0.0363258 -0.00977422 0.00773402 0.00321841 0.0123635 -0.0494755 -0.00937778 -0.0483717 -0.0199507 0.000658714 -0.0343847
internal_weight=9009.45 3076.64 5932.81 2792.35 3272.95 2659.86 2655.21 1718.68 1601.32 1484.8 284.293 2600.35 192 149.072 73.8679 75.2042 42.928 3125.88 2953.32 172.562 2583.53 285.342 277.042 236.071 40.9706 147.468 56.1159 46.3797 41.0888 31.1074
internal_count=149879 101392 48487 76026 18687 29800 29627 17720 17232 16839 25366 52250 23776 18328 10141 8187 5448 17942 17014 928 51761 2911 2852 2255 597 1503 640 480 395 346
is_linear=0
shrinkage=0.1


Tree=11
num_leaves=31
num_cat=0
split_feature=24 50 23 4 23 24 17 9 24 4 23 17 17 17 10 17 0 10 18 10 0 4 3 3 24 24 4 23 9 10
split_gain=89.4074 35.0702 32.1718 28.7484 16.4459 21.9428 17.9715 32.3385 27.8666 28.8788 19.2504 15.4603 23.7536 15.0168 17.6242 14.7913 13.9617 13.1162 24.2183 12.7664 14.0106 22.6699 16.5885 15.278 13.7756 25.5484 16.0708 13.0555 12.5177 11.3901
threshold=0.3296902477741242 125.50000000000001 0.97623750567436229 0.99509099125862133 0.96852871775627147 0.071287408471107497 1.098285496234894 0.47378750145435339 0.035785431042313583 0.99441048502922069 0.96942672133445751 0.87050783634185802 0.8939950466156007 0.88364404439926159 0.10089256986975671 0.85413911938667308 0.99549549818038952 0.13389819860458377 0.99563422799110424 0.20422228425741198 0.91606351733207714 0.98498702049255382 0.92589768767356884 0.8328809142112733 0.3714850395917893 0.34889777004718786 0.95176050066947948 0.58670067787170421 0.6481589972972871 0.11700142547488214
decision_type=2 2 2 2 2 2 2 2 2 2 2 2 2 2 2 2 2 2 2 2 2 2 2 2 2 2 2 2 2 2
left_child=2 3 4 19 5 16 8 10 -6 -10 -8 15 13 14 -13 -4 29 18 -11 20 21 22 24 -22 25 26 -2 -23 -3 -1
right_child=1 28 11 -5 6 -7 7 -9 9 17 -12 12 -14 -15 -16 -17 -18 -19 -20 -21 23 27 -24 -25 -26 -27 -28 -29 -30 -31
leaf_value=0.041062769495214986 -0.089021906540267592 -0.07538382972672579 0.032530608891978029 -0.045744069139381754 0.061585253530586415 0.0033974827142455874 0.067996645436116623 0.051507667217922132 -0.13637352876040201 0.018548904647911757 -0.2158059273712053 0.066228887446611151 0.01870664857543548 -0.14175252401120558 -0.12923230989598042 0.095299103167883842 0.11559372614040005 0.067488365186884655 -0.20798193282737568 -0.032236675838983583 -0.13200929454334934 -0.024197489208068877 -0.097133049296930077 0.0025665948195096903 0.00064282688592310993 -0.15404782926866922 0.074107084417426833 -0.092774099405329213 0.23181936886166704 0.0044806805634733044
leaf_weight=191.12783369491808 10.358948888722809 94.683917005546391 333.57251412607729 209.0630041178083 16.683901975397021 3540.7465629052604 3.3548873532563439 47.83062430517748 42.073046237230301 13.403285382315518 8.310608310159294 12.092144115827979 938.03583943401463 14.840972003992645 7.4583515059202901 42.303529574535787 17.800719569437206 12.828333245590327 7.2842880375683299 195.62313519301824 8.4893833631649596 572.41423980181571 18.51564290560782 1338.8404042137554 1018.7929923995398 16.637154777534306 14.481965088285504 29.176448970567435 1.3452435731887806 153.4418348063482
leaf_count=1495 129 16042 1159 13142 143 37595 16 196 439 59 126 34 4330 75 49 121 51 40 32 1355 100 33937 216 16302 19457 394 193 1266 136 1435
internal_value=0.000904765 -0.0114763 0.00898989 -0.0098087 0.00454033 0.00579615 -0.027756 0.0150982 -0.0553878 -0.0812059 -0.134187 0.0223715 0.015714 -0.0659104 -0.00833793 0.039595 0.0292337 -0.0119532 -0.0612147 -0.00747795 -0.00587827 -0.0119695 -0.00329578 0.00171865 -0.00165709 -0.0581482 0.00608041 -0.0275234 -0.0710803 0.0247722
internal_weight=8931.61 3528.42 5403.19 3432.39 4054.89 3903.12 151.769 59.4961 92.2729 75.589 11.6655 1348.3 972.427 34.3915 19.5505 375.876 362.37 33.5159 20.6876 3223.33 3027.71 1680.38 1078.79 1347.33 1060.27 41.4781 24.8409 601.591 96.0292 344.57
internal_count=150064 102669 47395 86491 41627 40576 1051 338 713 570 142 5768 4488 158 83 1280 2981 131 91 73349 71994 55592 20389 16402 20173 716 322 35203 16178 2930
is_linear=0
shrinkage=0.1


Tree=12
num_leaves=31
num_cat=0
split_feature=0 23 23 4 15 6 6 6 15 0 23 6 0 0 24 21 3 4 4 0 24 15 50 6 21 4 42 24 24 15
split_gain=77.8173 38.5327 24.0531 22.1281 17.2565 16.2371 15.4099 14.9089 12.7823 13.6344 13.1644 17.6018 12.1425 11.8271 11.012 14.6672 15.1521 11.149 14.2897 13.3578 16.5 15.5219 14.9893 10.944 10.8683 26.2173 11.6898 11.119 26.5182 11.7289
threshold=0.93337750434875499 0.95751127600669872 0.76764121651649486 0.99359747767448436 0.77476936578750621 0.013586001470685007 0.022000416181981567 0.043366337195038802 -0.82004350423812855 0.38050200045108801 0.75528195500373851 0.14757579565048221 0.93260851502418529 0.99442401528358471 0.91182103753089916 5.7500000000000009 0.91112843155860912 0.97837498784065258 0.98211300373077404 0.87583899497985851 0.69895216822624218 -0.15871987491846082 7.5000000000000009 0.16735899448394778 6.2500000000000009 0.97321000695228588 1.0000013709068301 0.28132851421833044 0.30019763112068182 0.69776809215545665
decision_type=2 2 2 2 2 2 2 2 2 2 2 2 2 2 2 2 2 2 2 2 2 2 2 2 2 2 2 2 2 2
left_child=2 -2 3 4 5 -1 -7 -3 9 -8 14 -12 -4 -9 15 17 24 19 -19 20 22 -22 -10 -11 25 -17 -27 -26 -29 -30
right_child=1 7 12 -5 -6 6 8 13 10 23 11 -13 -14 -15 -16 16 -18 18 -20 -21 21 -23 -24 -25 27 26 -28 28 29 -31
leaf_value=-0.094161163276175769 0.0016898939490221918 -0.014579623815021113 0.011214109117551252 -0.046641696270164512 -0.17165983902818963 0.046792629017543504 0.0020448822335095112 0.018307521255174788 -0.045897349356739586 -0.04040681836690907 -0.19305599202813217 0.057847886750794691 -0.12629638369236923 0.042194170317232757 0.026969837174482199 0.06519239464206221 0.038722742123653488 -0.14286271319003155 -0.04177660641613324 0.0094329513443095897 0.0066194517060236104 -0.10062942347998159 -0.19321133348020544 -0.16424358226976701 0.044716831830952639 -0.06201303445752452 0.20985393764698781 -0.12894038605662414 -0.012722811641380614 0.08733504350810839
leaf_weight=24.732873354107141 4231.4235517710331 120.21441840939224 400.29544319864362 232.05869296280434 6.9307189476676276 42.709262341726571 86.70322029676754 1368.4866750586079 16.449309229850773 234.43771896546241 8.6191328621935082 4.1385993773583314 6.5262072286568573 244.28681875579059 78.1421719660284 56.632872439455241 68.687531985808164 16.962600565515459 79.645011338638142 93.200872674817219 58.055803227704018 17.581194167491049 11.906665554270147 7.3603871794184661 33.562192628160119 30.461111965589225 1.6682132631540287 19.619005449814722 1120.5507397053298 11.839151331223546
leaf_count=85 44178 343 3605 23482 180 279 1765 6856 63 14764 268 41 88 925 715 321 1648 322 1587 577 617 162 100 328 707 724 4 698 44276 101
internal_value=0.000401662 0.00683371 -0.0134506 -0.0173177 -0.0141238 -0.0136097 -0.0126605 0.0193933 -0.0138954 -0.031977 -0.0104574 -0.111663 0.00900817 0.0219256 -0.00970453 -0.0114554 -0.00702787 -0.0316943 -0.0595256 -0.0180594 -0.0426988 -0.0183097 -0.107754 -0.0441764 -0.00949386 0.0242573 -0.0478972 -0.0120208 -0.0136737 -0.0116767
internal_weight=8733.89 5964.41 2769.48 2362.66 2130.6 2123.67 2098.93 1732.99 2056.22 328.501 1727.72 12.7577 406.822 1612.77 1714.96 1636.82 1343.02 293.801 96.6076 197.194 103.993 75.637 28.356 241.798 1274.33 88.7622 32.1293 1185.57 1152.01 1132.39
internal_count=149809 52302 97507 93814 70332 70152 70067 8124 69788 16857 52931 309 3693 7781 52622 51907 48479 3428 1909 1519 942 779 163 15092 46831 1049 728 45782 45075 44377
is_linear=0
shrinkage=0.1


Tree=13
num_leaves=31
num_cat=0
split_feature=23 23 4 0 3 28 23 4 3 4 5 42 5 28 15 23 15 6 5 15 5 3 0 0 5 6 6 0 15 25
split_gain=79.8861 31.1442 21.7805 20.9927 17.6756 17.2946 16.7718 15.5278 15.1985 13.7147 13.7704 13.2791 13.693 15.7581 29.4884 21.1854 24.4525 17.0331 14.2403 21.664 19.0116 16.6472 13.8763 13.7145 13.2617 12.6974 14.4929 14.4777 13.9447 12.6777
threshold=0.8320889174938203 0.41596460342407232 0.9827370047569276 0.99442401528358471 0.95065629482269298 0.64213106036186229 0.82770040631294262 0.99126300215721141 0.95065629482269298 0.99676048755645763 0.23702449351549151 0.99999991059303295 0.24997550249099734 0.17979992181062701 0.47504037618637091 0.86684396862983715 0.84302362799644481 0.21360415965318683 0.25187100470066076 0.98964962363243114 0.25144399702548986 0.89135530591011058 0.9818595051765443 0.96573099493980419 0.03854350000619889 0.096187531948089613 0.095350231975317015 0.89758548140525829 0.97229361534118663 10.500000000000002
decision_type=2 2 2 2 2 2 2 2 2 2 2 2 2 2 2 2 2 2 2 2 2 2 2 2 2 2 2 2 2 2
left_child=1 2 5 8 6 24 7 -3 11 10 -4 -2 -13 14 -14 16 -16 18 19 20 21 -17 -15 -18 -1 26 -20 -27 -28 -10
right_child=3 4 9 -5 -6 -7 -8 -9 29 -11 -12 12 13 22 15 17 23 -19 25 -21 -22 -23 -24 -25 -26 27 28 -29 -30 -31
leaf_value=0.176512038959656 -0.2074581233736344 -0.00078153379293039154 -0.11325539734494822 0.037352670972659062 0.031633050132372796 -0.0049609210094899662 -0.083462395591861083 -0.015825362370007919 -0.048961648785197959 -0.098152279953208132 -0.029922697132289462 0.021348358159190676 -0.21258595350021531 0.014479627289919082 0.0053904011442491616 0.020133082769867375 -0.11783558174955065 0.086699733338793522 -0.00078959031777395272 -0.21940489881189107 -0.19504555849970562 -0.19330901156841113 0.057330828706536247 -0.032198747411623152 -0.12720408376812756 -0.1008061088837974 -0.02764449918973412 0.01417500157996336 -0.22653375396022676 0.093674354445098015
leaf_weight=1.5668288460001374 2.8266079146414986 2328.6201251586899 20.586127444868907 266.20005008438602 130.65172297693789 491.48458366957493 27.621475473046303 972.7085259508458 68.868843918666244 34.269836026942357 539.62340665480588 757.77902674896177 6.3386944271624079 434.29353685025126 82.936113864881918 38.845601251348853 36.065351561876014 25.785603478550911 938.54657293204218 6.3269993620924643 5.6530868220143011 4.0335404356010249 91.489685785025358 38.840408291202039 17.442653437610716 11.053219131426884 9.858915130607782 1182.4103319996502 5.4873226685449472 6.851282835006713
leaf_count=29 49 34159 3304 1092 468 11714 522 27146 205 5290 38947 6688 57 1863 1062 346 871 65 5253 126 93 61 307 558 872 148 95 8280 73 23
internal_value=-6.22729e-05 -0.0091155 -0.0237314 0.0102161 -0.00444728 -0.00858076 -0.00586332 -0.00521407 0.00829197 -0.0367416 -0.0329849 0.00920483 0.00937144 0.0062611 0.00281588 0.00338816 -0.0320152 0.00589629 0.00495017 -0.0453601 -0.0226705 5.50848e-05 0.021936 -0.0734309 -0.102171 0.00623546 -0.00236575 0.0131101 -0.0987609 -0.0360557
internal_weight=8585.07 4564.58 1104.97 4020.49 3459.6 510.494 3328.95 3301.33 3754.29 594.479 560.21 3678.57 3675.74 2917.96 2392.18 2385.84 157.842 2228 2202.22 54.8592 48.5322 42.8791 525.783 74.9058 19.0095 2147.36 953.893 1193.46 15.3462 75.7201
internal_count=149766 122451 60156 27315 62295 12615 61827 61305 26223 47541 42251 25995 25946 19258 17088 17031 2491 14540 14475 626 500 407 2170 1429 901 13849 5421 8428 168 228
is_linear=0
shrinkage=0.1


end of trees

feature_importances:
Column_0=55
Column_4=38
Column_15=37
Column_3=35
Column_23=35
Column_24=35
Column_16=23
Column_21=22
Column_6=21
Column_1=12
Column_5=12
Column_50=12
Column_17=11
Column_8=10
Column_22=10
Column_10=9
Column_7=6
Column_9=6
Column_12=5
Column_28=5
Column_18=4
Column_11=3
Column_42=3
Column_27=2
Column_30=2
Column_48=2
Column_25=1
Column_26=1
Column_31=1
Column_32=1
Column_46=1

parameters:
[boosting: gbdt]
[objective: lambdarank]
[metric: ndcg]
[tree_learner: serial]
[device_type: cpu]
[data_sample_strategy: bagging]
[data: ]
[valid: ]
[num_iterations: 10000]
[learning_rate: 0.1]
[num_leaves: 31]
[num_threads: 0]
[seed: 42]
[deterministic: 0]
[force_col_wise: 0]
[force_row_wise: 0]
[histogram_pool_size: -1]
[max_depth: -1]
[min_data_in_leaf: 20]
[min_sum_hessian_in_leaf: 0.001]
[bagging_fraction: 0.8]
[pos_bagging_fraction: 1]
[neg_bagging_fraction: 1]
[bagging_freq: 1]
[bagging_seed: 400]
[bagging_by_query: 0]
[feature_fraction: 0.8]
[feature_fraction_bynode: 1]
[feature_fraction_seed: 30056]
[extra_trees: 0]
[extra_seed: 12879]
[early_stopping_round: 0]
[early_stopping_min_delta: 0]
[first_metric_only: 0]
[max_delta_step: 0]
[lambda_l1: 0]
[lambda_l2: 0]
[linear_lambda: 0]
[min_gain_to_split: 0]
[drop_rate: 0.1]
[max_drop: 50]
[skip_drop: 0.5]
[xgboost_dart_mode: 0]
[uniform_drop: 0]
[drop_seed: 17869]
[top_rate: 0.2]
[other_rate: 0.1]
[min_data_per_group: 100]
[max_cat_threshold: 32]
[cat_l2: 10]
[cat_smooth: 10]
[max_cat_to_onehot: 4]
[top_k: 20]
[monotone_constraints: ]
[monotone_constraints_method: basic]
[monotone_penalty: 0]
[feature_contri: ]
[forcedsplits_filename: ]
[refit_decay_rate: 0.9]
[cegb_tradeoff: 1]
[cegb_penalty_split: 0]
[cegb_penalty_feature_lazy: ]
[cegb_penalty_feature_coupled: ]
[path_smooth: 0]
[interaction_constraints: ]
[verbosity: -1]
[saved_feature_importance_type: 0]
[use_quantized_grad: 0]
[num_grad_quant_bins: 4]
[quant_train_renew_leaf: 0]
[stochastic_rounding: 1]
[linear_tree: 0]
[max_bin: 1024]
[max_bin_by_feature: ]
[min_data_in_bin: 3]
[bin_construct_sample_cnt: 200000]
[data_random_seed: 175]
[is_enable_sparse: 1]
[enable_bundle: 1]
[use_missing: 1]
[zero_as_missing: 0]
[feature_pre_filter: 1]
[pre_partition: 0]
[two_round: 0]
[header: 0]
[label_column: ]
[weight_column: ]
[group_column: ]
[ignore_column: ]
[categorical_feature: ]
[forcedbins_filename: ]
[precise_float_parser: 0]
[parser_config_file: ]
[objective_seed: 16083]
[num_class: 1]
[is_unbalance: 0]
[scale_pos_weight: 1]
[sigmoid: 1]
[boost_from_average: 1]
[reg_sqrt: 0]
[alpha: 0.9]
[fair_c: 1]
[poisson_max_delta_step: 0.7]
[tweedie_variance_power: 1.5]
[lambdarank_truncation_level: 30]
[lambdarank_norm: 1]
[label_gain: ]
[lambdarank_position_bias_regularization: 0]
[eval_at: 5,10]
[multi_error_top_k: 1]
[auc_mu_weights: ]
[num_machines: 1]
[local_listen_port: 12400]
[time_out: 120]
[machine_list_filename: ]
[machines: ]
[gpu_platform_id: -1]
[gpu_device_id: -1]
[gpu_use_dp: 0]
[num_gpu: 1]

end of parameters

pandas_categorical:null
